<?xml version="1.0"?>
<opencv_storage>
<my_svm type_id="opencv-ml-svm">
  <svm_type>C_SVC</svm_type>
  <kernel><type>LINEAR</type></kernel>
  <C>2.5000000000000000e+000</C>
  <term_criteria><epsilon>1.1920928955078125e-007</epsilon>
    <iterations>1000</iterations></term_criteria>
  <var_all>270</var_all>
  <var_count>270</var_count>
  <class_count>2</class_count>
  <class_labels type_id="opencv-matrix">
    <rows>1</rows>
    <cols>2</cols>
    <dt>i</dt>
    <data>
      0 1</data></class_labels>
  <sv_total>1</sv_total>
  <support_vectors>
    <_>
      2.06077725e-001 -1.11023955e-001 -2.75163740e-001 -3.13038886e-001
      4.18787897e-002 4.22303798e-003 1.48125306e-001 1.79878607e-001
      1.87398702e-001 3.28478247e-001 -8.53583217e-002 -2.24997073e-001
      -2.08800197e-001 -1.04148380e-001 -1.88574970e-001
      -8.38803798e-002 4.26699556e-002 2.34793916e-001 -7.20328614e-002
      -2.23671675e-001 -7.76303113e-002 -5.46506941e-002 1.06455125e-001
      6.26178924e-003 6.00907169e-002 -1.22984424e-001 -1.63843471e-003
      8.58867317e-002 -2.04802766e-001 6.91166371e-002 -1.35430723e-001
      -2.35312376e-002 -6.14502579e-002 -6.89471066e-002
      -4.63825949e-002 8.90112668e-002 2.01970935e-001 1.26669079e-001
      1.06496252e-001 -3.44844982e-002 -1.30012751e-001 -8.08893144e-003
      -1.33326277e-001 -6.13511018e-002 1.81989118e-001 1.93085805e-001
      -6.85610482e-003 -1.91039130e-001 -1.53286770e-001 2.54306644e-002
      -2.89478272e-001 -2.56218553e-001 3.45667340e-002 2.40509093e-001
      1.28269076e-001 6.27951026e-002 -4.40265089e-002 -8.69244859e-002
      -5.53835072e-002 -2.44480059e-001 -2.96579242e-001
      -1.22086436e-001 9.12355557e-002 2.19819754e-001 5.85898124e-002
      1.41409174e-001 2.53848974e-002 1.33553192e-001 -1.23802811e-001
      -1.70402363e-001 -1.96331263e-001 3.89746316e-002 -9.29467753e-002
      -2.94792175e-001 4.42583337e-002 -3.67721058e-002 6.64855093e-002
      5.68976672e-003 2.00276729e-002 7.05534443e-002 -1.41520321e-001
      -4.07347418e-002 -1.52529031e-001 6.17770944e-004 1.25218943e-001
      1.29358262e-001 1.36985540e-001 2.57472247e-001 1.34413898e-001
      -1.53304294e-001 4.79690693e-002 -2.05809310e-001 -3.39242220e-001
      -2.05669269e-001 -2.69127507e-002 -2.14699596e-001
      -8.38470459e-002 4.30444144e-002 1.51793778e-001 6.93727359e-002
      -1.34587243e-001 -6.21175766e-003 -2.50018120e-001 2.88204919e-003
      -1.33487716e-001 7.58719966e-002 1.21796377e-001 2.82380223e-001
      1.93739757e-001 6.91156536e-002 1.32398978e-001 -2.17932507e-001
      -7.76168406e-002 -1.66633241e-002 -3.48667540e-002
      -3.13445628e-002 4.38072719e-002 1.08338997e-001 6.45410269e-002
      7.09821805e-002 -2.14725360e-001 -1.16628066e-001 2.99172271e-002
      2.08319426e-001 2.30523229e-001 6.17172755e-002 -1.26719058e-001
      1.42710218e-002 -4.79729995e-002 9.22282860e-002 1.92314729e-001
      2.23310381e-001 1.81875333e-001 4.03071120e-002 -1.79641634e-001
      -1.20532215e-001 1.99905872e-001 -2.57304199e-002 8.22822899e-002
      1.84336990e-001 1.84655324e-001 6.24965988e-002 3.86379398e-002
      -2.89604366e-001 9.16211382e-002 6.75512180e-002 9.16902348e-003
      -2.92264313e-001 -7.91776180e-002 -1.04625914e-002 9.06402767e-002
      1.27886862e-001 6.38062805e-002 6.84291944e-002 1.12054080e-001
      -2.86184121e-002 -2.49415994e-001 -6.46312833e-002
      -4.91695292e-002 1.65194973e-001 -7.86055624e-002 -1.07004590e-001
      9.24552307e-002 -1.30125090e-001 -9.30030942e-002 -2.77092739e-004
      -1.68678284e-001 -1.50695994e-001 1.85381010e-001 1.93104059e-001
      2.06325084e-001 1.44800276e-001 -1.31343335e-001 -1.26845419e-001
      4.12491001e-002 -9.92737189e-002 -3.81077603e-002 1.26083329e-001
      1.70916975e-001 3.05484980e-001 8.14255849e-002 2.21091300e-001
      -4.33528945e-002 2.03988627e-002 2.87930638e-001 -1.73851009e-002
      -1.02819771e-001 -8.58090445e-002 -2.09455177e-001
      -4.00633924e-002 -4.43929769e-002 -1.34457663e-001 1.38124106e-002
      4.50269520e-001 1.85582757e-001 1.42731398e-001 -2.24117398e-001
      -1.82113454e-001 1.53776541e-001 3.36362645e-002 3.99384797e-002
      1.95670035e-002 5.58597445e-002 2.97675058e-002 2.09742263e-002
      -9.03925747e-002 -6.42348733e-003 1.29601970e-001 2.31140610e-002
      -1.06011294e-001 -1.00742884e-001 1.09772287e-001 -7.04875290e-002
      -8.69041979e-002 -1.78601414e-001 -1.87960416e-002 1.49050355e-001
      1.66655350e-002 -3.87727208e-002 -2.15390831e-001 5.41143604e-002
      3.31102908e-002 -1.20884947e-001 -2.16727898e-001 5.70992529e-002
      2.10974980e-002 -7.23060966e-003 8.32912978e-003 -1.09364815e-001
      2.54515201e-001 1.41252607e-001 -1.75033674e-001 -5.25643110e-001
      -2.65837908e-001 6.79645538e-002 -1.70902744e-001 -1.32906616e-001
      -1.44653574e-001 3.40517372e-001 5.56975305e-002 7.70466262e-003
      -1.21819831e-001 1.63952246e-001 -1.60846815e-001 -8.03715661e-002
      -2.98934914e-002 -4.39631008e-002 2.68187433e-001 -4.12910506e-002
      3.65874823e-003 3.59179527e-002 -8.02981630e-002 4.44089435e-002
      -1.02755629e-001 -7.44601041e-002 -1.05793692e-001 1.35450708e-002
      5.73722683e-002 2.02397387e-002 -8.82028118e-002 2.34764572e-002
      -6.03634156e-002 -2.16254398e-001 -2.99529098e-002
      -1.52252644e-001 1.73643023e-001 9.35431570e-002 1.17753640e-001
      1.85995176e-003 7.34907994e-003</_></support_vectors>
  <decision_functions>
    <_>
      <sv_count>1</sv_count>
      <rho>-1.4362734124643814e+000</rho>
      <alpha>
        1.</alpha>
      <index>
        0</index></_></decision_functions></my_svm>
</opencv_storage>
