<?xml version="1.0"?>
<opencv_storage>
<my_svm type_id="opencv-ml-svm">
  <svm_type>C_SVC</svm_type>
  <kernel><type>LINEAR</type></kernel>
  <C>1.0000000000000001e-001</C>
  <term_criteria><epsilon>1.1920928955078125e-007</epsilon>
    <iterations>1000</iterations></term_criteria>
  <var_all>270</var_all>
  <var_count>270</var_count>
  <class_count>2</class_count>
  <class_labels type_id="opencv-matrix">
    <rows>1</rows>
    <cols>2</cols>
    <dt>i</dt>
    <data>
      0 1</data></class_labels>
  <sv_total>1</sv_total>
  <support_vectors>
    <_>
      8.35881382e-002 -5.44139259e-002 -2.03064650e-001 -2.36104697e-001
      -1.65053792e-002 2.78821588e-002 8.96827653e-002 8.93082991e-002
      1.22302189e-001 2.26931557e-001 4.69747521e-002 -8.65381658e-002
      -1.58252224e-001 -8.49035159e-002 -1.49586201e-001
      -2.38469262e-002 -1.78544375e-003 1.73522010e-001 -1.23398118e-001
      -1.14984214e-001 -2.47064885e-002 3.89799438e-002 1.06883228e-001
      2.80789360e-002 -5.64195961e-003 -9.50826779e-002 -5.75474910e-002
      3.05359513e-002 -9.41382572e-002 8.92958720e-004 -5.24181947e-002
      5.03946841e-002 -3.86344194e-002 1.90374311e-002 -3.96613553e-002
      4.20479029e-002 1.17617674e-001 9.09866840e-002 7.61520043e-002
      1.21168420e-002 -7.20607936e-002 -1.24924406e-001 -1.05101094e-001
      -1.27202854e-001 1.11170299e-001 1.51496366e-001 2.48044785e-002
      -3.60906348e-002 -8.97664651e-002 -4.00915258e-002
      -1.87281892e-001 -1.30785987e-001 -3.03150248e-002 1.52011558e-001
      1.06987163e-001 6.49772659e-002 5.80639404e-004 -3.06007322e-002
      -2.18403023e-002 -1.25107393e-001 -1.19625792e-001
      -9.51277614e-002 5.85337095e-002 1.60118937e-001 6.35152161e-002
      9.13914889e-002 3.80550697e-003 3.50954682e-002 -1.09270200e-001
      -4.61974591e-002 -6.10910393e-002 4.32047099e-002 -9.07940194e-002
      -1.03735663e-001 -1.44482134e-002 -3.00303521e-003 9.48663130e-002
      -3.77837308e-002 8.79096705e-003 -1.06995041e-003 -9.00340974e-002
      -9.50926468e-002 -9.11639631e-002 2.51453035e-002 6.82892278e-002
      1.72810834e-002 6.46663969e-003 6.87243193e-002 9.87223536e-002
      -5.59286103e-002 3.80133502e-002 -1.49527892e-001 -2.05404550e-001
      -1.47209391e-001 -4.52947654e-002 -9.53307599e-002
      -4.97775245e-003 6.34279624e-002 1.06438063e-001 1.07521489e-001
      -2.98192427e-002 -1.96697488e-002 -1.36634663e-001 3.46853444e-003
      -9.99675170e-002 4.57510464e-002 1.24303140e-001 2.02538058e-001
      1.39380723e-001 6.45686910e-002 8.35286677e-002 -2.39484478e-002
      -1.42392293e-001 -1.50769517e-001 2.16671582e-002 3.81405428e-002
      7.86640421e-002 1.20813005e-001 5.81095889e-002 6.00173287e-002
      -1.88094050e-001 -1.13728642e-001 -5.48636504e-002 1.08242728e-001
      1.24375813e-001 1.16938189e-001 -1.02558881e-001 -2.95062345e-002
      2.69285613e-003 7.13530323e-003 6.00077286e-002 9.34738889e-002
      1.14902437e-001 4.85354699e-002 -1.11271106e-001 -6.80197701e-002
      7.59305656e-002 8.01598132e-002 4.81362976e-002 1.22435674e-001
      5.86113147e-002 5.46008945e-002 -5.11394218e-002 -1.80520877e-001
      1.22741416e-001 7.89021477e-002 3.39928940e-002 -1.31457448e-001
      -1.60786346e-001 -7.69915804e-002 7.51287043e-002 8.63318145e-002
      1.27931908e-001 8.57558623e-002 6.24636337e-002 5.93062192e-002
      -3.40289809e-002 -9.49071571e-002 -1.14588447e-001 3.71719785e-002
      -1.92487370e-002 7.07931370e-002 7.56741390e-002 -8.25403184e-002
      -7.42438212e-002 -6.65087700e-002 -1.02991417e-001
      -6.36404157e-002 9.50600952e-002 9.34816450e-002 1.62362278e-001
      8.77213031e-002 -5.89551851e-002 -9.87617895e-002 4.85629449e-003
      -9.03901681e-002 -9.16051939e-002 1.22327782e-001 7.15209618e-002
      1.98239282e-001 -2.74620932e-002 4.89600748e-002 7.57349059e-002
      5.18887863e-002 1.41826794e-001 3.51077616e-002 -4.47773635e-002
      -1.45710573e-001 -1.05053812e-001 -4.34928238e-002
      -5.89960814e-002 -4.07158993e-002 3.00194509e-002 2.12636515e-001
      8.41536373e-002 2.84212194e-002 -1.33603245e-001 -5.10055907e-002
      8.01955760e-002 1.74543373e-002 4.72612418e-002 7.17932209e-002
      -1.32754138e-002 -6.16330989e-002 -3.84366848e-002
      -4.30094115e-002 3.07339765e-002 1.11889519e-001 2.56600603e-002
      -7.14084134e-002 -6.24081644e-004 -2.73448694e-002
      -1.14471301e-001 -3.51321213e-002 -4.80578914e-002 4.31691855e-002
      9.90539715e-002 2.78711896e-002 1.40330950e-002 -3.98536213e-002
      -3.06491796e-002 -2.01642662e-002 -1.89374313e-002
      -9.38543901e-002 5.93611635e-002 4.02239263e-002 5.22561632e-002
      6.72586560e-002 9.42885578e-002 1.05521016e-001 1.00484453e-002
      -9.32429284e-002 -2.30736941e-001 -1.31035626e-001
      -4.78383265e-002 -6.55770153e-002 -7.37905055e-002
      -8.18780363e-002 1.17455147e-001 4.03860882e-002 -4.47630370e-003
      -9.49011818e-002 5.60090691e-002 -1.35222018e-001 -3.30484770e-002
      1.05122868e-002 -3.11415433e-003 2.25821272e-001 5.41466959e-002
      -4.11767373e-003 -3.75816524e-002 -7.87215456e-002 9.92536917e-002
      -1.29576763e-002 -3.43905366e-003 -4.68403511e-002
      -8.13561007e-002 -4.20639738e-002 -1.62284111e-003
      -2.47845743e-002 4.26416844e-002 1.17768636e-002 -9.64768678e-002
      -3.85007188e-002 -7.39542022e-002 7.74868159e-003 3.44294086e-002
      7.63819814e-002 -3.39861726e-003 3.11426055e-002</_></support_vectors>
  <decision_functions>
    <_>
      <sv_count>1</sv_count>
      <rho>-1.0867256717373295e+000</rho>
      <alpha>
        1.</alpha>
      <index>
        0</index></_></decision_functions></my_svm>
</opencv_storage>
