<?xml version="1.0"?>
<opencv_storage>
<my_svm type_id="opencv-ml-svm">
  <svm_type>C_SVC</svm_type>
  <kernel><type>LINEAR</type></kernel>
  <C>5.0000000000000000e-001</C>
  <term_criteria><epsilon>1.1920928955078125e-007</epsilon>
    <iterations>1000</iterations></term_criteria>
  <var_all>270</var_all>
  <var_count>270</var_count>
  <class_count>2</class_count>
  <class_labels type_id="opencv-matrix">
    <rows>1</rows>
    <cols>2</cols>
    <dt>i</dt>
    <data>
      0 1</data></class_labels>
  <sv_total>1</sv_total>
  <support_vectors>
    <_>
      1.92341775e-001 -7.65985250e-002 -2.58251429e-001 -3.14506769e-001
      5.02528250e-003 4.64821560e-003 1.37798488e-001 1.69343576e-001
      1.86280847e-001 3.07946235e-001 -4.71383855e-002 -1.78886592e-001
      -1.95898265e-001 -1.22896343e-001 -1.60021424e-001
      -6.52647913e-002 3.21007110e-002 2.14966252e-001 -8.81157592e-002
      -2.15452343e-001 -5.18171415e-002 -5.73585676e-005 1.20030098e-001
      2.30655670e-002 2.08908692e-002 -1.39230385e-001 -3.29902358e-002
      5.44576570e-002 -1.90301567e-001 5.71110919e-002 -1.04915015e-001
      5.71265025e-003 -2.17984486e-002 -6.42682984e-002 -5.92669584e-002
      6.31698668e-002 1.69311211e-001 9.81724188e-002 9.74343941e-002
      -1.09618809e-002 -9.24233124e-002 -3.13797779e-002
      -1.25204802e-001 -7.93255344e-002 1.66847467e-001 1.74556687e-001
      5.11573348e-003 -1.37603939e-001 -8.78434107e-002 1.21278479e-003
      -2.83742636e-001 -2.32331753e-001 -1.81136071e-004 2.13993087e-001
      1.18429996e-001 7.14505240e-002 -2.39141416e-002 -5.69766946e-002
      -7.36277625e-002 -2.10283861e-001 -2.68662840e-001
      -1.08366206e-001 9.76588577e-002 2.30548576e-001 7.14730918e-002
      1.67764753e-001 5.50933369e-002 1.03860311e-001 -1.31107137e-001
      -1.43477291e-001 -1.62205860e-001 6.84879646e-002 -1.05782546e-001
      -2.58525163e-001 1.10836606e-002 -1.47547992e-002 1.00116365e-001
      -7.93726929e-003 -1.12745371e-002 4.25242893e-002 -1.51248142e-001
      -7.47864917e-002 -1.56441152e-001 3.63637283e-002 1.62560284e-001
      1.38420001e-001 1.06768094e-001 2.27629319e-001 1.38008729e-001
      -1.52693599e-001 4.82780263e-002 -1.69002846e-001 -3.35171193e-001
      -1.85467973e-001 -3.66645269e-002 -1.67029813e-001
      -6.62610680e-002 5.09445742e-002 1.40842751e-001 9.65508074e-002
      -6.82661459e-002 -4.18021157e-002 -2.60978788e-001
      -1.02706254e-002 -8.78417641e-002 7.29693025e-002 1.25053465e-001
      2.71340758e-001 1.99988782e-001 8.34901035e-002 1.44403294e-001
      -1.33186564e-001 -1.02601804e-001 -4.60637249e-002
      -1.46087147e-002 -1.57508757e-002 5.63524254e-002 1.08501777e-001
      8.14704448e-002 1.18282579e-001 -1.92008018e-001 -1.42207623e-001
      6.38759509e-003 1.96428388e-001 2.24131957e-001 6.59752041e-002
      -1.19578242e-001 1.03615280e-002 -1.91339776e-002 8.22855234e-002
      1.67476401e-001 2.09925145e-001 1.90441534e-001 5.43245710e-002
      -1.81072399e-001 -1.36081293e-001 2.00314686e-001 1.48079777e-002
      8.65255222e-002 1.93089634e-001 1.63463637e-001 5.69465272e-002
      2.05413047e-002 -3.08174312e-001 1.08714879e-001 9.22406316e-002
      -4.23323782e-003 -2.69661427e-001 -1.16902255e-001
      -1.55373127e-003 9.43337530e-002 1.15533076e-001 9.24787521e-002
      7.06473514e-002 1.33044884e-001 1.50845852e-002 -1.72481149e-001
      -7.99812526e-002 -9.04471129e-002 1.33134097e-001 -7.63686299e-002
      -6.04424141e-002 9.26437080e-002 -1.18729711e-001 -7.51296505e-002
      1.52514307e-002 -1.69326663e-001 -1.69807091e-001 1.68084100e-001
      1.96469948e-001 2.14775324e-001 1.51855886e-001 -1.08302973e-001
      -1.27038211e-001 6.04497604e-002 -1.11654885e-001 -8.73490945e-002
      1.04000397e-001 1.54010922e-001 2.95739740e-001 5.26620932e-002
      2.10942939e-001 1.02066630e-002 4.72641997e-002 2.57745266e-001
      -1.38512133e-002 -1.24858484e-001 -1.28034249e-001
      -1.83970392e-001 -6.15839325e-002 -5.26243374e-002
      -1.30691782e-001 1.87445432e-002 4.15839195e-001 1.53217956e-001
      9.81957391e-002 -2.55431831e-001 -1.62891269e-001 1.45984590e-001
      4.29539829e-002 7.24085122e-002 7.10843354e-002 5.30524105e-002
      -7.83194136e-003 -1.29954182e-002 -9.75888819e-002 7.09313992e-003
      1.15475975e-001 1.97261348e-002 -8.81029069e-002 -4.83464561e-002
      8.96058977e-002 -7.84559026e-002 -8.66642222e-002 -1.80768639e-001
      -2.08770167e-002 1.58513755e-001 2.92053968e-002 -3.82677615e-002
      -1.60898894e-001 3.46948951e-002 2.53690612e-002 -1.15682781e-001
      -2.09172755e-001 6.13506474e-002 2.22823117e-002 3.67780961e-003
      8.03306419e-003 -5.64459190e-002 2.25332201e-001 1.35115594e-001
      -1.52351975e-001 -4.87839669e-001 -2.54442275e-001 2.17018533e-003
      -1.67342305e-001 -1.13227814e-001 -1.27207220e-001 3.17278743e-001
      5.94270416e-002 3.58319678e-003 -1.55727893e-001 1.13552906e-001
      -1.66690513e-001 -7.44785815e-002 2.74957158e-003 -3.47912163e-002
      2.76816458e-001 7.44845951e-003 1.43438263e-003 1.16447825e-003
      -9.32431445e-002 4.09503058e-002 -9.83124599e-002 -5.90140559e-002
      -9.12179947e-002 -1.95147581e-002 7.09144771e-002 8.96749273e-003
      -9.21829119e-002 2.30081435e-002 -3.67775597e-002 -1.89916998e-001
      -2.45572198e-002 -1.43009111e-001 1.25184745e-001 1.22702435e-001
      1.04585007e-001 -1.46952579e-002 1.26395104e-002</_></support_vectors>
  <decision_functions>
    <_>
      <sv_count>1</sv_count>
      <rho>-1.4585706940910794e+000</rho>
      <alpha>
        1.</alpha>
      <index>
        0</index></_></decision_functions></my_svm>
</opencv_storage>
