<?xml version="1.0"?>
<opencv_storage>
<my_svm type_id="opencv-ml-svm">
  <svm_type>C_SVC</svm_type>
  <kernel><type>LINEAR</type></kernel>
  <C>1.0000000000000001e-001</C>
  <term_criteria><epsilon>1.1920928955078125e-007</epsilon>
    <iterations>1000</iterations></term_criteria>
  <var_all>324</var_all>
  <var_count>324</var_count>
  <class_count>2</class_count>
  <class_labels type_id="opencv-matrix">
    <rows>1</rows>
    <cols>2</cols>
    <dt>i</dt>
    <data>
      0 1</data></class_labels>
  <sv_total>1</sv_total>
  <support_vectors>
    <_>
      1.56036898e-001 -1.55410200e-001 -2.01866969e-001 4.14274186e-002
      6.94726706e-002 4.65383753e-002 6.28277734e-002 7.09838569e-002
      1.21663362e-001 7.31278434e-002 -1.64729469e-002 -2.04167292e-001
      -6.82259426e-002 -5.51613281e-003 2.17053033e-002 4.86485809e-002
      4.98296209e-002 1.07196525e-001 7.82412142e-002 -2.24886537e-001
      -2.71874666e-001 -9.86494496e-002 1.25687107e-001 1.20658636e-001
      4.06613201e-002 6.79099038e-002 1.53325468e-001 1.22529693e-001
      -4.00939435e-002 -9.35682282e-002 -5.86220697e-002 4.66423184e-002
      3.42046581e-002 5.45608578e-003 3.03352084e-002 1.17306061e-001
      6.92724856e-003 6.97051510e-002 -6.36906028e-002 -6.82732835e-002
      -6.67658150e-002 -3.82032208e-002 -4.55160718e-003 2.07766537e-002
      -2.27734968e-002 1.50575921e-001 1.68935046e-001 5.93921281e-002
      3.84022444e-002 -7.74628818e-002 -1.84293881e-001 -2.11851209e-001
      -1.05937749e-001 -3.74147631e-002 6.98328465e-002 7.32415840e-002
      -5.12451082e-002 -2.26342697e-002 -6.47475719e-002
      -7.19183385e-002 1.16215441e-002 3.70402820e-002 1.14437707e-001
      1.41274124e-001 1.09327652e-001 1.11195538e-002 4.78796922e-002
      -1.58648528e-002 -1.43218711e-001 -1.40580505e-001
      -1.93535462e-002 3.69007923e-002 2.15092018e-001 1.11557007e-001
      7.01970458e-002 8.37866142e-002 1.06217514e-003 -5.64414524e-002
      -2.54340291e-001 -1.62821770e-001 -8.33874047e-002 1.94156289e-001
      1.27943471e-001 1.40295029e-001 1.18830226e-001 8.28565732e-002
      -1.19834971e-002 -3.01721066e-001 -1.46937102e-001
      -5.95533811e-002 4.30338643e-002 1.03374705e-001 7.56448135e-002
      8.74492824e-002 6.01874851e-002 1.44489827e-002 -2.03338295e-001
      -2.50614360e-002 -7.31144054e-003 2.15250137e-003 1.94987506e-001
      1.68845043e-001 2.12656215e-001 1.46948785e-001 -7.68440813e-002
      -2.93781132e-001 -5.76776154e-002 4.03338484e-002 2.39075683e-002
      -5.97934909e-002 -1.29885927e-001 -1.26589000e-001
      -3.76855955e-002 2.65170522e-002 -3.86675261e-002 1.66915301e-002
      5.94513267e-002 5.82416505e-002 1.35351382e-002 1.81127824e-002
      -7.63457417e-002 -7.28994459e-002 -7.00188205e-002
      -6.26587644e-002 2.41685249e-002 5.79076223e-002 3.81255820e-002
      6.19256757e-002 7.89657310e-002 9.50866863e-002 -8.64683464e-002
      -1.49970844e-001 -5.56673743e-002 -8.72979015e-002
      -1.47175556e-002 7.43101090e-002 8.60797614e-002 1.55985788e-001
      2.14912985e-002 -9.33349654e-002 -2.01558098e-001 -8.49207193e-002
      -3.82880718e-002 2.19196803e-003 4.72889692e-002 2.18127109e-002
      5.54234348e-002 -1.36239314e-002 -8.53878036e-002 -7.84353465e-002
      -2.42070481e-003 3.55904326e-002 7.10110217e-002 1.31019233e-002
      3.94776687e-002 9.54635814e-002 1.94141995e-002 -5.31869046e-002
      -7.16326460e-002 -6.74846023e-002 -1.08613139e-002 1.03373881e-002
      9.56162512e-002 6.90407827e-002 1.30511776e-001 -3.20903733e-002
      -8.12360048e-002 -1.25160113e-001 -4.79309559e-002
      -2.53595915e-002 -2.74991523e-002 5.67354448e-002 -8.64330977e-002
      -4.05426919e-002 -1.18163815e-002 1.21157449e-002 4.48282920e-002
      -1.40990047e-002 2.72303261e-002 -5.72508201e-002 -5.24675176e-002
      5.78021109e-002 5.38130589e-002 4.91915084e-002 -8.24092235e-003
      -1.21752685e-002 -1.86048061e-001 -4.19442961e-003
      -4.51702997e-002 -6.16904087e-002 2.63639372e-002 5.48340641e-002
      1.80467650e-001 1.82503257e-002 -1.19063795e-001 -2.52490491e-001
      3.45796533e-002 6.63018879e-003 -6.80198073e-002 -1.09015085e-001
      -5.09467162e-002 3.11759431e-002 6.05070293e-002 7.51647875e-002
      -3.63552049e-002 4.68738116e-002 -5.29397875e-002 4.06734087e-002
      1.09812282e-002 -1.28183188e-003 1.42601892e-001 8.39142874e-002
      6.09575920e-002 3.59109230e-002 9.33900848e-002 1.46967163e-002
      5.96003681e-002 4.65553366e-002 3.99092138e-002 1.34020954e-001
      4.31154817e-002 -1.50818124e-001 -1.81441188e-001 -1.20096996e-001
      5.35494834e-002 1.07319340e-001 8.15097243e-002 5.38924746e-002
      1.01222783e-001 1.68098267e-002 -1.16695330e-001 -8.84555429e-002
      -1.16753303e-001 2.13976875e-002 1.85226664e-001 8.34599063e-002
      6.94932938e-002 1.57387525e-001 5.72885796e-002 -1.63378790e-001
      -3.25934887e-001 -2.37415254e-001 1.69544891e-001 2.95434535e-001
      1.90200031e-001 6.92697614e-002 1.96215525e-001 7.86449537e-002
      -7.73894489e-002 -1.47447035e-001 -2.14115113e-001 2.32258309e-002
      6.89294487e-002 6.43628910e-002 4.43876982e-002 3.01109371e-003
      -6.06745332e-002 -5.05361371e-002 -8.62532035e-002
      -8.73161629e-002 -3.65096107e-002 2.56805439e-002 -7.61494488e-002
      -5.57822622e-002 -5.39904572e-002 3.33092362e-002 1.42641645e-002
      -1.63426735e-002 3.33166751e-003 -3.77073735e-002 1.90925866e-001
      1.06870249e-001 4.45638895e-002 8.55093673e-002 -2.20268257e-002
      -4.56461944e-002 -7.82874152e-002 -1.21429555e-001
      -1.40921131e-001 6.12106398e-002 4.76668179e-002 -1.11054583e-002
      -5.34441024e-002 5.25335632e-002 5.18498719e-002 5.09985760e-002
      1.12468628e-002 -1.26223579e-001 -7.37349540e-002 -1.35690719e-001
      -1.25087142e-001 -3.67803015e-002 3.56901325e-002 5.01857772e-002
      2.41782572e-002 5.45808896e-002 1.14228874e-002 -7.66682029e-002
      -1.17870867e-001 -2.02913493e-001 2.50498429e-002 1.73717126e-001
      1.22337490e-001 1.39574826e-001 7.24396631e-002 -5.26285060e-002
      -7.60266231e-003 -1.58792377e-001 -1.69140488e-001
      -2.09366437e-002 2.33074185e-002 1.07788809e-001 7.67055154e-002
      1.04977414e-001 7.36823753e-002 1.73312910e-002 -2.16749892e-001
      -2.14010328e-001 7.24725202e-002 1.69069335e-001 1.91567838e-001
      1.33366734e-001 1.07279420e-001 2.28628423e-003</_></support_vectors>
  <decision_functions>
    <_>
      <sv_count>1</sv_count>
      <rho>-5.7395781820671121e-001</rho>
      <alpha>
        1.</alpha>
      <index>
        0</index></_></decision_functions></my_svm>
</opencv_storage>
