<?xml version="1.0"?>
<opencv_storage>
<my_svm type_id="opencv-ml-svm">
  <svm_type>C_SVC</svm_type>
  <kernel><type>LINEAR</type></kernel>
  <C>1.0000000000000001e-001</C>
  <term_criteria><epsilon>1.1920928955078125e-007</epsilon>
    <iterations>1000</iterations></term_criteria>
  <var_all>324</var_all>
  <var_count>324</var_count>
  <class_count>2</class_count>
  <class_labels type_id="opencv-matrix">
    <rows>1</rows>
    <cols>2</cols>
    <dt>i</dt>
    <data>
      0 1</data></class_labels>
  <sv_total>1</sv_total>
  <support_vectors>
    <_>
      1.56036884e-001 -1.55410200e-001 -2.01866969e-001 4.14274074e-002
      6.94726929e-002 4.65383753e-002 6.28277808e-002 7.09838569e-002
      1.21663369e-001 7.31278360e-002 -1.64729375e-002 -2.04167292e-001
      -6.82259202e-002 -5.51611278e-003 2.17052996e-002 4.86485884e-002
      4.98296283e-002 1.07196525e-001 7.82411993e-002 -2.24886507e-001
      -2.71874696e-001 -9.86494794e-002 1.25687122e-001 1.20658644e-001
      4.06613164e-002 6.79099038e-002 1.53325468e-001 1.22529693e-001
      -4.00939249e-002 -9.35682580e-002 -5.86220473e-002 4.66422997e-002
      3.42046395e-002 5.45608625e-003 3.03352214e-002 1.17306046e-001
      6.92723831e-003 6.97051361e-002 -6.36906177e-002 -6.82732761e-002
      -6.67658150e-002 -3.82032134e-002 -4.55159927e-003 2.07766555e-002
      -2.27734707e-002 1.50575906e-001 1.68935061e-001 5.93921281e-002
      3.84022370e-002 -7.74629042e-002 -1.84293836e-001 -2.11851209e-001
      -1.05937727e-001 -3.74147631e-002 6.98328540e-002 7.32415617e-002
      -5.12451008e-002 -2.26342455e-002 -6.47476166e-002
      -7.19183758e-002 1.16215432e-002 3.70402820e-002 1.14437707e-001
      1.41274124e-001 1.09327637e-001 1.11195529e-002 4.78796884e-002
      -1.58648808e-002 -1.43218726e-001 -1.40580520e-001
      -1.93535332e-002 3.69007885e-002 2.15092018e-001 1.11557022e-001
      7.01970384e-002 8.37866068e-002 1.06217340e-003 -5.64414263e-002
      -2.54340291e-001 -1.62821755e-001 -8.33874196e-002 1.94156289e-001
      1.27943456e-001 1.40295029e-001 1.18830234e-001 8.28565806e-002
      -1.19835045e-002 -3.01721036e-001 -1.46937117e-001
      -5.95533922e-002 4.30338718e-002 1.03374720e-001 7.56448135e-002
      8.74492750e-002 6.01874851e-002 1.44489827e-002 -2.03338310e-001
      -2.50614304e-002 -7.31143868e-003 2.15247856e-003 1.94987506e-001
      1.68845028e-001 2.12656215e-001 1.46948799e-001 -7.68441036e-002
      -2.93781132e-001 -5.76775894e-002 4.03338559e-002 2.39075460e-002
      -5.97934760e-002 -1.29885927e-001 -1.26589030e-001
      -3.76855955e-002 2.65170615e-002 -3.86675149e-002 1.66915245e-002
      5.94513267e-002 5.82416579e-002 1.35351392e-002 1.81127973e-002
      -7.63457268e-002 -7.28994608e-002 -7.00188354e-002
      -6.26587495e-002 2.41685063e-002 5.79076186e-002 3.81255858e-002
      6.19256832e-002 7.89657235e-002 9.50867012e-002 -8.64683390e-002
      -1.49970874e-001 -5.56673892e-002 -8.72978941e-002
      -1.47175556e-002 7.43101016e-002 8.60797539e-002 1.55985773e-001
      2.14912836e-002 -9.33349207e-002 -2.01558113e-001 -8.49207267e-002
      -3.82880606e-002 2.19198549e-003 4.72889803e-002 2.18127258e-002
      5.54234460e-002 -1.36239165e-002 -8.53878185e-002 -7.84353763e-002
      -2.42070341e-003 3.55904326e-002 7.10110217e-002 1.31019307e-002
      3.94776613e-002 9.54635814e-002 1.94141939e-002 -5.31869344e-002
      -7.16326162e-002 -6.74846098e-002 -1.08612999e-002 1.03373993e-002
      9.56162512e-002 6.90407678e-002 1.30511761e-001 -3.20903733e-002
      -8.12359825e-002 -1.25160113e-001 -4.79309522e-002
      -2.53596101e-002 -2.74991486e-002 5.67354336e-002 -8.64330903e-002
      -4.05427217e-002 -1.18163088e-002 1.21157393e-002 4.48283106e-002
      -1.40989944e-002 2.72303168e-002 -5.72508126e-002 -5.24675101e-002
      5.78021333e-002 5.38130589e-002 4.91915084e-002 -8.24092794e-003
      -1.21752499e-002 -1.86048046e-001 -4.19445103e-003
      -4.51702848e-002 -6.16904162e-002 2.63639558e-002 5.48340529e-002
      1.80467650e-001 1.82503425e-002 -1.19063802e-001 -2.52490520e-001
      3.45796384e-002 6.63022231e-003 -6.80198073e-002 -1.09015055e-001
      -5.09467274e-002 3.11760008e-002 6.05069995e-002 7.51648247e-002
      -3.63552012e-002 4.68737707e-002 -5.29397875e-002 4.06733826e-002
      1.09812459e-002 -1.28183013e-003 1.42601907e-001 8.39142576e-002
      6.09576069e-002 3.59109007e-002 9.33900476e-002 1.46967284e-002
      5.96003756e-002 4.65553291e-002 3.99092101e-002 1.34020954e-001
      4.31154855e-002 -1.50818139e-001 -1.81441188e-001 -1.20097004e-001
      5.35494797e-002 1.07319333e-001 8.15097094e-002 5.38924783e-002
      1.01222783e-001 1.68098286e-002 -1.16695344e-001 -8.84555280e-002
      -1.16753310e-001 2.13977005e-002 1.85226664e-001 8.34598839e-002
      6.94932863e-002 1.57387510e-001 5.72885796e-002 -1.63378760e-001
      -3.25934857e-001 -2.37415224e-001 1.69544905e-001 2.95434535e-001
      1.90200031e-001 6.92697465e-002 1.96215540e-001 7.86449611e-002
      -7.73894787e-002 -1.47447020e-001 -2.14115113e-001 2.32258551e-002
      6.89294562e-002 6.43628836e-002 4.43876982e-002 3.01110512e-003
      -6.06745295e-002 -5.05361594e-002 -8.62531886e-002
      -8.73161629e-002 -3.65096033e-002 2.56805625e-002 -7.61494339e-002
      -5.57822809e-002 -5.39904162e-002 3.33092250e-002 1.42641198e-002
      -1.63426697e-002 3.33168730e-003 -3.77073623e-002 1.90925896e-001
      1.06870264e-001 4.45638895e-002 8.55093524e-002 -2.20268220e-002
      -4.56462055e-002 -7.82874003e-002 -1.21429577e-001
      -1.40921146e-001 6.12106845e-002 4.76668067e-002 -1.11054555e-002
      -5.34440838e-002 5.25335632e-002 5.18498681e-002 5.09985983e-002
      1.12468889e-002 -1.26223594e-001 -7.37349465e-002 -1.35690689e-001
      -1.25087157e-001 -3.67802791e-002 3.56901400e-002 5.01857586e-002
      2.41782591e-002 5.45808896e-002 1.14228902e-002 -7.66681880e-002
      -1.17870860e-001 -2.02913478e-001 2.50498392e-002 1.73717082e-001
      1.22337490e-001 1.39574811e-001 7.24396557e-002 -5.26285097e-002
      -7.60265533e-003 -1.58792377e-001 -1.69140503e-001
      -2.09366214e-002 2.33074352e-002 1.07788809e-001 7.67055303e-002
      1.04977414e-001 7.36823827e-002 1.73312854e-002 -2.16749817e-001
      -2.14010343e-001 7.24725053e-002 1.69069335e-001 1.91567838e-001
      1.33366734e-001 1.07279412e-001 2.28625932e-003</_></support_vectors>
  <decision_functions>
    <_>
      <sv_count>1</sv_count>
      <rho>-5.7395776800048726e-001</rho>
      <alpha>
        1.</alpha>
      <index>
        0</index></_></decision_functions></my_svm>
</opencv_storage>
