<?xml version="1.0"?>
<opencv_storage>
<my_svm type_id="opencv-ml-svm">
  <svm_type>C_SVC</svm_type>
  <kernel><type>LINEAR</type></kernel>
  <C>1.0000000000000001e-001</C>
  <term_criteria><epsilon>1.1920928955078125e-007</epsilon>
    <iterations>1000</iterations></term_criteria>
  <var_all>270</var_all>
  <var_count>270</var_count>
  <class_count>2</class_count>
  <class_labels type_id="opencv-matrix">
    <rows>1</rows>
    <cols>2</cols>
    <dt>i</dt>
    <data>
      0 1</data></class_labels>
  <sv_total>1</sv_total>
  <support_vectors>
    <_>
      -1.00712456e-001 -3.35073143e-001 -3.05007786e-001
      -9.40583125e-002 1.46223038e-001 9.19166803e-002 5.30859828e-002
      -7.30021000e-002 -1.91316810e-002 -9.80070513e-003
      -9.29786488e-002 -1.96709651e-002 1.34422794e-001 1.96952999e-001
      9.99316350e-002 -1.74372315e-001 -1.48233071e-001 -3.27728651e-002
      -1.01781301e-001 -1.17905684e-001 1.38108535e-002 1.42451480e-001
      1.38678864e-001 -7.48963356e-002 -1.67307600e-001 -2.84055293e-001
      -1.18688777e-001 -1.70680076e-001 -1.47436470e-001
      -4.78559062e-002 2.22638756e-001 1.67131513e-001 4.28853650e-003
      -2.83598322e-002 -1.64766796e-003 -1.34948760e-001
      -2.65512347e-001 -4.70036447e-001 -2.12167799e-001 1.76936388e-001
      3.92681211e-002 -1.81230623e-002 2.92435829e-002 -3.75350602e-002
      -1.71360493e-001 -1.40585244e-001 -2.24817142e-001
      -1.37190208e-001 4.09188829e-002 4.44937050e-002 1.16702355e-001
      1.96196400e-002 -5.56790531e-002 -1.04466811e-001 -3.80654112e-002
      1.11330403e-002 -2.75655836e-001 1.86764088e-003 2.18238067e-002
      4.62634042e-002 -2.69779973e-002 -1.95742771e-003 -1.35128990e-001
      -4.92352061e-002 -1.96700141e-001 -1.86384007e-001
      -2.73412168e-002 1.48884967e-001 1.11682400e-001 1.82176933e-001
      3.76947299e-002 -3.25732082e-002 -1.05243519e-001 -2.72652149e-001
      -9.79894400e-002 1.68561965e-001 2.53523618e-001 1.11749575e-001
      7.67011642e-002 -3.75905447e-002 -1.03259571e-001 -5.41619211e-002
      -1.75119117e-001 1.85949713e-001 1.59405679e-001 2.65455157e-001
      -5.90996929e-002 -2.64767855e-001 -1.95410430e-001
      -6.73092678e-002 2.16477826e-001 -3.15376534e-003 -1.70505550e-002
      -4.11513209e-001 -3.02324325e-001 -2.24554971e-001
      -1.38390899e-001 8.26134011e-002 2.19136193e-001 1.22527175e-001
      9.58395451e-002 1.42903365e-002 -2.11754546e-001 -1.77598938e-001
      -1.29927576e-001 -1.15355343e-001 -3.11059374e-002 1.04144029e-001
      1.12205684e-001 1.82780236e-001 1.03637815e-001 -3.36755335e-001
      -3.14849526e-001 -2.12647825e-001 2.07233027e-001 1.03600711e-001
      6.22308552e-002 2.06585348e-001 1.84858501e-001 1.74665019e-001
      -2.15077713e-001 -8.88153464e-002 -1.52691454e-001 1.58457026e-001
      1.91355601e-001 1.26701355e-001 2.03194574e-001 2.07035631e-001
      1.30731300e-001 -1.15766346e-001 -2.31200501e-001 -2.98826009e-001
      1.09213956e-001 1.09599777e-001 1.61865950e-001 2.82431483e-001
      2.04491898e-001 5.40849902e-002 -2.25321934e-001 -2.75462925e-001
      -1.44424394e-001 1.72360361e-001 1.52101323e-001 2.05551013e-001
      1.46474004e-001 6.68127239e-002 5.07809371e-002 -2.54497707e-001
      -2.50062644e-001 -3.19633991e-001 4.25163172e-002 2.99692582e-002
      1.79442510e-001 1.80429861e-001 4.91397716e-002 -3.85776302e-003
      -7.57250562e-002 -1.01444244e-001 -3.23396564e-001 4.63270880e-002
      4.35556471e-002 2.34347641e-001 1.81625977e-001 9.13535580e-002
      -9.89742428e-002 -1.70404404e-001 -2.21446097e-001
      -3.21472257e-001 -2.74712872e-002 -2.07852782e-003 2.21534774e-001
      2.99579948e-001 2.88437456e-001 -3.79026718e-002 -2.67216206e-001
      -2.70356208e-001 -3.22566926e-001 4.13587689e-002 2.42907941e-001
      2.96661586e-001 -1.83834016e-001 -2.28998244e-001 5.57003133e-002
      2.84694254e-001 2.36357182e-001 1.95734456e-001 -3.25640678e-001
      -4.29203302e-001 -3.23335201e-001 -6.20394498e-002
      -9.18961093e-002 -1.45114437e-001 1.44422606e-001 2.70796895e-001
      2.04890609e-001 1.44323567e-002 -6.83209375e-002 1.30508719e-002
      6.58317283e-002 1.81294195e-002 -1.92450181e-001 -6.58764169e-002
      5.84511235e-002 1.47078156e-001 2.00391263e-001 2.15986501e-002
      -1.51312929e-002 6.45488203e-002 1.03452809e-001 -5.85026965e-002
      5.47663569e-002 4.20871451e-002 9.86469835e-002 1.10439479e-001
      -4.36508320e-002 -7.48931617e-002 -1.63983405e-001
      -5.59606813e-002 2.12256634e-003 -3.67458127e-002 1.42103404e-001
      3.13338563e-002 -8.90055299e-002 -1.69822961e-001 -1.45106718e-001
      -1.18407510e-001 -1.01996146e-001 5.55182341e-003 1.33375689e-001
      2.95886606e-001 -2.10581236e-002 -1.92555949e-001 -3.32944900e-001
      -1.38760149e-001 -1.22731216e-001 -1.01193838e-001 3.28368880e-002
      5.92650697e-002 4.02994424e-001 1.12363854e-002 -1.72008649e-001
      -3.85989435e-002 5.14995605e-002 1.53419122e-001 1.59332708e-001
      2.52819002e-001 2.26692110e-001 7.71967098e-002 -1.23523183e-001
      -9.58465785e-002 -1.17894590e-001 1.07431442e-001 -1.62029803e-001
      -3.76321934e-002 1.18209034e-001 3.02921444e-001 2.89044797e-001
      -5.10360347e-003 -1.08107157e-001 -1.29005656e-001
      -2.21393108e-001 -1.24386266e-001 -2.89738476e-001
      -3.38062167e-001 -8.92767608e-002 1.35450125e-001 7.26568773e-002
      -2.39886623e-002 2.08224431e-002 -1.66770592e-002</_></support_vectors>
  <decision_functions>
    <_>
      <sv_count>1</sv_count>
      <rho>-2.1655329307632671e+000</rho>
      <alpha>
        1.</alpha>
      <index>
        0</index></_></decision_functions></my_svm>
</opencv_storage>
