<?xml version="1.0"?>
<opencv_storage>
<my_svm type_id="opencv-ml-svm">
  <svm_type>C_SVC</svm_type>
  <kernel><type>LINEAR</type></kernel>
  <C>5.0000000000000000e-001</C>
  <term_criteria><epsilon>1.1920928955078125e-007</epsilon>
    <iterations>1000</iterations></term_criteria>
  <var_all>270</var_all>
  <var_count>270</var_count>
  <class_count>2</class_count>
  <class_labels type_id="opencv-matrix">
    <rows>1</rows>
    <cols>2</cols>
    <dt>i</dt>
    <data>
      0 1</data></class_labels>
  <sv_total>1</sv_total>
  <support_vectors>
    <_>
      3.74963321e-002 -5.29565036e-001 -4.75011140e-001 2.83233784e-002
      2.00648606e-001 3.90977412e-002 -2.77636908e-002 -5.47232106e-002
      7.79756308e-002 2.90459067e-001 -1.05811775e-001 2.34070912e-001
      2.68301219e-001 2.24958599e-001 1.28885150e-001 -7.90350512e-002
      1.04921097e-002 5.85056283e-002 -2.57954031e-001 -2.08962783e-001
      2.71563679e-001 2.79189795e-001 1.34076074e-001 1.74360126e-001
      -2.03985855e-001 -2.30124950e-001 2.71556107e-003 -2.34657466e-001
      -5.71779348e-002 -4.56525199e-002 4.15745497e-001 2.05090553e-001
      1.69064745e-001 -1.73631027e-001 1.46263719e-001 -1.80170387e-001
      -3.43452066e-001 -6.07004106e-001 -3.87807727e-001 4.46528882e-001
      -4.94844615e-002 -3.29487436e-002 6.02262989e-002 -5.81095405e-002
      -3.31132859e-001 -1.26446381e-001 -3.23131263e-001
      -1.90872923e-001 1.72281325e-001 2.30751764e-002 2.73298204e-001
      -4.56589200e-002 -2.09049761e-001 -1.66209191e-001 2.68207788e-002
      1.23087563e-001 -4.91888970e-001 1.16489634e-001 6.94582472e-003
      -4.21543233e-002 -1.69936165e-001 -1.40019432e-001
      -2.31887504e-001 -5.93489632e-002 -3.63160342e-001
      -9.82083604e-002 -6.07094690e-002 2.65812755e-001 5.85914478e-002
      2.72699088e-001 -1.05269186e-001 -2.03780532e-001 3.09714396e-003
      -3.43800813e-001 -5.83924353e-003 1.70328215e-001 2.47853324e-001
      1.50649175e-001 -1.51661001e-002 -4.55283211e-004 -5.36319464e-002
      1.30610995e-003 -7.43933469e-002 3.85245651e-001 1.14024915e-001
      5.25200486e-001 -1.32629117e-002 -4.52705413e-001 -3.40548873e-001
      -6.58906922e-002 9.60918441e-002 1.16409492e-002 -1.15951598e-001
      -9.13110375e-001 -4.02248800e-001 -2.98830569e-001
      -1.44104376e-001 1.64640099e-001 3.03347677e-001 5.94363548e-002
      8.06869343e-002 -2.46385723e-001 -1.27437174e-001 -1.23072967e-001
      -7.47608691e-002 -4.16594476e-001 -3.76056254e-001 8.18485096e-002
      2.63711512e-001 3.14200491e-001 -6.93286443e-003 -4.60984230e-001
      -2.77624458e-001 -2.10656777e-001 3.96825314e-001 1.01286903e-001
      -6.91322312e-002 2.11250946e-001 1.33271933e-001 1.56512558e-001
      -3.12340081e-001 1.01415394e-003 -2.38080606e-001 3.30401480e-001
      1.52910680e-001 5.79555370e-002 3.05641264e-001 2.04714850e-001
      1.00104257e-001 1.67153284e-001 -6.04834020e-001 -3.73430461e-001
      2.04056632e-002 9.74738672e-002 2.70875692e-001 5.29657722e-001
      1.03179485e-001 -2.09770575e-002 -3.09805721e-001 -3.53423864e-001
      -2.03777403e-001 4.65016007e-001 2.55111814e-001 2.69207448e-001
      1.52691543e-001 -8.76842365e-002 -1.79591238e-001 -3.74769032e-001
      -6.22379661e-001 -4.87334132e-001 1.74518600e-001 -3.30318026e-002
      1.01597749e-001 1.97793037e-001 -6.05965406e-002 -2.36947075e-001
      5.74814864e-002 -1.71338767e-001 -7.68958032e-001 -1.60079926e-001
      -8.91882926e-002 2.14343995e-001 1.71821132e-001 1.05801485e-001
      -2.76233792e-001 -1.26937419e-001 -1.68478534e-001
      -7.40449071e-001 -2.49959752e-001 -1.83467016e-001 1.05657347e-001
      3.93449545e-001 2.29805201e-001 -1.45989254e-001 -1.82083741e-001
      -9.94586721e-002 -5.23123324e-001 7.37377256e-002 2.00871393e-001
      2.58643895e-001 -4.53088045e-001 -5.73514938e-001 4.13646959e-002
      5.47026932e-001 4.49425966e-001 4.63697612e-001 -3.52875113e-001
      -7.20150113e-001 -5.20815134e-001 1.76149905e-001 -4.06685993e-002
      -3.43695998e-001 3.60101432e-001 3.70368451e-001 3.65674824e-001
      -1.62516981e-002 -2.49177471e-001 2.07308963e-001 4.21535283e-001
      2.50872433e-001 -2.13020176e-001 -5.17111607e-002 6.08507432e-002
      2.82559305e-001 7.87044093e-002 2.11720780e-001 7.56878108e-002
      9.67207700e-002 -6.51961192e-002 -4.57822531e-002 2.03849047e-001
      -1.21214546e-001 1.74734890e-001 1.70432448e-001 -1.22688137e-001
      -3.32474381e-001 -3.72352153e-001 -1.51957914e-001 8.78555104e-002
      -1.93516105e-001 1.01563521e-001 2.13791370e-001 -1.10270172e-001
      -1.91078618e-001 -5.52917831e-002 1.16338484e-001 -2.18330115e-001
      9.14166048e-002 1.77650049e-001 6.37926757e-001 1.33669361e-001
      -4.33420241e-001 -4.63482499e-001 -3.04766774e-001
      -1.70281455e-001 -4.51675132e-002 4.16949354e-002 -1.07878111e-001
      5.74418664e-001 1.67491540e-001 -1.81984022e-001 1.20428786e-001
      1.49428174e-001 2.51256853e-001 1.42306149e-001 6.40046716e-001
      4.11646992e-001 1.53717482e-002 -1.41559139e-001 -1.20798275e-001
      -3.08677167e-001 1.14426881e-001 -3.35770816e-001 -2.40658000e-001
      2.16655895e-001 4.15826052e-001 3.30119938e-001 -3.64265451e-003
      -2.85387099e-001 -2.08476290e-001 -2.02823341e-001
      -2.41404459e-001 -6.27984762e-001 -6.55185461e-001
      -2.89746851e-001 5.93426600e-002 7.92478994e-002 -2.50528663e-001
      -5.27649149e-002 4.33606096e-003</_></support_vectors>
  <decision_functions>
    <_>
      <sv_count>1</sv_count>
      <rho>-3.1243611294454294e+000</rho>
      <alpha>
        1.</alpha>
      <index>
        0</index></_></decision_functions></my_svm>
</opencv_storage>
