<?xml version="1.0"?>
<opencv_storage>
<my_svm type_id="opencv-ml-svm">
  <svm_type>C_SVC</svm_type>
  <kernel><type>LINEAR</type></kernel>
  <C>5.0000000000000000e-001</C>
  <term_criteria><epsilon>1.1920928955078125e-007</epsilon>
    <iterations>1000</iterations></term_criteria>
  <var_all>270</var_all>
  <var_count>270</var_count>
  <class_count>2</class_count>
  <class_labels type_id="opencv-matrix">
    <rows>1</rows>
    <cols>2</cols>
    <dt>i</dt>
    <data>
      0 1</data></class_labels>
  <sv_total>1</sv_total>
  <support_vectors>
    <_>
      6.02512099e-002 -5.86875141e-001 -4.46837604e-001 1.13940379e-002
      1.85068250e-001 2.49152482e-002 -1.98021512e-002 -8.08549896e-002
      7.26922899e-002 2.62931526e-001 -1.36535168e-001 2.89282233e-001
      2.60284573e-001 2.87900120e-001 1.75942600e-001 -8.36055949e-002
      -7.97629654e-002 2.32725460e-002 -2.74356008e-001 -2.98234224e-001
      2.73171395e-001 2.56784946e-001 8.43644589e-002 1.97324947e-001
      -2.30932713e-001 -2.12301224e-001 4.54841591e-002 -2.27364674e-001
      -4.31834348e-002 -1.91862937e-002 3.67499232e-001 1.97808877e-001
      2.20142677e-001 -1.53993696e-001 9.18954760e-002 -2.38443345e-001
      -2.75019139e-001 -5.72457373e-001 -2.48411998e-001 4.86344904e-001
      -5.03198616e-002 4.60660644e-003 -1.05526764e-002 7.01983052e-004
      -2.90759563e-001 -7.26864710e-002 -3.34029973e-001
      -1.39299259e-001 1.52399465e-001 -3.53798568e-002 3.20747077e-001
      1.13648211e-003 -2.32865974e-001 -1.32550403e-001 4.42969948e-002
      5.79582304e-002 -4.32775646e-001 1.38408706e-001 3.27597670e-002
      7.72443600e-003 -1.29271701e-001 -1.07252762e-001 -2.57935941e-001
      -6.29986003e-002 -2.66892314e-001 -1.52418427e-002
      -2.23164354e-002 2.87075430e-001 1.55214205e-001 2.69612074e-001
      -1.01735383e-001 -1.71026066e-001 5.02611743e-003 -2.50169516e-001
      -4.63034362e-002 1.53606892e-001 1.89064160e-001 1.92494377e-001
      8.25207233e-002 4.07044701e-002 -8.09461102e-002 -2.06886791e-002
      -5.67806624e-002 3.73800904e-001 1.44478947e-001 5.37874281e-001
      3.92948873e-002 -4.45658237e-001 -4.26000983e-001 -2.47484576e-002
      1.27765983e-001 -9.40269455e-002 -1.38587594e-001 -9.42662239e-001
      -4.53489333e-001 -3.29975247e-001 -1.66973785e-001 7.93840364e-002
      3.71722460e-001 3.91215384e-002 8.46033171e-002 -1.31544396e-001
      -2.20355988e-001 -1.60837576e-001 -7.61834607e-002
      -3.91385078e-001 -4.11836118e-001 1.92319959e-001 2.61194587e-001
      3.69259208e-001 7.67143145e-002 -4.67529893e-001 -2.60283560e-001
      -1.92878500e-001 2.77045131e-001 -1.62263811e-002 -2.56886687e-002
      2.71450520e-001 1.06105842e-001 1.70952782e-001 -3.62565517e-001
      2.37520356e-002 -3.12312603e-001 2.37074137e-001 1.64725512e-001
      1.15788572e-001 3.80573332e-001 2.52011389e-001 3.32625583e-002
      2.21898660e-001 -5.31130850e-001 -4.17520463e-001 1.17446005e-001
      3.57465595e-002 1.97839454e-001 5.32883883e-001 1.26616836e-001
      -3.66139524e-002 -2.19934613e-001 -2.91631728e-001
      -6.63957521e-002 5.69663942e-001 2.18869761e-001 2.57428557e-001
      6.45157844e-002 -9.51125026e-002 -1.56041831e-001 -3.63029361e-001
      -5.15315950e-001 -3.98079783e-001 1.93800673e-001 -9.97633208e-003
      1.52102455e-001 1.68675035e-001 5.74184693e-002 -2.21276522e-001
      -1.32197682e-002 -1.46106213e-001 -7.23774910e-001
      -1.76889777e-001 -5.65087050e-002 2.09645957e-001 1.55632406e-001
      2.22131088e-001 -2.93429524e-001 -1.50135800e-001 -1.44890502e-001
      -6.48988187e-001 -2.59036720e-001 -1.15266956e-001 1.16614088e-001
      3.39542210e-001 2.04734191e-001 -1.47190407e-001 -3.48114669e-001
      -7.94919953e-002 -3.80718619e-001 -3.91618907e-003 1.76183075e-001
      2.71114796e-001 -4.00735289e-001 -5.59730172e-001 3.55011113e-002
      5.70323408e-001 3.73180419e-001 3.70087057e-001 -3.39770228e-001
      -7.33913958e-001 -5.18087804e-001 1.52636290e-001 -3.82833965e-002
      -3.58462602e-001 3.85009855e-001 3.62950981e-001 3.72747660e-001
      4.69748005e-002 -1.69430330e-001 1.99090570e-001 4.50906187e-001
      3.93669605e-001 -2.56655633e-001 -7.74572045e-002 9.26079080e-002
      2.89215118e-001 8.65197778e-002 3.01821619e-001 9.12229866e-002
      1.73193607e-002 -1.32634435e-002 -8.40714350e-002 2.47567371e-001
      -7.59523064e-002 2.00386241e-001 2.05776945e-001 -6.07304871e-002
      -3.81994456e-001 -3.61770838e-001 -1.76047325e-001 4.44488451e-002
      -2.23130643e-001 1.18597887e-001 2.85064667e-001 -2.09009036e-001
      -3.52344900e-001 -7.35082924e-002 8.17736015e-002 -2.68605888e-001
      2.54605226e-002 1.30433232e-001 6.20020270e-001 6.56239837e-002
      -4.98114586e-001 -5.15425563e-001 -3.30772609e-001
      -1.44873112e-001 -1.29325939e-002 9.55664087e-003 -1.36288524e-001
      6.60398424e-001 1.65332362e-001 -2.13241696e-001 1.21108688e-001
      8.62156898e-002 3.35760236e-001 1.07368954e-001 6.14322543e-001
      2.85335213e-001 3.42682526e-002 -1.45844087e-001 -1.49970859e-001
      -3.22467536e-001 1.07316174e-001 -3.36161256e-001 -1.74322739e-001
      1.88541651e-001 3.30810994e-001 3.39614689e-001 1.57248462e-003
      -3.75164658e-001 -2.17654124e-001 -2.19195709e-001
      -2.34587371e-001 -6.77863657e-001 -7.45542645e-001
      -2.89359480e-001 1.78258061e-001 1.30654931e-001 -2.44516343e-001
      2.35860534e-002 -1.07733754e-003</_></support_vectors>
  <decision_functions>
    <_>
      <sv_count>1</sv_count>
      <rho>-2.9069498138595042e+000</rho>
      <alpha>
        1.</alpha>
      <index>
        0</index></_></decision_functions></my_svm>
</opencv_storage>
