<?xml version="1.0"?>
<opencv_storage>
<my_svm type_id="opencv-ml-svm">
  <svm_type>C_SVC</svm_type>
  <kernel><type>LINEAR</type></kernel>
  <C>1.0000000000000000e-002</C>
  <term_criteria><epsilon>1.1920928955078125e-007</epsilon>
    <iterations>1000</iterations></term_criteria>
  <var_all>1620</var_all>
  <var_count>1620</var_count>
  <class_count>2</class_count>
  <class_labels type_id="opencv-matrix">
    <rows>1</rows>
    <cols>2</cols>
    <dt>i</dt>
    <data>
      0 1</data></class_labels>
  <sv_total>1</sv_total>
  <support_vectors>
    <_>
      5.45471208e-004 -3.08716530e-003 -2.61235284e-003 -1.48058205e-003
      2.45296326e-003 4.13744058e-003 -8.72511358e-004 -1.27295521e-003
      7.04050181e-004 -1.16712716e-003 2.53322930e-003 4.99412767e-004
      -2.98949610e-003 9.87081221e-005 1.78356678e-003 -9.36348981e-004
      -3.15906690e-003 -7.12630339e-004 4.66084282e-004 4.42013261e-004
      7.61176227e-004 -9.25353903e-004 2.25360878e-003 3.31449555e-003
      -1.69201067e-003 -1.20444887e-003 -1.34911027e-003
      -2.21530162e-003 1.48897560e-003 6.07951370e-004 -7.75588909e-003
      -5.33570163e-003 -1.09934574e-003 -2.30963156e-003
      -2.71997950e-003 -3.90995154e-003 1.29244628e-003 6.56590099e-003
      1.80180930e-003 -2.48683081e-003 -2.72360136e-004 3.25270201e-004
      -1.95395609e-004 -2.88629904e-003 -9.77760210e-005 2.28767795e-003
      4.82414057e-003 1.03787046e-004 -6.09214301e-004 2.16945447e-003
      1.00846530e-003 -1.51378941e-003 -2.46081618e-003 -2.72853556e-003
      -9.91267036e-004 3.94965196e-003 2.25170096e-003 -2.26410944e-003
      -3.69369285e-003 -1.61934341e-003 -4.05113271e-004
      -4.53765457e-003 -3.22878268e-003 3.78046738e-004 4.54363134e-003
      3.29892081e-003 4.56503680e-004 -5.73823985e-004 -6.22724474e-006
      2.20962591e-003 -2.27802992e-003 -4.00940888e-003 -7.85254349e-004
      3.95674631e-003 2.10085011e-004 -3.42147221e-004 1.18538260e-003
      6.17078447e-004 -1.51473319e-003 -9.09060589e-004 -3.91186262e-003
      -2.31380248e-003 4.19993140e-003 3.33475135e-003 4.79692564e-004
      3.71711166e-003 2.37613427e-003 1.79611053e-003 2.29737535e-003
      -2.38174689e-003 -3.34839197e-003 3.46145965e-003 2.59906694e-004
      7.47323327e-004 1.38063857e-003 1.54859526e-003 2.15348462e-003
      1.48662052e-003 -5.11095161e-003 -6.27246359e-003 4.74764593e-003
      3.17144045e-003 2.53160484e-003 5.17985784e-003 3.94059857e-003
      3.96493077e-003 4.93072765e-003 -4.27211681e-003 -4.36608167e-003
      6.42363564e-004 1.51628768e-003 5.90692915e-004 2.08087335e-003
      1.38505490e-003 3.00164381e-003 5.34520252e-003 -2.34894833e-004
      -4.76207305e-003 1.19721277e-004 1.10657525e-003 1.76083785e-003
      2.81731552e-003 1.24039210e-003 3.63851222e-003 4.87201288e-003
      -2.15995475e-003 -7.54246116e-003 3.31168366e-003 2.99188332e-003
      2.52260501e-003 3.16961971e-003 2.88159540e-003 3.48021626e-003
      6.87947124e-003 -4.65027895e-003 -8.55369959e-003 3.28810513e-003
      2.83338502e-003 2.99605215e-003 4.73536365e-003 3.53030511e-003
      5.37462160e-003 6.87005231e-003 -6.78698253e-003 -5.16586704e-003
      2.23401375e-003 2.68323324e-003 2.46077986e-003 5.12527116e-003
      2.46065669e-003 2.98239547e-003 2.85671907e-003 -5.87703288e-003
      -4.74953791e-003 4.34189616e-003 4.81005432e-003 4.93909139e-003
      5.68417087e-003 4.02382435e-003 2.02129735e-003 -3.22239794e-004
      -5.54717937e-003 -1.18587874e-002 1.96071807e-003 1.80205831e-003
      3.01527721e-003 6.95287064e-003 8.32558610e-003 5.55656990e-003
      4.43740422e-003 -1.15296170e-002 -1.09333955e-002 1.95782562e-003
      3.11826472e-003 5.07282792e-003 8.72801710e-003 9.72670596e-003
      7.12691713e-003 5.28938649e-003 -9.49072465e-003 -4.15246934e-003
      1.97838759e-003 2.59920186e-003 3.83952609e-003 2.75669130e-003
      4.17644763e-003 3.74081288e-003 7.59179471e-004 -2.70030182e-003
      -4.32045246e-003 -1.52642338e-003 3.64302308e-004 4.87714214e-003
      4.21675155e-003 5.42260427e-003 5.84385637e-003 1.99215603e-003
      -1.32278679e-003 -9.98692308e-003 1.49159133e-003 2.15707556e-003
      5.80498297e-003 5.57348644e-003 5.84003003e-003 5.82344085e-003
      5.41807711e-003 -6.32649427e-003 -8.18499085e-003 -4.82852757e-003
      -8.81906250e-004 4.77702962e-003 6.15116116e-003 6.03595935e-003
      4.53100121e-003 2.75205472e-003 -4.59667528e-003 -5.29832579e-003
      -2.01858091e-003 -3.48663249e-004 5.05529577e-003 6.56800112e-003
      4.57460107e-003 3.38604720e-003 5.33434286e-005 -3.58890323e-003
      -5.80049120e-003 -2.64372327e-003 -1.80138275e-003 4.59186686e-003
      6.40105270e-003 4.00142791e-003 1.08936387e-004 6.96522358e-004
      -4.46204655e-003 -7.43044727e-003 -5.68076596e-003
      -2.77060294e-003 4.17998014e-003 4.24094498e-003 4.10168199e-003
      1.73941324e-003 -8.30613368e-004 -4.33801394e-003 -2.50602257e-003
      -2.01968313e-003 -3.52581101e-003 -2.15705438e-003 6.10596442e-004
      2.76678754e-003 1.77729013e-003 2.55406904e-003 -8.86437832e-004
      -2.65260856e-003 -3.56263272e-003 -3.70633253e-003 1.92302352e-004
      3.79746826e-003 1.69656286e-003 4.56428010e-004 3.49732023e-003
      2.40068627e-003 -2.68501719e-003 -4.53440752e-003 -2.99314759e-003
      -1.36276265e-003 2.30311486e-003 2.02695699e-003 2.32099090e-003
      2.46157544e-003 6.47502544e-004 3.27588595e-003 2.74248421e-004
      -1.06172136e-003 -5.37207024e-003 -6.70201087e-004
      -5.79826476e-004 1.85351761e-003 5.86916786e-003 4.11828933e-003
      3.26939905e-003 1.32787318e-004 8.78032355e-004 -3.25483037e-003
      -4.91576362e-003 -3.52028292e-003 1.38935796e-003 3.23346886e-003
      2.73281336e-003 -2.35696579e-003 -1.60108111e-003 -2.73301289e-003
      -1.57525670e-003 1.56906003e-003 3.00689368e-003 2.78197229e-004
      -4.34743153e-004 -9.27151996e-004 -1.83063175e-003
      -5.55583218e-004 -3.92860919e-003 -1.93803140e-003 3.37544549e-003
      5.23957470e-003 -8.48391384e-004 -2.83634127e-003 -1.59330398e-003
      1.19731657e-003 1.16716302e-003 6.73601229e-004 2.05390665e-004
      -3.91951483e-003 -2.64311465e-003 2.35120446e-004 3.72108625e-004
      -5.02455572e-004 -5.17113600e-004 -1.22590922e-003
      -1.70890999e-003 3.09203606e-004 1.14785123e-003 1.28276588e-003
      2.59755674e-004 -4.99188842e-004 -8.24633345e-004 -7.64945289e-004
      8.35768660e-005 1.86488940e-003 3.42728267e-003 1.49599102e-003
      3.29168653e-003 -1.42230222e-003 7.46421720e-005 -8.60862434e-004
      7.16057955e-004 1.62064994e-003 6.23195549e-004 -2.33992678e-003
      -6.47347653e-003 -2.67902482e-003 -2.18902063e-003 1.02229802e-004
      -2.23046192e-003 -1.80815381e-003 -1.44027814e-003 1.07226847e-003
      7.12652924e-004 2.30729836e-003 4.91127372e-003 -1.46838801e-003
      -9.40318394e-004 -1.75373268e-003 -8.30201898e-005
      -7.31714186e-004 -6.55439799e-004 1.67732686e-003 -4.89483960e-003
      -5.59653202e-003 -3.64563428e-003 -9.45415406e-004
      -1.57751422e-003 2.46475509e-004 2.68437085e-003 3.39309382e-003
      6.79126300e-004 -4.26766137e-003 -1.18841685e-003 -4.66590573e-005
      -8.01887305e-004 -3.86028527e-003 -2.00099498e-003 3.81549890e-003
      6.60395948e-003 4.34777001e-003 7.00474426e-004 1.28893834e-003
      3.38665792e-003 1.68768549e-003 -3.66543257e-003 -3.20313801e-003
      -6.77506381e-004 1.68571970e-003 3.84110073e-003 -4.04542731e-003
      -2.74342927e-003 3.59784841e-004 2.39391651e-004 -3.79983895e-003
      -2.98087089e-003 2.32872460e-003 3.43454769e-003 4.62656096e-003
      2.38168286e-003 1.86454889e-003 4.93089808e-003 3.08386865e-003
      -4.24578832e-003 -4.89277812e-003 2.37897900e-003 2.85581709e-003
      4.01008455e-003 1.68382528e-003 1.98355131e-003 2.97874096e-003
      4.15267888e-003 -3.69857182e-003 -7.17900274e-003 3.63208586e-003
      4.10649646e-003 4.46130149e-003 3.99318011e-003 5.65954437e-003
      7.14897364e-003 7.16307666e-003 -2.87486683e-003 -6.98289135e-003
      1.59366091e-003 2.39006779e-003 2.75985873e-003 1.85249338e-003
      2.96751014e-003 2.93206796e-003 3.37355887e-003 -5.36337215e-003
      -7.52336206e-003 -7.84447591e-004 1.89779815e-003 4.46433946e-003
      4.45706956e-003 6.05146028e-003 6.42728852e-003 5.66675281e-003
      -4.16368619e-003 -6.44192472e-003 2.98108114e-003 2.42024194e-003
      1.89709989e-003 2.27586296e-003 4.35724435e-003 4.92343027e-003
      4.96415701e-003 -3.85584752e-003 -4.95779840e-003 3.17595224e-003
      2.60037160e-003 2.06469931e-003 3.15308431e-003 5.98511565e-003
      7.45535176e-003 3.97393713e-003 -5.57201542e-003 -6.26952760e-003
      -1.17285839e-004 8.18947563e-004 1.23722223e-003 2.31812615e-003
      4.38910862e-003 4.06789128e-003 9.52351256e-004 -5.72144287e-003
      -4.03748080e-003 -4.51818283e-004 3.17482954e-005 -1.00026641e-003
      6.23096304e-004 4.01620427e-003 5.73161198e-003 -2.11965339e-003
      -7.03719072e-003 -9.61639173e-003 2.68106000e-003 2.52555101e-003
      2.37904792e-003 4.47586551e-003 7.45356875e-003 6.26321090e-003
      3.41222761e-003 -9.10429005e-003 -1.05800908e-002 2.48082750e-003
      3.85250244e-003 4.68409294e-003 6.94904802e-003 8.08430370e-003
      6.56165089e-003 6.34911889e-003 -7.50795426e-003 -8.83781258e-003
      -1.51701469e-003 4.49472427e-004 -1.01795432e-003 4.33930289e-003
      6.81822421e-003 6.06651651e-003 1.41374115e-003 -6.59063924e-003
      -9.49421246e-003 -7.53146713e-004 3.82901658e-003 4.18447843e-003
      5.04783774e-003 6.37353351e-003 4.95646335e-003 5.87346870e-003
      -6.25156937e-003 -9.02607013e-003 1.77071383e-003 2.69476115e-003
      3.99468048e-003 4.78805136e-003 4.38483851e-003 3.52403894e-003
      5.73288370e-003 -4.94603673e-003 -6.80760620e-003 -1.58518716e-003
      1.71002327e-003 4.87827417e-003 5.50170615e-003 5.77644445e-003
      3.33217881e-003 3.47173167e-003 -3.30709922e-003 -7.49160768e-003
      2.65913503e-003 4.24106931e-003 3.87060293e-003 4.35001403e-003
      4.95269010e-003 4.34414670e-003 3.95228481e-003 -5.86108724e-003
      -4.75146016e-003 3.31665995e-003 4.12573107e-003 3.64349619e-003
      4.72409511e-003 5.35975676e-003 1.96110923e-003 1.52636168e-003
      -5.53136831e-003 -5.76330302e-003 -2.62779696e-003
      -9.11822368e-004 1.13444845e-003 1.45382190e-003 3.62897385e-003
      1.34825683e-003 -1.31427179e-004 -1.97338872e-003 9.72877839e-004
      2.00922601e-003 5.36903448e-004 -2.28443509e-003 -1.35359168e-003
      3.24038276e-003 2.12816009e-003 1.36822707e-003 1.71238626e-003
      -3.79407709e-003 2.36535634e-005 8.52663303e-004 1.82174426e-003
      5.21720969e-004 2.65852455e-003 -2.15631188e-003 -2.10544048e-003
      -3.04869399e-003 1.16162395e-004 7.40265066e-004 2.11342075e-003
      2.10502604e-003 -1.11748429e-003 4.51418367e-004 1.03615515e-003
      -2.51209969e-003 8.64860631e-005 5.47060976e-003 4.72952146e-003
      4.19305544e-003 -1.81775994e-003 -6.87546143e-003 -9.74490948e-004
      2.41206656e-003 2.15360243e-003 4.44288272e-003 5.96956629e-003
      3.71924089e-003 4.36368911e-003 -3.12114879e-003 -7.26160873e-003
      -2.78645894e-003 2.69567431e-003 2.77805887e-003 4.36467445e-003
      5.68192312e-003 4.40274272e-003 3.98508133e-003 1.27870659e-003
      -7.22354604e-003 -3.58983595e-003 2.53742537e-003 1.43201358e-003
      3.48883588e-003 5.93774393e-003 5.21429861e-003 3.01532261e-003
      -1.26711297e-004 -4.54195915e-003 -1.69955275e-003 3.24736466e-003
      3.65479314e-003 4.51921811e-003 1.42926932e-003 2.29425589e-003
      2.15123058e-003 -6.11164200e-004 -5.45640010e-003 -1.82893826e-003
      1.39871065e-003 1.96075509e-003 1.34881784e-003 -5.57927880e-004
      -7.62523676e-004 9.05711786e-005 1.16378104e-003 8.78739520e-004
      1.72912795e-003 5.27732132e-004 4.10210778e-004 -3.48142668e-004
      1.55442266e-003 1.04978634e-003 1.16324890e-003 -4.47685918e-004
      -1.90406246e-003 9.71042435e-004 1.29748730e-003 2.04252335e-003
      7.70699349e-004 -2.43117698e-004 -5.85205620e-004 7.73710562e-005
      6.10796793e-004 -4.31443514e-005 3.19070998e-003 6.44710555e-004
      -9.31722461e-005 -5.19520778e-004 -6.29009272e-004
      -7.74829241e-004 -9.48186498e-004 -6.85076171e-004 2.96807289e-003
      4.36048815e-003 4.80826915e-004 -5.31065860e-004 -1.05855218e-003
      -2.46771233e-004 -6.04020897e-004 -1.27688132e-003
      -2.67197867e-003 -5.36005525e-003 -1.51320954e-003
      -5.04789969e-005 5.89782780e-004 -4.21406061e-004 -1.01178812e-004
      -3.21365776e-004 -1.22064166e-003 -3.49462917e-003 1.93023134e-003
      5.51099190e-003 1.24147045e-003 -2.50332465e-004 1.72418091e-004
      2.76853680e-003 6.52576913e-004 -1.60058658e-003 -6.00893516e-003
      -6.12720754e-003 -2.02392926e-003 2.21626833e-003 1.88594707e-003
      3.78321763e-003 -2.42852606e-003 -1.24377420e-003 -8.03690113e-004
      2.98793078e-004 -5.13596460e-003 -2.60966364e-003 7.14692404e-004
      1.19883846e-003 -7.96134293e-004 -5.89645654e-003 1.36561773e-003
      2.66663055e-003 1.34662504e-003 -5.19104127e-004 1.64345314e-003
      2.98941042e-003 2.19077338e-003 -3.51914577e-003 5.27656591e-003
      2.10151589e-003 -1.10722853e-004 -2.16083834e-003 -5.95929753e-003
      -3.72029445e-003 1.11256528e-003 2.66377768e-003 5.28065907e-003
      3.73748248e-003 3.13817780e-003 3.11978278e-003 -4.66465950e-004
      -3.11187818e-003 1.23311271e-004 2.09129858e-003 3.77272512e-003
      2.96002324e-003 -6.10317802e-003 2.38372013e-003 1.62685674e-003
      -3.45612119e-004 -4.02400939e-004 2.51001422e-003 2.76970700e-003
      2.41148332e-003 -3.89664527e-003 -5.22049703e-003 -9.17366240e-004
      -5.30659781e-005 6.80569967e-004 1.34679128e-003 4.05042246e-003
      3.70179466e-003 2.89714173e-003 -1.78681838e-003 -1.25442236e-003
      6.43576845e-004 1.24074949e-003 -3.70592061e-005 -6.99015218e-004
      2.81192223e-003 2.20054737e-003 3.79304728e-003 9.04183195e-004
      -1.30655058e-003 -2.93801422e-003 -1.23478891e-003 2.32402864e-003
      1.50650076e-003 1.42413960e-003 2.50945520e-003 3.71123059e-003
      1.45032583e-003 -1.56195683e-003 -8.41183297e-004 2.13474748e-004
      -2.29967118e-004 -9.23593005e-004 8.91472446e-004 1.50031724e-003
      5.30385703e-004 -1.19755906e-003 -2.01526898e-004 -3.68719979e-004
      8.00632770e-005 -4.27660858e-003 -2.73009832e-003 2.99991836e-004
      4.40398091e-003 -6.03468332e-004 7.07904226e-004 -1.56497030e-004
      -3.53668840e-003 -3.36105120e-003 -1.95595715e-003
      -6.39071688e-004 1.41407028e-004 2.34157429e-003 2.68021505e-003
      1.38742267e-003 2.87352898e-003 6.88700471e-004 -9.09104769e-004
      -4.14421503e-003 -4.37190803e-003 1.63073034e-003 4.19278117e-003
      3.14961025e-003 2.46781902e-003 -3.82411317e-003 -1.93118851e-003
      -4.26694809e-004 -3.09479982e-003 3.04377227e-005 2.63733347e-003
      2.82595470e-003 3.45892127e-004 -1.06825528e-003 -7.25621358e-003
      -1.02369685e-003 1.73548120e-003 2.21886020e-003 1.29850605e-003
      2.93888082e-003 3.33055574e-003 3.02155502e-003 -4.30452684e-003
      -3.43848631e-004 1.55737263e-003 -3.44907021e-004 -2.30471068e-003
      -1.84810057e-003 1.63844007e-003 1.41507527e-003 8.08590499e-004
      1.28636369e-004 -9.93187074e-004 8.31096317e-004 -9.92711051e-004
      -1.45366730e-003 7.51225918e-004 2.27188389e-003 1.63726159e-003
      1.83242036e-003 -4.62776894e-004 -7.42623769e-003 1.36329548e-003
      2.83211982e-003 3.55309760e-003 1.69532164e-003 2.84164050e-003
      2.90375645e-003 5.52043843e-004 -5.11742616e-003 -4.27229609e-003
      2.29276018e-003 2.74208561e-003 4.02044831e-003 4.33222530e-003
      3.98495281e-003 1.19302224e-003 -1.64496689e-003 -5.41921146e-003
      -1.84852199e-003 -5.56393352e-004 -1.84098282e-003
      -3.44406988e-004 -8.64215763e-005 3.46640288e-003 1.82559318e-003
      5.71653538e-004 -1.64726842e-003 -3.08687147e-003 -2.11843406e-003
      -1.34289148e-003 1.03142357e-003 5.07455878e-003 7.73749361e-003
      3.97120463e-003 4.51757689e-004 -3.40082380e-003 -4.15931595e-003
      -1.24972221e-003 1.89886650e-005 1.98782282e-003 2.37167114e-003
      3.47213238e-003 -2.39460240e-003 -2.92206369e-003 -4.23632143e-003
      -2.23838096e-003 2.23926269e-004 1.30676746e-003 3.44076636e-003
      -3.54379445e-004 -8.52829078e-004 -1.64692325e-003
      -2.74654641e-003 -2.32590386e-003 -2.36306898e-003
      -2.13779765e-003 -3.39994184e-003 -4.33876412e-004 5.51708881e-003
      6.83467370e-003 8.40386492e-004 -1.72786915e-003 -2.45471951e-003
      -1.73629634e-003 2.26122080e-004 -2.70603830e-003 -7.26503495e-004
      1.44256849e-003 4.92724963e-003 2.21744529e-003 -1.89029169e-003
      -1.59336394e-003 5.33942739e-003 5.37164183e-003 2.71908334e-003
      3.19914403e-003 -5.27312374e-003 -2.59819441e-003 1.99191156e-003
      1.92442292e-003 3.96134518e-003 3.41485091e-003 3.84004740e-003
      1.28728047e-003 2.20729597e-003 -1.82294892e-003 7.47370184e-004
      3.03419749e-003 1.38719613e-003 1.96069782e-003 2.72125425e-003
      3.30301467e-003 4.20596043e-004 -4.06517152e-004 -3.78767564e-003
      3.95734608e-003 4.56026522e-003 2.71752564e-004 1.72886823e-003
      -1.07070744e-004 1.10449747e-003 7.47287297e-004 3.19092488e-003
      -2.54527375e-004 2.99742236e-003 2.19465722e-003 -2.71089986e-004
      -3.66971566e-004 -7.78107962e-004 -1.61864632e-003
      -2.41586909e-004 -1.13043503e-003 -2.82129389e-003 4.68095392e-003
      1.76862371e-003 2.77382002e-004 -4.48392937e-004 -7.48364720e-004
      -1.53404288e-003 -5.12246334e-004 -1.39640586e-004 4.05736617e-004
      6.55909441e-003 7.78001791e-004 -2.84761452e-004 -1.21316356e-004
      -3.02806776e-003 -1.47290528e-003 9.07851674e-004 2.67507066e-003
      7.92208361e-004 2.97788857e-003 -2.19658087e-003 -1.21055904e-003
      -3.32810590e-003 -1.73436431e-003 -1.15974876e-003 2.69108976e-004
      1.49936811e-003 -5.31363708e-004 3.48631223e-003 -2.11025844e-003
      -1.11972576e-003 -1.13555649e-003 -7.62219890e-004
      -2.70294579e-004 -6.21624698e-004 -1.38904515e-003 6.37201709e-004
      4.20819083e-003 3.20779363e-004 -4.21808363e-004 -1.76407397e-004
      1.46440894e-003 3.69046611e-004 -1.47894234e-003 -3.48759792e-003
      -6.63996628e-003 -5.36050508e-003 -6.93986949e-004 2.87099066e-003
      3.25620803e-003 -7.40359130e-004 -5.12505183e-004 3.99621029e-004
      6.08714508e-005 -7.81065391e-005 -1.88377075e-004 8.59394670e-004
      2.76740175e-003 1.83838687e-003 1.76063133e-003 3.83243969e-005
      -4.90203151e-004 -6.67698099e-004 -1.24559936e-003
      -6.70850370e-003 -3.63613362e-003 3.85916978e-003 5.21153584e-003
      3.38313822e-003 9.59083147e-004 -1.04835290e-005 -1.40184537e-003
      -6.39267405e-003 -5.00694476e-003 -4.56137001e-004 3.26446467e-003
      3.58340889e-003 7.67316320e-004 1.66576868e-003 2.63118162e-003
      1.35398307e-003 -3.51369334e-003 -3.92202201e-004 -1.30053202e-004
      4.49958548e-004 -7.35573703e-004 3.20538925e-003 1.92578021e-003
      1.14950491e-003 1.28996454e-003 -1.62445381e-003 -6.93092728e-003
      -2.61098356e-003 2.24797032e-003 6.28356915e-003 -7.38526753e-004
      2.91159144e-003 4.02202923e-003 3.88794183e-003 2.40062852e-003
      -1.38467434e-003 -1.49905938e-003 -2.48359027e-003
      -1.45899795e-003 -2.98046554e-003 1.45532761e-003 1.44449458e-003
      1.66354573e-003 -1.02659268e-003 2.31349212e-003 4.85767814e-004
      1.07988389e-003 -2.92783161e-003 -3.32941604e-003 -3.30441282e-003
      -9.98122268e-004 1.82113785e-003 3.11802258e-003 1.20715261e-003
      8.60547181e-004 1.71654345e-003 7.16707800e-005 -3.96395475e-003
      2.27439194e-003 3.61657375e-003 2.37603649e-003 3.17151751e-003
      4.11984650e-003 2.55891634e-003 -1.90350285e-004 -3.41376034e-003
      -5.65278926e-004 -1.30465918e-003 -8.11116188e-004 7.56213092e-004
      2.85023684e-003 1.94667280e-003 2.22301623e-003 4.34244378e-003
      -1.68513332e-004 -6.41647610e-004 -5.68490848e-003
      -5.34732547e-003 -1.82994548e-003 2.00080290e-003 6.21069863e-004
      1.06382696e-003 1.93751103e-003 2.06835289e-003 2.80550867e-003
      5.63609938e-004 -2.53802096e-003 -4.90375794e-003 -3.29697574e-003
      1.76442193e-003 1.55956554e-003 2.75642821e-003 2.52298662e-003
      2.77278991e-003 -4.67766589e-003 -6.18044008e-003 -1.99336931e-003
      9.40341619e-004 4.21452190e-004 1.06368144e-003 2.88938521e-003
      4.90536308e-003 7.20545789e-003 1.23063847e-003 -1.51340081e-003
      -2.99062557e-003 -9.06624118e-005 2.65399972e-003 9.34063981e-004
      1.91182771e-003 6.70745317e-003 1.36095088e-003 1.64896750e-003
      -2.83401343e-003 -3.97918187e-003 -4.28550271e-003 1.38261321e-003
      1.17525959e-003 4.49603744e-004 3.54607386e-004 8.15391482e-004
      1.28359103e-003 -1.30029232e-003 -3.53541062e-003 -1.23544305e-003
      3.15520377e-003 1.72408868e-003 5.01263887e-004 3.56130273e-004
      3.32775456e-003 2.87188846e-003 -4.06779675e-003 -5.40109212e-003
      -6.45969529e-004 3.33838258e-003 2.39771805e-004 -1.24693918e-003
      2.13075965e-003 4.77228110e-004 2.98088905e-003 6.22083608e-004
      -2.74164249e-005 8.96126614e-004 5.44109009e-003 2.35033548e-003
      -1.94574217e-003 3.56387609e-004 -3.47411231e-004 -3.05411033e-003
      -3.16666183e-003 -2.88612978e-003 -1.27308257e-003 3.35866492e-003
      7.02682475e-004 7.91116094e-004 -7.19209027e-004 -3.17388051e-003
      -4.67942189e-003 -2.87488359e-003 4.98568988e-004 2.84265331e-003
      5.50515857e-003 4.47337166e-004 7.53746717e-004 -9.11855954e-004
      -1.13258848e-003 -1.52531988e-003 -2.04632571e-003
      -1.28757872e-003 1.20519660e-003 7.35049229e-003 4.14082268e-003
      6.99956727e-004 -6.86483399e-004 -2.13606143e-003 -5.21579199e-003
      -2.83199712e-003 2.72000371e-003 3.73449759e-003 6.42196974e-003
      1.95870386e-003 2.30251183e-003 1.40744669e-003 -1.56828540e-003
      -3.62786255e-003 -4.32326039e-003 -1.18071068e-004 4.87019727e-003
      4.69614379e-003 7.00540491e-004 6.48666901e-005 -1.17716612e-004
      -1.98426144e-003 -3.73227568e-003 -6.65879296e-003
      -4.17861063e-003 8.31639685e-004 3.97823891e-003 1.19589001e-003
      6.76229829e-005 7.33262044e-004 -3.32168165e-005 -4.54859901e-003
      -4.53220448e-003 1.21873047e-003 4.57345089e-003 3.76050523e-003
      9.01977124e-004 2.91384128e-003 3.70206288e-003 -6.26979047e-004
      -4.59467480e-003 -4.45360737e-003 1.91173144e-003 2.93434341e-003
      1.98958674e-003 -3.84480366e-003 5.02976414e-004 3.07292258e-003
      -8.96190642e-004 -1.13105918e-004 -2.03443808e-003
      -2.77122809e-003 -7.31070322e-005 3.39345564e-003 3.44363810e-003
      -7.09205109e-004 9.90694156e-004 -2.11388012e-003 2.50871934e-004
      5.54806553e-004 1.96041830e-004 2.02568923e-003 2.35771039e-003
      1.18821696e-003 -2.69232271e-003 -4.21025231e-003 2.14403053e-003
      5.26991149e-004 -8.81030865e-004 3.16224177e-003 1.18893431e-003
      3.34693352e-003 -2.89223436e-003 -2.51026312e-003 3.70440842e-003
      -1.82651653e-004 -2.27059703e-003 -1.18782744e-003 2.24393606e-003
      5.63440612e-004 6.17967499e-003 1.06246048e-003 -1.08275854e-003
      3.57223034e-004 -1.88620260e-003 -7.88895049e-005 -1.47537548e-006
      2.88719288e-003 -4.23673155e-005 1.38225744e-003 -1.95357157e-003
      -1.41709740e-003 -3.20877717e-003 -1.19572505e-003
      -4.56005335e-004 -1.13041373e-003 -4.83773067e-004 2.25287411e-004
      1.97415194e-003 -2.35806312e-003 -1.36202120e-003 -1.57879281e-003
      -6.42897328e-004 -5.06683625e-003 -6.14537904e-003 2.53864727e-003
      1.10906537e-003 7.80239608e-003 4.20073792e-003 5.84666966e-004
      5.83926449e-004 -3.89279332e-004 -2.62132240e-003 -5.36870351e-003
      1.76592570e-004 9.08719259e-004 3.39226564e-003 1.14625355e-003
      2.15954191e-004 -7.00753080e-005 -3.00251908e-004 -1.28795044e-003
      -2.66213727e-004 -3.56336619e-004 -6.99623139e-004
      -1.94541179e-003 -8.08672688e-004 5.95988240e-004 7.66841986e-004
      4.62568179e-003 -1.71275402e-003 -9.68513021e-004 -1.42743625e-003
      -1.24317026e-004 -3.55389970e-003 -4.15485771e-003 1.61450659e-003
      3.47146508e-003 5.26446674e-004 -1.49644667e-003 -2.16689277e-005
      -1.01462239e-003 -8.94947094e-004 1.06498919e-004 -4.00641060e-004
      -1.89598172e-003 -1.84620079e-003 1.01860112e-003 -6.61325757e-004
      2.79242231e-004 -1.06949778e-003 -9.38677986e-004 -1.10395404e-003
      8.02600058e-004 -3.40268598e-004 1.02769455e-003 5.25688706e-003
      1.37410255e-003 1.28543680e-003 9.52139206e-004 4.41587581e-005
      -2.85283173e-003 -7.46385800e-003 -2.59562815e-003 5.60139772e-003
      -1.95704633e-004 1.82855979e-003 3.93327652e-003 3.19900457e-003
      3.51515273e-003 2.26050965e-003 -4.15359996e-003 -7.94832222e-003
      -3.48940934e-003 6.40276494e-003 1.95277052e-003 1.06939464e-003
      4.41121956e-004 8.36849969e-004 2.45717494e-003 -1.26759871e-003
      -3.36581632e-003 3.52101610e-003 1.38602557e-003 1.81360892e-003
      2.91686435e-003 3.52323707e-003 3.37472861e-003 5.10967849e-003
      -1.65891158e-003 -8.60008784e-003 -2.94743758e-003
      -2.56949337e-003 -7.50133040e-005 3.08847544e-003 1.45679759e-003
      2.86193006e-003 2.92175147e-003 2.52401410e-003 -3.43920989e-003
      -2.27869838e-003 1.11345144e-003 -2.83792987e-003 -9.32039984e-004
      3.55233060e-005 2.10580556e-003 2.63563590e-003 1.63123221e-003
      2.47404911e-003 2.73941876e-003 6.82214086e-005 -2.55844730e-004
      3.40033858e-003 2.48915842e-003 2.68286490e-003 4.01345780e-003
      1.17994170e-003 -4.64054383e-003 -3.33759049e-003 -4.81758325e-004
      -4.25335905e-003 7.85370125e-004 3.61313403e-004 1.69110298e-003
      2.08805874e-003 9.02107859e-004 -1.49120961e-003 -6.14317716e-004
      3.45149520e-003 -6.33092737e-003 -7.16728903e-003 -1.18646468e-003
      6.66676788e-004 7.58154667e-004 3.49201000e-004 1.78865541e-003
      6.20626565e-003 5.47632854e-003 -3.75317200e-003 -6.07212028e-003
      -2.42853281e-003 1.60772528e-003 1.81966566e-003 1.03315082e-003
      9.90600325e-004 6.15380751e-003 1.65884837e-003 -6.88176183e-003
      -2.81747570e-003 1.08454391e-004 1.01456395e-003 3.20997613e-004
      3.05502821e-004 2.61540292e-004 1.54713553e-003 7.14091701e-004
      -2.73716846e-003 -2.10661162e-003 -2.26324366e-004 1.49141951e-003
      2.03562155e-003 3.09024751e-003 4.30715154e-004 2.14987667e-003
      3.05693876e-003 -2.46105762e-003 -3.99391772e-003 -2.18082569e-003
      3.32890893e-003 3.72369192e-003 7.96535052e-004 -3.88517044e-004
      2.09680805e-003 -5.96703438e-004 -1.37853401e-003 -2.60645337e-003
      -7.35772948e-004 5.60143357e-003 5.79120126e-003 2.72232550e-003
      -2.81863759e-004 -1.49397063e-003 -3.16612492e-003
      -1.93420798e-003 -1.51736964e-003 -1.21206825e-003 1.94450573e-003
      3.79742123e-003 3.54161579e-003 9.03379638e-004 7.54978624e-004
      -7.41633354e-004 -3.78892379e-004 -1.07933348e-003
      -7.73972351e-005 3.05639184e-003 3.91808385e-003 2.59835925e-003
      1.56357058e-003 1.51561340e-004 -2.71634269e-003 -8.60933040e-004
      -1.32899312e-003 -5.79412794e-004 5.32802474e-003 5.68758417e-003
      5.49493823e-003 1.67461776e-003 -1.81607599e-003 -8.46944109e-004
      -8.71774682e-004 -2.13796775e-005 2.60580657e-003 5.26983291e-003
      4.78607556e-003 2.84230104e-003 4.20821458e-003 1.63409626e-003
      -2.44683097e-003 3.05435620e-004 1.47849810e-003 2.39707879e-003
      2.71956436e-003 2.59596249e-003 1.86930250e-004 5.43907168e-004
      -3.62110999e-003 -5.13643213e-003 8.84280598e-004 3.51817952e-003
      3.70567036e-003 3.57842608e-003 1.93799648e-003 -6.12445176e-004
      2.37697805e-003 -5.43313334e-003 1.33390201e-003 -2.87569244e-003
      -4.34946473e-004 3.53746756e-004 3.58338538e-003 2.65956833e-003
      -8.79874569e-004 2.86939647e-003 4.35813237e-003 3.08594434e-004
      -2.89372867e-003 -5.26657386e-004 2.97189690e-003 2.67008180e-003
      3.29368585e-003 -2.44531268e-003 6.85386301e-004 3.54031194e-003
      -2.80436408e-003 -2.64759641e-003 2.68485211e-003 8.51119461e-004
      2.68059410e-003 2.00392772e-003 3.62377585e-004 2.43937387e-003
      -1.40829966e-003 -2.23512203e-003 -2.95820041e-003
      -3.72107061e-005 2.09874962e-003 2.44521420e-003 2.15271744e-003
      1.08350697e-003 1.77399197e-003 -1.09917880e-003 2.90027517e-003
      4.39196650e-004 -3.97378870e-004 2.89991591e-003 3.31300939e-003
      3.08477622e-003 -2.19496805e-003 -3.17082391e-003 2.31573917e-003
      -1.60903065e-003 -3.99395544e-003 -1.22944196e-003 3.19064152e-003
      1.87512464e-003 7.00725894e-003 -1.59658866e-005 -2.64545972e-003
      8.52389639e-005 -8.35358165e-004 1.33611937e-003 1.39847893e-004
      2.54054996e-003 1.51340559e-003 1.04332610e-003 1.01608050e-003
      -3.06172267e-004 -1.74106553e-003 -2.24443641e-003
      -1.25305017e-003 1.16092584e-003 3.26343323e-003 1.75197551e-003
      8.75535130e-004 5.69238444e-004 8.49158532e-005 -1.89808966e-003
      -1.89523597e-003 -5.89294406e-003 -4.47357586e-003 2.78294017e-003
      7.09516113e-004 4.67271218e-003 1.96339516e-003 1.79803243e-003
      2.02295370e-003 -3.00335942e-005 -3.23572080e-003 -3.88444727e-003
      4.63407894e-004 1.88150967e-003 4.82520834e-003 1.31616648e-003
      1.10964000e-003 2.19209376e-003 -3.74065130e-003 -4.76873899e-003
      -6.49963564e-004 2.55733612e-003 3.16890841e-003 1.45320618e-003
      1.29774760e-003 2.43940298e-003 6.96730625e-004 -1.73735328e-003
      -3.72091890e-003 -3.82484216e-003 2.02137860e-003 5.23605058e-003
      4.77925269e-003 8.75842350e-004 7.98062480e-004 1.58920116e-003</_></support_vectors>
  <decision_functions>
    <_>
      <sv_count>1</sv_count>
      <rho>7.5228710919834418e-001</rho>
      <alpha>
        1.</alpha>
      <index>
        0</index></_></decision_functions></my_svm>
</opencv_storage>
