<?xml version="1.0"?>
<opencv_storage>
<my_svm type_id="opencv-ml-svm">
  <svm_type>C_SVC</svm_type>
  <kernel><type>LINEAR</type></kernel>
  <C>1.0000000000000001e-001</C>
  <term_criteria><epsilon>1.1920928955078125e-007</epsilon>
    <iterations>1000</iterations></term_criteria>
  <var_all>1620</var_all>
  <var_count>1620</var_count>
  <class_count>2</class_count>
  <class_labels type_id="opencv-matrix">
    <rows>1</rows>
    <cols>2</cols>
    <dt>i</dt>
    <data>
      0 1</data></class_labels>
  <sv_total>1</sv_total>
  <support_vectors>
    <_>
      -2.92583532e-003 -1.74288172e-002 -1.38301104e-002
      -7.49218790e-003 1.93241164e-002 2.95302588e-002 -5.09047601e-003
      -7.07153510e-003 -5.62307483e-004 -7.89414160e-003 9.04400833e-003
      -8.88879003e-004 -1.69253573e-002 3.22668371e-003 1.56821609e-002
      -5.63745061e-003 -1.59677807e-002 -4.70791757e-003 7.76666784e-005
      -5.45458868e-004 -5.13926265e-004 -9.12357960e-003 1.60198417e-002
      2.08446346e-002 -1.02446983e-002 -6.98383991e-003 -9.06420220e-003
      -1.47732338e-002 1.80967187e-003 -2.70010112e-003 -4.45145629e-002
      -2.00761408e-002 1.99521519e-003 -1.34034418e-002 -1.34531017e-002
      -2.19227094e-002 3.88586801e-003 3.27573679e-002 7.17041921e-003
      -1.34664290e-002 -1.00875378e-003 3.13059706e-003 -1.56590730e-004
      -1.25183333e-002 -4.19144257e-004 1.28100859e-002 2.50117891e-002
      1.02961739e-003 -1.93888706e-003 1.13215363e-002 5.83931571e-003
      -5.15325973e-003 -1.01698665e-002 -8.44595116e-003
      -8.64255149e-003 1.72081944e-002 7.97363371e-003 -1.54974032e-002
      -1.51515119e-002 -4.01800778e-003 3.09163326e-004 -1.83899589e-002
      -1.55465063e-002 5.07861492e-004 2.08730400e-002 1.31911011e-002
      2.45008944e-003 -2.79414724e-003 1.87542220e-003 1.91560723e-002
      -3.50349746e-003 -1.44084608e-002 -1.64307817e-003 1.74266566e-002
      2.05998635e-003 -1.13857095e-003 7.22025847e-003 4.18280391e-003
      -8.93975142e-003 -5.01068728e-003 -1.69335008e-002
      -1.14530930e-002 2.38416716e-002 1.56580713e-002 2.38624844e-003
      2.28666458e-002 1.10537931e-002 6.39465358e-003 9.59250424e-003
      -1.19617702e-002 -1.67459045e-002 1.35587603e-002 7.03817816e-004
      2.85412604e-003 8.61997437e-003 9.40916780e-003 1.17137320e-002
      9.73119494e-003 -2.20279377e-002 -2.98383702e-002 2.77861413e-002
      1.42250862e-002 1.16939582e-002 3.27275507e-002 1.87299214e-002
      1.65052377e-002 2.33426150e-002 -2.13819891e-002 -2.16646399e-002
      6.21909089e-003 7.07720080e-003 4.30087652e-003 1.46354968e-002
      7.83186499e-003 1.62408557e-002 2.31165644e-002 -2.14624847e-003
      -2.42364164e-002 1.30706641e-003 6.61237119e-003 1.07097514e-002
      1.80857833e-002 1.04689151e-002 1.62898842e-002 2.11333651e-002
      -1.08221062e-002 -3.39592583e-002 2.30016466e-002 1.67196225e-002
      1.74534805e-002 2.19316073e-002 1.35361226e-002 1.62067246e-002
      2.92109735e-002 -2.53300406e-002 -4.52713855e-002 2.06977129e-002
      2.05855779e-002 2.26760134e-002 2.97913328e-002 1.97891444e-002
      2.24813707e-002 2.72397790e-002 -3.75456139e-002 -2.55064685e-002
      1.30219646e-002 1.54312411e-002 1.18339742e-002 2.63835862e-002
      1.42262597e-002 1.09306602e-002 1.28796771e-002 -2.97402237e-002
      -1.83183495e-002 2.83381883e-002 2.57215071e-002 2.17727441e-002
      2.53501944e-002 1.73007231e-002 6.79054298e-003 -2.26265774e-003
      -2.41535883e-002 -6.13620766e-002 1.24361441e-002 1.34462891e-002
      1.81281585e-002 3.92926671e-002 4.30052467e-002 2.34815869e-002
      1.95692685e-002 -5.87697588e-002 -5.59314452e-002 1.32452883e-002
      1.79683305e-002 2.46856660e-002 4.23694290e-002 4.92570736e-002
      3.66113149e-002 3.10174394e-002 -4.44445126e-002 -1.66705381e-002
      1.77783780e-002 1.40182339e-002 1.59761943e-002 1.15189478e-002
      1.68492198e-002 1.50571857e-002 1.86637382e-003 -1.35954730e-002
      -1.96314342e-002 -1.34320091e-003 3.93064925e-003 1.92331653e-002
      1.72832981e-002 2.24772803e-002 2.29986049e-002 7.49618420e-003
      -6.07608398e-003 -5.15356213e-002 1.01202028e-002 1.15565425e-002
      2.57697795e-002 2.51144860e-002 2.71195211e-002 3.03550512e-002
      3.30266915e-002 -2.70872861e-002 -3.71415839e-002 -2.25679781e-002
      -4.43420559e-003 1.75366513e-002 2.50284672e-002 2.48541255e-002
      2.16593798e-002 1.83483995e-002 -2.02399474e-002 -2.05116514e-002
      -7.82929920e-003 -1.95279799e-003 1.93073768e-002 2.73253918e-002
      1.82671435e-002 1.17539745e-002 -1.98251131e-004 -1.16759669e-002
      -2.17091534e-002 -1.49596585e-002 -1.21550681e-002 1.64239611e-002
      2.61474494e-002 1.43641690e-002 -1.99896563e-003 9.56100877e-003
      -1.59148984e-002 -2.96118502e-002 -2.78014392e-002
      -1.48679987e-002 1.28965378e-002 1.39547065e-002 1.45922536e-002
      6.02689711e-003 -3.53095843e-003 -1.53594380e-002 -4.96814027e-003
      -8.30745138e-003 -1.72200035e-002 -1.49284452e-002
      -2.14966782e-003 7.31992815e-003 2.89023574e-003 1.28458682e-002
      3.02266591e-004 -1.06177740e-002 -2.06045937e-002 -2.16147304e-002
      -3.64958984e-003 1.46521349e-002 6.67535281e-003 3.18109989e-003
      2.39642784e-002 1.54786026e-002 -1.10211568e-002 -2.38381680e-002
      -1.69603843e-002 -1.10315513e-002 7.31574558e-003 1.05689736e-002
      1.57799758e-002 1.68961305e-002 5.11769438e-003 1.37965595e-002
      4.93814237e-003 -3.27730807e-003 -2.84035783e-002 -5.61313471e-003
      -4.02687397e-003 7.15046050e-003 3.07988618e-002 1.88832972e-002
      1.03570614e-002 5.25312498e-003 6.69751177e-003 -1.76213924e-002
      -2.32301690e-002 -1.50898350e-002 8.97967909e-003 1.63592380e-002
      7.40566105e-003 -1.08615803e-002 -8.40328261e-003 -1.47414636e-002
      -1.19607430e-002 5.61076682e-003 1.68335550e-002 4.41301940e-003
      1.49940071e-003 -4.64129087e-004 -8.46914295e-003 -3.02511733e-003
      -2.07491387e-002 -1.40777407e-002 1.73396301e-002 2.87571251e-002
      -1.10750218e-004 -1.19872149e-002 -5.35606267e-003 3.12516349e-003
      8.29068013e-003 4.21903050e-003 -2.09101709e-003 -2.07043961e-002
      -8.39587487e-003 1.63680222e-003 3.62201943e-004 -5.25572291e-003
      -2.67611723e-003 -5.65129891e-003 -8.80159996e-003
      -3.70125496e-003 5.23201097e-003 9.16995667e-003 1.08061075e-004
      -3.50663159e-003 -4.31377301e-003 -4.79729706e-003
      -1.05571433e-003 6.15576515e-003 1.25365583e-002 1.18738255e-002
      2.30622869e-002 -8.56669992e-003 -6.06434303e-004 -5.83864329e-003
      7.21923599e-004 4.09362465e-003 -1.84977707e-003 -1.68155339e-002
      -2.82178484e-002 -8.56667757e-003 -1.26402397e-002 3.29760398e-004
      -1.25993686e-002 -1.03370650e-002 -7.66208395e-003 2.56184721e-003
      3.38127930e-003 1.38523383e-002 3.02243251e-002 -7.80584197e-003
      -5.29176788e-003 -9.82576702e-003 -5.44179929e-004
      -4.55960725e-003 -6.44829730e-003 5.41943219e-003 -2.18564887e-002
      -2.89356634e-002 -1.89097282e-002 -5.43029327e-003
      -8.15332402e-003 -1.08625449e-003 1.00845955e-002 1.18338605e-002
      -1.42974092e-003 -2.23339349e-002 -5.05185220e-003 2.79042521e-004
      -1.23924867e-003 -1.77783016e-002 -7.71000283e-003 1.55760106e-002
      2.64008585e-002 1.67627670e-002 1.01968646e-003 5.08022029e-003
      1.84773616e-002 1.39181800e-002 -1.15783932e-002 -1.53904371e-002
      -3.35369282e-003 7.54328305e-003 1.81911550e-002 -1.75320935e-002
      -1.76151432e-002 3.77960736e-003 1.17171707e-003 -1.90881751e-002
      -9.50096175e-003 1.36154117e-002 1.68843698e-002 2.21417360e-002
      1.46361841e-002 7.09046051e-003 2.88324747e-002 1.55117130e-002
      -1.36856511e-002 -2.30158176e-002 9.39891022e-003 1.10778743e-002
      1.58762075e-002 6.94838958e-003 8.54190998e-003 1.42087759e-002
      2.31625456e-002 -1.25850067e-002 -3.16073112e-002 2.16882173e-002
      1.79388579e-002 1.94659140e-002 1.85912829e-002 2.44393796e-002
      3.19593549e-002 3.53774503e-002 -1.15594212e-002 -2.89334934e-002
      8.65264237e-003 7.92288408e-003 8.56143981e-003 5.48199657e-003
      1.21197291e-002 1.36319650e-002 1.54714538e-002 -1.95503552e-002
      -3.21009755e-002 -1.81020540e-003 5.96977351e-003 1.66133959e-002
      1.75248664e-002 2.49219518e-002 2.81670224e-002 2.47933939e-002
      -1.68499183e-002 -2.77936347e-002 1.99921280e-002 1.31295659e-002
      1.10250441e-002 1.04193110e-002 1.74301118e-002 2.13845968e-002
      2.31807753e-002 -1.69838220e-002 -2.25125924e-002 2.24244706e-002
      1.79440565e-002 1.48140276e-002 1.62899159e-002 2.48836484e-002
      3.20655182e-002 1.63077544e-002 -2.86574550e-002 -2.58742124e-002
      4.26637562e-004 3.04058660e-003 3.90525139e-003 6.92316471e-003
      1.58369914e-002 1.80757325e-002 4.18653106e-003 -2.43195072e-002
      -1.62427034e-002 1.94523204e-003 3.63505445e-004 -6.33484218e-003
      1.24575151e-003 1.67627558e-002 3.26456316e-002 -6.92661712e-003
      -3.21540162e-002 -4.85647097e-002 2.17379909e-002 1.49576850e-002
      1.30500663e-002 2.18954030e-002 3.29800136e-002 2.81302650e-002
      1.71102043e-002 -4.65660132e-002 -5.58195598e-002 1.49381887e-002
      1.88705586e-002 1.99334100e-002 2.98372749e-002 3.70606855e-002
      3.27711143e-002 3.83710191e-002 -3.23490426e-002 -4.47819196e-002
      -1.45997724e-003 3.82335996e-003 -5.04824007e-003 2.19799690e-002
      3.39745767e-002 3.59409451e-002 7.74554163e-003 -3.50290872e-002
      -4.95344438e-002 -8.43076850e-004 2.54745297e-002 2.40487959e-002
      2.24777907e-002 2.99559273e-002 2.41235532e-002 3.24732177e-002
      -2.54632160e-002 -4.83266301e-002 7.62881991e-003 1.16463630e-002
      1.64135210e-002 1.94459148e-002 1.90838724e-002 1.82329100e-002
      3.62694971e-002 -1.79554410e-002 -2.97538079e-002 -1.00220591e-002
      5.93937328e-003 2.03026738e-002 2.15344969e-002 2.38412935e-002
      1.59511622e-002 2.35774536e-002 -1.07934307e-002 -3.72232012e-002
      1.36768017e-002 2.30584722e-002 2.04798616e-002 1.89222340e-002
      2.22400762e-002 1.93261653e-002 2.22753417e-002 -2.43139490e-002
      -2.08064578e-002 1.40327141e-002 1.72849558e-002 1.62245352e-002
      1.87025443e-002 2.25687120e-002 7.21387193e-003 1.02170780e-002
      -2.40514334e-002 -2.17486098e-002 -1.48343500e-002
      -6.00758055e-003 3.00450111e-003 -2.20504517e-004 1.29702361e-002
      4.91000945e-003 1.92237887e-004 -1.19627628e-003 1.24526722e-002
      1.08983060e-002 1.77379907e-003 -1.40932798e-002 -1.40005741e-002
      9.55672376e-003 6.34448137e-003 3.26124532e-003 1.55998021e-002
      -1.35578820e-002 -2.66037462e-003 1.49544165e-003 5.63505432e-003
      -5.17731952e-003 8.62554740e-003 -1.17922518e-002 -8.69682897e-003
      -8.61548912e-003 6.71501551e-003 2.03264505e-003 6.57773297e-003
      3.87429097e-003 -1.39199812e-002 -6.89617218e-003 6.41349528e-004
      -1.14879739e-002 7.67032430e-003 3.29015069e-002 3.08537278e-002
      2.11227164e-002 -1.13378884e-002 -3.81224267e-002 -7.61470571e-003
      8.04998726e-003 6.58525946e-003 2.64327340e-002 2.96043605e-002
      2.64675282e-002 2.57410631e-002 -1.45950532e-002 -3.95058542e-002
      -1.70542113e-002 1.01191206e-002 1.06055755e-002 1.92384534e-002
      3.44372317e-002 2.26587746e-002 1.64874420e-002 6.00533700e-003
      -3.96204889e-002 -2.36537755e-002 8.08998570e-003 7.67324632e-003
      2.30197515e-002 2.92161219e-002 2.91222595e-002 1.61551069e-002
      2.88938263e-005 -2.28899661e-002 -1.20849526e-002 1.27260052e-002
      1.51482997e-002 2.28465255e-002 6.41621789e-003 1.75939202e-002
      1.44191654e-002 -3.16891377e-003 -3.24637480e-002 -7.93655124e-003
      5.04035503e-003 7.58077949e-003 5.25413686e-003 -3.00925574e-003
      -2.86818505e-003 2.90261698e-003 5.16977441e-003 4.79474198e-003
      1.30519141e-002 1.45855255e-003 1.17383571e-003 -2.07933690e-003
      6.33646315e-003 7.03758653e-003 8.36332422e-003 -4.64403536e-003
      -1.07168574e-002 5.17325941e-003 5.06724790e-003 8.18691775e-003
      3.15278908e-003 -1.69734319e-003 -3.09512415e-003 1.74759666e-003
      -3.39987659e-004 -3.11897660e-004 1.93290096e-002 3.30346660e-003
      -6.36206183e-004 -2.96386192e-003 -3.76092060e-003
      -4.41208528e-003 -5.42690139e-003 -4.33633057e-003 1.63850319e-002
      2.56990548e-002 1.65249361e-003 -2.47095176e-003 -6.00560009e-003
      -1.40325946e-003 -3.76848807e-003 -7.28611788e-003
      -1.64336320e-002 -2.42856126e-002 -6.36106124e-003
      -2.51481473e-003 2.19847774e-003 -2.21582875e-003 -1.12678192e-003
      -2.16399832e-003 -6.85077347e-003 -1.78096723e-002 1.00820847e-002
      3.01920008e-002 5.47296740e-003 -2.82004330e-004 7.56197493e-004
      1.17234010e-002 2.18979060e-003 -8.45019706e-003 -3.09566315e-002
      -2.75773909e-002 -9.46156308e-003 5.80665655e-003 8.21271725e-003
      1.66891012e-002 -1.28115853e-002 -6.49795076e-003 -3.10872425e-003
      2.13264185e-003 -2.39671376e-002 -1.51826069e-002 5.12340385e-003
      5.61151654e-003 -4.29838290e-003 -2.86662839e-002 6.31807372e-003
      1.71239022e-002 7.46199163e-003 -1.17518834e-003 7.08512403e-003
      2.17449013e-002 1.05887111e-002 -1.65849924e-002 2.30438560e-002
      9.57597513e-003 1.43155036e-003 -1.06309606e-002 -2.80962326e-002
      -1.82434525e-002 2.43526231e-003 1.26589257e-002 2.35040337e-002
      1.54359667e-002 1.38281099e-002 2.19644755e-002 -6.03384920e-004
      -1.40968701e-002 1.88590062e-003 1.34748993e-002 1.93621740e-002
      1.22030545e-002 -2.50457451e-002 1.55623024e-002 9.10743605e-003
      -5.18886792e-003 -4.25883057e-003 1.14948312e-002 1.68826170e-002
      1.09958686e-002 -1.54687939e-002 -2.08275337e-002 1.35955037e-004
      -2.43038312e-003 -2.18170043e-003 1.01765862e-003 1.54368272e-002
      1.77831613e-002 1.24850282e-002 -4.41821339e-003 -4.95153014e-003
      5.31836040e-003 8.78019072e-003 -5.57719788e-004 -6.68860506e-003
      1.53080681e-002 1.39687797e-002 1.82216689e-002 5.94917359e-003
      6.03278051e-004 -9.74978786e-003 -8.34700651e-003 7.18830945e-003
      7.49161409e-004 1.53349224e-003 1.16608925e-002 1.42974826e-002
      1.16812102e-002 -6.42365962e-003 -2.95878528e-003 1.19406125e-003
      -3.75274965e-003 -9.63490270e-003 -2.91897886e-004 7.74900895e-003
      2.36230134e-003 -1.36122166e-003 -2.87507335e-003 -1.06578961e-003
      1.30493194e-004 -1.89699046e-002 -1.16028804e-002 6.54009462e-004
      2.81985775e-002 -1.21325196e-003 2.03833496e-003 5.09641552e-003
      -1.62329189e-002 -1.80818681e-002 -1.29865119e-002
      -6.52950443e-003 -3.79289757e-003 1.27863027e-002 1.29223661e-002
      9.85767134e-003 1.51211685e-002 3.43456777e-004 -7.27829291e-003
      -1.87511873e-002 -2.00386718e-002 1.04540130e-002 2.69401781e-002
      1.68283768e-002 1.23594347e-002 -2.23081596e-002 -1.00789722e-002
      -2.42908183e-003 -1.23878829e-002 3.05917975e-003 1.40844360e-002
      1.86285414e-002 1.79997506e-003 -7.16212392e-003 -3.88006270e-002
      -6.20769430e-003 1.01151168e-002 1.31331049e-002 5.19074919e-003
      1.50903035e-002 2.10640151e-002 1.64672080e-002 -2.17145644e-002
      -1.93691975e-003 5.20680752e-003 -3.22988490e-003 -9.40322690e-003
      -8.37039668e-003 1.23415235e-002 8.48641060e-003 3.16863740e-003
      2.60313798e-004 -3.13595356e-003 2.56281393e-003 -7.43956817e-003
      -9.38994717e-003 1.59653916e-003 1.09760491e-002 8.63707252e-003
      1.18568400e-002 2.33954587e-003 -3.87219302e-002 5.48258750e-003
      1.33828809e-002 1.67954974e-002 5.18525392e-003 1.55179892e-002
      1.61893629e-002 5.77429403e-003 -2.10258290e-002 -1.78856011e-002
      1.05643105e-002 1.11120166e-002 1.71634033e-002 1.71321034e-002
      1.71239581e-002 4.03059600e-003 -7.96841085e-003 -2.36313473e-002
      -6.69776229e-003 -3.03835678e-003 -9.23906732e-003
      -6.00118749e-003 -5.04257763e-003 1.39466990e-002 9.57815442e-003
      9.80927981e-003 1.99141123e-005 -9.18537378e-003 -7.23529654e-003
      -3.89772072e-003 2.08439329e-003 1.86076369e-002 3.23312134e-002
      1.97887979e-002 4.01773816e-003 -9.13176127e-003 -1.59145556e-002
      -7.41966814e-003 -1.84303324e-003 6.91856630e-003 5.19829895e-003
      1.12813218e-002 -1.23599228e-002 -1.51740052e-002 -1.52886780e-002
      -6.24568760e-003 1.22702646e-003 3.02455598e-003 1.27341300e-002
      -9.23931692e-003 -1.32207684e-002 -1.15780467e-002
      -1.13738030e-002 -4.68665967e-003 -3.18185356e-003
      -8.20050761e-003 -1.59718450e-002 -4.30735061e-003 2.11684499e-002
      2.79272404e-002 3.64711089e-003 -9.70934331e-003 -3.87723092e-003
      -1.96376792e-003 4.70693549e-003 -1.26797538e-002 -6.54491410e-003
      2.56496598e-003 1.87574644e-002 6.94149593e-003 -8.43195803e-003
      1.41639481e-004 2.92729586e-002 2.73568649e-002 1.28694940e-002
      1.75714996e-002 -2.88865212e-002 -1.61533616e-002 7.34574767e-003
      1.15205357e-002 2.35810317e-002 1.20895356e-002 1.62486266e-002
      7.72325322e-003 1.29918987e-002 -6.56859158e-003 3.27718491e-003
      1.43007487e-002 5.17338421e-003 7.21656391e-003 1.62190013e-002
      1.90257523e-002 6.42524753e-003 -1.89354154e-003 -1.49787860e-002
      1.87084973e-002 2.06456687e-002 2.67787278e-003 1.27634890e-002
      -4.32470348e-003 5.16694691e-003 6.37055235e-003 1.50701320e-002
      5.36230044e-004 1.76553000e-002 1.19712250e-002 -2.71424535e-003
      -2.51427596e-003 -7.26244086e-003 -1.03344917e-002
      -6.00248401e-004 -7.15441210e-003 -1.33165745e-002 2.38970257e-002
      8.05610232e-003 5.99691470e-004 -3.47961416e-003 -4.47690953e-003
      -8.67656898e-003 -2.74228328e-003 -3.79108032e-003 2.78352713e-003
      3.86445671e-002 5.37143974e-003 -8.04150070e-004 -6.71179674e-004
      -1.73741616e-002 -8.37831758e-003 4.09219554e-003 9.84742958e-003
      6.63318438e-003 1.55497091e-002 -1.11504160e-002 -7.12428382e-003
      -1.74518097e-002 -9.11522284e-003 -6.53550448e-003 5.07675984e-004
      4.91130538e-003 -2.40740180e-003 2.21154951e-002 -1.03781745e-002
      -5.55813638e-003 -5.43096848e-003 -3.87665303e-003
      -1.93988869e-003 -3.96068487e-003 -7.72779528e-003 5.59880538e-003
      2.54075509e-002 1.41334080e-003 -1.79401773e-003 -4.67709644e-004
      6.26816042e-003 1.17578835e-003 -7.25148618e-003 -1.56448837e-002
      -2.85541192e-002 -2.76651960e-002 -9.72315203e-003 1.13427406e-002
      1.44490870e-002 -4.04970907e-003 -3.67965433e-003 3.05027061e-004
      -2.65975809e-003 3.45833576e-003 5.48601989e-003 2.07504164e-003
      1.15471119e-002 7.47060822e-003 7.07435934e-003 -9.22085077e-004
      -3.61553533e-003 -1.05773355e-003 -1.53981568e-003
      -3.08771785e-002 -2.47031916e-002 1.40974540e-002 2.20212005e-002
      1.53093832e-002 4.62409016e-003 1.02263398e-003 -5.14831161e-003
      -2.74276379e-002 -2.53291801e-002 -4.47105430e-003 1.34622157e-002
      1.57133900e-002 2.51075509e-003 1.05231432e-002 1.84466802e-002
      1.24190990e-002 -1.80174876e-002 -7.58697133e-005 3.40872048e-003
      4.20511840e-003 -7.29591539e-003 1.44795766e-002 1.03741176e-002
      6.73087966e-003 1.05910059e-002 -2.32180092e-003 -3.47331092e-002
      -1.41401375e-002 5.60655398e-003 2.67920326e-002 -6.29094290e-003
      1.97059140e-002 2.73186807e-002 2.56106369e-002 1.15020154e-002
      -6.33955747e-003 -5.01331175e-003 -1.30602606e-002
      -1.45414993e-002 -1.28465751e-002 1.22924242e-002 9.01393872e-003
      1.07447458e-002 -6.95166364e-003 1.07246460e-002 4.90670605e-003
      4.40788735e-003 -1.73940789e-002 -1.31846005e-002 -1.38420826e-002
      -7.30812969e-003 7.85601512e-003 1.23621132e-002 4.47381660e-003
      1.94970542e-003 4.52749943e-003 2.55651819e-003 -2.21029334e-002
      1.78000722e-002 2.06712317e-002 1.38761569e-002 1.46687469e-002
      2.25392971e-002 1.89674664e-002 -3.24239559e-003 -1.85645912e-002
      -3.10295098e-003 -7.79892551e-003 -5.60599472e-003 4.52728802e-003
      1.35024823e-002 1.03244353e-002 1.15011912e-002 2.10675541e-002
      -9.83688631e-004 -4.97024856e-004 -3.12458314e-002
      -3.01426928e-002 -1.01365782e-002 8.04822240e-003 1.88755337e-003
      5.19943610e-003 1.15094585e-002 1.62152760e-002 1.33650033e-002
      -5.94179519e-003 -1.84316095e-002 -2.48249751e-002
      -1.32060647e-002 1.47817070e-002 1.07544987e-002 1.79947838e-002
      1.64488051e-002 1.21137081e-002 -3.05450168e-002 -3.15386429e-002
      -7.19309365e-003 5.17312950e-003 1.94447523e-003 4.96684946e-003
      1.71659105e-002 2.73290053e-002 3.09908818e-002 -3.69732943e-003
      -9.27838031e-003 -1.30153103e-002 6.91002747e-003 2.14697905e-002
      5.99679444e-003 1.38752218e-002 3.87244895e-002 5.98916039e-003
      3.21758119e-003 -1.59718450e-002 -1.86302252e-002 -1.76108573e-002
      1.39149213e-002 7.60554569e-003 2.34672707e-003 2.21562060e-003
      3.95466993e-003 4.61197924e-003 -6.48837164e-003 -2.11037099e-002
      -9.97248944e-003 1.73563063e-002 6.98087038e-003 4.93212650e-003
      3.60718183e-003 1.56411566e-002 8.37916508e-003 -2.14054305e-002
      -2.43692640e-002 2.49044457e-003 2.38139164e-002 3.95799335e-003
      -5.27760107e-003 1.22833131e-002 1.64682197e-003 1.50590083e-002
      2.15428905e-003 -2.68890522e-003 2.27589952e-003 3.25006731e-002
      1.70375817e-002 -9.46729537e-003 3.35851382e-003 1.05032802e-003
      -1.49925211e-002 -1.29086040e-002 -1.82605013e-002
      -1.17049292e-002 1.25562493e-002 2.30774470e-003 9.48936958e-003
      -2.27880082e-003 -9.64697916e-003 -2.10042819e-002
      -1.14626428e-002 -4.93616913e-004 8.67129117e-003 2.38349773e-002
      4.73500649e-003 6.63093198e-003 5.96427781e-005 -3.13581782e-003
      -6.14498602e-003 -8.31927359e-003 -9.21402127e-003 2.06557824e-003
      3.91528532e-002 2.37990357e-002 4.02163528e-003 -2.10642419e-003
      -4.88304673e-003 -2.29972955e-002 -1.25571899e-002 1.11150276e-002
      1.40126813e-002 3.20105255e-002 8.40306561e-003 1.27819739e-002
      1.15679400e-002 -3.70958034e-004 -1.50799798e-002 -2.06344109e-002
      -2.35863193e-003 1.90687794e-002 2.18201037e-002 4.11717687e-003
      1.41563697e-003 4.05714475e-003 -2.89392192e-003 -1.72256865e-002
      -3.24548632e-002 -2.32235324e-002 4.54933121e-004 1.55945355e-002
      3.68039357e-003 3.90365371e-003 1.15055302e-002 3.53435660e-003
      -2.06657369e-002 -2.31983699e-002 3.53934639e-003 1.72993727e-002
      1.54480422e-002 2.58376496e-003 1.76729467e-002 2.43601855e-002
      1.95635157e-003 -2.48189885e-002 -2.25736927e-002 5.49230259e-003
      1.12563875e-002 5.27945207e-003 -2.22728383e-002 6.74375519e-003
      2.15345379e-002 -3.48322047e-003 -6.80849189e-004 -8.45738128e-003
      -1.61829367e-002 2.64997291e-003 1.56250373e-002 1.77792925e-002
      -1.74184423e-003 1.04594901e-002 -1.28967492e-002 2.13887962e-003
      3.81536921e-003 -1.51002011e-003 1.10341562e-002 1.41852768e-002
      6.35818951e-003 -1.55170728e-002 -2.30119489e-002 1.58770420e-002
      1.90364558e-003 -3.92382452e-003 1.10502867e-002 4.73767333e-003
      1.61870532e-002 -1.41799478e-002 -1.12849772e-002 2.38401555e-002
      -8.42755137e-004 -1.17997425e-002 -5.49133774e-003 9.73478705e-003
      3.39977350e-003 3.20304222e-002 6.98515866e-003 -8.63208622e-003
      -7.43071141e-004 -1.01504261e-002 7.75184948e-004 -1.75342531e-004
      1.12135997e-002 3.61051364e-003 5.72866574e-003 -1.15916263e-002
      -8.11995659e-003 -1.67980585e-002 -5.97461266e-003
      -1.93143741e-003 -5.83969615e-003 -5.54168271e-003 2.81199976e-003
      9.97881219e-003 -1.31488713e-002 -7.07582850e-003 -8.22776370e-003
      -3.77225410e-003 -2.60067713e-002 -3.14288884e-002 1.15612727e-002
      6.92540687e-003 4.14455011e-002 2.00489424e-002 1.64427340e-003
      1.10314146e-003 -1.89888501e-003 -1.29188178e-002 -2.90831979e-002
      -1.40968442e-003 5.71878254e-003 1.62874721e-002 3.82635556e-003
      3.26737005e-004 -8.54284095e-004 -2.18201871e-003 -7.06270570e-003
      -2.33732047e-003 -3.68676381e-003 -7.07679195e-004
      -5.16362581e-003 -4.92650829e-003 1.43606996e-003 1.72155607e-003
      1.84633154e-002 -9.86696128e-003 -6.25834754e-003 -8.00158549e-003
      4.23873868e-003 -1.38526065e-002 -2.50460524e-002 1.93324336e-003
      1.24712950e-002 1.39348512e-003 -7.93165993e-003 -1.68627349e-003
      -6.59826538e-003 -3.85214458e-003 3.67182959e-003 1.91371108e-003
      -1.13205751e-002 -1.15190605e-002 -2.61679437e-004
      -5.52445464e-003 -2.94796599e-004 -7.33141648e-003
      -8.55835737e-004 1.18735785e-004 6.00344874e-003 -3.82505800e-003
      3.86322080e-003 2.18474623e-002 6.96947891e-003 6.21849997e-003
      6.06489601e-003 3.88864754e-003 -9.01951268e-003 -3.89373340e-002
      -1.96262319e-002 2.23009903e-002 -4.31961380e-003 1.16764950e-002
      2.39220466e-002 1.83580201e-002 1.78574324e-002 1.67151932e-002
      -1.68313012e-002 -4.52303551e-002 -2.53341347e-002 3.29346806e-002
      8.95993877e-003 5.06846327e-003 2.15677312e-003 6.68181572e-003
      2.03450117e-002 -3.23901582e-003 -1.73387378e-002 1.96252447e-002
      8.00615828e-003 1.13253435e-002 1.68898832e-002 1.81411654e-002
      1.83106586e-002 3.32353786e-002 -6.89948723e-003 -4.53350879e-002
      -1.48970410e-002 -1.63014438e-002 1.65486790e-003 1.95391700e-002
      7.90846813e-003 1.33087048e-002 1.83258355e-002 2.00015698e-002
      -1.86376087e-002 -1.51551254e-002 3.02043767e-003 -1.62656624e-002
      -3.33747221e-003 4.15923190e-004 9.46032908e-003 1.22597897e-002
      1.32359276e-002 1.63741987e-002 1.30109787e-002 3.97181691e-004
      7.81331546e-005 2.29252297e-002 1.30945342e-002 1.32606691e-002
      2.63755769e-002 1.12527506e-002 -2.28986796e-002 -1.91735253e-002
      -4.07440728e-003 -2.13625934e-002 8.63137003e-003 2.38171872e-003
      7.99931772e-003 1.18005946e-002 9.85724013e-003 -4.49539674e-003
      -4.70359065e-003 1.42075419e-002 -3.59204784e-002 -3.67359146e-002
      -3.61630158e-003 4.14206693e-003 4.06802120e-003 3.01103550e-003
      1.23979673e-002 3.41165401e-002 2.29196027e-002 -2.55016461e-002
      -2.84622777e-002 -7.32881902e-003 1.58652142e-002 1.40919928e-002
      6.79762056e-003 6.06441684e-003 3.04253343e-002 6.05916092e-003
      -3.61612700e-002 -1.43446643e-002 1.94658409e-003 8.14543478e-003
      2.34768004e-003 5.06593380e-003 4.45201993e-003 6.76596677e-003
      -1.24860974e-003 -1.10610612e-002 -9.07289609e-003 3.99628934e-003
      1.50518557e-002 1.52763324e-002 2.31134593e-002 3.50948749e-003
      5.19453874e-003 9.41971876e-003 -1.60147343e-002 -1.99477598e-002
      -9.16657317e-003 2.30774749e-002 2.36506425e-002 4.79501300e-003
      -2.67150695e-003 8.25418718e-003 -7.42560625e-003 -7.01839989e-003
      -1.50430538e-002 -4.92198439e-003 2.68229004e-002 3.41449752e-002
      1.61454380e-002 -4.05137707e-003 -8.94468091e-003 -2.13364270e-002
      -8.29158071e-003 -6.62102876e-003 -3.30189522e-003 1.68685075e-002
      2.64232606e-002 2.12599505e-002 3.47374287e-003 -2.14302703e-003
      -7.24244304e-003 -1.94161804e-003 -5.58857853e-003 1.42785301e-003
      2.13665273e-002 2.72646360e-002 1.34235630e-002 4.15997207e-003
      -6.34703174e-005 -1.65265165e-002 -4.91783163e-003
      -8.28805380e-003 -2.06594053e-003 2.68533267e-002 3.29995267e-002
      3.02005578e-002 6.86606532e-003 -1.03050005e-002 -5.35279932e-003
      -6.06996007e-003 -2.48192740e-003 1.33133167e-002 2.62965634e-002
      2.56111361e-002 1.23069230e-002 2.40840744e-002 1.21264635e-002
      -1.78506318e-002 5.20845409e-004 7.56741175e-003 1.66663695e-002
      2.02972833e-002 1.97316650e-002 -4.64193057e-004 5.14987390e-004
      -2.23294273e-002 -3.25612426e-002 1.77867257e-003 2.01314725e-002
      1.96238309e-002 2.29636468e-002 1.60235018e-002 -2.79723783e-003
      1.48926806e-002 -3.37586068e-002 7.91726727e-003 -1.58288423e-002
      -4.17864835e-003 5.38391178e-005 1.50694409e-002 1.12396162e-002
      -5.66927623e-003 1.85088702e-002 2.87036393e-002 4.87110158e-003
      -1.68291330e-002 -3.66823189e-003 1.53791327e-002 1.00957332e-002
      1.07619418e-002 -1.65044330e-002 4.04938729e-003 2.29635723e-002
      -1.91154797e-002 -1.52744772e-002 1.47533864e-002 3.86851421e-003
      1.86298657e-002 1.48984659e-002 4.21930803e-003 1.40986601e-002
      -1.10601475e-002 -1.25971725e-002 -1.53308520e-002 1.49723737e-005
      1.61076654e-002 1.81453880e-002 1.24339899e-002 3.96357337e-003
      9.13571659e-003 -6.83864485e-003 2.04426814e-002 3.85717838e-003
      -1.42829507e-004 1.56524051e-002 1.41825601e-002 1.32751763e-002
      -1.64536647e-002 -1.83249936e-002 1.11801978e-002 -9.19897575e-003
      -1.91018898e-002 -1.13747967e-003 2.11103652e-002 1.00326687e-002
      3.86628173e-002 -4.41537611e-003 -1.76713839e-002 -6.77707838e-003
      -4.77467990e-003 1.01399235e-002 2.50360509e-003 1.91934761e-002
      1.08095529e-002 5.10712061e-003 2.75432365e-003 -2.14354042e-003
      -1.29601695e-002 -1.59111470e-002 -4.33991337e-003 1.29501363e-002
      2.50827055e-002 1.37519808e-002 4.99641197e-003 8.76027625e-004
      -6.88945816e-004 -1.78488176e-002 -1.23188356e-002
      -3.21992151e-002 -2.32507959e-002 1.41726043e-002 4.10307804e-003
      2.72762384e-002 9.03069600e-003 6.77332561e-003 6.37715496e-003
      -4.53070388e-004 -1.64993554e-002 -2.29289606e-002
      -1.53176297e-004 9.94129479e-003 2.73821503e-002 5.48794819e-003
      2.89424136e-003 8.56532995e-003 -2.87994798e-002 -2.63912454e-002
      1.48400734e-003 2.26188116e-002 2.08121073e-002 8.54117051e-003
      5.38722891e-003 1.10666230e-002 -4.86407522e-003 -1.57258697e-002
      -2.29563247e-002 -2.02430673e-002 1.51004596e-002 2.76814885e-002
      2.80549582e-002 3.08327749e-003 9.64639999e-004 1.61442650e-003</_></support_vectors>
  <decision_functions>
    <_>
      <sv_count>1</sv_count>
      <rho>-2.1384689097664497e-001</rho>
      <alpha>
        1.</alpha>
      <index>
        0</index></_></decision_functions></my_svm>
</opencv_storage>
