<?xml version="1.0"?>
<opencv_storage>
<my_svm type_id="opencv-ml-svm">
  <svm_type>C_SVC</svm_type>
  <kernel><type>LINEAR</type></kernel>
  <C>1.0000000000000001e-001</C>
  <term_criteria><epsilon>1.1920928955078125e-007</epsilon>
    <iterations>1000</iterations></term_criteria>
  <var_all>1764</var_all>
  <var_count>1764</var_count>
  <class_count>3</class_count>
  <class_labels type_id="opencv-matrix">
    <rows>1</rows>
    <cols>3</cols>
    <dt>i</dt>
    <data>
      0 1 2</data></class_labels>
  <sv_total>3</sv_total>
  <support_vectors>
    <_>
      -2.76003573e-002 -4.02771402e-004 1.39537193e-002 6.42508734e-003
      -4.07688669e-004 -5.56742959e-003 -8.91702622e-003
      -1.48846852e-002 -2.78983023e-002 -3.56522128e-002
      -1.09462310e-002 1.42134847e-002 -9.07482672e-003 -2.20774002e-002
      -8.27751122e-003 -1.51310796e-002 -1.07802581e-002
      -1.91736314e-002 -7.67250685e-003 -5.59696369e-002 3.56872343e-002
      4.72712796e-003 -2.29791179e-002 -5.05606644e-004 -9.85067710e-003
      -1.64727811e-002 -6.82267128e-003 -2.99299881e-002
      -2.79516890e-003 2.29858272e-002 1.66569045e-003 -8.68151954e-004
      5.17564733e-003 -3.29156988e-003 -4.44609951e-003 -7.01194687e-004
      -4.27364819e-002 -1.70610640e-002 1.12845860e-002 -1.26408264e-002
      -2.06192136e-002 -2.70681526e-003 -4.82266629e-003
      -2.51378678e-003 -1.17837796e-002 -2.61685345e-002 1.24999350e-002
      -4.52618720e-003 -6.24105195e-003 -2.01063254e-003 7.12233188e-004
      -5.81651519e-004 2.55541201e-003 -8.03520903e-003 -2.20008790e-002
      -2.28215722e-005 1.05302921e-002 2.35655792e-002 -2.67078314e-004
      1.55404012e-003 -1.38101517e-003 3.52110394e-004 -2.81368406e-003
      -2.60321293e-002 1.24999350e-002 2.33022850e-002 9.94377397e-003
      -1.57861481e-003 8.79729632e-004 -5.64110349e-004 2.61363271e-003
      -9.36660264e-003 -2.82885376e-002 2.37464299e-003 -3.46100405e-002
      -3.48691875e-003 -1.22001488e-003 3.37394478e-004 7.63961696e-004
      2.80569401e-003 -9.87498183e-003 8.51089135e-003 7.56557798e-003
      -4.10536584e-003 -2.23661261e-003 -5.65256504e-003
      -5.77735424e-004 2.12558312e-003 -2.63640797e-003 -9.96470451e-003
      -2.99942177e-002 7.75099033e-003 1.03953872e-002 3.81968101e-003
      6.97068026e-005 3.32256721e-004 9.67979315e-004 1.82546407e-003
      -1.22399470e-002 7.89565500e-003 1.48742599e-003 1.34398658e-002
      -1.56284298e-003 -1.22762751e-003 -1.15175697e-003
      -6.78195560e-004 -3.30306217e-003 -2.67871236e-003
      -5.05218189e-003 1.82479490e-002 1.79340353e-003 -1.07080524e-003
      -4.10211366e-003 4.23380079e-005 6.35639590e-004 -2.66373623e-003
      -3.28510366e-002 -1.56766195e-002 3.78431566e-003 1.14164141e-003
      3.46905901e-004 -3.85296182e-003 3.52008059e-003 4.35821386e-003
      2.40536742e-002 -3.70732252e-003 -6.69096084e-003 1.16834231e-002
      3.09310574e-003 -7.19893957e-004 -9.89722204e-004 -9.31388466e-004
      -1.32459530e-003 6.98336808e-004 -2.31006145e-002 7.74749933e-005
      1.73616670e-002 1.46066456e-003 7.29302643e-004 3.10816715e-004
      2.06366600e-003 5.99540072e-003 8.86670966e-003 -2.43393844e-003
      3.52035207e-003 -3.05453112e-004 1.10453472e-003 -1.29199152e-005
      -1.87779206e-003 2.07617367e-003 1.09533677e-002 1.56892706e-002
      -5.25828823e-003 -3.63061135e-003 1.21049618e-003 1.92742562e-003
      1.69421446e-006 -2.11183471e-003 2.87484028e-003 -1.22333914e-002
      -9.21391975e-003 -2.97604874e-002 3.66772786e-002 9.16592311e-003
      1.87896378e-003 -2.63262453e-004 -2.55012419e-004 2.44004023e-003
      1.08028958e-002 -2.72663143e-002 -1.47213752e-003 1.62054114e-002
      1.33634508e-002 9.82193928e-003 2.58404808e-003 9.24433931e-004
      9.30884853e-003 2.63809375e-002 -6.31601224e-003 -1.40387537e-002
      1.01488142e-003 3.29028699e-003 1.84868812e-003 1.07558363e-003
      2.34142318e-003 1.01938164e-002 -1.15515338e-002 -1.90429017e-002
      -3.67876817e-003 -4.89835395e-004 -5.47831354e-004 1.79357710e-003
      2.78860563e-003 1.44422706e-002 3.39608938e-002 1.27134025e-002
      -1.95588823e-002 -7.65120436e-004 8.57785251e-003 6.21114252e-003
      5.56144724e-003 3.61091527e-003 3.30603588e-003 1.92919523e-002
      1.28449500e-002 -9.37110651e-003 5.63201820e-003 4.24816553e-003
      5.22182323e-003 1.15917413e-003 3.18965828e-003 1.04319118e-002
      3.92545499e-002 -1.10016130e-002 -1.79239120e-002 4.20671422e-003
      -1.71780144e-003 2.09395727e-003 -3.20752210e-004 2.61231326e-003
      1.07614463e-002 2.55441628e-002 1.56139750e-002 -3.99202034e-002
      -1.78175028e-002 7.58010102e-003 8.40209238e-003 -6.03126409e-003
      -2.72326521e-003 -5.16291521e-003 9.55422875e-003 3.19495313e-002
      -8.74205027e-003 -1.59734171e-002 4.79153777e-003 1.65642158e-003
      -2.85913306e-003 3.56159150e-003 5.31926611e-003 3.65460925e-002
      -7.79759977e-003 -3.95291448e-002 -8.03800393e-003 2.10605282e-002
      -2.70493398e-003 -2.06949525e-002 -6.17645448e-003
      -2.36727539e-002 3.02460254e-003 -9.92488582e-003 -2.34978888e-002
      -1.64739450e-003 -2.40095379e-003 -7.33077377e-002 5.37075277e-004
      5.57239633e-003 -1.02228075e-002 -4.27403196e-004 -3.98248248e-003
      -3.80964740e-003 2.18616542e-003 -7.50652142e-003 -5.09509332e-002
      8.61758087e-003 3.33537124e-002 -2.45654141e-003 1.36976712e-003
      -6.98124233e-004 -3.04861343e-004 3.03089095e-004 -3.60529026e-004
      -3.96707729e-002 -1.62631355e-003 4.10615047e-003 -1.06104072e-002
      -3.99182500e-005 -2.90126330e-003 -7.90133316e-004 2.08362893e-004
      2.90400203e-004 -1.12814540e-002 8.61758087e-003 2.76781507e-002
      2.30738684e-003 1.81853690e-003 -1.14329089e-003 -4.30242217e-004
      -1.29884901e-003 -6.97205029e-003 -5.82265668e-003 4.44217678e-003
      1.55494651e-002 -4.77262249e-004 -2.87779927e-004 -1.22331025e-003
      7.98360095e-004 -2.95848236e-004 -1.43150166e-002 -3.11164185e-003
      1.28127299e-002 1.43328086e-002 2.95991497e-003 1.43901608e-003
      3.42449319e-004 1.73179153e-003 -6.57322863e-003 3.30598094e-003
      -9.87111963e-003 2.24446179e-003 2.24412493e-002 -4.85270342e-004
      1.05931738e-003 -3.51932045e-004 1.57063734e-003 2.69607641e-003
      1.54865310e-002 -1.01860138e-002 -2.75781862e-002 9.45024565e-003
      -2.69472171e-002 3.28281149e-003 -1.20587691e-004 5.07168798e-003
      3.25931469e-003 -2.59452090e-002 1.00284873e-003 6.20850222e-003
      6.20561792e-003 1.43032311e-003 -1.75546005e-003 -3.79246497e-003
      -1.19344087e-003 -1.41522316e-002 5.35085378e-003 1.06261938e-003
      1.60472188e-002 1.92341348e-003 -1.03022363e-002 -9.36153159e-003
      -1.94927864e-002 -6.53945783e-004 5.21289371e-003 2.29851473e-002
      8.13045539e-003 -3.06167621e-002 -7.77287316e-003 -2.45467592e-002
      -7.35098962e-003 -1.14755854e-002 -3.45700746e-003
      -2.03331802e-002 3.16336341e-002 4.04711813e-002 2.21227854e-002
      1.34656364e-002 -6.42334521e-002 -5.76506257e-002 -7.00115412e-002
      -1.24629717e-002 -4.71530855e-002 1.32729649e-003 1.60229448e-002
      7.79116852e-003 -1.61257188e-003 -9.10370424e-003 -7.11627258e-003
      -1.29137114e-002 2.68422230e-003 -3.42530534e-002 3.97162475e-002
      6.44785687e-002 1.87805593e-002 4.60839772e-004 6.86807139e-003
      2.08227942e-003 6.52435422e-003 -5.43330330e-003 -1.56426430e-002
      -1.39528969e-002 8.95289034e-002 5.51925227e-002 1.72211993e-002
      -4.56882082e-002 -3.31517905e-002 -5.01688533e-002
      -5.14955772e-003 -9.89088789e-002 -3.13990749e-002 1.66498706e-001
      8.07514340e-002 3.33400220e-002 3.21357623e-002 1.89818479e-002
      1.77215915e-002 1.49408868e-002 -8.39587003e-002 4.15799245e-002
      4.57117930e-002 2.94755939e-002 -1.36017846e-003 1.16296420e-002
      1.12038469e-002 1.36922542e-002 -3.23693305e-002 -2.13505812e-002
      7.78849330e-003 4.65969890e-002 5.02275154e-002 6.63464470e-003
      1.22259082e-002 2.55113263e-002 8.92810244e-003 -6.28241077e-002
      -3.26370336e-002 -2.93316785e-002 1.03659309e-001 5.69350719e-002
      1.90823991e-002 4.80027534e-002 4.75428253e-002 3.61265317e-002
      3.89888547e-002 -6.46354482e-002 -8.85818228e-002 4.83426638e-002
      5.23056872e-002 1.39238695e-002 5.71143478e-002 5.98198175e-002
      2.69214679e-002 -3.61669585e-002 -6.64919987e-002 1.11305155e-002
      1.21359751e-002 1.63284931e-002 6.21360866e-003 1.20972358e-002
      2.73605753e-002 4.99867555e-003 -4.51044515e-002 1.86763657e-003
      4.54352750e-003 6.16375008e-004 -1.30746979e-003 2.48983386e-004
      5.65267121e-003 -1.03210155e-002 -1.38387429e-002 -2.12190300e-002
      6.27103308e-003 -1.77605692e-002 1.66274309e-002 2.16605887e-002
      1.51165891e-002 2.00295653e-002 4.07386981e-002 4.73458227e-003
      -1.37661807e-002 -3.08559109e-002 -7.76811445e-004 2.28053518e-002
      2.54516676e-002 1.07005173e-002 9.08347219e-003 -1.51361320e-002
      -1.08469604e-002 3.47042382e-002 1.00778919e-002 1.66749815e-003
      -1.23998465e-003 -2.69788341e-003 4.97050525e-004 -7.81539129e-005
      5.22614573e-004 -6.13295659e-003 7.23435660e-005 3.52726062e-003
      5.31867426e-003 -2.28628563e-003 -7.20538851e-003 -3.26558272e-003
      -7.00785127e-003 -1.22441305e-002 -6.82700658e-003 1.25613324e-002
      1.01776551e-002 2.28934223e-003 5.52654592e-003 7.45698810e-004
      4.00357152e-004 -3.86020332e-003 -5.82602806e-003 -5.51954610e-003
      4.18161601e-002 7.14926701e-003 7.16691278e-003 4.91193729e-004
      -4.28545615e-003 -3.49404500e-003 -4.94465651e-003
      -1.87112950e-002 -8.82896315e-003 1.03253461e-002 1.59532409e-002
      -3.64557165e-003 -1.30566750e-002 -4.45578434e-002
      -4.82358551e-003 -3.42221977e-003 9.09334412e-005 -4.31403331e-003
      -6.89333538e-004 -1.69654808e-003 1.29322265e-003 1.57351070e-003
      -2.30861250e-002 3.47151537e-003 7.95067195e-003 2.53255898e-003
      4.60249576e-004 8.68928444e-004 1.50019024e-003 -2.89386231e-003
      -4.70478879e-003 -3.15717161e-002 -6.12954493e-004 2.10370682e-002
      1.50097944e-002 -6.44865970e-004 1.35695084e-003 2.60717294e-004
      2.82688322e-003 2.44730641e-003 -2.22303402e-002 -3.64190340e-003
      3.21086682e-002 1.12629859e-002 3.76805477e-003 5.50302071e-003
      4.07655770e-003 4.37824242e-003 2.91310973e-003 -3.06345411e-002
      3.27749061e-003 4.86786896e-003 5.69873583e-003 2.69910757e-004
      2.62413151e-003 2.75110081e-003 2.94665806e-002 2.62109134e-002
      -2.98717283e-002 -7.03027658e-003 -2.86068898e-002 6.27716258e-003
      -6.56962534e-003 -7.34027289e-003 -1.17323939e-002 4.74902755e-003
      2.21788767e-003 -1.26952948e-002 -9.81786009e-003 3.24695222e-002
      1.57625545e-002 7.05688726e-003 1.09186918e-002 3.46623687e-003
      2.65865047e-002 2.60386262e-002 6.34544669e-003 -7.56776845e-003
      -3.30733992e-002 1.65614393e-002 6.41023368e-003 -4.31948481e-003
      -3.79538909e-002 3.10921874e-002 4.38636802e-002 -4.15466018e-002
      -1.01767192e-002 -1.75402630e-002 5.98653732e-003 -8.83786753e-003
      -4.45056148e-003 -3.91260274e-002 8.45132582e-003 7.33823255e-002
      4.15226705e-002 2.83311810e-002 -8.16064700e-003 -2.15165243e-002
      -3.88471596e-002 6.37325551e-003 -8.58515799e-002 1.12326313e-002
      2.89122127e-002 3.52523266e-003 -3.64181329e-003 6.22821413e-003
      2.28212010e-002 6.20110892e-003 8.24334566e-003 -6.45641461e-002
      -3.56577262e-002 6.58228025e-002 5.26081994e-002 3.75887975e-002
      3.23487595e-002 1.72893591e-002 1.40110599e-002 5.15119247e-002
      -3.77244167e-002 6.79476652e-003 7.46029988e-002 4.94549349e-002
      3.77353840e-002 1.54266078e-002 1.00325001e-002 6.81208214e-004
      2.40830909e-002 -8.95329118e-002 -4.40942720e-002 1.24274410e-001
      4.98567000e-002 5.48468344e-002 3.86893675e-002 3.84169780e-002
      2.88036596e-002 3.95775177e-002 -9.65890661e-002 -4.45606671e-002
      6.22011535e-002 3.90118174e-002 4.03024293e-002 2.83948202e-002
      2.21159253e-002 2.36878842e-002 5.38920052e-002 -4.81124744e-002
      -4.14228998e-002 6.40771389e-002 3.67999524e-002 4.19730730e-002
      3.39921899e-002 4.75316308e-002 4.75520939e-002 7.56444037e-002
      -4.64203656e-002 -5.75849004e-002 9.12371650e-002 3.56544927e-002
      3.73172872e-002 5.21347299e-002 5.06211296e-002 3.24462205e-002
      4.94196974e-002 -1.01081319e-001 -7.83534870e-002 3.59675437e-002
      3.23181897e-002 3.78460810e-002 5.44474311e-002 6.09431043e-002
      4.07732092e-002 3.44904512e-002 -9.77881774e-002 -5.36927730e-002
      8.65514874e-002 6.18851371e-002 4.06652726e-002 3.97388265e-002
      4.95040454e-002 4.49509546e-002 5.23710623e-002 -8.08936507e-002
      -7.05303177e-002 8.40754583e-002 8.83931965e-002 3.84989381e-002
      3.98228355e-002 4.53134365e-002 2.04532687e-002 2.62517072e-002
      -1.24487311e-001 -4.91736680e-002 2.17375178e-002 4.91555445e-002
      3.61691713e-002 -1.46401236e-002 2.14001350e-002 3.16241989e-003
      -3.90879577e-003 -1.01715468e-001 -4.36317129e-003 2.49478854e-002
      4.94549349e-002 3.10431793e-002 -1.71620250e-002 -6.69700233e-003
      -2.16848124e-002 2.27184873e-002 -5.72031178e-003 -8.74716789e-002
      2.60281321e-002 7.66903907e-002 1.03543503e-002 -2.98036151e-002
      5.39623154e-003 -4.48751915e-003 -2.65202485e-003 -1.16237901e-001
      -6.92871772e-003 1.17361341e-002 4.93772142e-002 2.84576956e-002
      -4.95238602e-002 -1.82681810e-002 9.09048971e-003 1.59241084e-003
      -1.14837559e-002 1.48757303e-003 4.97325975e-003 6.08705170e-003
      4.50085290e-003 -1.29789801e-003 9.88105778e-004 -8.87100585e-003
      1.19427452e-002 2.40010442e-003 1.28691376e-003 4.41480188e-005
      5.66149456e-003 7.30630383e-003 5.24336146e-003 -2.65640439e-003
      -2.69021373e-002 9.94559750e-003 7.53717544e-003 1.71089632e-004
      1.90342718e-003 9.49952006e-003 1.38826845e-002 4.21166013e-004
      -9.81234573e-003 7.84987491e-003 2.69380352e-003 6.39458944e-004
      -4.46210441e-004 5.90358337e-004 7.39381649e-003 1.73820164e-002
      1.07841184e-002 6.99813524e-003 -1.83677785e-002 2.35904148e-003
      2.65337829e-003 -1.05737511e-003 -2.72835518e-004 -6.52353466e-003
      -3.21008749e-002 -4.98044910e-003 3.50680389e-002 -1.10045832e-003
      1.40985113e-003 -1.23471604e-003 1.86681771e-003 2.26875907e-003
      4.08446853e-004 -3.54505666e-002 -9.08288639e-003 2.13073380e-002
      2.58276402e-003 3.81736644e-003 2.55678734e-003 -8.86973925e-004
      5.84386580e-004 3.33959470e-003 -2.47447123e-003 -3.69340228e-003
      1.39147146e-002 6.57462049e-003 2.62723095e-003 -2.16287724e-003
      2.53362069e-003 3.70362448e-003 7.74892839e-003 7.62151834e-003
      -5.79073234e-003 9.08967853e-003 5.00934292e-003 1.99354114e-003
      7.94969557e-004 5.27546974e-003 6.93501439e-003 1.55538553e-003
      -6.69637090e-003 2.36795880e-002 1.61800664e-002 1.27640730e-002
      9.31635033e-003 2.32228381e-003 2.51723770e-002 -4.98407446e-002
      -2.67344732e-002 -1.91357657e-002 1.64812095e-002 3.62614281e-002
      2.70960033e-002 3.13526429e-002 6.39485940e-003 7.89962150e-003
      1.41034769e-002 1.49275549e-002 -3.76390340e-003 -2.06357930e-002
      2.26760861e-002 6.08535204e-003 3.48451594e-003 2.13015242e-003
      2.26754863e-002 -4.04163450e-002 -2.38150675e-002 -1.97741315e-002
      -9.03539062e-002 -2.53001470e-002 4.31813113e-003 1.88101064e-002
      3.24200722e-003 -1.09203858e-002 -2.33738031e-002 5.18271560e-003
      2.09650327e-003 1.82556976e-002 1.76482126e-002 2.02644300e-002
      2.97938678e-002 1.59659408e-004 -1.09839858e-002 4.05622981e-002
      4.57306989e-002 1.42499022e-002 1.93770342e-002 9.29259416e-003
      1.61347631e-002 3.69294882e-002 -3.78037542e-002 -3.52315977e-002
      -3.85372713e-002 7.47821759e-004 -9.97929182e-003 -3.01429853e-002
      -7.28746969e-003 -2.26198672e-003 8.06771591e-003 2.66298512e-003
      -1.41803967e-002 -1.52973635e-002 4.55712341e-002 2.03889031e-002
      9.98725370e-003 5.89502417e-003 -5.55197126e-004 2.23393925e-003
      -6.15272895e-002 -2.80012283e-002 6.73814937e-002 2.31357981e-002
      1.03000933e-002 1.27689568e-002 8.01582355e-003 1.66182611e-002
      3.27049457e-002 -5.92176989e-002 -2.66520251e-002 3.79252844e-002
      1.57590881e-002 1.15223816e-002 1.41553981e-002 1.21650621e-002
      3.93004827e-002 4.23122831e-002 -2.22301576e-002 -1.20441141e-002
      7.80038834e-002 2.36980058e-002 7.07267364e-003 1.08980099e-002
      4.89143515e-003 6.84122927e-003 1.31639754e-002 -5.51436208e-002
      1.92230230e-003 8.11734572e-002 2.14028005e-002 1.05744516e-002
      9.17694438e-003 9.33747645e-003 2.37367004e-002 -1.48818707e-002
      -2.31904332e-002 7.63675023e-004 5.53396940e-002 4.07432318e-002
      1.84141789e-002 1.87412091e-002 1.94788538e-002 4.07882258e-002
      -8.41508247e-003 -5.64423651e-002 -3.76921371e-002 9.18142274e-002
      6.66545704e-002 2.92089395e-002 2.69161053e-002 2.75431890e-002
      1.56374201e-002 -1.56814940e-002 -1.10909984e-001 6.39368072e-002
      4.45774049e-002 1.42205330e-002 1.07508050e-002 5.75959496e-003
      9.96255036e-003 7.61883892e-003 -3.38483863e-002 -2.18636617e-002
      3.12794745e-002 3.14417630e-002 2.99866870e-002 2.45394539e-002
      -1.72313638e-002 -1.98595878e-002 -2.72879694e-002
      -2.32873429e-002 -4.49933531e-003 -7.23388866e-002 4.94078845e-002
      5.49193844e-002 1.16264331e-003 -4.81159566e-003 1.08500998e-002
      9.33692977e-003 1.47245722e-002 -9.70813110e-002 -8.15393776e-003
      8.23389366e-003 2.94795856e-002 1.52217476e-002 -4.60563898e-002
      -2.06588767e-002 2.38851178e-002 1.16754575e-002 -1.87737704e-003
      5.60653955e-003 2.68917847e-002 2.88426019e-002 2.39164140e-002
      -4.00462858e-002 -2.38338262e-002 -3.14687118e-002 1.51232854e-002
      2.15384201e-003 1.86377869e-003 7.04053277e-003 7.83926994e-003
      -1.51963448e-002 -7.10549904e-003 4.28070202e-002 4.04298343e-002
      1.35799255e-002 4.03216900e-003 1.98567961e-003 3.91942821e-003
      1.21145044e-002 1.56059554e-002 -2.09305398e-002 -2.54422892e-002
      5.95900835e-003 3.88836162e-003 3.37149668e-003 2.67005130e-003
      3.49711697e-003 5.83184417e-003 1.11815343e-002 2.92880065e-003
      -1.55786332e-002 -2.15758756e-003 1.86008681e-003 2.87409802e-003
      5.07003488e-003 4.21823002e-003 2.02752557e-002 1.10308221e-002
      -2.08661892e-002 3.14220274e-003 5.76088857e-003 3.48879676e-003
      3.64797283e-003 7.61482958e-003 1.29134841e-002 1.80278942e-002
      -2.16782070e-003 4.27423790e-003 -4.18008043e-004 3.96422902e-003
      2.26301537e-003 3.74494796e-003 -3.90892441e-004 1.94932290e-005
      1.22278719e-003 6.06301613e-003 -2.41722614e-002 2.91817659e-003
      2.34045293e-002 2.99784425e-003 -1.74997695e-004 1.58741570e-003
      7.49636034e-004 2.27127760e-003 1.00160968e-002 -1.72099825e-002
      -4.30765620e-004 2.07234211e-002 5.20983571e-003 8.15482985e-004
      -1.21696084e-003 1.51923602e-003 3.41210747e-003 9.78232175e-003
      -1.80898607e-002 2.43732007e-003 -6.21378468e-003 3.88869643e-003
      -3.76239279e-003 1.37813285e-003 2.89161713e-003 6.96404604e-003
      4.87217633e-003 -1.94361601e-002 9.77416639e-004 1.97657035e-003
      2.45320555e-002 5.77364815e-003 3.85462958e-003 7.66025530e-003
      2.85523236e-002 8.41192063e-003 -1.88026931e-002 2.25713104e-003
      1.80118680e-002 8.72137584e-003 3.28288320e-003 9.71472543e-003
      1.77861173e-002 4.53498401e-002 -1.24463765e-002 -6.42156228e-002
      -5.63245602e-002 -4.76597399e-002 1.68377138e-003 3.85704590e-003
      5.98779321e-003 1.87823828e-002 4.40123901e-002 1.34850778e-002
      -1.73752028e-002 -2.23741513e-002 1.17681930e-002 3.20443064e-002
      1.55794248e-002 3.56768444e-003 2.25205664e-002 6.41200915e-002
      5.42451851e-002 -2.45565344e-002 -3.86825502e-002 -1.95172783e-002
      -3.60692106e-002 4.99656703e-003 7.21590361e-003 1.10562760e-002
      4.80784588e-002 3.58016416e-002 -4.48284112e-002 -2.24779211e-002
      -4.38821837e-002 -2.35866178e-002 -7.45064439e-003
      -2.93034911e-002 3.68979909e-002 2.98944619e-002 2.46044677e-002
      1.76652707e-002 6.75134035e-003 -1.55998217e-002 -3.56523804e-002
      -6.24210499e-002 7.11721275e-003 1.40308384e-002 2.97345966e-002
      4.00271602e-002 9.67837870e-003 2.78139114e-002 -3.91881429e-002
      -6.50982112e-002 -2.02273596e-002 4.26743031e-002 2.65982654e-002
      2.21159831e-002 2.18584053e-002 3.07044443e-002 2.62769181e-002
      1.16257230e-002 -3.07220686e-002 -1.40986014e-002 -2.61724852e-002
      4.18860912e-002 2.05555409e-002 8.32892582e-003 1.49008166e-002
      4.98239277e-003 1.09628523e-002 1.22146541e-002 -5.53284027e-002
      -3.03208292e-003 5.74841574e-002 2.59730387e-002 1.07687963e-002
      1.11164683e-002 1.02773877e-002 1.55983334e-002 6.50971383e-003
      -2.99999639e-002 2.55596079e-003 1.43440953e-002 9.68225487e-003
      7.95640517e-003 1.38673391e-002 3.38899484e-003 1.20055778e-002
      2.82591744e-003 -1.24324029e-002 -1.20056327e-002 2.98189148e-002
      1.07514979e-002 1.17154215e-002 1.47634139e-002 5.45054488e-003
      1.27909761e-002 3.56222838e-002 -1.65824257e-002 8.42780806e-003
      2.57743038e-002 -2.55672261e-003 8.72386526e-003 -5.96216507e-003
      3.93341994e-003 1.30794547e-003 -2.44979281e-002 -1.97870433e-002
      1.64296217e-002 2.20134854e-002 -1.20972041e-002 3.16374656e-003
      -6.35483116e-002 -2.82293390e-002 -2.03827880e-002 7.34440330e-003
      1.55575760e-002 -3.94253153e-003 -1.84619259e-002 -8.94508231e-003
      1.61878541e-002 8.50918517e-003 1.19112628e-002 1.48207368e-002
      2.59393379e-002 -2.11143829e-002 -3.46326502e-003 -1.47277853e-002
      -9.46122035e-003 -4.48745722e-003 -1.53640285e-002 1.89463738e-002
      1.98466349e-002 2.04471480e-002 6.29980117e-003 7.76992692e-003
      1.55394040e-002 9.09562316e-003 2.44492525e-003 -5.29302433e-002
      -2.24269666e-002 -4.85240528e-003 2.75755432e-002 7.19460100e-003
      2.75896234e-003 -1.24701182e-003 8.68082978e-003 -1.03726387e-002
      5.61688282e-003 2.66938098e-002 1.40973842e-002 2.77983630e-003
      1.07760809e-003 8.53162166e-003 1.33142034e-002 -2.95132734e-002
      -5.44218672e-003 -6.53721206e-003 8.28997232e-003 1.89460572e-002
      1.24812610e-002 6.04214566e-003 2.90111755e-003 3.02492511e-002
      2.94790720e-003 -1.54281231e-002 1.38754565e-002 1.43273803e-003
      3.99668561e-003 2.18125386e-003 2.48144032e-003 3.27351200e-003
      -1.01376581e-003 3.45332474e-002 -1.01590427e-002 -2.12072227e-002
      5.86513104e-003 2.88890442e-003 5.28590404e-004 1.89970806e-003
      7.17397453e-003 3.73743451e-003 2.17842031e-002 9.67229623e-003
      -2.93198340e-002 5.19496528e-003 1.21806539e-003 -4.80591370e-005
      1.13698014e-003 3.71003430e-003 6.72853133e-003 1.69527680e-002
      1.34455913e-003 -8.31029098e-003 -1.87488738e-004 -9.65225394e-004
      2.73308717e-004 2.83622788e-003 3.50758177e-003 -3.72302756e-002
      -2.38724006e-003 9.05174762e-003 -1.59002654e-002 1.78274931e-003
      -1.31419103e-004 2.99134641e-004 2.47929129e-003 -9.60031321e-005
      2.23504403e-003 1.05501225e-004 2.02497281e-003 3.87660781e-004
      4.43130033e-003 -1.45986620e-002 2.12059217e-003 -4.49925289e-003
      -1.60912350e-005 8.14534142e-004 8.23718612e-004 -1.63503492e-003
      -1.27888937e-002 7.41027901e-003 -5.29260514e-003 3.02868560e-002
      4.36976925e-003 -3.27503099e-003 -1.99986505e-003 -1.26262605e-002
      -1.42190745e-002 -9.83330049e-003 -1.96962375e-002
      -1.08012520e-002 -9.70587414e-003 -4.62796679e-003
      -2.35922431e-004 2.83858913e-004 -4.53978265e-003 -7.20224949e-003
      -1.59047898e-002 6.30756700e-003 -5.35133481e-003 1.66524425e-002
      -9.91640985e-003 2.21147900e-003 7.61704380e-003 1.26781920e-002
      3.36072966e-003 -4.43513831e-003 2.23793508e-003 -3.76105192e-003
      1.19936839e-002 1.34677356e-002 -2.24041505e-005 1.02930292e-002
      2.00115293e-002 5.46809100e-003 6.07214822e-003 3.69714983e-002
      -2.86145117e-002 -3.15137729e-002 8.41567479e-003 -1.41382287e-003
      4.66325902e-004 1.64416840e-003 -1.92419079e-003 -7.17946654e-003
      -6.88221538e-004 -4.32259403e-003 -1.16333561e-002
      -6.89931074e-003 -7.12209090e-004 9.92817711e-003 2.60967538e-002
      5.68053639e-003 8.76595965e-004 2.33534798e-002 -2.66104238e-003
      -8.79136845e-004 -4.16683545e-003 -3.69338645e-003 1.80979855e-002
      2.88170986e-002 7.99057912e-003 9.52415913e-003 3.30001228e-002
      1.00532512e-003 -6.79539591e-002 -2.37235874e-002 2.18795072e-002
      2.33412571e-002 2.40624361e-002 4.07403940e-003 1.09212846e-002
      1.58846546e-002 1.82816647e-002 -6.35721236e-002 -1.55475484e-002
      -6.41126838e-003 1.84748843e-002 3.83987762e-002 7.72031723e-003
      1.38471299e-003 1.77527592e-002 3.45455781e-002 -8.88761785e-003
      -6.00199541e-003 -4.56075836e-003 1.71615388e-002 2.07908843e-002
      -1.13243994e-003 -3.04905290e-004 1.20361662e-003 1.51064247e-002
      4.08584345e-003 -6.14460465e-003 -1.26016382e-002 5.86559391e-003
      2.98060221e-003 1.28541957e-003 3.98217142e-003 5.04747557e-004
      3.02641373e-003 -1.22921681e-002 -8.62925313e-003 -8.09398480e-003
      1.12272846e-002 2.27583433e-003 3.98830418e-003 5.57287689e-003
      3.04070389e-004 4.98581817e-003 1.42214568e-002 -2.01263130e-002
      -3.78887937e-003 5.78594813e-003 1.35628809e-003 -1.50097895e-003
      -5.96644066e-004 -1.51751458e-003 -3.26410955e-004 3.44248265e-002
      -1.48212304e-003 -3.54095688e-003 1.49246613e-002 3.79419001e-003
      7.33269670e-004 6.27737492e-004 -1.46069715e-003 -1.31711946e-003
      1.14444243e-002 -5.26417186e-003 -1.08908499e-002 -2.73698457e-002
      2.31040665e-003 5.13173826e-003 9.65313800e-003 2.87174853e-003
      4.34836419e-003 9.46778897e-003 -8.79715476e-003 9.21089482e-003
      -9.02311876e-003 -1.99421160e-002 1.02476943e-002 1.06681976e-002
      3.80770792e-003 5.97148947e-003 4.50942246e-003 7.21086655e-003
      -7.03945756e-003 -3.35344439e-003 5.23352390e-003 -1.26260187e-004
      1.89896964e-004 -9.81975230e-004 -1.30032329e-003 4.82611591e-003
      1.88347027e-002 -4.17993730e-003 2.96982442e-004 -1.49096809e-002
      1.70678599e-003 2.24334071e-003 -3.91738402e-004 1.56259528e-004
      1.58963969e-003 5.42399893e-003 1.08509893e-002 2.31750426e-003
      -1.51165705e-002 1.22365383e-002 1.15177911e-002 7.41231543e-006
      2.92267976e-003 1.37947605e-003 2.79680057e-003 1.65044144e-003
      4.55837846e-002 -4.77844151e-003 -2.54769884e-002 3.27496137e-003
      -9.79457865e-004 1.51913834e-003 1.28974323e-003 8.99508246e-004
      4.02231589e-002 -4.77844151e-003 -2.31489483e-002 4.86849248e-003
      1.33054575e-003 -4.98262198e-005 7.54025881e-004 -5.81155356e-004
      3.14014452e-003 2.30021197e-002 -1.12005537e-002 -5.09170257e-003
      -2.17612972e-003 -1.38240604e-004 6.89978129e-004 1.67723408e-003
      1.41750046e-004 2.05095485e-003 1.80630269e-003 2.78009009e-002
      4.94303415e-003 6.26886124e-003 -1.65929517e-003 1.97306229e-003
      -1.01010177e-004 4.00618534e-004 1.14706543e-003 2.23064958e-003
      -3.28264609e-002 -6.88266940e-003 -3.02439332e-002
      -1.20112095e-002 2.45966204e-003 1.65250312e-004 4.19528165e-004
      1.27029169e-004 8.41811392e-003 1.45562058e-002 3.28940363e-003
      4.72378219e-003 2.06051907e-003 2.35928362e-003 6.05740468e-004
      9.60466743e-004 1.61781174e-003 1.05566271e-002 -2.03976333e-002
      -8.63545388e-003 -2.32961145e-003 -1.35180978e-002
      -3.97177273e-003 -1.91231898e-003 -3.30013223e-003
      -2.62711872e-003 2.03548931e-002 -8.74814764e-003 -1.20227700e-002
      -1.69435106e-002 -1.60995778e-002 -2.79711536e-003
      -3.11476812e-002 5.37476176e-003 3.18708569e-002 1.72004122e-002
      -8.13354854e-004 -5.00976620e-003 -3.71013302e-003
      -9.71906818e-003 -4.42919321e-003 -4.94918739e-003 1.93160970e-003
      2.97920890e-002 1.80191211e-002 -1.27096670e-002 -2.00004783e-002
      -2.44879741e-002 -1.21936959e-003 -5.63145475e-003
      -2.42675878e-002 1.98242646e-002 3.98320779e-002 1.45850983e-002
      -1.08465450e-002 -1.38363270e-002 -9.04025976e-003
      -1.06838299e-002 -1.24684582e-002 -4.33926284e-002
      -2.47303769e-002 7.82083645e-002 2.22169072e-003 1.26073940e-003
      8.10882309e-004 -1.41082832e-003 -5.07153803e-004 -1.79217407e-003
      4.87415493e-003 -6.45974604e-003 1.93581302e-002 2.84501747e-003
      3.83997848e-003 4.58548544e-003 -2.15525215e-005 2.86462368e-004
      7.26955198e-003 2.87756771e-002 6.01559365e-003 2.52920180e-003
      -3.00658378e-003 -5.20920521e-003 6.07803173e-004 2.44879309e-004
      -2.49705720e-003 -9.96913295e-003 -5.96661083e-002
      -1.48872752e-003 5.74152172e-002 4.50335722e-003 -5.84690226e-003
      -6.47359702e-004 4.93247760e-004 -1.36273296e-003 -5.40278014e-003
      -5.74770048e-002 4.48155124e-003 -1.81193405e-003 -2.29402352e-003
      2.49290420e-003 4.04777564e-003 1.38788321e-003 1.31637242e-003
      4.54103062e-003 1.52814901e-002 -5.16903528e-004 -2.67021619e-002
      -1.55706992e-002 3.15276417e-003 1.35518122e-003 -1.30598768e-004
      1.52914971e-003 3.41057254e-004 8.40982422e-003 1.66639369e-002
      2.96496483e-003 5.80118783e-003 -2.60412297e-003 -1.93045626e-003
      1.06173044e-003 -2.22441647e-003 -8.39267450e-004 -2.77816392e-002
      -2.41675321e-003 -2.41365973e-002 -1.14214877e-002
      -1.75381801e-003 -9.76732583e-004 2.38211403e-004 -9.36097524e-004
      -2.16859451e-004 8.64785351e-003 1.57148428e-002 2.94158724e-003
      -2.59155277e-002 2.61890236e-003 1.59726315e-003 2.75304250e-004
      -1.27001376e-005 -2.66546325e-004 1.09260483e-003 4.21299972e-002
      -2.19255290e-003 -1.13394558e-002 1.07317194e-002 4.61833365e-003
      2.10771686e-003 1.32018200e-003 1.47735339e-003 -1.54743646e-003
      1.30512975e-002 1.19764265e-002 -4.70205843e-002 -3.19570838e-003
      2.00043805e-003 6.47867564e-004 -1.33613532e-003 6.96563002e-005
      2.62493175e-003 5.07297963e-002 -3.58767528e-003 -2.77578086e-003
      -3.10918260e-002 4.72289976e-003 3.25057073e-003 1.53221365e-003
      3.06861312e-003 7.63750868e-005 1.66360624e-002 -1.11553667e-003
      -2.78985477e-003 4.27138386e-003 -5.00077556e-004 1.99994916e-004
      9.74511378e-004 1.34410965e-003 -1.05312362e-003 3.33104329e-003
      3.02416403e-002 1.65897608e-002 3.58150108e-003 -2.53703017e-002
      -4.52640874e-004 1.02141523e-003 1.46752413e-004 -3.62942228e-004
      3.06329370e-004 6.71734847e-003 -1.46342954e-003 -3.30168903e-002
      -1.49968201e-002 9.45137057e-004 -7.60329771e-004 2.54888879e-003
      2.57992651e-004 1.59607304e-003 3.55810262e-002 -6.73903199e-003
      2.58081546e-003 -6.76719919e-002 1.29887799e-003 -7.67169660e-003
      3.90101079e-004 -2.87721894e-004 5.52841404e-004 6.55173603e-003
      5.64869791e-002 -1.67843082e-003 -2.83311065e-002 2.96937348e-003
      2.62014079e-003 1.52278022e-004 9.70593304e-004 3.73946474e-004
      4.87904344e-003 4.07726467e-002 -6.32691663e-003 -1.73768997e-002
      8.94964393e-003 7.94132892e-003 2.33290927e-003 1.21304730e-003
      1.18069307e-004 6.41938206e-003 4.90336120e-002 -5.56696625e-003
      -6.12698048e-002 7.14626629e-003 5.07218880e-004 1.09339389e-003
      9.29332396e-004 4.57198452e-003 8.59359372e-003 4.96450923e-002
      -1.72525402e-002 -3.73183414e-002 6.56537944e-003 7.54006021e-003
      1.35243603e-003 2.65164860e-003 4.15940862e-003 1.15377940e-002
      2.86601111e-002 -1.82676818e-002 -1.72308851e-002 7.94070959e-003
      8.32612254e-003 -5.82978595e-004 -1.93053519e-003 -2.60672951e-003
      3.67329409e-003 8.01048055e-003 -1.18143938e-003 -2.37233788e-002
      8.19362234e-003 -2.44441652e-003 -1.80617571e-002 -4.71355487e-003
      -6.73205685e-003 4.81785787e-003 4.94909771e-002 -1.56096816e-002
      -3.89645807e-002 -4.55845194e-003 -5.48961898e-003
      -5.97736845e-003 1.53785991e-003 1.44303532e-003 1.87035538e-002
      -2.84785544e-003 2.68113092e-002 5.77197596e-003 -3.87937017e-003
      -1.00985160e-002 -1.32082263e-002 -4.64937038e-004 6.89933449e-003
      2.49182489e-002</_>
    <_>
      2.13697329e-002 -5.97587824e-002 -3.40457186e-002 3.62449363e-002
      4.45336737e-002 2.25190949e-002 1.74841452e-002 1.10194478e-002
      3.00242696e-002 1.74531173e-002 -7.18681142e-002 -3.90555635e-002
      1.51457228e-002 1.55735770e-002 9.50384978e-003 7.61487195e-003
      1.82684213e-002 4.63773943e-002 1.85219925e-002 -2.48857066e-002
      -4.67403382e-002 -2.10098317e-003 5.36579825e-002 4.17967923e-002
      1.78446285e-002 3.08192335e-002 3.46349813e-002 3.79735604e-002
      -6.00421913e-002 -1.21168271e-002 1.01796780e-002 3.10950074e-002
      2.01454666e-002 8.52769986e-003 3.07719652e-002 3.85252610e-002
      -2.46869419e-002 -2.57785358e-002 -1.66084617e-002 1.09014742e-004
      3.05393420e-004 4.11438104e-003 -1.21643723e-004 7.75479572e-003
      1.35365548e-002 -2.25975383e-002 1.53288990e-002 2.65557040e-002
      4.92389733e-003 -2.41588941e-003 3.54831456e-004 -1.88724732e-003
      4.17806674e-003 -3.11182434e-004 -1.04624005e-002 -1.42149143e-002
      1.66523270e-002 1.40794441e-002 9.05083865e-003 4.89388080e-003
      2.27068973e-004 4.19886131e-003 -4.01567831e-006 -1.75618976e-002
      1.08715659e-002 6.10631984e-003 -4.95934300e-003 -1.30554633e-002
      -2.97590508e-003 -2.79574678e-003 3.63485189e-003 -8.06347653e-003
      -3.07574198e-002 2.05123704e-003 2.57119816e-002 -7.68170739e-003
      -7.10344408e-003 -2.97179259e-003 -3.29971983e-004 1.33496930e-003
      -2.79704742e-002 3.06807482e-003 3.57473195e-002 1.86034665e-003
      -4.03187890e-003 -6.34546438e-003 -5.52549632e-003
      -1.77298894e-003 -9.78324004e-003 -7.40650529e-003
      -3.68721485e-002 -2.66322098e-003 2.26276871e-002 -1.93962138e-002
      -9.54145845e-003 -1.59575138e-003 -1.83653750e-003
      -3.45574156e-003 -2.84544770e-002 -1.39519321e-002 3.93113010e-002
      1.20490706e-002 4.24787169e-004 1.54389034e-003 9.41611943e-004
      -1.57632947e-003 -1.59896445e-002 -4.28141269e-004 1.65791456e-002
      1.51046729e-002 -6.13146601e-003 -2.13160994e-003 -5.41177997e-003
      -2.42673629e-003 -6.89125061e-003 -2.24261228e-002
      -4.99534514e-003 -1.30825182e-002 -7.92461075e-003
      -7.54977809e-003 -6.75045559e-003 -1.09007824e-002 1.90356921e-003
      -1.56418316e-003 -4.16031703e-002 -3.22905689e-004 1.25857564e-002
      6.56082900e-003 6.32970477e-004 -1.41817075e-003 -4.08902764e-003
      -1.92099425e-003 -6.37469161e-003 -2.06468534e-002
      -4.35669179e-004 4.14824970e-002 4.59235162e-002 5.62055036e-004
      -2.63092062e-003 -2.39279514e-004 2.10359762e-003 -6.71838131e-003
      -2.94918139e-002 -1.34574771e-002 -3.34085734e-003
      -1.71934888e-002 -1.67249739e-002 -9.80751589e-003
      -1.88640784e-002 -4.97415569e-003 3.72845936e-003 5.17947949e-004
      2.22437251e-002 -2.62271836e-002 -1.93511155e-002 -1.52849695e-002
      -4.35899338e-003 -1.32162962e-002 -1.15418769e-002
      -3.22742164e-002 -5.61171537e-003 1.36641646e-002 3.50849181e-002
      -2.34227441e-003 -2.14262377e-003 1.78582396e-003 6.07316731e-004
      1.37101524e-004 -1.42799923e-003 -2.12094653e-002 2.58230492e-002
      -5.79261184e-002 -2.10170373e-002 2.85266899e-003 1.04952808e-002
      4.54018591e-003 5.85187273e-003 -1.01306643e-004 -1.07911630e-002
      -1.05980448e-002 -1.55960508e-002 -3.17489984e-003
      -4.20477474e-003 -3.47367430e-004 -1.77878173e-004
      -3.44865466e-003 4.10903711e-003 6.69500558e-003 1.64555367e-002
      -2.13962886e-002 2.02586816e-004 -4.52642376e-003 -4.62435186e-003
      4.20331082e-004 8.62508826e-003 -4.92101535e-003 -1.44848440e-004
      2.60215998e-002 -2.62840651e-002 4.15904127e-004 -2.58275284e-003
      5.52629260e-003 1.44940719e-003 2.04549683e-003 9.04279668e-003
      -1.37165580e-002 -3.13807800e-002 -2.26632580e-002
      -4.67415247e-003 -4.77228407e-003 1.68439456e-005 -5.75268269e-003
      -2.29314361e-002 -1.59231722e-002 -7.06610968e-003
      -1.72493700e-002 -1.15697607e-002 -6.06463430e-003
      -9.11348313e-003 -1.45911900e-002 -3.33142169e-002
      -1.87390093e-002 1.83821246e-002 2.14398820e-002 7.65642710e-003
      4.03577387e-002 -1.30858825e-004 4.53068526e-004 -4.64517577e-003
      -8.18305910e-002 -9.21175703e-002 1.22134173e-002 8.69447067e-002
      5.95889203e-002 -1.10641122e-002 -6.82590483e-003 -3.94004304e-003
      -4.70189610e-003 -1.39982151e-002 -2.43590567e-002
      -9.76882657e-005 -2.29963893e-003 -3.59422318e-003 3.45439091e-002
      2.84305261e-003 9.21966787e-003 -1.40720764e-002 -6.16791211e-002
      -5.02720624e-002 -5.54758008e-004 5.64525984e-002 3.79232392e-002
      8.69739242e-003 8.10952671e-003 -5.73109239e-002 -6.29117116e-002
      4.82715927e-002 2.83476058e-002 2.78404495e-003 9.97322425e-003
      1.91096719e-002 8.85348022e-003 -2.87542567e-002 -6.62183249e-003
      -2.15249918e-002 4.04529124e-002 1.70800611e-002 5.40687889e-003
      1.39936898e-002 1.75223351e-002 7.68678263e-003 3.26793268e-002
      -1.88337511e-003 -7.45201344e-003 1.12378299e-002 7.04250438e-003
      3.76893528e-004 2.05850252e-003 5.99947665e-003 4.28972300e-003
      1.66096408e-002 5.51622175e-003 -3.98695422e-003 2.59162001e-002
      8.38469621e-003 4.66669723e-003 2.69780750e-003 4.75683669e-003
      -1.40248367e-003 -1.73206367e-002 2.02799533e-002 1.27392067e-002
      1.04920361e-002 6.16508303e-003 5.86796273e-003 5.88031160e-003
      3.12436000e-003 -9.59073601e-004 -4.81201615e-003 1.90425329e-002
      -1.22340135e-002 -4.70930571e-003 3.27732763e-003 4.33300436e-003
      3.58136347e-003 -1.52521650e-004 3.80125106e-003 6.35257282e-004
      3.32880467e-002 4.82748728e-004 -1.89739373e-002 3.99755593e-003
      1.04569132e-002 5.60600031e-003 2.90138903e-003 -6.14355458e-003
      -2.29064710e-002 -2.19559520e-002 -5.73793836e-002
      -5.16909435e-002 -1.37360506e-002 8.29576142e-003 1.06396331e-002
      -1.26682012e-003 -4.49521653e-003 4.65814210e-003 -1.66196190e-002
      -1.38585726e-002 -9.79678147e-003 3.30312224e-003 9.02501983e-004
      -6.55179471e-003 -2.70388685e-002 2.78761387e-002 3.11124232e-002
      1.27483904e-002 -1.40588386e-002 -3.60578597e-002 -9.79171693e-003
      -3.55437351e-003 -1.90104656e-002 2.50330456e-002 1.40199196e-002
      -9.70147084e-003 -4.16448228e-002 -6.63295463e-002
      -7.12292567e-002 -1.46067515e-002 1.52413910e-002 -1.44554151e-003
      -1.05074234e-002 5.50659038e-002 1.35951228e-002 -4.04751748e-002
      -7.62847289e-002 -1.01967528e-001 -1.72582883e-002 2.69264691e-002
      7.43702287e-003 2.77054217e-002 6.51335493e-002 4.34350036e-002
      7.45827472e-003 -1.63339227e-002 -2.52802428e-002 -6.35409215e-003
      -1.07967332e-002 -2.27787104e-002 2.43610274e-002 9.84971449e-002
      -6.46443246e-003 -5.80547601e-002 -2.68871407e-003 8.97394773e-003
      3.83626577e-003 -1.38687631e-002 -1.10786604e-002 4.35965173e-002
      8.50875825e-002 -2.59765657e-003 -1.19169794e-001 -5.68860471e-002
      -5.81403039e-002 -1.62774753e-002 -4.73158341e-003
      -7.95291923e-003 3.21444683e-002 1.14824489e-001 -5.95609508e-002
      -1.28213167e-001 -6.45046635e-003 5.59767336e-002 4.25177589e-002
      6.87106280e-003 2.44543217e-002 1.00305490e-001 3.14163566e-002
      -3.63346823e-002 -3.17516327e-002 3.99611890e-003 1.93544347e-002
      1.37065668e-002 1.09033473e-002 4.72548828e-002 9.44743529e-002
      -1.06168635e-001 -6.47248030e-002 -7.29329325e-003 1.52263595e-002
      1.55070946e-002 5.80061320e-003 5.75605631e-002 1.12187779e-002
      -5.37214428e-003 5.40574379e-002 -8.00663158e-002 -1.32485166e-001
      -7.93921761e-004 5.09012751e-002 5.10818847e-002 4.37592641e-002
      7.31340274e-002 1.19224370e-001 -1.10003538e-001 -1.46132439e-001
      -8.14487636e-002 2.80154292e-002 -9.77711752e-003 1.30955018e-002
      3.83247547e-002 4.22184579e-002 -2.52860226e-002 -4.98107448e-002
      -8.55507271e-004 6.57546625e-004 1.05931861e-002 -2.00553169e-003
      -1.42843397e-002 4.49019819e-002 -4.98205749e-003 -5.00535965e-002
      -5.22945775e-004 4.16545736e-005 -1.52705167e-003 1.09686342e-003
      2.68185302e-003 -1.52299479e-002 8.99433251e-003 7.56660197e-003
      -2.06412692e-002 -6.04819134e-002 -2.31542382e-002
      -1.92728750e-002 1.45613067e-002 -7.80726671e-002 -3.79859805e-002
      5.00133745e-002 1.87654495e-002 -4.43283878e-002 -4.65471298e-003
      4.74544754e-003 3.51214246e-003 -6.88270526e-003 -5.09827472e-002
      1.34604620e-002 2.43531317e-002 2.21730187e-003 -1.30924648e-002
      5.85357426e-004 -1.90046232e-003 -2.14149524e-003 -4.33984416e-004
      5.73712168e-003 1.42059019e-002 6.23482792e-003 1.09492792e-002
      -1.57835390e-002 1.01711480e-002 2.53439788e-003 5.68825519e-003
      -5.41904802e-003 -5.74105559e-003 -4.44722036e-003 1.17119988e-002
      5.16759697e-003 6.02981355e-003 -1.77439698e-003 -4.14307462e-003
      -5.60738426e-003 -3.78990243e-003 4.36021481e-003 2.22264491e-002
      9.52044793e-004 -3.78731787e-002 -1.60594359e-002 -5.09729143e-004
      -1.65264646e-003 3.60175356e-004 -6.84546633e-003 1.01951631e-002
      2.29453261e-004 -9.36057232e-003 -5.53566404e-002 -9.39345080e-003
      5.49088186e-003 1.72141120e-002 7.13771721e-003 -1.06387669e-002
      -6.29698932e-002 2.93998187e-003 1.42909109e-003 5.96666650e-004
      4.34641307e-003 3.65589978e-003 1.57642979e-002 4.43153828e-002
      -6.53066114e-003 -4.86415252e-003 4.58924129e-004 3.80674447e-003
      2.63965549e-003 5.70533378e-003 1.05605936e-002 7.48550426e-003
      1.89674329e-002 -3.28667392e-003 -1.82770658e-002 -1.04555311e-002
      -1.55191962e-003 3.80334095e-003 1.03948060e-002 1.03303986e-002
      6.23797532e-003 1.72652844e-002 2.12275535e-002 -2.73366440e-002
      -1.61736533e-002 2.51503196e-003 9.57358535e-003 1.73760373e-002
      6.19060919e-003 1.41981440e-002 6.43469533e-003 -1.34157976e-002
      -2.68069636e-002 -1.08055426e-002 1.20625570e-002 5.89738833e-003
      5.93868922e-003 7.20494473e-003 1.04888296e-002 -2.56237038e-003
      -2.37342212e-002 -6.06693625e-002 -4.37006354e-002
      -7.75184296e-003 1.67570990e-002 9.31661949e-003 1.69702563e-002
      7.52555719e-003 1.82453599e-002 1.25750685e-002 -3.61500569e-002
      -2.81199701e-002 -8.25561862e-003 9.26310569e-003 2.18848195e-002
      4.86501046e-002 4.38584164e-002 4.96368408e-002 5.21205273e-003
      -3.69380936e-002 -5.67148700e-002 -1.82540156e-002 2.46616416e-002
      5.79458214e-002 1.51940705e-002 1.30486963e-002 -4.36759070e-002
      -4.32453156e-002 -6.37568235e-002 -2.85581108e-002 6.60961866e-003
      7.00698560e-003 6.42060395e-003 1.76698808e-002 -1.44425523e-003
      -5.91439866e-002 -3.40847448e-002 -3.05786431e-002 2.59745610e-003
      3.48031633e-002 2.60489583e-002 2.44515166e-002 6.21148385e-002
      5.38710058e-002 2.49148645e-002 -1.54268406e-002 -2.93329712e-002
      -5.78554943e-002 -4.89728600e-002 -3.22121680e-002 4.63952683e-002
      2.56980136e-002 -8.95392336e-003 5.35686500e-003 1.17497696e-002
      1.99363288e-002 3.65715730e-003 -2.82313861e-002 -3.23102213e-002
      3.85614578e-003 4.42111939e-002 -5.14574610e-002 -9.76645499e-002
      2.52108667e-002 3.97296548e-002 3.53308767e-002 3.74394394e-002
      3.86537015e-002 5.67716472e-002 8.15798342e-002 -8.19584727e-002
      -1.41642511e-001 4.31919545e-002 7.94022530e-002 7.61318877e-002
      6.79982081e-002 9.09701660e-002 9.80833694e-002 -9.23351757e-003
      -9.51187238e-002 -8.53551105e-002 2.38160919e-002 4.71774824e-002
      3.68109681e-002 1.91563759e-002 3.74746881e-002 7.28593692e-002
      7.49983042e-002 -1.26362875e-001 -1.81185558e-001 3.45652504e-003
      4.43366468e-002 5.32657094e-002 7.37836584e-002 1.38189569e-001
      1.43849269e-001 4.88522202e-002 -1.09086499e-001 -1.53507948e-001
      1.31863821e-002 3.39083038e-002 3.36946808e-002 2.84447148e-002
      6.72171861e-002 6.94380701e-002 -3.41969915e-002 -3.96199226e-002
      -7.00528128e-003 6.03841320e-002 -3.07800304e-002 -3.72173525e-002
      8.01154599e-003 2.55822074e-002 1.01374020e-003 8.51419494e-002
      -5.39593250e-002 -1.01849943e-001 1.38973147e-002 -3.11686806e-002
      -2.35849787e-002 1.97425410e-002 1.14154764e-001 1.06864192e-001
      4.57528345e-002 5.93172498e-002 6.01893216e-002 1.09895482e-003
      -6.49658069e-002 -1.03740916e-001 -3.69811431e-002 1.25745134e-002
      8.73559341e-003 -3.54225710e-002 -8.00649694e-004 5.41842245e-002
      3.73810455e-002 -9.86864269e-002 -4.69859876e-002 4.27070297e-002
      1.80543307e-002 -5.03688026e-003 -4.02820064e-003 3.70396348e-003
      1.36317527e-002 2.13952474e-002 -5.48987277e-002 -8.59978329e-003
      4.45036627e-002 1.73288640e-002 1.96189061e-003 -1.68399292e-003
      5.59010208e-002 8.93269181e-002 -5.71075827e-003 -8.80202651e-002
      -7.86299035e-002 1.17511172e-002 -6.34297775e-003 -2.42839698e-002
      -2.18692212e-003 2.07233392e-002 4.47046272e-002 3.54075097e-002
      -6.52067289e-002 -1.84730720e-002 3.97954248e-002 1.07841017e-002
      7.70055631e-004 3.56422213e-004 -1.08368008e-003 -7.83406140e-004
      1.01587707e-002 2.02707723e-002 6.19710598e-004 -9.26201046e-003
      -2.15979014e-002 -3.71522317e-003 -3.27504077e-003
      -3.90697224e-003 -1.09039841e-003 2.18896428e-003 6.32763728e-002
      -8.20132555e-004 -5.24583496e-002 -2.17603408e-002
      -8.28202721e-003 2.17642332e-003 5.91204874e-003 2.32808851e-002
      4.70343605e-002 8.81629996e-003 -5.14424071e-002 -9.22315102e-003
      5.89376176e-003 6.94455579e-003 -1.91233039e-003 2.60920310e-003
      1.18161435e-003 2.18194555e-002 3.39914076e-002 -4.47317818e-003
      -5.30942380e-002 -1.32394807e-005 -4.37180186e-003 7.12492876e-003
      1.67747820e-003 7.30859209e-003 2.37951353e-002 -9.59187932e-003
      -4.71778959e-002 -9.60584451e-003 3.16293770e-003 4.69951704e-003
      1.25402519e-002 4.85342555e-003 1.02755306e-002 5.78724891e-002
      -1.24314902e-002 -5.96008599e-002 -5.94972586e-003 5.58204064e-003
      1.23565206e-002 1.56041118e-003 3.46182584e-004 5.83460415e-003
      2.69253813e-002 1.27739804e-002 -7.71312043e-003 -4.30091508e-002
      -5.07559220e-004 -1.52563234e-003 4.99539869e-003 1.54278765e-003
      7.19353417e-003 2.74406765e-002 2.49215979e-002 -9.39548761e-003
      -2.52842382e-002 2.97538913e-003 2.62687448e-004 1.73587296e-002
      9.45541356e-003 1.17856897e-002 2.15425584e-002 -2.43680235e-002
      -5.76933883e-002 -1.84697900e-002 2.27484922e-003 1.59425605e-002
      4.60409448e-002 3.31606753e-002 4.51793261e-002 2.41325330e-002
      -2.41717696e-002 -6.05023503e-002 -2.36090831e-002 3.27104493e-003
      3.97251397e-002 1.43155055e-002 7.33821373e-003 1.15663707e-002
      2.54775062e-002 -4.26885032e-004 -3.31850201e-002 -2.81366501e-002
      4.16906271e-003 1.45214852e-002 6.08244687e-002 4.23878059e-002
      2.03516744e-002 1.24451639e-002 -5.63233756e-002 -5.75466491e-002
      -3.45987789e-002 -1.12849167e-002 2.53749304e-002 4.46269922e-002
      3.98058482e-002 3.60799097e-002 6.92760572e-003 6.06579240e-003
      -3.16096172e-002 -3.84885818e-002 -4.74932268e-002 2.34181490e-002
      1.58528499e-002 1.81696024e-002 4.48764861e-002 2.27966774e-002
      3.49923298e-002 -3.77625553e-003 -3.65319103e-002 -8.34671333e-002
      -2.34997701e-002 -2.98168487e-003 -2.06773519e-004 1.44485580e-002
      -4.44309739e-003 -1.63416732e-002 -2.91750897e-002
      -1.39573822e-002 -1.43665345e-002 7.35103013e-003 -8.79299827e-003
      -2.27636416e-002 -8.02791212e-003 -1.54551920e-002
      -1.00164702e-002 -2.16978714e-002 -1.17643774e-002
      -2.93841735e-002 -1.31697441e-002 6.12776587e-003 -6.94353059e-002
      -1.08536454e-002 1.62755493e-002 3.34657282e-002 1.10180499e-002
      -9.36268456e-003 -9.37164109e-003 3.02843656e-002 -4.13631118e-004
      -1.18932202e-001 -9.81828868e-002 1.22884079e-003 1.68221071e-002
      7.04527926e-003 3.24153304e-002 9.39612389e-002 7.97161236e-002
      -2.11495347e-002 -2.57390346e-002 1.67179538e-003 1.20059317e-002
      1.72920376e-002 2.56621512e-003 -1.19742042e-004 -1.05229011e-002
      -2.53325887e-002 -3.96547318e-002 -1.14197824e-002 1.59999449e-002
      2.12266725e-002 2.54849754e-002 1.84628721e-002 2.88316254e-002
      4.13927212e-002 -4.11793105e-002 4.00505997e-002 -3.95377316e-002
      -4.50317338e-002 7.35419570e-003 -2.51169018e-002 -3.40374596e-002
      1.15150763e-002 5.51535338e-002 3.81912366e-002 9.17569455e-003
      6.68597445e-002 3.20538096e-002 -3.41506535e-003 -5.69745861e-002
      -3.88780311e-002 -1.26217864e-002 -2.31281705e-002
      -5.43743372e-002 -4.89413142e-002 4.43719281e-003 1.07323192e-002
      1.85248759e-002 1.39583070e-002 7.36919092e-003 3.91819142e-002
      1.69485621e-002 -3.35611701e-002 -2.29097139e-002 1.90900639e-002
      3.18519352e-003 1.25870733e-002 1.02680540e-002 1.44737475e-002
      2.66590854e-003 -4.24471162e-002 -5.41486219e-002 -3.80269960e-002
      4.75005731e-002 5.01148067e-002 -3.16446349e-002 -6.22919388e-002
      -2.09409036e-002 5.18065784e-003 -1.06512448e-002 -6.10913150e-002
      -4.81931679e-003 2.24350821e-002 5.08168973e-002 2.94054039e-002
      -5.32376729e-002 -3.52823883e-002 5.84284961e-003 9.29891597e-003
      5.85083896e-003 -1.16279935e-002 2.28741150e-002 1.50244059e-002
      1.12471199e-002 -1.80213922e-003 2.55200360e-002 -3.95937003e-002
      -5.64401597e-002 -5.64617924e-002 1.78171992e-002 2.15622187e-002
      3.32230143e-002 1.87153611e-002 -2.17448361e-003 -1.26143545e-002
      -2.85733361e-002 -4.11199965e-002 6.02082908e-003 9.94945783e-003
      1.46516711e-002 3.92013676e-002 4.79494184e-002 -5.86284930e-003
      -6.04100004e-002 -8.28281324e-003 8.25291872e-003 1.58535596e-002
      5.97431185e-003 9.47219040e-003 1.18311886e-002 2.55102552e-002
      -1.07358480e-002 -4.95005809e-002 -2.91889869e-002 4.62978333e-003
      3.78092052e-003 1.86684523e-002 1.98467821e-002 4.26300652e-002
      7.41838943e-003 -3.72675881e-002 -2.74141356e-002 -8.99470411e-003
      -1.79589621e-003 1.73296425e-002 9.79549065e-003 9.25936922e-003
      1.02314157e-002 -2.56622247e-002 -4.21553478e-003 -1.07349874e-002
      8.08549952e-003 1.22567154e-002 1.08339768e-002 2.32408405e-003
      3.02692782e-003 3.16843367e-003 1.56825949e-002 1.96561087e-002
      1.54546439e-003 -3.07603907e-002 -4.68286034e-003 6.92046771e-004
      -5.56491141e-004 8.34827719e-004 5.05809556e-004 3.48928105e-003
      1.63730625e-002 -7.08306674e-003 -7.13858800e-003 -1.42448943e-003
      -1.25167554e-003 5.77362766e-003 2.87668291e-003 3.43402475e-003
      1.38338022e-002 5.99799072e-003 1.90075710e-002 -1.08429119e-002
      4.39507468e-003 4.93443199e-003 3.16248450e-004 1.42418838e-004
      -9.11891286e-004 2.16233963e-003 1.64985266e-002 1.92133412e-002
      -1.91407523e-003 -2.11489983e-002 4.46543470e-003 4.82201343e-003
      8.83611292e-003 4.72254027e-003 3.84675176e-003 1.09746568e-002
      -8.06395151e-003 -4.09327820e-002 1.03061125e-002 8.64059944e-003
      3.03954538e-002 2.08796840e-002 3.22200023e-002 6.26085442e-004
      -1.96166579e-002 -3.84143628e-002 -6.22869097e-002 7.91897159e-003
      3.10417358e-002 9.83778620e-004 6.09757379e-003 3.58914421e-003
      2.59599439e-003 1.96465254e-002 2.22044718e-002 -1.08346818e-002
      -1.99339949e-002 5.64401736e-003 2.07934435e-002 3.44981067e-002
      3.54069248e-002 1.95654444e-002 2.71037351e-002 -2.84363553e-002
      -2.14404073e-002 -7.95253273e-003 1.64674334e-002 2.02705655e-002
      -8.34945962e-003 5.80971246e-004 -1.13140363e-002 -1.20647699e-002
      -3.25955711e-002 -3.24934572e-002 4.01680963e-003 3.29277180e-002
      -1.80572569e-002 -1.67194549e-002 -3.41485962e-002
      -2.27741878e-002 -1.28075005e-002 -3.89726646e-002
      -1.53695205e-002 -4.75446170e-004 1.53108384e-004 2.79399026e-002
      3.70114334e-002 3.02749723e-002 1.47512667e-002 9.75656882e-003
      -2.35433169e-002 -3.65914293e-002 -1.50429057e-002 2.43168045e-002
      3.03706434e-002 7.76063371e-003 2.13634968e-002 1.46598620e-002
      1.04374252e-002 -2.44338196e-002 -2.83009652e-002 -3.12320460e-002
      1.00596081e-002 -4.14984189e-002 -1.70561038e-002 7.34469062e-003
      -1.50112167e-003 1.04789138e-002 4.84231859e-003 4.98920307e-003
      -1.57300557e-003 -1.26720322e-002 -3.08651049e-002
      -1.80188403e-003 3.67951654e-002 2.58887932e-002 2.77089719e-002
      3.41413952e-002 2.73162872e-002 4.97543216e-002 -2.28987187e-002
      -8.51705857e-003 -3.94789409e-003 5.56099461e-003 -5.88130904e-004
      1.46220224e-002 -3.55486199e-003 -1.66086983e-002 -4.91312034e-002
      -3.17458436e-002 -3.75010595e-002 -3.39088007e-003 1.38443075e-002
      1.39932204e-002 2.56979447e-002 2.08698120e-002 2.30378322e-002
      3.68733006e-003 -3.45119648e-002 -5.19263111e-002 8.33577942e-003
      1.53652113e-002 1.90757513e-002 1.15460316e-002 8.40982888e-003
      4.51203398e-002 4.86510172e-002 -1.20869819e-002 -1.32719288e-002
      -3.10260756e-003 -1.89900957e-002 1.84438508e-002 2.23031873e-003
      -1.04562631e-002 1.56416092e-002 -8.26757750e-005 -5.04419468e-002
      -3.75311300e-002 -2.52537131e-002 -4.17278521e-003 1.75402649e-002
      1.65758822e-002 4.39777179e-003 3.62466536e-002 2.64954083e-002
      -5.41639999e-002 -4.05325070e-002 -4.57944497e-002
      -2.83459108e-002 2.87192762e-002 1.22793801e-002 -1.72143839e-002
      1.68507732e-002 2.38379370e-002 -2.67852396e-002 3.30660939e-002
      -1.70633779e-003 -1.76957324e-002 -2.92427954e-003
      -4.63729491e-003 -4.10704352e-002 -1.08777322e-002
      -2.21903306e-002 -9.51725058e-004 2.92082187e-002 1.52637120e-002
      4.06990899e-003 -7.11344136e-003 2.74058222e-003 -1.23997377e-002
      -2.77600326e-002 -1.65781286e-002 2.00911984e-002 -1.08982418e-002
      -6.53180107e-002 -5.90920709e-002 -2.77783871e-002 4.14301734e-003
      -2.77482066e-002 2.56776102e-002 2.52153464e-002 2.22610570e-002
      1.40204532e-002 -1.12016909e-002 -8.69762339e-003 -6.45748619e-003
      7.93302245e-003 -2.83513614e-003 1.40664401e-002 1.95661429e-002
      2.04036552e-002 8.31525400e-003 3.10097635e-003 1.94583274e-002
      -4.00421917e-002 -1.65987462e-002 -1.07413821e-003
      -3.91279766e-003 -2.69088225e-004 9.21907555e-003 2.92054634e-003
      -2.72356672e-003 2.67440844e-002 1.27633859e-003 -2.07702424e-002
      4.63897083e-003 4.59927740e-003 5.42479055e-003 1.49257539e-003
      -1.35058735e-003 -9.16956458e-003 -3.75827379e-003
      -2.38590781e-002 9.33728460e-003 9.59586073e-003 1.29948212e-002
      5.48544480e-003 3.82450968e-003 -6.11669896e-003 -1.68303382e-002
      1.46983517e-002 4.25079884e-003 1.04424283e-002 -3.80310905e-003
      2.88440776e-003 2.05269270e-003 -1.70376804e-003 2.66658654e-003
      1.36808783e-003 -6.70555688e-004 3.43294255e-003 -5.52807841e-003
      2.05067955e-002 -1.49919186e-002 9.41730384e-003 1.05208000e-002
      1.58265932e-003 3.33524682e-003 -4.85748053e-004 2.53386772e-003
      8.68027005e-003 3.95940617e-002 -1.33950869e-002 -2.77330894e-002
      3.98445968e-003 1.09071489e-002 9.55617428e-003 2.55446020e-003
      4.01361054e-003 -9.65817459e-003 -6.15222752e-003 -2.34918064e-003
      2.16181893e-002 2.82859653e-002 3.14230006e-003 9.17973928e-003
      4.89240279e-004 -1.32332649e-003 1.86183327e-003 1.82788540e-002
      -9.26563609e-003 4.32341686e-003 5.00534102e-003 -7.22205965e-004
      2.07726285e-003 4.48260806e-004 1.08347740e-003 2.02760054e-003
      2.05453373e-002 2.46953801e-003 -6.28394948e-004 -4.73310269e-004
      7.89966341e-003 1.05002718e-002 1.65527984e-002 1.71638839e-002
      -3.27176647e-003 -1.06174722e-002 -4.26003784e-002 1.60599761e-002
      1.25474706e-002 2.61735590e-003 3.53633380e-003 -1.25105469e-003
      -3.54283344e-004 7.08029699e-003 -2.05145148e-003 8.10687058e-003
      -9.81995277e-003 -2.88358447e-003 6.69179810e-003 2.94627878e-003
      2.54735071e-003 4.32201568e-003 1.31439315e-002 9.34193004e-003
      -1.98224746e-002 -4.99954680e-003 1.81840807e-002 1.16451113e-002
      1.90742258e-002 1.87592283e-002 1.69270579e-002 1.05503108e-002
      -5.01833716e-003 -4.30900827e-002 -5.94557300e-002 7.45391473e-003
      4.58780974e-002 2.69960854e-002 1.79018173e-002 2.65862998e-002
      2.00056545e-002 -1.11940280e-002 -1.26627553e-002 -4.81659770e-002
      -3.84204239e-002 1.00532838e-003 6.06971513e-003 5.49695268e-003
      2.58042151e-003 8.51689372e-003 2.15885490e-002 -3.77263092e-002
      -1.20333638e-002 1.18222190e-002 2.33902521e-002 1.10133300e-002
      1.02299647e-002 6.42915303e-003 4.98984708e-003 1.57019105e-002
      1.67530999e-002 -7.92435929e-003 -6.77088322e-003 2.08453983e-002
      1.78961232e-002 1.13966390e-002 1.42306555e-002 1.82510335e-002
      6.34828070e-003 -2.23484170e-003 -5.38955107e-002 -5.63244484e-002
      -4.62089702e-002 5.99513063e-003 1.26030156e-002 2.12182812e-002
      2.01869514e-002 1.07518053e-002 2.45432518e-002 -3.23989359e-003
      -5.05483970e-002 3.95663269e-002 1.44204814e-002 9.77693964e-003
      6.37594750e-003 5.86381648e-003 6.28133677e-003 1.75445452e-002
      -7.55210361e-003 -6.25014259e-003 4.68349783e-003 4.71909009e-002
      2.55896933e-002 2.27863453e-002 7.71434233e-003 5.15914615e-003
      1.49152502e-002 -3.08271009e-003 -1.60629675e-002 -6.17001653e-002
      1.11590149e-002 9.59705096e-003 2.05464158e-002 1.57067105e-002
      3.48464423e-003 1.82971768e-002 1.41380085e-002 -3.04255597e-002
      -7.71944076e-002 -2.54233535e-002 -1.38448048e-002 3.88546772e-002
      2.65469793e-002 5.40257199e-003 3.04571465e-002 2.92942021e-002
      -2.02947203e-002 -2.85760872e-002 8.19534734e-002 4.31387834e-002
      1.80753432e-002 8.93593393e-003 2.68021785e-003 3.84383369e-003
      5.97903691e-003 -3.43737528e-002 -3.03742494e-002 1.30506549e-002
      6.96833953e-002 2.93322951e-002 1.37958135e-002 3.78079573e-003
      1.04198493e-002 1.40346074e-002 -4.04599346e-002 -2.92912591e-002
      -8.43279585e-002 -3.98354605e-002 1.72122158e-002 1.79810878e-002
      7.98727572e-003 2.88488697e-002 2.44801342e-002 6.29417598e-003
      -2.42578353e-005 -5.03040701e-002 -5.94333606e-003 1.19535970e-002
      2.28518881e-002 1.38237178e-002 2.25153491e-002 1.05584087e-002
      1.02267582e-002 -3.16560492e-002 -3.22436774e-003 2.07978021e-002
      3.67488898e-002 1.62900425e-002 5.37430402e-003 1.24981692e-002
      8.41799099e-003 -5.26909996e-003 -5.16735064e-003 -2.60202549e-002
      1.23430938e-002 2.37506032e-002 2.26131864e-002 6.42812811e-003
      4.53986228e-003 3.80101753e-003 4.76824958e-003 -6.58756960e-003
      -2.83359084e-002 -5.68471057e-003 1.25216367e-002 1.02784634e-002
      5.09270187e-003 5.13016200e-003 1.96816027e-003 2.51180562e-003
      -2.44274642e-003 -1.45255029e-003 5.33097424e-003 -3.80549990e-002
      1.37580503e-002 -1.71550631e-003 3.08308890e-003 8.52744968e-004
      1.15974795e-003 -5.90683427e-003 -5.54736517e-003 4.85453708e-003
      -6.40568417e-003 1.33631518e-002 1.42148871e-003 -5.28765901e-004
      8.35676910e-004 2.25789822e-003 2.91263917e-003 2.03552693e-002
      -5.86248003e-003 -3.13862264e-002 1.55271115e-002 -6.79154764e-004
      1.22324598e-003 1.92024698e-003 9.73070320e-003 2.13343389e-002
      1.60125569e-002 4.53904970e-003 -4.55555914e-004 -5.10170050e-002
      -6.15694895e-002 1.17428713e-002 8.45874567e-003 2.19757743e-002
      -1.52157061e-003 4.97853011e-003 2.34253588e-003 3.89530347e-003
      -7.30260275e-003 -4.46241768e-003 1.78427924e-003 -2.91631091e-002
      -1.64520228e-003 3.90712135e-002 1.99274328e-002 6.78949105e-003
      -1.18165032e-003 -5.25976270e-002 -5.71421385e-002 1.62847191e-002
      3.80053371e-002 4.80336808e-002 1.34341829e-002 8.11087992e-003
      1.84465889e-002 2.52945907e-002 1.55428397e-002 -1.25405728e-003
      1.17506264e-002 -1.21723246e-002 2.47937404e-002 -2.00359500e-003
      -1.33643427e-003 4.00880672e-004 1.33895141e-003 9.03283246e-003
      1.12012420e-002 8.10143445e-003 -2.75228377e-002 3.46556981e-003
      2.08624336e-003 1.70543406e-003 2.38559907e-003 3.66368971e-004
      1.88558619e-003 1.36481682e-002 -2.99345125e-002 -3.32512334e-003
      9.05043073e-003 9.02009755e-003 6.02247240e-003 5.91861270e-003
      7.66903115e-003 2.00718064e-002 1.95483379e-002 -7.14769121e-003
      1.81474034e-002 2.69845985e-002 6.94865501e-003 8.28776136e-003
      3.19526624e-003 1.39346952e-003 9.37414169e-003 1.54321035e-002
      -1.44140143e-002 4.50768461e-003 7.51668168e-003 -5.64926653e-004
      3.11483745e-003 1.90744316e-003 -3.80863808e-003 -1.25962996e-003
      6.97908644e-003 -2.77549829e-002 -7.38788722e-003 1.98346842e-002
      2.17210781e-002 4.19513229e-003 5.69172995e-003 -5.94709348e-003
      -1.26989093e-003 -3.30943707e-003 -5.13935648e-003
      -4.83901094e-004 1.91035997e-002 1.03141740e-003 4.08411771e-003
      1.75575353e-003 -8.70216405e-004 -2.13874970e-003 1.14155712e-003
      -2.10141130e-002 -8.77626799e-003 -3.99139157e-004 6.35433709e-003
      2.22675060e-003 1.79541716e-003 -3.57841025e-003 -3.49928555e-003
      -3.93122202e-003 -1.19347218e-002 -1.54272951e-002
      -1.76784804e-003 3.85800898e-002 4.68434254e-003 3.92935518e-003
      -1.40085793e-003 -1.04769215e-003 -4.65393346e-003
      -1.13604870e-003 2.75625219e-003 -5.88672934e-003 -5.70350885e-003
      4.01931629e-002 9.19443090e-003 8.78743827e-003 1.63099635e-003
      6.87141437e-004 2.72117229e-003 -8.89630336e-003 -3.30436192e-002
      -1.92282256e-002 3.39798420e-003 -1.17165700e-003 -9.23503935e-003
      -6.72091264e-003 -5.18791378e-003 -5.35890413e-003 1.63077712e-002
      -6.81047421e-003 1.55523475e-002 1.75657682e-002 -2.61040381e-003
      -4.01559845e-003 -1.44825701e-003 -5.15433901e-004 8.62624511e-005
      8.63458309e-003 -1.72883328e-002 -1.09708868e-002 8.07451010e-002
      1.80536006e-002 4.13113879e-003 6.09210180e-003 3.52739240e-003
      2.68491358e-003 -3.20072426e-003 -5.79703338e-002 -3.11701484e-002
      3.21801975e-002 4.40482423e-002 -1.51233119e-003 7.83838332e-003
      2.06348742e-003 3.91022442e-003 -2.23529688e-003 -4.74784300e-002
      5.45300497e-003 4.89437506e-002 -7.31559144e-003 -3.30499676e-003
      3.50683532e-003 -1.01033773e-003 4.97760484e-003 -1.76882297e-002
      -3.61323729e-002 -1.36410408e-002 3.53253037e-002 2.48663183e-002
      -1.77004822e-002 -1.67319679e-003 -1.77083514e-003 6.62464323e-003
      -1.56323351e-002 -4.53516319e-002 -4.33077961e-002
      -7.31527433e-003 2.64408570e-002 5.36679104e-003 2.82516726e-003
      -2.12435704e-003 7.37220398e-004 -2.72413436e-003 -1.62660573e-002
      -8.93424638e-003 -2.36223713e-002 5.07754693e-003 6.81488169e-003
      6.46955101e-003 -1.95178227e-003 -2.12475960e-003 -2.92614056e-003
      -3.58102494e-003 -1.78896617e-002 4.67995269e-004 2.06410885e-002
      -1.13965673e-002 -2.98451446e-003 1.44024729e-004 -5.72856166e-004
      1.18139456e-003 -9.68496129e-003 2.23853998e-002 -7.09977653e-003
      1.95040181e-002 -5.85589604e-003 3.21226730e-003 4.83987480e-003
      8.84225650e-004 2.37662885e-002 3.55861778e-003 -1.42343342e-002
      -2.60836519e-002 -1.26763657e-002 -1.36370352e-002 1.57518107e-002
      1.10411178e-003 -1.07099797e-004 2.44522444e-003 2.00195005e-003
      -2.30268091e-002 1.07085910e-002 -3.83717827e-002 -3.30453292e-002
      1.55886374e-002 -8.22087284e-003 2.65278690e-003 7.02710310e-003
      1.59394685e-002 9.08220746e-003 -2.53209518e-003 -1.11514665e-002
      -6.84748124e-003 9.47266258e-003 6.98046712e-003 1.14773074e-002
      4.01576199e-002 1.66995432e-002 -1.63110450e-003 2.60082632e-002
      6.86951308e-003 4.23605042e-003 9.11440048e-003 -1.32008567e-002
      6.38195220e-003 3.84066254e-002 4.49328385e-002</_>
    <_>
      2.04191301e-002 -1.11568049e-002 -3.55796330e-002 4.56056139e-003
      7.25046871e-003 6.18457887e-003 8.11706390e-003 7.31647108e-003
      1.21783661e-002 1.84134301e-002 -1.85397137e-002 -8.66463594e-003
      2.94148386e-003 1.84830874e-002 7.98401795e-003 9.48224775e-003
      6.20736880e-003 1.52588096e-002 1.79552548e-002 2.36429386e-002
      -8.44571739e-003 -3.24599002e-003 2.43533943e-002 9.58721247e-003
      1.10266730e-002 7.90403318e-003 7.87202455e-003 1.63103770e-002
      -2.50698160e-003 -5.83202019e-003 5.08298120e-003 1.31414235e-002
      3.76386545e-003 3.24091408e-003 3.40003357e-003 6.49360614e-003
      -1.21620030e-003 -3.59519129e-003 7.76213268e-003 3.05445492e-003
      1.19913025e-002 3.15985223e-003 3.32521461e-003 1.54017948e-003
      3.88118438e-003 -8.35954025e-003 -2.61691189e-003 2.07878426e-002
      5.69097884e-003 -6.40473445e-004 -4.51610103e-004 1.18602053e-004
      4.13963193e-004 -7.01257435e-004 -1.43468578e-003 -2.16729240e-003
      -1.00410660e-003 -7.46883452e-003 3.20494012e-003 3.12845776e-004
      9.51778493e-005 3.00624437e-004 2.96137441e-004 4.35405411e-003
      -3.43852001e-003 4.48503299e-003 -1.12848887e-002 -3.77367646e-003
      -9.95449256e-004 -1.12799415e-003 -3.07766051e-004
      -1.69729441e-003 -9.22696316e-004 4.68648592e-004 2.22995821e-002
      2.61316262e-003 -2.10596528e-003 -1.24904769e-003 -4.24441940e-004
      -3.37036967e-004 -1.77279551e-004 1.02944963e-003 2.13880069e-003
      3.46970488e-003 -1.05214724e-003 7.21515971e-004 -1.25183433e-003
      -9.85873165e-004 -5.51536272e-004 -1.42893498e-003 9.11465101e-003
      -1.43106398e-003 -5.04331989e-003 -8.03618692e-003
      -5.19925309e-003 -1.19399419e-003 -1.00947800e-003
      -7.44005956e-004 -1.68382155e-003 -3.51501745e-003 7.94351380e-003
      -7.67137064e-003 -1.92797685e-003 -1.24564758e-004
      -1.10417826e-003 -4.07802319e-004 -2.44147610e-003
      -8.30850913e-004 6.48738444e-003 -1.08499569e-003 -3.41456011e-003
      -1.95757300e-003 1.48546230e-003 -1.39402066e-004 -2.14050477e-003
      -9.32286144e-004 1.18920933e-002 -3.21473717e-003 -5.63721545e-003
      -4.01074952e-003 -2.29121512e-003 -3.95898269e-006
      -6.76588737e-004 -7.29866675e-004 -3.35155358e-003 2.94313580e-003
      5.18818945e-003 -1.76243437e-003 -5.06279757e-003 -1.79409492e-003
      -6.39808568e-005 -3.06013419e-004 -1.08039146e-003
      -4.71497420e-003 1.08933691e-002 4.43623774e-003 -1.13290530e-002
      -2.15231068e-003 -7.20809097e-004 -7.93334271e-004
      -1.29872025e-003 -3.49275908e-003 -1.44480483e-003
      -2.07998115e-003 -7.68514723e-003 -6.04522787e-003
      -6.62007183e-003 -2.98529351e-003 -4.25323518e-003
      -2.50438554e-003 -2.94128410e-003 3.81079060e-003 1.01233199e-002
      -6.53425651e-003 -4.22985107e-003 -5.21135516e-003
      -1.04297348e-003 -3.87030467e-003 -3.43541522e-003 8.27664603e-003
      4.57857084e-003 7.43216230e-003 -1.45893171e-002 -1.05722332e-002
      -7.86688586e-004 -5.27801632e-004 -1.47243019e-003
      -3.04820901e-003 -5.67638688e-003 1.45015167e-002 7.37254741e-003
      -2.66459044e-002 -8.32306594e-003 -9.67004453e-004
      -6.15165627e-004 -8.42974929e-004 -1.69780315e-003 6.43500779e-003
      6.75709860e-004 1.26681745e-003 -5.86402835e-003 -1.32974901e-003
      -1.35610893e-003 -7.36187154e-004 -2.29486497e-003
      -2.88195140e-003 2.67340094e-002 5.44031570e-003 -6.30422821e-003
      -5.82943344e-003 2.33976403e-003 -5.44003968e-004 -1.17688859e-003
      -4.46415646e-003 -8.84887576e-003 9.08840913e-004 2.82014394e-003
      -2.87532457e-003 -8.32683686e-003 -1.75109750e-003
      -1.72996754e-003 -1.34637288e-003 -1.46904925e-003
      -2.34880927e-003 4.79996903e-003 -3.14578443e-007 -3.65703739e-003
      -8.42439942e-003 -2.10934784e-003 -1.09946169e-003
      -1.50520192e-003 -3.19000054e-003 -1.01657612e-002
      -8.74865567e-004 1.78558042e-003 -2.44104723e-003 4.01188852e-003
      4.93986579e-003 1.67234262e-004 -1.76917471e-003 -8.29898473e-003
      -1.15772029e-002 3.48274154e-003 6.16605906e-003 8.47425952e-004
      1.81357712e-002 1.43378759e-002 9.03590582e-003 -1.96510740e-003
      -2.62123346e-002 -3.11867483e-002 -9.75150336e-003 5.43466117e-003
      1.17028002e-002 -4.25982196e-003 2.03965363e-004 7.49968865e-004
      -9.71614325e-004 -3.35321971e-003 -7.84609374e-003 1.02081802e-002
      1.52103035e-002 -5.82371093e-003 4.38350765e-003 9.45637003e-003
      8.10020976e-003 -3.28884833e-003 -1.12215634e-002 -1.64204165e-002
      1.24232722e-002 2.70803478e-002 3.50256125e-003 3.88949784e-003
      3.62177044e-002 1.20987894e-003 -2.18183659e-002 9.88902152e-003
      3.07143666e-003 3.56770982e-003 2.55309511e-003 4.33697918e-004
      1.56124192e-003 1.39503684e-002 -5.87647082e-004 -1.72194522e-002
      5.43591473e-003 1.56332948e-003 8.46234791e-004 1.05873414e-003
      1.06627692e-003 1.82263344e-003 3.21440026e-002 4.98051476e-003
      -6.09811069e-003 -3.18728946e-003 -5.08275174e-004 1.91113038e-003
      5.76169929e-004 -1.32586894e-004 -2.61415000e-004 2.78387772e-004
      -5.87647082e-004 -1.44236628e-002 -2.75413797e-004
      -2.91668897e-004 8.69090552e-004 8.63704947e-004 1.18097814e-003
      -5.73727710e-004 1.76000723e-003 7.82215688e-003 -8.23205244e-003
      2.13447143e-003 5.92907774e-004 7.45769939e-005 1.31790934e-004
      -4.36966482e-004 -1.31259800e-003 8.35185405e-003 8.73216521e-003
      -1.27468174e-002 -3.21115297e-003 -3.85961030e-004
      -3.72793642e-004 -1.83556660e-003 -3.18969763e-003
      -1.81444560e-003 5.47106983e-003 8.73188488e-003 9.80812591e-004
      -6.51261862e-003 -3.47950426e-003 -1.09489227e-003
      -2.16096116e-004 -1.13751472e-003 -7.11825490e-003
      -6.22161152e-003 9.02018975e-003 -2.67341230e-002 -2.08958257e-002
      -9.83036403e-003 -1.29853387e-003 -1.78222114e-003
      -5.68566471e-003 4.54602297e-003 1.51148671e-003 -3.27020721e-003
      -7.83057790e-003 -2.63312063e-003 -1.54036054e-004 1.34502898e-003
      -1.19151548e-003 -8.89194722e-004 5.34682721e-003 1.06994463e-002
      -7.34254206e-003 -7.94357248e-003 -3.62385972e-003
      -2.12329137e-003 2.42791115e-003 -3.46950628e-003 -1.21753768e-003
      -4.58795996e-003 -1.36940069e-002 1.19439361e-003 -1.11268442e-002
      -9.39750858e-003 6.97809621e-004 1.05063682e-002 -8.14907602e-004
      7.24576600e-003 8.55847914e-003 -3.41243669e-002 -1.89080946e-002
      -4.01856825e-002 3.29461624e-003 2.82601025e-002 3.98469642e-002
      1.45535292e-002 3.62875424e-002 1.75680052e-002 -1.77595078e-003
      -3.09643289e-003 -5.22667589e-003 -4.28678002e-003
      -1.33205205e-003 -2.27412768e-003 -7.03565963e-003 1.41099561e-002
      2.05708714e-003 -4.38626297e-002 -2.62774117e-002 -1.02446892e-003
      -8.75758240e-004 -2.85424315e-003 -4.78325598e-003 8.67255381e-004
      2.87495833e-002 5.48335575e-002 -6.28729388e-002 -6.95397481e-002
      -3.96486260e-002 -6.50254590e-003 9.44478624e-003 1.96420047e-002
      1.26836095e-002 7.77096748e-002 5.99290468e-002 -9.56758708e-002
      -9.98483077e-002 -1.53000234e-002 -5.15160710e-003
      -6.04846235e-003 -5.67233237e-003 3.43574048e-003 8.47476199e-002
      -2.20934898e-002 -3.78802940e-002 -1.97257362e-002 2.58790533e-004
      1.29657239e-003 -2.06024176e-003 -2.18302337e-003 3.33166495e-002
      4.64224778e-002 -5.17966375e-002 -2.63066292e-002 -1.29927946e-002
      -1.59627874e-003 -3.27950646e-003 -1.34439934e-002 2.72930767e-002
      3.94073017e-002 1.03936363e-002 3.05506624e-002 -7.39021078e-002
      -6.20838888e-002 -6.12655329e-003 -2.86275428e-003
      -4.87246877e-003 -3.85923171e-003 3.28602851e-003 6.98992908e-002
      1.69274933e-003 -5.83685897e-002 -3.90171707e-002 -1.13230553e-002
      -5.06765023e-002 -5.45075834e-002 -1.21071870e-002 1.95487700e-002
      3.35479379e-002 -2.04996020e-002 -3.12364264e-003 -2.15381267e-003
      -1.72611454e-003 -1.00640412e-002 -1.93483438e-002 2.14543007e-002
      2.36486476e-002 -2.07386445e-002 -2.66172364e-003 -2.49935663e-004
      7.80805247e-004 2.47211428e-004 -3.61767062e-003 4.05578408e-003
      1.56180486e-002 1.46031575e-002 -5.47253620e-003 -9.41933692e-003
      -8.93032644e-003 -1.04820104e-002 -9.81397461e-003
      -6.50729090e-002 -5.93687743e-002 1.00420751e-002 9.82783828e-003
      5.81081631e-003 -4.91530402e-004 -2.31332786e-004 -7.55664252e-004
      -2.38525704e-003 -3.14579159e-002 1.19601460e-002 1.78525615e-002
      -5.20938588e-003 -6.48356974e-003 -1.31130719e-003 3.02370958e-004
      1.61979301e-003 5.85458009e-004 -6.62713428e-004 1.20377878e-003
      3.75863118e-003 2.20984383e-003 -6.60033431e-003 -3.55962222e-003
      1.63082941e-003 2.24845810e-003 -1.96796656e-003 -3.08996323e-003
      -1.20405145e-002 6.74520573e-003 7.30601978e-003 -3.09473695e-003
      -5.58106636e-004 -6.75007468e-004 1.28711993e-003 1.69268902e-003
      2.84746662e-003 1.12812072e-002 2.70767487e-003 -2.10322347e-002
      -5.75426454e-003 -2.42721289e-003 -5.57530264e-004 1.81046454e-003
      1.53297093e-003 4.24742326e-003 -1.12874201e-003 1.17499335e-003
      6.58230763e-003 -2.33212602e-003 2.96021532e-003 1.39905205e-002
      2.47852784e-002 -7.54009889e-005 -2.02726517e-002 -5.74920373e-003
      2.50343187e-003 -2.92691519e-004 1.55895599e-003 9.75546864e-005
      1.31599943e-003 1.60127711e-002 -1.01731974e-003 -4.34324564e-003
      -3.46812117e-003 1.91685831e-004 2.46582465e-004 4.93232394e-004
      4.14170465e-003 5.80896204e-003 1.95303895e-002 5.26488665e-003
      -9.85366106e-003 -1.85041130e-002 -3.86576285e-004
      -1.07608073e-004 2.60863453e-003 1.12517085e-003 1.83690782e-003
      1.51113970e-002 4.85459808e-003 -2.26377081e-002 -1.53670395e-002
      -2.16421252e-003 -1.75474361e-005 6.67950255e-004 8.61218723e-005
      2.86478270e-003 2.99983434e-002 4.19674302e-003 -8.15827306e-003
      -7.19385734e-003 -1.97342641e-004 4.39396477e-004 8.31378507e-004
      -1.80973927e-003 -9.73757077e-003 1.81023721e-002 -6.78772805e-003
      -1.07598184e-002 -3.75597738e-002 -4.94978810e-003 4.30584559e-003
      8.85372609e-003 2.98579619e-003 3.84550705e-003 1.06238807e-002
      2.01574359e-002 -1.09935468e-002 -1.44623406e-002 -1.97567791e-003
      -4.78281552e-004 3.34270787e-003 1.74605269e-002 4.92606079e-003
      1.41775617e-002 1.01799732e-002 3.56893241e-003 -3.60395722e-002
      -2.82147899e-002 2.00370996e-004 5.74697666e-002 3.06550250e-003
      -2.76372805e-002 1.78634524e-002 -1.40532758e-003 -9.31171607e-003
      -1.78834032e-002 -9.04814573e-004 -9.75312199e-004 2.19622254e-002
      2.23226994e-002 -5.41145317e-002 -3.12269162e-002 -2.73803808e-002
      -8.08396097e-003 1.22593865e-002 2.23511551e-002 8.72378983e-003
      6.63331896e-002 3.60656492e-002 3.70075321e-003 4.61072102e-003
      9.45631787e-003 -1.19817453e-002 -4.18211035e-002 -3.84182818e-002
      -2.96330657e-002 5.77393472e-002 2.90463790e-002 -4.81789820e-002
      -2.54544243e-002 -8.82485975e-003 -1.83704682e-002
      -1.73086356e-002 -2.78929025e-002 -4.41145562e-002 2.71605998e-002
      3.63745540e-002 -6.71653599e-002 -6.38691708e-002 -1.65999178e-002
      -7.89566711e-003 -4.97439783e-003 3.74347949e-003 4.46417555e-003
      8.25913623e-002 6.40695021e-002 -7.91311935e-002 -8.27902257e-002
      -1.41558163e-002 -3.62510979e-003 -5.48110576e-003
      -4.11668094e-003 -1.09485455e-003 8.62981230e-002 2.72689890e-002
      -7.72949532e-002 -5.96826486e-002 -1.07069388e-002
      -5.82761038e-003 -8.38106126e-003 -6.61437446e-003
      -9.69664659e-003 6.42038137e-002 5.44530749e-002 -8.47460181e-002
      -8.66265595e-002 -1.39179863e-002 -7.83276837e-003
      -6.27000909e-003 -7.15495413e-003 -2.96210125e-003 8.18405300e-002
      5.26597723e-002 -7.41853192e-002 -7.15660751e-002 -1.27539709e-002
      -1.59792639e-002 -1.07704392e-002 -8.23761243e-003
      -4.24764259e-003 7.44369477e-002 3.74924429e-002 -2.82537788e-002
      -3.26569639e-002 -1.17300982e-002 -6.11783862e-002
      -5.84103726e-002 -1.20711662e-002 9.96110612e-004 6.60353526e-002
      6.55979738e-002 -6.40572459e-002 -6.75873905e-002 -1.54906111e-002
      -4.14976887e-002 -2.46495493e-002 -1.95661597e-002
      -5.20305708e-003 7.44360164e-002 6.47891313e-002 2.30801423e-004
      -1.49060162e-002 -2.89654229e-002 -5.58884405e-002
      -5.99514060e-002 -2.21503209e-002 -1.63185094e-002 6.52608201e-002
      2.23640501e-002 -2.98770447e-003 -3.85038671e-003 -4.40087589e-003
      -4.98650894e-002 -5.35372868e-002 1.63154211e-002 1.54829696e-002
      6.28560930e-002 1.51758699e-003 5.49972930e-004 -1.86165399e-003
      -2.90503819e-003 -2.82318275e-002 3.06087127e-003 3.44237015e-002
      3.59512120e-003 5.29901357e-003 5.04581518e-002 1.77967176e-002
      3.83720035e-003 -3.87332775e-003 -1.66499838e-002 -4.34076414e-002
      7.33223837e-003 -6.89134281e-003 5.38850725e-002 2.56574643e-003
      6.48776442e-003 6.55086129e-004 6.12477213e-003 -4.05757129e-003
      1.01048145e-002 1.67147480e-002 3.22695496e-003 4.99006594e-003
      8.04944430e-005 -4.90412873e-004 -2.17632201e-004 9.95111302e-004
      9.06041125e-004 1.18839310e-003 4.99292603e-003 -7.97864050e-003
      -1.38197280e-003 4.29690816e-004 -5.95674268e-004 -1.60850803e-004
      2.74653826e-003 8.60908907e-003 -4.10905015e-003 -5.45897335e-003
      1.46931468e-003 -1.54931343e-003 1.00176949e-004 5.63320704e-004
      3.92262009e-004 -2.25531752e-003 1.87895412e-003 3.15367919e-003
      3.09102447e-003 -1.13380945e-003 1.09258748e-004 2.87788553e-005
      -2.29013502e-003 5.42690861e-004 4.67445410e-004 1.26729847e-003
      -4.13497491e-003 1.86830480e-003 -1.32013892e-003 -5.77544561e-003
      2.46382714e-003 1.24254252e-003 3.52298352e-003 2.31627617e-002
      2.31287256e-003 -3.35847437e-002 -3.64014239e-004 9.17917292e-004
      2.04634503e-003 1.35272893e-003 1.22807396e-003 2.83866655e-003
      3.49609964e-002 3.04076937e-003 -3.06731015e-002 -3.06390948e-003
      1.67085105e-004 6.18314312e-004 8.47479678e-004 1.18972803e-003
      1.78121112e-003 7.13362219e-003 5.81348082e-003 -1.10682547e-002
      -2.13598814e-002 -7.77497422e-004 8.01781949e-004 3.26947571e-004
      -3.20492458e-004 -1.49951462e-004 6.37683226e-003 1.29139610e-002
      -1.12436879e-002 -1.51611483e-002 -1.47798040e-003
      -1.64057419e-003 2.96411989e-003 3.08347493e-003 1.90153252e-003
      7.41977943e-003 -6.07833127e-003 -2.89283171e-002 -7.70165632e-003
      -1.23387203e-003 3.21203517e-003 2.17362400e-002 2.86128800e-002
      2.61367951e-002 1.07687935e-002 -2.30426751e-002 -4.76633236e-002
      -5.70372716e-002 -3.45357805e-002 3.52092721e-002 1.27916050e-003
      -1.38109887e-003 2.37128843e-004 4.80753928e-003 2.33156588e-002
      -2.83802319e-002 -1.08349668e-002 -2.99655180e-003 1.86490477e-004
      6.29785936e-003 1.80633888e-002 3.13200243e-002 3.29201557e-002
      2.66859215e-002 -1.75391324e-002 -1.95786878e-002 -2.46185493e-002
      5.02156385e-004 3.10367513e-002 2.85976212e-002 9.85105895e-003
      3.77843925e-003 -7.06295995e-003 -2.63690464e-002 -3.73305306e-002
      -4.72960509e-002 1.09282704e-002 1.11389840e-002 -8.98584723e-003
      -6.02193968e-003 -2.84306426e-003 -5.42389974e-003
      -1.29470341e-002 -2.31956895e-002 -4.84993160e-002 5.92606654e-003
      1.99065972e-002 2.08101328e-002 2.23095920e-002 1.88446566e-002
      1.15785860e-002 -4.50154860e-003 -7.65117817e-003 -1.73406452e-002
      -4.78228834e-003 6.75835228e-003 1.75156549e-003 -2.23413259e-002
      -9.61530954e-003 -5.84159186e-003 -8.45344458e-003
      -3.62132839e-003 -9.85203218e-003 1.64184626e-002 1.39042167e-002
      -6.04082495e-002 -1.87318996e-002 -3.59132071e-003
      -1.57724565e-003 -4.28577978e-003 -7.69280549e-003
      -9.42962989e-003 4.98772785e-002 1.54167898e-002 -7.24522322e-002
      -4.36879434e-002 -4.12680581e-003 -6.26624562e-003
      -5.29123750e-003 -7.07788812e-003 6.62514707e-003 4.80380207e-002
      4.51783836e-003 -3.26524638e-002 -1.48632769e-002 -3.83769465e-003
      -2.94849696e-003 -3.25247319e-003 -3.30997352e-003
      -4.63497965e-003 1.73609722e-002 -7.30092078e-003 -3.01300865e-002
      -7.64017366e-003 -9.37281526e-004 -1.42074982e-003
      -2.35160231e-003 -3.10526835e-003 2.56477576e-002 1.46876613e-003
      2.52080206e-002 -3.49333882e-002 -2.44224258e-002 -6.32427540e-003
      -2.46562082e-002 -1.84749831e-002 -1.63884871e-002 1.92779973e-002
      3.35985571e-002 1.44724268e-002 -7.94989336e-003 -1.47372596e-002
      -1.97746120e-002 -4.35857736e-002 -2.79898793e-002
      -1.34633416e-002 -2.91321520e-003 2.11972911e-002 -3.79376933e-002
      -1.49956364e-002 -2.86017125e-003 5.94970305e-004 -8.21160735e-004
      -1.53742393e-003 2.87924567e-003 3.00549977e-002 5.96937537e-003
      -3.41238752e-002 -1.00069223e-002 -4.83452436e-003 1.84100331e-003
      1.15206772e-002 2.11655702e-002 2.10006312e-002 4.90038516e-003
      -1.78916082e-002 1.86109822e-002 4.04755818e-003 -9.26200114e-003
      -1.17067657e-002 -3.32803093e-002 -2.31850483e-002 3.33268428e-003
      -1.43603971e-002 2.43691616e-002 2.65533337e-003 2.59435223e-003
      1.59669993e-003 7.50982063e-003 9.74434707e-003 -1.49093673e-003
      -1.88751472e-003 -7.92933977e-004 7.36995426e-004 -2.28280388e-002
      -8.71881004e-003 -5.88490115e-003 3.64687783e-003 1.99626423e-002
      2.53550969e-002 8.92306212e-003 -9.18355491e-003 -3.62178273e-002
      -1.68499144e-004 1.46486552e-003 1.04557425e-002 3.06436736e-002
      1.01860696e-002 -2.03649215e-002 -2.88538504e-002 -1.06440242e-002
      -3.65304807e-003 -1.52637018e-004 -4.50047140e-004
      -4.16456838e-004 -3.03874980e-003 9.93459206e-003 1.25523591e-002
      -8.91280826e-004 -6.32865704e-004 5.32578961e-005 -9.74325871e-004
      -1.08795753e-003 7.43120443e-004 -2.21022009e-003 -2.11422471e-003
      -9.58382385e-004 -6.76262192e-004 -1.20949827e-003
      -4.71554790e-003 -1.01056602e-003 -6.69275178e-004
      -3.01359850e-003 6.05605869e-003 5.08266594e-003 -7.10626971e-003
      -2.88264616e-003 -1.55952247e-003 -7.93871528e-004
      -2.89481878e-003 -1.86015188e-003 -1.32800657e-002
      -5.61964605e-003 -2.30817054e-003 1.36017671e-003 1.49696716e-003
      4.18956697e-005 1.29776512e-004 -9.04018467e-004 -6.10294774e-006
      4.80561052e-004 -2.03607779e-004 1.66451111e-002 -1.57847989e-003
      -2.48877518e-002 -2.87081767e-003 -3.46524175e-004
      -6.64370775e-004 -3.47640715e-004 1.68767685e-004 -8.73926852e-004
      2.62412336e-002 -2.30890745e-003 -1.62729248e-002 -3.96812195e-003
      -8.46977637e-004 -2.54796096e-003 -1.77413388e-003 4.45590777e-005
      4.84411663e-004 1.69720147e-002 7.01652549e-004 -1.14332121e-002
      -3.10283550e-003 1.30423380e-003 -2.23957468e-003 -1.51053909e-003
      -3.29330156e-004 -7.19645410e-004 2.03641467e-002 1.37668499e-003
      -2.43040919e-003 -1.02086496e-002 7.37029826e-004 3.01616412e-004
      -1.71666034e-004 -3.98146018e-004 1.69659243e-003 1.90924685e-002
      -1.06924940e-002 -2.18547005e-002 -2.96116085e-003 1.00814074e-003
      8.51519289e-005 -1.06325895e-002 8.65816884e-003 1.15253609e-002
      1.63053609e-002 1.06354151e-002 5.47194947e-003 -1.83607882e-003
      1.94402435e-003 -7.65490811e-004 -1.21764897e-003 -2.28661997e-003
      -1.37355784e-003 1.34734856e-002 7.49544194e-003 -1.08423736e-002
      -1.19923474e-002 1.31520187e-003 -5.72818331e-004 -3.46568204e-003
      -1.05411774e-002 -1.21386135e-002 -3.08739068e-003
      -8.53560923e-004 8.79087020e-003 1.65755376e-002 5.06386161e-003
      2.15150765e-003 -1.68042071e-002 -6.52782107e-003 -3.71496280e-004
      1.41639626e-002 7.79191125e-003 1.18537247e-002 9.34216101e-003
      9.52961482e-003 1.11089721e-002 -2.45939940e-002 -2.34186649e-002
      -1.35881640e-002 -8.71979725e-003 -6.98183663e-003 2.66672298e-003
      2.10269336e-002 3.91066261e-002 2.68172775e-003 -7.43599655e-003
      -1.36658102e-002 -2.08886527e-002 -1.60687864e-002
      -1.59392804e-002 2.24451832e-002 3.60664688e-002 1.92490928e-002
      1.15097384e-003 -2.28283312e-002 -1.70998033e-002 -2.21104361e-002
      -1.80193558e-002 -2.52136439e-002 -1.24189164e-002 2.31522489e-002
      1.67072285e-002 -1.47489365e-004 -2.54584756e-002 -1.10129211e-002
      -8.10923800e-003 -3.97894299e-003 -2.54189852e-003
      -1.01020455e-003 2.34949659e-003 2.53918413e-002 -2.28155614e-003
      -1.37061486e-002 -1.48574216e-003 -2.36630486e-003
      -9.54395102e-004 -1.04713498e-003 3.53887590e-004 1.92680713e-002
      6.11290475e-003 5.32270875e-003 -1.47409076e-002 -7.66086392e-003
      -1.05893854e-002 -5.95923420e-003 -1.04201715e-002
      -8.70858319e-003 1.59730308e-003 5.30176423e-003 2.20022304e-003
      -9.69097391e-003 -3.91471991e-003 -3.69325094e-003
      -1.57927303e-003 -2.59750150e-003 -6.60221209e-004
      -1.06617985e-002 2.16571637e-003 -2.22268160e-002 -7.18442677e-003
      4.96367970e-003 4.21164976e-003 6.15513697e-003 -1.39610155e-003
      9.14824009e-003 3.04762367e-002 1.18590787e-003 -1.27736479e-002
      -7.28461007e-003 5.44944406e-003 1.54723069e-002 3.82135250e-002
      3.88838351e-003 3.97240231e-003 -9.21032764e-003 -3.12495194e-002
      -2.62479484e-003 8.11943039e-003 8.66364874e-003 3.47164297e-003
      2.21929303e-003 -8.49366654e-003 -3.58493242e-004 -5.13208797e-003
      -1.62698701e-003 -5.10366866e-003 4.24332730e-003 3.79129453e-003
      2.36657802e-002 1.54165160e-002 -2.21477598e-002 -1.54699469e-002
      -1.04375472e-002 -1.68959852e-002 -2.57833884e-003
      -3.25147412e-003 7.09274551e-004 9.32948291e-003 3.18545625e-002
      3.31372488e-003 -1.14807207e-002 -2.60069855e-002 -1.15914624e-002
      2.74907361e-004 3.12056788e-003 8.86261836e-003 1.97817702e-002
      -2.10569985e-003 -1.83773749e-002 -2.16913819e-002
      -5.34049328e-003 1.22727128e-004 -1.00310165e-002 -1.95040908e-002
      7.60183344e-003 8.05482361e-003 6.93425245e-005 -2.18026880e-002
      -2.18828134e-002 -5.13949664e-003 -2.74819904e-003
      -3.50871938e-003 -8.07092153e-003 4.61671362e-003 1.03600733e-002
      -9.71824024e-003 -9.89684742e-003 -5.35544381e-003 3.90073925e-004
      1.17690326e-003 -1.08240114e-003 -4.10310895e-004 -7.61652738e-003
      2.83617526e-003 1.24315778e-002 -3.90606862e-003 -3.02776345e-003
      -1.01048418e-003 -1.64316705e-004 -1.63436588e-003
      -2.45249062e-003 -1.56725533e-002 -5.52017614e-003 9.42856073e-003
      -5.51669626e-004 8.36294203e-005 4.79070237e-004 1.05378160e-003
      -2.39914283e-003 -3.79553461e-003 -4.00593271e-003
      -4.55550617e-003 9.70330276e-003 4.72577347e-004 -9.98331816e-005
      -7.06756327e-005 -1.84375851e-004 -2.69416894e-004 1.54820867e-002
      3.65584530e-003 -5.52017614e-003 2.11800765e-002 1.51925103e-003
      -2.16169083e-005 -1.71649459e-004 -2.44882176e-005
      -2.57294247e-004 -1.00422651e-003 -3.22268927e-004 1.62867620e-003
      4.31172876e-003 1.15816612e-002 -8.37953878e-004 -2.26790505e-003
      3.89515096e-003 -5.38579479e-004 -1.07176085e-004 7.60489376e-004
      9.60423553e-004 1.34740295e-002 1.32863428e-002 -1.90129620e-003
      -1.30628739e-002 6.20600767e-004 1.70533871e-003 2.36438867e-003
      5.11968648e-003 6.73977472e-003 3.51400347e-003 9.57523752e-003
      3.44894454e-003 -5.59928594e-003 5.19666309e-003 -3.18569102e-004
      1.26129529e-003 4.22584591e-003 2.94515328e-003 1.13398768e-002
      6.07094262e-003 -1.07031676e-003 -1.80811100e-002 7.53917405e-003
      -5.47864125e-004 -7.98051304e-004 1.62698401e-004 3.97278309e-005
      1.70401880e-003 7.07275746e-003 3.06119444e-003 -4.78774123e-003
      -3.95590214e-005 6.03995228e-004 6.06161368e-004 1.40413456e-003
      -6.00103231e-004 -2.10104827e-002 -2.26747878e-002 7.00672623e-004
      1.88861825e-002 3.52090714e-003 8.70270924e-006 6.62971172e-004
      1.25026982e-003 -1.04802617e-004 5.94557961e-003 4.27406095e-003
      4.71072271e-003 -1.44166243e-003 2.66811484e-003 1.38320716e-003
      8.33690458e-004 -9.33955424e-004 -1.05873204e-003 -1.02920365e-003
      -6.34949841e-003 -1.92323141e-003 2.40873965e-003 6.06026128e-003
      6.59222854e-003 1.35757681e-003 -1.21585862e-003 -5.40317874e-003
      -1.27155269e-002 -2.29223110e-002 -9.75208823e-003 1.51545880e-002
      1.06796129e-002 2.18131989e-002 -2.03271443e-003 -5.53670758e-003
      -5.69566432e-003 -5.77437272e-003 -2.16692146e-002
      -1.80350691e-002 1.07375300e-002 5.47422562e-003 4.18905960e-003
      1.04307127e-003 -1.25007203e-003 -1.01318734e-003 -7.98298919e-004
      -3.87366652e-003 -2.91636586e-002 4.11518756e-003 9.39218968e-004
      3.20129818e-003 -9.12849617e-004 -4.22306533e-004 4.53747110e-004
      1.44149511e-004 -1.68811355e-003 -7.97945820e-003 -9.98440105e-003
      4.11518756e-003 1.42622655e-002 -1.56169431e-003 -2.96617160e-003
      -1.65519631e-003 -1.60096167e-003 -5.54139493e-003
      -5.48765948e-003 1.93989743e-003 1.66732306e-003 3.25486297e-003
      8.26300529e-004 -3.06581962e-003 -7.30658241e-004 -7.76773741e-005
      -4.14990616e-004 1.07292333e-004 -9.56358481e-003 1.66732306e-003
      -2.26781983e-003 3.53622134e-004 -4.89727172e-005 6.80060941e-004
      8.18915665e-004 -1.64891942e-004 4.78002155e-004 -1.23909451e-002
      1.64844841e-003 4.59690765e-003 6.04957296e-003 1.00343744e-003
      4.60850541e-004 8.04660434e-004 1.16865453e-003 2.77026906e-003
      -1.09671718e-002 -1.63894973e-003 -1.79038534e-003 2.71680802e-002
      4.23138635e-003 6.83642575e-004 -5.08553174e-004 -2.62053404e-003
      -2.38772344e-007 -3.64877167e-003 -2.04974925e-003
      -1.94266234e-002 4.68400400e-003 1.32329948e-002 1.13800699e-002
      1.26798789e-003 -3.53475870e-003 -1.07576710e-003 -8.21710215e-004
      -1.54196527e-002 -1.79038534e-003 2.65588034e-002 3.76593834e-003
      1.20729068e-003 8.27571959e-004 1.08630734e-003 2.50797393e-003
      -2.63018301e-003 -2.65525132e-002 -6.88309176e-003 5.87177183e-003
      1.75462049e-002 3.16780666e-003 -9.97875235e-004 -7.36531394e-004
      7.72786210e-004 -8.98499624e-004 -1.81098543e-002 -1.82558689e-002
      -3.03505231e-002 -4.59800102e-003 3.40988790e-003 -2.28504208e-003
      -2.41610524e-003 -6.36899320e-004 5.64978749e-004 -3.12588410e-003
      -5.29036811e-003 -3.47988233e-002 9.28653311e-003 2.01174319e-002
      -1.72580953e-003 3.32404277e-004 2.85374233e-004 4.17990290e-004
      9.37103410e-004 -2.25475989e-002 9.28653311e-003 1.69119574e-002
      2.32440676e-003 -1.84114825e-003 -2.26269499e-003 -1.28531574e-005
      -1.51277709e-004 -3.41864093e-003 -1.16728591e-002 9.28653311e-003
      1.14497123e-002 3.27933900e-004 -2.98110943e-004 -7.29676220e-004
      -8.37210391e-004 -7.89321959e-004 6.14043907e-004 -2.85085128e-003
      -2.62254644e-002 3.44112120e-003 3.98638332e-003 4.46647685e-003
      2.13567968e-004 3.76032229e-004 5.35101462e-005 -1.95805362e-004
      -2.56256107e-003 8.86396598e-003 3.44112120e-003 -1.15199154e-003
      1.13716703e-002 -8.02059774e-004 -2.11193510e-005 -1.70330692e-004
      -2.17628549e-004 -4.99693584e-003 -6.05406286e-003 3.44112120e-003
      -5.24277985e-003 -1.05575935e-004 -5.00345195e-004
      -6.72952272e-004 -7.59688788e-004 -4.16686962e-004
      -4.07391833e-003 -6.18227641e-004 3.44112120e-003 -3.59934685e-003
      9.15405340e-003 1.88353151e-004 -2.08117696e-003 3.18786479e-003
      4.68900893e-003 1.28214620e-003 6.48021651e-003 6.76468248e-003
      8.71065911e-003 4.47566947e-003 -6.88392995e-003 1.09257561e-003
      -1.88165288e-002 -3.00938054e-003 -4.04540915e-003
      -9.46473039e-004 3.86923319e-003 2.72795069e-003 7.63805397e-003
      9.12433770e-003 3.15356092e-003 -9.20022372e-003 -1.67522277e-003
      6.35828869e-003 6.43372210e-003 1.13475369e-002 1.20446282e-002
      -3.98698729e-003 -2.71690357e-003 1.27592031e-002 -1.62194055e-002
      -1.03733933e-003 -3.64510366e-003 -3.22947116e-003 8.13577324e-003
      2.19543651e-003 2.15096865e-003 3.70098557e-003 3.16508720e-003
      5.27207879e-003 -1.26162535e-002 -1.46201521e-003 -1.00646133e-003
      1.31361841e-004 3.70396418e-004 3.23117082e-003 3.51829804e-003
      7.08487700e-004 -1.83612620e-003 -1.53907714e-003 3.07120528e-004
      2.34078921e-004 -1.45395508e-003 -6.07392227e-004 -3.90241505e-004
      -6.98833552e-004 -1.70125179e-002 -1.68822298e-004 1.22634154e-002
      -2.79861921e-003 -5.51379053e-004 3.82037426e-004 1.73611264e-003
      5.79650421e-003 6.94072049e-004 5.98727260e-003 6.96678273e-003
      -5.85241988e-003 -2.68361322e-003 3.31381755e-003 -2.54564278e-004
      8.72641511e-004 3.55034228e-003 -1.91284227e-004 -5.36262197e-003
      1.44449389e-003 1.24099180e-002 -6.25255270e-005 1.84034245e-004
      -1.39814278e-003 -1.65992347e-003 -1.55185582e-003
      -2.30826112e-003 -2.00640187e-002 -1.82500191e-003 2.16202047e-002
      2.13200739e-003 -7.08895095e-004 -3.46717337e-004 -1.32370589e-003
      -1.30335882e-003 -1.78386865e-003 -4.99717146e-003
      -5.18082781e-003 3.38521274e-003 -3.72264488e-003 5.77135710e-004
      -6.32080046e-005 -1.01757806e-003 1.70932931e-003 8.53688107e-007
      -4.29805834e-003 -1.29739859e-003 7.94299506e-003 6.50380552e-003
      2.91751057e-004 -2.33201554e-005 -9.61263140e-004 -2.25406897e-004
      4.87259531e-004 -2.00101244e-003 -5.59531804e-003 -1.82340306e-003
      6.83994312e-003 4.57284332e-004 -3.01859662e-004 -7.81601877e-004
      -6.65048545e-004 -9.81998630e-004 -2.89701740e-004
      -1.38908317e-002 6.93104172e-004 7.93015584e-003 8.38169269e-003
      -3.99403361e-004 -5.74919395e-004 -8.78178864e-004
      -6.72234804e-004 1.38207036e-003 -1.12190396e-002 -1.96523480e-002
      2.18728259e-002 1.73940661e-003 -3.87794658e-004 -2.29361653e-003
      -2.31875316e-003 -1.09275617e-003 -8.47734162e-004
      -1.37671139e-002 1.74557464e-003 4.77748830e-003 1.26667069e-002
      -1.38658960e-003 -2.39052949e-003 -3.57336411e-003
      -2.14289757e-003 -3.92871763e-004 -5.22396248e-003
      -1.36905129e-003 -1.78168865e-003 2.30375696e-002 2.31936527e-003
      -1.48584397e-004 -2.94486963e-004 -3.54163640e-004 4.75085020e-004
      -4.24495852e-003 -3.24417949e-002 -1.50559098e-002 8.05111136e-003
      1.44886263e-002 -1.68220291e-003 -1.02599605e-003 -8.31649289e-004
      -4.41704149e-004 -5.73174516e-003 -1.50335878e-002 3.34777792e-006
      3.00684515e-002 6.71541924e-003 -1.76527048e-003 -1.40559534e-003
      -3.15791834e-003 -5.99362305e-004 -3.80758033e-003
      -2.23494582e-002 -4.92580759e-004 7.54873082e-003 3.86258475e-002
      -5.68157947e-003 -2.72337173e-004 -2.49445764e-003
      -5.72287943e-004 -7.09407311e-003 -1.20077915e-002
      -2.74567679e-002 2.22482369e-003 1.35470135e-002 -2.48196605e-003
      -1.03608367e-003 -1.21846690e-003 -2.11556326e-004
      -3.50921997e-003 -6.23645820e-003 -1.78326052e-002 2.22482369e-003
      1.02248257e-002 -9.02508013e-003 -3.15722893e-003 -1.60383747e-003
      -1.09116524e-003 -2.00306857e-003 -4.13188338e-003
      -4.28297296e-002 6.64585922e-003 3.30676585e-002 -4.72987676e-003
      -1.33300433e-003 -5.73838130e-004 -1.04129955e-003
      -5.36144665e-003 -1.65651366e-002 -2.65572835e-002 7.57047720e-003
      2.41208002e-002 -2.11994303e-003 -1.58115372e-003 4.61107178e-004
      -5.24082314e-003 -4.66931239e-003 -1.46204876e-002
      -1.17366230e-002 7.26499502e-003 5.43026999e-003 -1.46523034e-002
      -3.62001196e-003 6.59796002e-004 -6.09580835e-004 -6.71812450e-004
      -5.30361605e-004 -3.78037570e-003 4.36521647e-003 1.65917433e-003
      -1.38226561e-002 -1.18972408e-003 1.06783409e-003 -3.72924004e-003
      1.77392259e-003 4.47544083e-003 -1.98922213e-002 1.28152026e-002
      1.23300226e-002 -5.06925397e-003 2.64526391e-003 1.76503544e-003
      -3.56803392e-003 -1.62036950e-003 -1.07580842e-003 6.60451036e-003
      -1.85647560e-003 -5.21320500e-004 -2.53908476e-003
      -8.12782720e-003 -8.04818235e-003 -3.33419675e-003
      -1.40608195e-003 4.85035311e-003</_></support_vectors>
  <decision_functions>
    <_>
      <sv_count>1</sv_count>
      <rho>-1.0783658479805578e+000</rho>
      <alpha>
        1.</alpha>
      <index>
        0</index></_>
    <_>
      <sv_count>1</sv_count>
      <rho>-1.2458318537016542e+000</rho>
      <alpha>
        1.</alpha>
      <index>
        1</index></_>
    <_>
      <sv_count>1</sv_count>
      <rho>3.0281144770440999e-001</rho>
      <alpha>
        1.</alpha>
      <index>
        2</index></_></decision_functions></my_svm>
</opencv_storage>
