<?xml version="1.0"?>
<opencv_storage>
<my_svm type_id="opencv-ml-svm">
  <svm_type>C_SVC</svm_type>
  <kernel><type>LINEAR</type></kernel>
  <C>1.0000000000000000e-002</C>
  <term_criteria><epsilon>1.1920928955078125e-007</epsilon>
    <iterations>1000</iterations></term_criteria>
  <var_all>1764</var_all>
  <var_count>1764</var_count>
  <class_count>3</class_count>
  <class_labels type_id="opencv-matrix">
    <rows>1</rows>
    <cols>3</cols>
    <dt>i</dt>
    <data>
      0 1 2</data></class_labels>
  <sv_total>3</sv_total>
  <support_vectors>
    <_>
      -2.18451885e-003 2.35332482e-004 1.40570197e-003 1.80727593e-003
      8.04912881e-004 -3.71079135e-004 -1.22125878e-003 -1.92759128e-003
      -2.47909036e-003 -3.12758912e-003 -2.62899604e-003
      -2.13924010e-004 -9.74131806e-004 -2.07317388e-003
      -7.41720432e-004 -1.70158909e-003 -1.16917712e-003
      -1.26170402e-003 -1.67319769e-004 -7.66741531e-003 2.74837087e-003
      1.68877828e-003 -1.79328525e-003 3.81027116e-004 -1.04803452e-003
      -1.93604594e-003 -4.61281772e-004 -2.32631830e-003
      -1.13951205e-003 2.24669813e-003 1.15313753e-003 4.49550775e-004
      9.55548545e-004 -4.10394918e-004 -5.71214827e-004 2.57455511e-004
      -4.38932562e-003 -2.31944374e-003 -1.92993786e-004
      -2.57033622e-003 -2.36203405e-003 -2.46940705e-004
      -5.67651005e-004 -2.57581531e-004 -9.95440758e-004
      -3.12173413e-003 1.81056070e-003 -1.73105346e-003 -2.24374770e-003
      -2.48674303e-004 1.13494680e-004 -9.14984048e-005 3.37132165e-004
      -5.65914845e-004 -2.28998624e-003 1.13092559e-004 1.41257304e-003
      2.88924272e-003 5.13498151e-007 2.34456791e-004 -1.55930640e-004
      -8.73003228e-006 -2.28800054e-004 -3.42664286e-003 1.81056070e-003
      2.95672985e-003 1.47497212e-003 -1.42206263e-004 1.30676592e-004
      -5.17606750e-005 2.91645585e-004 -9.56457690e-004 -3.84181109e-003
      1.37463750e-004 -4.53203125e-003 -8.21202644e-004 -2.97587801e-004
      4.81359784e-005 5.47892851e-005 2.57014151e-004 -1.34534528e-003
      1.13537686e-003 9.73893737e-004 -3.77029413e-004 -3.20178195e-004
      -8.95183301e-004 -5.96154823e-005 1.34727539e-004 -3.67522443e-004
      -1.95951737e-003 -4.13135672e-003 9.80938203e-004 1.86388346e-003
      5.60971035e-004 3.22459382e-005 5.88835464e-005 1.33535257e-004
      2.06591329e-004 -1.32533675e-003 1.05332443e-003 2.63792143e-004
      1.98183837e-003 -1.41603421e-004 -9.20491875e-005 -1.08714339e-004
      -6.64145118e-005 -3.02555971e-004 -6.26971712e-004
      -6.29775343e-004 2.44465121e-003 2.50392273e-004 -1.68811734e-004
      -5.14951593e-004 2.43643281e-005 6.35431206e-006 -1.33663998e-004
      -4.32850141e-003 -2.69851252e-003 7.33559893e-004 1.81454903e-004
      9.00706727e-005 -5.24983800e-004 4.93560568e-004 6.42781437e-004
      1.41252263e-003 -5.19126072e-004 -7.07925356e-004 2.53334455e-003
      5.39118715e-004 -5.17931003e-005 -1.12568314e-005 -7.36218644e-005
      -1.97427609e-004 2.30567588e-004 -2.51178606e-003 6.47119887e-005
      3.22050322e-003 2.53084116e-004 1.00948178e-004 8.82617242e-005
      2.54338724e-004 8.22751026e-004 1.68837851e-005 -3.16659454e-004
      6.73814939e-005 6.19261991e-005 1.56937691e-004 2.34164982e-005
      -2.60889501e-004 2.87491333e-004 1.14841026e-003 1.03433221e-003
      -4.98088833e-004 -8.39863205e-004 2.16947636e-004 2.01212664e-004
      1.88952163e-005 -1.81764859e-004 1.37220384e-004 -3.80351511e-003
      -1.08094828e-003 -3.32112075e-003 5.40611940e-003 1.36356463e-003
      2.67961354e-004 2.99351759e-005 8.43616217e-005 4.02923732e-004
      1.32725213e-003 -3.58967669e-003 1.37159223e-004 2.20272387e-003
      1.69820129e-003 1.22630922e-003 3.50673305e-004 2.72112316e-004
      1.37770583e-003 2.37031095e-003 -7.33312685e-004 -1.36157800e-003
      2.83480942e-004 4.80375660e-004 2.07171048e-004 1.49751213e-004
      3.54227930e-004 9.25588363e-004 -2.86574056e-003 -2.08029640e-003
      -7.22675060e-004 -6.20006758e-005 5.59949585e-005 1.71107022e-004
      3.21384083e-004 1.74198195e-003 4.27216059e-003 1.21185172e-003
      -2.58785882e-003 -7.62291544e-004 1.12894480e-003 8.28285993e-004
      6.77849515e-004 4.70891158e-004 4.33702196e-004 2.45668180e-003
      1.45691459e-003 -9.03142092e-004 -1.33976591e-005 6.01270644e-004
      7.53498927e-004 9.40057362e-005 3.71627160e-004 9.64905368e-004
      4.94969636e-003 -1.07897737e-003 -1.95774459e-003 6.78044162e-004
      -5.34351682e-004 3.35620047e-004 -7.35013600e-005 2.39897752e-004
      1.23829057e-003 3.87147907e-003 1.14421535e-003 -5.36905974e-003
      -2.13568262e-003 7.44122430e-004 9.49161593e-004 -6.51639653e-004
      -1.53519635e-004 -4.03603801e-004 1.68181863e-003 4.46954742e-003
      -7.95940345e-004 -2.20926222e-003 6.34419033e-004 3.15916957e-004
      -3.06660804e-004 3.16358171e-004 3.00116633e-004 5.32320235e-003
      -7.88111705e-004 -5.27402153e-003 -4.31104330e-004 2.24311766e-003
      -9.89538035e-004 -2.19199620e-003 -1.01115240e-003
      -2.78092828e-003 -3.19581304e-005 -1.16659340e-003
      -3.34712327e-003 5.37394721e-004 4.48700339e-005 -1.09008672e-002
      -8.60292406e-004 1.61232403e-003 -8.39297136e-004 6.50928996e-005
      -3.54802381e-004 -3.88956396e-004 4.35344409e-004 -5.40368375e-004
      -6.30018767e-003 9.45901847e-004 5.14669856e-003 3.84299783e-005
      3.53015901e-004 -4.03948798e-005 -2.50562007e-005 1.54351175e-004
      1.48205927e-005 -5.95373195e-003 -2.66028626e-004 9.66288906e-004
      -1.49710593e-003 -1.27613530e-004 -2.51313322e-004
      -5.48498938e-005 4.14989554e-005 1.94205990e-004 -9.64365259e-004
      9.45901847e-004 4.31866758e-003 5.24980715e-004 3.45831766e-004
      -7.02128673e-005 -1.48702020e-005 -7.86416858e-005
      -7.12240813e-004 -1.84971071e-003 3.29002738e-004 2.52562482e-003
      9.58624587e-005 6.93205766e-006 -1.42670498e-004 2.36179549e-005
      -1.23065120e-005 -2.07478576e-003 -7.69207138e-004 6.06340356e-004
      2.62211263e-003 4.08552238e-004 1.63989331e-004 4.79138544e-006
      7.32526169e-005 -7.57379341e-004 5.13465086e-004 -1.16512482e-003
      -1.12319402e-004 3.88633902e-003 1.05953368e-004 2.62288231e-004
      4.12698682e-005 1.91863510e-004 2.87396047e-004 2.04854622e-003
      -7.27353792e-004 -3.80649976e-003 1.97993661e-003 -3.47525137e-003
      5.17681241e-004 -1.79791114e-005 5.73603727e-004 2.83231377e-004
      -3.43479752e-003 2.35068102e-004 7.44753459e-004 1.03671360e-003
      1.13359696e-004 -3.15881392e-004 -5.37520624e-004 -4.55456466e-004
      -2.32540956e-003 8.91875301e-004 2.23619584e-003 2.19934783e-003
      3.36989411e-004 -1.35370030e-003 -1.53094344e-003 -2.45925458e-003
      -2.01310249e-004 1.98775990e-004 3.00108478e-003 2.04941374e-003
      -4.07413393e-003 -8.00591486e-004 -3.75246513e-003
      -1.63564191e-003 -1.58529181e-003 -1.08477008e-003
      -3.45630827e-003 3.23813921e-003 6.68950519e-003 2.67397356e-003
      2.55151629e-003 -9.26938374e-003 -8.36531911e-003 -9.11293831e-003
      -2.39926297e-003 -7.30318902e-003 1.20735087e-003 3.53581994e-003
      1.23946171e-003 -1.08006141e-004 -1.18942559e-003 -1.14827778e-003
      -1.66082836e-003 4.58504976e-004 -3.15741403e-003 6.58033183e-003
      8.97659548e-003 2.29355902e-003 2.69844350e-006 8.04611482e-004
      3.82033213e-005 8.41162517e-004 -1.81908195e-004 -3.96643678e-004
      -3.82325728e-003 1.25143686e-002 7.28965551e-003 2.94013787e-003
      -5.99210244e-003 -4.13624104e-003 -6.52300892e-003
      -6.57555356e-004 -1.43912761e-002 -5.43093821e-003 2.08134558e-002
      1.01827262e-002 4.65408014e-003 4.24439134e-003 2.79285666e-003
      2.42374185e-003 2.67587905e-003 -1.18893208e-002 5.89793455e-003
      5.76135330e-003 3.31911840e-003 -6.54245450e-005 1.70633628e-003
      1.41862081e-003 1.85825105e-003 -2.74281926e-003 -1.57556846e-003
      1.24936108e-003 5.26364846e-003 5.77662559e-003 8.71357101e-004
      2.12329929e-003 3.90124531e-003 6.98149554e-004 -8.14491697e-003
      -4.70925914e-003 -5.35942148e-003 1.27504673e-002 6.61540963e-003
      2.47526751e-003 5.84697584e-003 6.15697168e-003 5.12908213e-003
      5.72710531e-003 -9.14894883e-003 -1.25942966e-002 5.57507761e-003
      5.87924244e-003 2.17682309e-003 8.17053393e-003 8.69092345e-003
      5.38422819e-003 -2.57177581e-003 -9.59579740e-003 1.61600322e-003
      1.42988225e-003 1.92339777e-003 7.42930744e-004 1.90646527e-003
      4.16599121e-003 -3.35881283e-004 -6.01299526e-003 -3.29465867e-004
      6.21220563e-004 1.11104979e-004 -1.60261552e-004 1.73330973e-005
      2.67180381e-004 -1.57034851e-003 -2.42455909e-003 -3.10123572e-003
      7.46819540e-004 -3.43807344e-003 1.79611275e-003 2.48729647e-003
      2.07870570e-003 3.81450378e-003 6.76318724e-003 2.08529434e-003
      -7.98917958e-004 -4.37619723e-003 -3.74315685e-004 2.42525805e-003
      2.95617618e-003 1.34063128e-003 1.26944482e-003 -2.12984462e-003
      -1.94498198e-003 4.38467087e-003 1.11009297e-003 2.39826739e-004
      -1.08681808e-004 -2.73154292e-004 2.92677087e-005 -3.99035402e-004
      4.78370494e-004 -6.05317764e-004 2.42859489e-004 5.27473108e-004
      6.50707865e-004 -4.40479955e-004 -5.68716438e-004 -4.26800718e-004
      -1.05543376e-003 -1.77013653e-003 -7.24506681e-004 4.88009158e-004
      1.42862136e-003 2.71239463e-004 6.45508408e-004 1.55216258e-004
      6.76485142e-005 -8.42907000e-004 -9.41928767e-004 -6.09043520e-004
      5.15460782e-003 8.90458701e-004 8.44989787e-004 1.17577154e-004
      -2.51833117e-004 -3.09076626e-004 -6.70067442e-004
      -2.12805974e-003 -9.00429965e-004 1.63731878e-004 1.99223380e-003
      -6.06478308e-004 -2.03626161e-003 -5.20951720e-003
      -2.74220802e-004 -1.17070798e-003 -4.55277841e-005
      -4.34060930e-004 -2.76556802e-005 -3.05430993e-004 2.35054991e-004
      4.56982176e-004 -2.68956507e-003 5.80307853e-004 7.24664249e-004
      5.15149848e-004 1.79325958e-004 1.84585006e-004 2.77910149e-004
      -2.85636517e-004 -5.17219945e-004 -4.04469669e-003 9.01499297e-005
      2.05268920e-003 1.92428636e-003 4.76410387e-005 3.35464400e-004
      1.66728816e-004 6.20234816e-004 4.33265901e-004 -3.38853919e-003
      -6.84530125e-004 2.71973712e-003 1.61480566e-003 6.57230092e-004
      1.04875118e-003 7.79195980e-004 6.04087138e-004 8.12708924e-004
      -4.18111170e-003 1.31945277e-003 5.93123295e-005 1.04354683e-003
      2.80070031e-004 4.71994659e-004 3.85262247e-004 3.48096038e-003
      3.42163327e-003 -4.14805766e-003 -1.40607124e-003 -4.93802968e-003
      4.56710637e-004 3.20993277e-005 -1.39235868e-003 -1.72066514e-003
      9.62761929e-004 3.69778747e-004 -9.37136239e-004 1.45870625e-004
      3.79575160e-003 2.30640522e-003 1.13048276e-003 1.76520040e-003
      9.57094191e-004 2.60499748e-003 3.04813916e-003 3.61028418e-004
      -1.41028850e-003 -4.99788392e-003 1.57370092e-003 1.89952250e-003
      -1.80312223e-003 -6.41829520e-003 3.92081169e-003 5.42744342e-003
      -5.68045955e-003 -7.59487099e-004 -2.30163452e-003 5.68833784e-004
      -4.61915944e-004 -1.17457530e-003 -5.09653566e-003 3.59736790e-004
      9.92104132e-003 6.04899134e-003 4.40892484e-003 -1.06828392e-003
      -2.26227380e-003 -4.06237924e-003 2.15513937e-004 -1.12560717e-002
      6.17129786e-004 3.69044417e-003 7.39695854e-004 -1.45069425e-004
      8.73662997e-004 2.98821437e-003 1.86774519e-003 4.92489140e-004
      -8.85332655e-003 -4.86578979e-003 8.76418687e-003 7.03679724e-003
      5.20360610e-003 4.30460554e-003 2.73651956e-003 2.45935540e-003
      6.22721622e-003 -5.26763359e-003 -2.02842872e-004 9.83842276e-003
      6.59899926e-003 5.39775658e-003 2.46830564e-003 1.97292189e-003
      7.49615603e-004 3.38179036e-003 -1.20287659e-002 -6.63729990e-003
      1.53975785e-002 6.86628371e-003 7.17589585e-003 5.11873886e-003
      5.40288631e-003 4.45699831e-003 5.75896259e-003 -1.25191780e-002
      -6.25921600e-003 8.29459168e-003 5.14954282e-003 5.29508432e-003
      3.65033443e-003 3.12913908e-003 3.45835020e-003 7.47618871e-003
      -6.43249322e-003 -5.67515381e-003 8.38182867e-003 5.05645806e-003
      5.22858929e-003 4.23802203e-003 6.00951118e-003 6.58742758e-003
      1.03402808e-002 -5.92992269e-003 -8.17766506e-003 1.14099821e-002
      4.78388648e-003 4.85883467e-003 6.43210160e-003 6.57524075e-003
      4.72460361e-003 6.40566880e-003 -1.32089108e-002 -1.16371363e-002
      4.58841166e-003 4.35552513e-003 5.64164389e-003 7.84890912e-003
      8.40731617e-003 6.36954140e-003 4.23888257e-003 -1.32399127e-002
      -7.20966235e-003 1.10634398e-002 8.07054248e-003 5.26694814e-003
      4.82943095e-003 5.86516457e-003 5.83835598e-003 7.04600895e-003
      -1.01533365e-002 -9.44623817e-003 1.08878221e-002 1.09589351e-002
      5.92196686e-003 5.53431781e-003 5.55512495e-003 3.44316242e-003
      3.49052087e-003 -1.59311760e-002 -8.23059119e-003 2.27247621e-003
      5.82986092e-003 4.85098083e-003 -1.66211661e-003 3.38833663e-003
      2.44856067e-003 -1.12195034e-003 -1.37102278e-002 -9.91635607e-004
      2.68530240e-003 5.54615958e-003 3.63739580e-003 -2.58360826e-003
      -7.84304575e-004 -3.04659107e-003 2.63075600e-003 -7.40768271e-004
      -1.15788830e-002 3.50521156e-003 8.85270350e-003 2.05160934e-003
      -3.99960298e-003 6.31143863e-004 8.19986628e-004 -7.03350990e-004
      -1.52982576e-002 -1.19764078e-003 1.56013004e-003 6.05645170e-003
      3.57050076e-003 -6.43193396e-003 -1.83824333e-003 2.01118528e-003
      8.48209165e-005 -1.50174566e-003 1.75265144e-004 6.21443905e-004
      7.61135947e-004 6.38733385e-004 -3.87515756e-004 1.48773222e-004
      -1.76152890e-003 1.52601849e-003 2.99010368e-004 1.14212329e-004
      4.48688224e-005 7.14647293e-004 8.44902592e-004 2.39771252e-004
      1.47704719e-004 -3.81874014e-003 1.01269083e-003 8.78706516e-004
      7.85878074e-005 2.93141755e-004 1.39192911e-003 2.22299644e-003
      -2.50902696e-004 -1.58517633e-003 5.14177198e-004 4.24104510e-004
      1.46786813e-004 -8.93685356e-005 1.62589509e-004 9.64028004e-004
      2.17037182e-003 1.44305464e-003 1.20983855e-003 -3.08855670e-003
      1.74160450e-004 2.06708472e-004 2.44121584e-005 2.70767287e-005
      -6.74163981e-004 -4.64191940e-003 -6.70725713e-004 3.53281293e-003
      -3.37319325e-005 1.98962327e-004 -5.26504009e-005 4.56098147e-004
      4.35637659e-004 3.69992456e-004 -3.90702300e-003 -1.70845748e-003
      2.56570359e-003 4.09006287e-004 6.08632283e-004 5.14360494e-004
      -1.77259280e-005 1.35605762e-004 4.51466913e-004 -6.28515321e-004
      -4.03670332e-004 1.35646225e-003 1.15024333e-003 2.99358828e-004
      -2.28068006e-004 3.79452948e-004 5.19106397e-004 1.55295420e-003
      1.52082497e-003 -9.13465279e-004 5.46141586e-004 1.24916970e-003
      4.35914932e-004 1.91765139e-004 8.75024882e-004 9.96366725e-004
      4.61776799e-004 5.40627807e-004 4.10033157e-003 2.54751928e-003
      1.60988735e-003 1.18521263e-003 6.04720844e-004 2.29079952e-003
      -7.36644678e-003 -4.62849857e-003 -2.52000522e-003 1.71409373e-003
      4.94906725e-003 4.26579034e-003 4.16870369e-003 -3.13873577e-004
      1.04805245e-003 1.90475420e-003 2.23135902e-003 -1.15226372e-003
      -1.18249399e-003 4.55234013e-003 1.22875464e-003 6.35541102e-004
      5.96321130e-004 2.64068227e-003 -6.22973917e-003 -3.38765350e-003
      -3.43970209e-003 -1.16109634e-002 -3.17740999e-003 4.91601939e-004
      2.40317010e-003 6.55474898e-004 -1.79240236e-003 -2.82693678e-003
      2.93191173e-004 3.80252895e-004 2.26967339e-003 2.40698806e-003
      2.94695166e-003 4.27366467e-003 -3.89847468e-004 -1.36831927e-003
      6.05374109e-003 5.56753622e-003 2.02236325e-003 2.48304941e-003
      1.40208285e-003 2.12653447e-003 4.97210585e-003 -5.04033221e-003
      -5.13757998e-003 -4.55555506e-003 -3.52365925e-004
      -1.05508429e-003 -3.66866356e-003 -9.42738086e-004
      -4.35049005e-004 1.06143916e-003 2.21992785e-004 -1.64885703e-003
      -1.45884766e-003 6.27875281e-003 2.91806902e-003 1.39834220e-003
      7.25393882e-004 -1.34622474e-004 5.24954870e-004 -8.28838255e-003
      -3.78398667e-003 8.72905739e-003 3.04127298e-003 1.48722914e-003
      1.55705702e-003 1.14098680e-003 2.16458808e-003 4.60030278e-003
      -7.55876815e-003 -3.75856599e-003 5.14293229e-003 2.28711544e-003
      1.55289751e-003 1.73622847e-003 1.52308843e-003 4.91978973e-003
      5.95506979e-003 -2.71398039e-003 -1.49566471e-003 9.62782558e-003
      3.28797312e-003 1.05300942e-003 1.40798255e-003 7.05666200e-004
      9.89511958e-004 1.93246303e-003 -6.82076393e-003 -6.35764620e-004
      9.61234327e-003 2.87120021e-003 1.62241550e-003 1.21426873e-003
      1.30717410e-003 3.18324286e-003 -1.88409153e-003 -2.70670233e-003
      -7.18340219e-004 7.05706282e-003 4.97295754e-003 2.36986298e-003
      2.20577279e-003 2.36239051e-003 4.61918488e-003 -5.30823891e-004
      -6.74432376e-003 -5.00250561e-003 1.17770899e-002 8.33290815e-003
      4.18047374e-003 3.54116759e-003 3.62747768e-003 1.54207891e-003
      -2.01367773e-003 -1.32763116e-002 6.72623375e-003 5.36731305e-003
      1.92917697e-003 1.61254185e-003 7.25860999e-004 1.17917953e-003
      3.65796557e-004 -4.44894098e-003 -2.79268017e-003 3.82436439e-003
      4.10885131e-003 3.72124999e-003 3.22037912e-003 -2.04088842e-003
      -2.64857477e-003 -3.64224636e-003 -2.93732435e-003
      -6.96460193e-004 -1.01300515e-002 6.94834627e-003 6.97924197e-003
      1.16783136e-003 -2.69167824e-004 1.63925858e-003 8.06392403e-004
      1.40887871e-003 -1.33684995e-002 -1.27771625e-003 1.39433180e-003
      4.27380903e-003 2.64383270e-003 -4.97669401e-003 -1.84926298e-003
      3.30203120e-003 1.27365068e-003 -4.62584605e-004 1.17267761e-003
      3.73971951e-003 3.92156886e-003 3.19838035e-003 -5.79267554e-003
      -4.73394571e-003 -5.03512844e-003 4.60573588e-004 4.95393586e-004
      4.44157049e-004 1.21979334e-003 1.92456727e-003 -1.07862870e-003
      -3.61924554e-004 4.84387577e-003 5.63613046e-003 1.53903989e-003
      3.88242945e-004 4.21261328e-004 6.06702641e-004 1.72711699e-003
      2.46810238e-003 -3.10068391e-003 -3.22211883e-003 6.51270908e-004
      6.65578642e-004 5.96195867e-004 4.06021019e-004 5.56334737e-004
      8.33048194e-004 1.71680504e-003 4.49372892e-004 -2.59015290e-003
      -6.51009264e-004 2.00800758e-004 3.59941536e-004 9.43244901e-004
      6.99167664e-004 2.61052721e-003 9.10933595e-004 -3.09432647e-003
      5.40994632e-004 8.01056973e-004 6.53882278e-004 6.57311291e-004
      9.63639352e-004 1.66928372e-003 1.41038920e-003 -4.03074955e-004
      7.12150824e-004 -7.83758820e-004 5.21201931e-004 5.12622995e-004
      5.56621759e-004 -4.75767483e-005 2.18341193e-005 8.86315829e-005
      3.68396926e-004 -4.01278073e-003 5.95554477e-004 3.07580666e-003
      3.97279277e-004 -7.63961452e-006 1.96777808e-004 5.12944243e-005
      2.52354483e-004 1.31301966e-003 -2.59321718e-003 -7.09607921e-005
      2.54416605e-003 9.67079657e-004 1.76809146e-004 -9.85396910e-005
      1.34332557e-004 3.46016983e-004 9.04095534e-004 -3.04013770e-003
      5.02815237e-004 -1.17786415e-003 6.53771276e-004 -3.31039977e-004
      2.13609688e-004 2.86656985e-004 5.62374422e-004 3.80664977e-004
      -2.91885994e-003 2.56989821e-004 4.60861687e-004 3.41503555e-003
      7.75331573e-004 5.37793210e-004 9.44774074e-004 3.12523544e-003
      2.29631842e-004 -1.83249242e-003 1.60685822e-003 2.86612869e-003
      1.51137728e-003 6.98656251e-004 1.19663286e-003 2.07813364e-003
      4.98216320e-003 -2.30683456e-003 -7.55041186e-003 -7.93748628e-003
      -5.68002043e-003 -6.56522243e-005 7.21151067e-004 7.60204275e-004
      2.09859363e-003 4.45805863e-003 1.00240216e-003 -1.85206253e-003
      -2.31830426e-003 1.30309886e-003 4.79332032e-003 2.18709605e-003
      4.22757788e-004 2.68715504e-003 7.48299109e-003 6.07961416e-003
      -3.37426434e-003 -4.36776690e-003 -2.74922140e-003
      -5.63717633e-003 4.58314578e-004 -1.62850440e-004 1.67897856e-003
      5.89740416e-003 4.36139526e-003 -5.19903656e-003 -2.97153625e-003
      -5.84730646e-003 -3.25159542e-003 -1.06970873e-003
      -3.89341870e-003 4.96856635e-003 4.75620525e-003 3.57460580e-003
      2.81183305e-003 8.66825401e-004 -2.49345647e-003 -3.94985452e-003
      -8.55411310e-003 2.76466570e-004 1.93695968e-003 3.97033244e-003
      5.17920591e-003 2.15586345e-003 3.79021140e-003 -5.42656798e-003
      -8.28234944e-003 -3.40434141e-003 3.57545516e-003 3.74373817e-003
      2.93263537e-003 2.83192168e-003 4.24966635e-003 3.51588521e-003
      8.47012969e-004 -4.30531194e-003 -2.03068461e-003 -3.53664765e-003
      5.45579242e-003 2.88014184e-003 1.10678806e-003 2.01630103e-003
      8.26339063e-004 1.51019834e-003 1.91811356e-003 -7.00930832e-003
      -1.18260528e-003 6.98714657e-003 3.53616546e-003 1.68179593e-003
      1.48187752e-003 1.52919535e-003 2.26950669e-003 1.16726384e-003
      -3.76633252e-003 -5.72250399e-004 2.00734404e-003 1.07542053e-003
      8.45436065e-004 1.75457948e-003 5.43895876e-004 1.59881543e-003
      1.46530266e-003 -1.76895189e-003 -1.59060257e-003 3.90162296e-003
      1.49651687e-003 1.49478123e-003 1.83042861e-003 7.58493610e-004
      1.84916880e-003 4.88067418e-003 -2.46891100e-003 -5.81342843e-004
      3.08786216e-003 -1.40998818e-004 1.69382757e-003 -4.88229358e-004
      2.67588330e-004 4.22313788e-005 -2.59849336e-003 -2.68837973e-003
      1.59498118e-003 2.61578290e-003 -1.77270500e-003 4.17075324e-004
      -8.11545737e-003 -3.86309111e-003 -2.77047139e-003 1.36891508e-003
      2.22136197e-003 -6.56643300e-004 -2.00646603e-003 -8.20287387e-004
      2.43140152e-003 1.09991059e-003 1.39249209e-003 1.98945426e-003
      3.56561644e-003 -3.11732315e-003 -1.56857597e-003 -2.28121434e-003
      -1.66580547e-003 -2.26399847e-004 -1.95631501e-003 2.57116207e-003
      2.78342562e-003 2.97700148e-003 3.62840830e-004 1.25741435e-003
      2.05320632e-003 5.92315744e-004 -4.83094103e-004 -7.13703688e-003
      -3.88904382e-003 -9.86514846e-004 3.56737059e-003 1.18631474e-003
      4.93682979e-004 1.77600130e-004 1.69753621e-003 -8.19359964e-004
      4.08508087e-004 3.44613381e-003 2.10201321e-003 2.96603364e-004
      3.69786751e-004 9.56893258e-004 1.57985941e-003 -3.87447770e-003
      -1.71202980e-003 -1.80472271e-003 1.54289836e-003 2.77574360e-003
      1.80502608e-003 7.28340296e-004 3.19436222e-004 4.10689367e-003
      4.76073437e-005 -1.98588055e-003 1.91970507e-003 6.23263477e-004
      5.51821548e-004 2.28355129e-004 3.50130897e-004 4.66258090e-004
      -3.29332602e-006 4.13455674e-003 -1.19123957e-003 -2.63695349e-003
      8.14956904e-004 3.97601369e-004 1.19333861e-004 3.99221841e-004
      7.26104889e-004 2.21648486e-004 1.27041608e-003 1.67380669e-003
      -3.78341717e-003 3.85808205e-004 1.93471031e-004 8.40221910e-005
      4.09190106e-005 4.14732960e-004 1.09580264e-003 2.14553601e-003
      4.07186599e-004 -1.56050397e-003 -6.71611560e-005 -8.91731761e-005
      4.01642756e-005 3.44482745e-004 2.99806299e-004 -6.39108755e-003
      2.64372589e-004 1.64007349e-003 -3.49892676e-003 -9.59786994e-005
      5.65344908e-006 5.57938001e-005 1.18480828e-004 1.02167496e-005
      1.89637474e-004 -2.83693444e-005 1.58983676e-004 -3.09236602e-005
      1.77271679e-004 -2.19904096e-003 6.00156724e-004 -3.19065992e-004
      -3.20857289e-005 1.02250578e-006 -5.15517740e-006 -3.88332497e-004
      -1.60643645e-003 9.26422246e-004 -8.98095313e-004 4.12178272e-003
      5.37314801e-004 -3.14576318e-004 -1.56174923e-004 -1.48049626e-003
      -1.67672208e-003 -1.01276592e-003 -2.24911585e-003
      -1.76394277e-003 -8.14833096e-004 -2.90966535e-004
      -1.36619012e-004 -1.09508495e-004 -7.05295068e-004
      -1.17294700e-003 -1.64638588e-003 1.51816558e-003 -9.05927969e-004
      2.18843645e-003 -1.31483166e-003 2.04842931e-004 7.97635061e-004
      1.17399951e-003 1.20135010e-004 -3.57269775e-004 5.44672657e-004
      -6.84868661e-004 1.91336067e-003 1.70011877e-003 -6.94070259e-005
      1.10243971e-003 2.01970199e-003 6.21882966e-004 1.31134049e-003
      5.14708972e-003 -3.25897476e-003 -3.26557551e-003 1.03074941e-003
      -3.87071777e-004 -9.53632334e-005 -6.24290042e-005
      -5.10106329e-004 -7.07014871e-004 1.39636075e-004 -8.04492331e-004
      -1.81725074e-003 -1.21788343e-003 -3.30956798e-004 9.65889194e-004
      2.51105777e-003 5.29663113e-004 2.10552709e-004 3.05560906e-003
      -1.01358606e-003 -1.08704531e-004 -2.35370221e-003
      -1.10325636e-003 1.92577392e-003 3.22206924e-003 1.04114646e-003
      1.51282502e-003 4.62808227e-003 -3.73197225e-004 -8.00569169e-003
      -3.32526281e-003 8.00819485e-004 2.49024108e-003 2.57158256e-003
      3.51302733e-004 1.22173293e-003 2.20838934e-003 1.55713025e-003
      -7.77729228e-003 -1.89159228e-003 -1.16640190e-003 1.78652792e-003
      3.99490818e-003 8.34383653e-004 2.43194489e-004 2.29611178e-003
      4.23811609e-003 -9.31337650e-004 -1.25111127e-003 -1.10472506e-003
      1.56861031e-003 2.19459529e-003 -2.63268274e-004 7.23654375e-005
      3.24277004e-004 1.98660512e-003 1.52596098e-003 -3.87650216e-004
      -2.65558506e-003 5.73600410e-004 1.07997053e-004 -5.04660375e-006
      4.64002864e-004 1.27974839e-004 3.61518527e-004 -8.31015932e-004
      -1.48427556e-003 -1.21404266e-003 9.12711490e-004 1.79466646e-004
      3.47907189e-004 6.28267939e-004 9.26207504e-005 9.82064521e-004
      2.13621999e-003 -3.01920390e-003 -2.52196478e-004 5.08941186e-004
      5.18022853e-006 -3.00204527e-004 -1.66494319e-005 -9.85470760e-005
      2.35223488e-005 4.96824924e-003 -5.07236946e-005 -4.55310044e-004
      1.64348283e-003 2.86820316e-004 8.69073556e-005 1.25601451e-004
      -1.37580661e-004 -1.11231820e-004 1.74671982e-003 -1.18901946e-004
      -1.36138999e-003 -4.10777330e-003 4.49051768e-005 7.49341096e-004
      1.13551796e-003 4.26449522e-004 7.65627425e-004 1.30157825e-003
      -2.01106258e-003 5.94241719e-004 -1.10073271e-003 -2.95064622e-003
      1.81123218e-003 1.59104215e-003 6.44050946e-004 9.68453882e-004
      6.60646881e-004 1.69637060e-004 -7.60308409e-004 -2.45463540e-004
      7.20746757e-004 1.89788596e-004 1.44086225e-004 -1.12854068e-004
      -1.92398322e-004 5.07655728e-004 2.56452779e-003 -1.04374986e-003
      2.45851203e-004 -2.28718668e-003 6.06874877e-004 4.00944409e-004
      -8.39701606e-005 1.03153934e-005 1.55342190e-004 6.27387431e-004
      1.54985022e-003 5.43384522e-004 -1.43252744e-003 2.28826678e-003
      1.84319890e-003 1.05085703e-004 4.40722069e-004 1.93632077e-004
      3.14115488e-004 2.61653768e-004 5.30918268e-003 -8.90634838e-004
      -2.54864828e-003 7.60740717e-004 -9.69679895e-005 1.42646939e-004
      1.51288768e-004 1.58395313e-004 4.68649156e-003 -8.90634838e-004
      -3.95857776e-003 9.66197054e-004 3.24100343e-004 -2.65867457e-005
      1.03006154e-004 -3.40710067e-005 5.02785144e-004 2.99340137e-003
      -1.98472175e-003 -9.08558606e-004 -2.10807440e-004 1.34960661e-004
      4.87477882e-005 1.69961917e-004 2.65400959e-005 2.85780523e-004
      2.55588122e-004 3.47399642e-003 6.98574993e-004 1.75970327e-003
      -3.31880525e-004 1.52763634e-004 -9.49364403e-006 4.50296247e-005
      1.82573465e-004 3.94008617e-004 -6.49041031e-003 -4.98486508e-004
      -2.63335998e-003 -1.78313209e-003 1.72948392e-004 4.39078322e-005
      5.62851601e-005 9.21732135e-005 1.19988783e-003 1.21202844e-003
      6.03959721e-004 8.25534458e-004 1.88221893e-004 1.78575778e-004
      2.24234846e-005 1.11327216e-004 2.52422964e-004 1.51879212e-003
      -3.72322556e-003 -8.72012461e-004 -1.75509325e-004
      -1.76022190e-003 -4.78712638e-004 -2.86248542e-004
      -3.00350919e-004 -1.20522773e-005 2.72996747e-003 -7.96906708e-004
      -1.26866333e-003 -1.70162949e-003 -1.62911322e-003 3.20308929e-004
      -4.69374051e-003 8.61432985e-004 4.03086655e-003 2.18191952e-003
      -8.42283625e-005 -6.19896047e-004 -3.52280244e-004
      -9.02375963e-004 1.09740265e-003 -1.01400632e-003 -5.08926809e-004
      3.61354230e-003 3.17384186e-003 -9.15541023e-004 -1.96129410e-003
      -2.36761686e-003 2.50106095e-004 -1.84951976e-004 -3.09672649e-003
      3.10084759e-003 5.66486968e-003 2.51176907e-003 -1.31069496e-003
      -1.40445784e-003 -7.65689008e-004 -9.91580193e-004
      -6.19850878e-004 -6.08695392e-003 -4.07047523e-003 9.80239641e-003
      2.25881420e-004 8.30626595e-005 -2.59211356e-005 -2.33313272e-004
      -3.75562704e-005 3.04644142e-004 2.85343704e-004 -7.22001249e-004
      2.43924279e-003 2.18790650e-004 4.15194721e-004 3.61172773e-004
      -2.33474966e-005 2.80488221e-005 9.77193355e-004 3.74964252e-003
      1.10292865e-003 -7.69430306e-004 -1.16199466e-004 -1.00059889e-003
      -4.17479987e-006 -2.33575429e-005 -5.08599740e-004
      -1.12948753e-003 -7.82223511e-003 -1.48551480e-004 7.29473541e-003
      5.36513107e-004 -8.18110479e-004 -1.25150589e-004 5.07441255e-005
      -3.70041758e-004 -9.43067658e-004 -7.58057600e-003 8.70270422e-004
      -8.33375205e-004 -4.79132897e-004 2.82580964e-004 3.67781438e-004
      1.43318539e-004 1.90702820e-004 5.69204218e-004 2.02922802e-003
      -3.13004130e-004 -3.93586652e-003 -1.72184524e-003 3.83418577e-004
      8.60691362e-005 -7.34476853e-005 2.24048563e-004 1.28266562e-004
      1.28707988e-003 1.88586221e-003 4.17028234e-004 5.48555283e-004
      -3.30783136e-004 -2.14121799e-004 1.35212962e-004 -3.93343624e-004
      -1.51083877e-004 -3.22613004e-003 -5.43157686e-004
      -2.77571846e-003 -1.21165533e-003 -1.35011491e-004
      -1.05119558e-004 3.61974162e-005 -2.04840428e-004 4.45920414e-005
      1.23113021e-003 1.63891132e-003 4.15690651e-004 -3.32996878e-003
      2.77721614e-004 9.87791500e-005 -1.57365794e-005 -1.36018480e-006
      -4.21488130e-006 2.12682164e-004 5.63289458e-003 -3.18275881e-004
      -1.57604215e-003 1.20654970e-003 4.02009755e-004 2.68740463e-004
      1.70669315e-004 1.57110728e-004 -1.42089426e-004 1.93441403e-003
      1.82739168e-003 -6.22826442e-003 -3.64873762e-004 2.08480516e-004
      8.45656832e-005 -2.16860586e-004 1.98208982e-005 3.85781430e-004
      6.17750082e-003 -2.69455282e-004 -2.23001349e-004 -4.83274274e-003
      1.91010942e-004 3.62149527e-004 9.32703115e-005 3.45125125e-004
      3.60705853e-005 2.19076127e-003 -3.39862338e-004 -2.18848043e-004
      8.24743940e-004 -1.17309319e-005 8.90501615e-005 1.35298251e-004
      1.32650341e-004 -1.26218845e-004 4.05333965e-004 4.23122942e-003
      1.34052488e-003 6.50175731e-004 -3.14256642e-003 1.19744100e-005
      1.27096355e-004 4.53921120e-006 -3.01418586e-005 2.59175722e-005
      9.41020844e-004 -1.11072550e-005 -4.37045004e-003 -2.38572108e-003
      8.71568118e-005 -1.70262909e-004 2.68037897e-004 2.60942943e-005
      2.46769137e-004 4.52519162e-003 -7.97427958e-004 5.92919765e-004
      -1.04222437e-002 1.29537584e-004 -1.03749102e-003 4.01603138e-005
      -2.22672734e-005 8.17169275e-005 8.68828094e-004 6.91204146e-003
      1.04950705e-004 -3.84941604e-003 3.80817422e-004 3.22658627e-004
      8.54225073e-006 1.27430700e-004 7.04604972e-005 6.54042291e-004
      5.77811990e-003 -5.42587833e-004 -2.07955018e-003 1.36756932e-003
      1.03803515e-003 2.31800514e-004 1.04692081e-004 5.33379489e-006
      9.07996728e-004 5.56911621e-003 -3.71770322e-004 -9.54201352e-003
      7.93527637e-004 2.19382709e-004 1.31074892e-004 1.26566039e-004
      5.66994189e-004 1.15453661e-003 6.59057032e-003 -2.09719641e-003
      -5.78514161e-003 1.07987667e-003 1.30905700e-003 1.37629875e-004
      2.30540711e-004 3.69570975e-004 1.50294893e-003 4.02745651e-003
      -2.64190324e-003 -2.06261128e-003 1.39160361e-003 1.11866661e-003
      -1.57240880e-004 -3.80573561e-004 -3.75149975e-004 6.31306146e-004
      1.34545867e-003 -6.71099755e-004 -3.38813639e-003 1.09762093e-003
      -1.66162921e-004 -2.16447795e-003 -6.73117931e-004
      -5.63954702e-004 9.43415915e-004 6.52257772e-003 -2.31628353e-003
      -6.40428672e-003 -3.28521361e-004 -1.65215912e-004
      -7.04785052e-004 -2.80973745e-005 -3.26043548e-004 2.26721657e-003
      1.09825924e-003 4.50949604e-003 1.02592842e-003 -7.05678714e-004
      -4.85650409e-004 -1.63644040e-003 -4.81838360e-005 4.54254739e-004
      3.11966497e-003</_>
    <_>
      6.43109391e-003 -1.26091754e-002 -1.89394690e-002 2.81799259e-003
      8.50293506e-003 7.23258406e-003 3.17993620e-003 2.05606222e-003
      5.24461968e-003 5.81137789e-003 -1.58174951e-002 -1.06881829e-002
      5.88188414e-003 6.55481871e-003 4.34315624e-003 2.12496519e-003
      4.28809877e-003 8.93518701e-003 6.42161397e-003 -5.42890932e-003
      -7.95163587e-003 -4.63131396e-003 1.11844707e-002 9.16374940e-003
      3.67553486e-003 4.13093949e-003 6.56420644e-003 5.80791291e-003
      -8.64655338e-003 -1.19474973e-003 1.66178984e-003 9.32397787e-003
      5.79896150e-003 1.48702506e-003 3.71388556e-003 5.93222585e-003
      -2.13232194e-003 -6.48216065e-003 -6.94093946e-003 1.49246014e-003
      -4.36998467e-004 1.35064032e-003 3.40405066e-004 2.30202056e-003
      3.03551205e-003 -2.65514408e-003 2.72756629e-003 -2.84127134e-004
      7.32983346e-004 -1.45572098e-003 2.81172077e-004 -2.93497724e-004
      1.00149773e-003 3.63647356e-004 -2.43478012e-003 -1.87168678e-003
      3.15119582e-003 2.66516046e-003 1.54577743e-003 1.00897870e-003
      -9.28821901e-005 4.91768238e-004 -4.04587860e-004 -6.07682101e-004
      1.92358601e-003 2.10858556e-003 -1.00121950e-003 -1.38446491e-003
      -2.02108378e-004 -1.19659562e-004 5.26507851e-004 -1.18589622e-003
      -5.56761818e-003 3.03660025e-004 1.09328155e-003 -1.00973784e-003
      -1.44315523e-003 -4.27221996e-004 -3.23698943e-004 4.90343373e-004
      -3.12717143e-003 -2.15906999e-004 2.21466459e-003 1.26266474e-004
      -5.86673777e-005 -1.33939192e-003 -7.80738133e-004
      -1.13063506e-004 -1.04364869e-003 -4.63268207e-003
      -3.71485623e-003 -9.37858131e-004 -5.42151567e-004
      -1.93919335e-003 4.66156751e-004 1.94120294e-004 -4.51957567e-005
      -5.21955022e-004 -3.16301896e-003 -3.16403038e-003 4.99470718e-003
      1.14281988e-003 2.17197416e-003 1.95270847e-003 1.07536104e-003
      -1.92660649e-004 -3.04421457e-003 2.53657484e-003 1.97355126e-004
      3.80835147e-003 -1.03604405e-004 -1.18235286e-004 -9.58445191e-004
      -3.71113012e-004 -8.38563952e-004 -3.19340988e-003
      -7.50732375e-003 -5.47065726e-003 6.67327491e-004 -5.71554756e-006
      -8.15613894e-004 -1.46170671e-003 3.48600734e-004 2.71063473e-004
      -6.18187105e-003 -2.40081199e-003 1.69863459e-003 5.42386994e-003
      1.63331570e-003 1.71495497e-003 2.54050537e-004 6.23486922e-005
      -1.17320044e-003 -3.92682757e-003 5.34366758e-004 9.93902981e-003
      9.95630585e-003 7.36118935e-004 -4.04240767e-004 9.06510628e-004
      1.26190891e-003 -2.41279558e-004 -2.93028238e-003 -1.45827746e-003
      -3.00994236e-003 -1.80903007e-003 -1.32144301e-003
      -9.90142697e-004 -2.34237988e-003 -4.22075362e-004 1.28072151e-003
      -2.87679490e-003 1.10992813e-003 -3.65502224e-003 -2.27349182e-003
      -1.48918468e-003 -3.15881887e-004 -2.10500415e-003
      -1.81869185e-003 -4.78449371e-003 -5.29005891e-004
      -1.38303079e-003 7.81143270e-003 -5.08208585e-004 -6.59179699e-004
      6.40357786e-004 2.19981233e-003 1.73920102e-003 1.05503015e-003
      2.22365430e-004 5.42360079e-003 -1.29572060e-002 -5.47358952e-003
      5.61490364e-004 2.75958050e-003 2.67855241e-003 3.00090853e-003
      3.79954861e-003 -1.63114583e-003 -4.04104590e-003 -1.66091754e-003
      -1.42946155e-004 -2.11439270e-004 4.62599783e-005 -2.33311002e-005
      -1.74371147e-004 2.88410811e-003 3.48033296e-004 1.40432746e-003
      -1.83621165e-003 1.38339016e-003 -4.99827293e-005 -3.60625680e-004
      7.39581126e-004 4.11180640e-003 3.32338328e-004 -4.87813447e-003
      2.57550878e-003 -6.17843727e-003 -8.67732451e-005 3.60572565e-004
      1.42072025e-003 6.06513990e-004 6.28789654e-004 6.14007656e-003
      -2.57143006e-003 -9.50332452e-003 -2.84523563e-003 5.83764340e-005
      -3.14573437e-004 2.49631819e-004 3.42432148e-004 -4.65259101e-004
      -1.82771985e-003 -1.42707501e-003 -3.35039524e-003 9.60161327e-004
      1.04180968e-003 -8.76360107e-004 -1.55948335e-003 -6.02889108e-003
      -1.33347418e-003 2.36313231e-003 -2.76007864e-004 -7.28042869e-005
      1.05383713e-002 2.65934225e-003 6.28618756e-004 -7.79831607e-004
      -1.72648747e-002 -1.66171156e-002 -6.12227130e-004 9.92274657e-003
      1.00462846e-002 -5.37088374e-004 -3.25488836e-005 -3.53576615e-004
      3.02812787e-005 -2.80448177e-004 2.95225438e-003 4.72382322e-004
      -3.64139234e-003 -1.29518099e-003 8.50971323e-003 1.45691715e-003
      1.23881584e-003 -1.01569644e-003 -9.47724842e-003 -1.00051379e-002
      1.09251193e-003 5.72218653e-003 8.60713050e-003 2.78413156e-003
      1.34835823e-003 -8.84202216e-003 -1.41720623e-002 7.61187915e-003
      4.67862701e-003 8.46593000e-004 1.47566292e-003 4.28929273e-003
      9.04466608e-004 -2.37367558e-003 3.03840556e-004 -5.86741557e-003
      6.48092199e-003 3.07345437e-003 7.53111264e-004 1.62317918e-003
      2.73152627e-003 1.82079244e-003 6.30683359e-003 -7.61871634e-004
      -2.58719991e-003 -3.84555175e-003 9.80060548e-004 1.92323525e-004
      2.89674907e-004 1.55751966e-003 3.97901953e-004 2.78464565e-003
      1.85289385e-003 -1.52313252e-004 5.04606927e-004 1.01029221e-003
      2.47408985e-004 2.28847101e-004 6.95725903e-004 -1.02627138e-003
      -2.33215746e-003 4.25655907e-003 -4.75557055e-003 1.17410196e-003
      6.96407456e-004 4.66254249e-004 5.82164212e-004 4.51869448e-004
      1.61227712e-004 4.37843846e-004 3.97887174e-003 -2.55362550e-003
      1.36761708e-004 4.42443561e-004 8.75161437e-004 5.56681596e-004
      3.68797919e-004 6.48382760e-004 7.40776712e-004 5.36112208e-003
      -3.45693179e-003 -3.71229975e-003 1.13693030e-004 9.21865867e-004
      7.12029170e-004 7.35663169e-004 2.15766617e-004 -1.09149434e-003
      -2.75798887e-003 -1.16447974e-002 -1.53187951e-002
      -2.06152257e-003 1.37927337e-003 2.06781691e-003 1.09820056e-003
      -4.97369620e-004 1.45014690e-003 -3.88947409e-003 -3.03965458e-003
      -2.98717296e-005 9.50117304e-004 4.62629279e-004 -3.90912668e-004
      -3.00431694e-003 4.59712325e-003 3.44432937e-003 -9.65361192e-004
      -2.50846078e-003 -6.97116926e-003 -1.98109169e-003
      -1.16301095e-003 -8.94311641e-004 6.06891094e-003 3.82740353e-003
      -3.20594106e-003 -8.06566048e-003 -1.37566328e-002
      -1.80142745e-002 -2.53056060e-003 3.29103693e-003 1.83577708e-003
      1.56911803e-004 7.87034817e-003 -2.04700790e-003 -1.03584528e-002
      -1.74985398e-002 -2.04736684e-002 -1.25871412e-003 6.89145504e-003
      8.67718551e-003 9.46334098e-003 8.85163061e-003 7.96635170e-003
      1.14722457e-003 -1.83789909e-003 -8.32787715e-003 -1.99564337e-003
      -2.93812877e-003 -2.51790415e-003 5.12840226e-003 1.98157486e-002
      1.29040086e-003 -1.38547458e-002 1.96898938e-004 3.11449054e-003
      1.76558294e-003 -1.92726788e-003 -1.83318113e-003 1.06671471e-002
      1.45961996e-002 -9.36576724e-003 -2.62830816e-002 -1.22237550e-002
      -1.63934734e-002 -5.07923542e-004 2.06150115e-003 5.56912087e-003
      1.16631472e-002 2.60054413e-002 -1.66765060e-002 -2.90979799e-002
      -2.09102407e-003 1.17399637e-002 1.01664569e-002 3.26237571e-003
      6.48381747e-003 2.22981628e-002 7.95938261e-003 -8.93093739e-003
      -1.16142100e-002 1.17616821e-003 6.38495153e-003 3.92827624e-003
      3.80834867e-003 1.08659966e-002 1.93335414e-002 -2.22845338e-002
      -1.56211639e-002 -4.05395404e-003 3.86791956e-003 4.62683989e-003
      2.62104021e-003 1.13866916e-002 5.70612680e-003 -4.73060645e-003
      1.40283769e-002 -1.87871754e-002 -2.71903910e-002 -5.19838708e-004
      1.13260765e-002 1.10513782e-002 9.35665518e-003 1.45092960e-002
      2.22202577e-002 -1.96986832e-002 -2.74306498e-002 -2.09324993e-002
      4.83390223e-003 -5.67686604e-003 -2.36846786e-003 7.57183041e-003
      7.72016309e-003 -7.58345891e-003 -1.11694764e-002 -8.42039648e-004
      9.51359223e-004 2.50621163e-003 -4.61037783e-003 -5.17823873e-003
      8.79987702e-003 1.51575310e-004 -1.53120579e-002 1.62574433e-004
      1.12814312e-004 -9.48575325e-005 2.07944817e-004 -2.91519472e-003
      -1.75032276e-003 3.33996234e-003 -4.97650472e-004 -2.34406418e-003
      -9.56111588e-003 -3.78373847e-003 -1.00509112e-003 3.05279973e-003
      -2.09747329e-002 -9.72867478e-003 1.11928582e-002 2.13884911e-003
      -9.16492380e-003 4.14057053e-004 2.35333131e-003 3.35224625e-003
      6.65184285e-004 -1.46030560e-002 2.81705847e-003 6.56884816e-003
      5.47274132e-004 1.37529348e-003 1.82990989e-004 -4.55645320e-004
      -2.90898286e-004 5.41592090e-005 1.14839850e-003 5.62862633e-003
      7.23702600e-004 -4.04697377e-003 -1.63828186e-003 1.77941029e-003
      -1.33285384e-005 1.25187670e-003 -2.62944348e-004 -3.31273972e-004
      -6.77538058e-003 9.33919277e-004 8.54935963e-004 2.58869352e-003
      -1.02584978e-004 -3.59224970e-004 -1.69142106e-004
      -5.69170916e-005 1.92054978e-003 3.49639123e-003 -1.15487244e-004
      -5.08435769e-003 -1.32011611e-003 4.10761626e-004 -3.42262589e-004
      1.04401703e-003 -7.70725252e-004 4.04164754e-003 -2.37481506e-003
      -1.86790351e-003 -3.60490172e-003 1.18300237e-003 6.99027616e-004
      3.12734465e-003 6.88644964e-003 -2.44424772e-003 -1.62837505e-002
      -9.00030020e-004 2.20600210e-004 1.43763551e-004 4.25197446e-004
      2.61604902e-004 1.81764236e-003 8.89612734e-003 -2.73069803e-004
      -5.82540827e-003 -9.22330248e-004 4.94358886e-004 5.42056630e-004
      7.97804794e-004 1.96302123e-003 1.37101382e-003 5.08405780e-003
      -2.27848743e-003 -4.20635939e-003 -4.45540017e-003 4.11515939e-004
      9.90987057e-004 1.69003534e-003 2.43794289e-003 1.10982859e-003
      5.14531648e-003 2.22529052e-003 -6.47622906e-003 -4.36000060e-003
      2.00981228e-003 2.79820245e-003 4.36316291e-003 1.19641132e-003
      2.41697649e-003 -1.00856670e-003 -3.94878583e-003 -7.71873351e-003
      -2.27240426e-003 1.10054761e-003 1.02116435e-003 1.38978474e-003
      3.05584865e-003 2.38266448e-003 3.70785012e-003 -5.50016807e-003
      -1.38548370e-002 -8.81948508e-003 -5.09090140e-004 3.37020122e-003
      2.91929138e-003 4.53157583e-003 1.46202988e-003 1.69775041e-003
      3.62015009e-004 -1.05958022e-002 -5.00608049e-003 6.84119412e-004
      3.16333282e-003 5.93197206e-003 1.09603256e-002 8.00861977e-003
      6.77154399e-003 1.31569081e-003 -9.12802108e-003 -1.11820027e-002
      -3.70245869e-003 6.25574868e-003 1.23816719e-002 4.24592011e-003
      1.33702240e-003 -4.59846854e-003 -6.53095078e-003 -1.46756154e-002
      -7.11468048e-003 7.96497858e-004 1.28729094e-003 2.41705310e-003
      1.46099669e-003 -6.33080350e-003 -1.02054682e-002 -5.94150694e-003
      -3.86832678e-003 1.40292675e-003 5.68477856e-003 2.99594435e-003
      4.30430938e-003 1.32626966e-002 9.38073546e-003 4.08365019e-003
      -4.49579587e-004 -5.55959670e-003 -1.17694186e-002
      -9.60880611e-003 -6.83181826e-003 1.07633052e-002 1.93282869e-003
      -1.15304909e-004 4.67347819e-003 4.41458868e-003 5.84293855e-003
      -1.88430931e-004 -8.22133478e-003 -8.80141556e-003
      -1.45514170e-003 6.24060165e-003 -1.74958594e-002 -1.58888754e-002
      7.12631876e-003 1.09020695e-002 9.82032716e-003 9.06531699e-003
      7.57149328e-003 1.13184741e-002 1.79758649e-002 -2.12224312e-002
      -2.94016562e-002 1.00899767e-002 1.73517969e-002 1.58877634e-002
      1.44721139e-002 1.55983837e-002 1.97476726e-002 -6.59130048e-003
      -2.17384435e-002 -1.62283219e-002 7.11981440e-003 1.18104015e-002
      8.88693053e-003 5.47400443e-003 5.25426446e-003 1.05890306e-002
      1.44596957e-002 -2.78981291e-002 -3.64640690e-002 3.49744153e-003
      1.20382737e-002 1.28490869e-002 1.58676859e-002 2.65900288e-002
      3.05312239e-002 1.37581974e-002 -2.28260644e-002 -3.09037603e-002
      2.97020515e-003 6.31883508e-003 8.28364585e-003 6.37644762e-003
      1.15268575e-002 1.33514404e-002 -1.11610559e-003 -7.76127214e-003
      -9.43523739e-003 1.20299524e-002 -1.20295528e-002 -9.37829912e-003
      1.96972582e-003 4.27873340e-003 7.81638955e-004 2.36739684e-002
      -1.58434175e-002 -2.46761814e-002 3.01349140e-003 -3.98332579e-003
      -4.49681247e-004 6.16851449e-003 2.01644246e-002 2.50034481e-002
      1.56364609e-002 1.59360133e-002 9.66159627e-003 5.27060730e-003
      -1.99985113e-002 -2.23972388e-002 -6.51731435e-003 6.75711432e-004
      5.46860229e-003 -3.27982893e-003 2.22202530e-003 1.45451576e-002
      1.21977674e-002 -2.27952003e-002 -1.54867852e-002 8.26143194e-003
      2.73615750e-003 -6.47490015e-005 3.76026757e-004 2.45883921e-003
      5.99064538e-003 7.70292245e-003 -1.41840549e-002 -1.32177048e-003
      1.01425564e-002 3.65918339e-003 1.93301914e-003 -1.54177003e-004
      1.35004334e-002 2.23311391e-002 5.73182758e-003 -2.08373927e-002
      -2.29957998e-002 -8.87346512e-004 -3.02675320e-003
      -3.24582495e-003 -6.49671769e-004 5.53366449e-003 1.06186401e-002
      8.27531144e-003 -1.58342272e-002 -3.93573148e-003 5.75897330e-003
      2.92253029e-003 1.80674950e-003 1.39922442e-004 3.92432557e-005
      3.76685231e-004 1.53051200e-003 5.67148626e-003 -8.85750516e-004
      7.97792745e-004 -2.31368118e-003 -6.24081658e-005 -6.73729286e-004
      -5.51019737e-004 1.80033589e-004 3.22804059e-004 1.15578007e-002
      -3.18995095e-003 -1.37490286e-002 -1.43293443e-003
      -2.29481608e-004 8.74133664e-004 1.40263524e-003 3.77442362e-003
      7.40796700e-003 5.80457551e-003 -4.17388277e-003 -9.86631843e-004
      2.38505541e-003 2.49594753e-003 9.36571232e-005 8.92796030e-004
      3.53959535e-004 5.28022833e-003 3.93234659e-003 -2.62406515e-003
      -1.05373189e-002 9.00184736e-004 -5.32979495e-004 1.40101393e-003
      4.63986187e-004 1.65815628e-003 7.38991005e-003 -1.54745451e-003
      -1.18257711e-002 -8.16863438e-004 7.97162065e-004 8.44882801e-004
      3.39730154e-003 1.50321121e-003 3.19835264e-003 1.23047344e-002
      -3.55264242e-003 -1.27124107e-002 2.63003632e-004 1.75150100e-003
      3.39244888e-003 2.54073471e-004 4.67235281e-004 1.63112814e-003
      6.16734149e-003 1.78097223e-003 -2.72478675e-003 -6.80975663e-003
      4.04279926e-005 -7.73979773e-005 1.63469487e-003 1.30422192e-003
      2.67297868e-003 6.30063703e-003 2.97374651e-003 -4.03818861e-003
      -4.16376721e-003 8.01810180e-004 5.53058344e-004 4.23585018e-003
      2.03116215e-003 2.53805052e-003 3.43115628e-003 -1.06371455e-002
      -1.44453375e-002 -2.05405842e-004 1.75931957e-003 4.49820375e-003
      9.72661749e-003 5.83761744e-003 8.38864967e-003 2.83039804e-003
      -5.07949898e-003 -9.18812398e-003 -1.54882367e-003 4.79601929e-003
      1.00910757e-002 3.34477844e-003 2.27749394e-003 4.85430285e-003
      6.06467342e-003 -6.80445461e-003 -1.40969036e-002 -3.01040872e-003
      1.75548194e-003 3.34100379e-003 1.32621694e-002 9.88832768e-003
      9.84586496e-003 2.75777350e-003 -1.38804931e-002 -1.38507318e-002
      -2.73847324e-003 8.20524059e-004 6.35099178e-003 9.26426053e-003
      7.59163359e-003 7.82132149e-003 1.96452346e-003 1.66260020e-003
      -3.84576852e-003 -6.68766163e-003 -7.46913534e-003 6.33629551e-003
      -2.47295224e-003 3.85169568e-003 9.43198707e-003 5.72221586e-003
      9.07988567e-003 1.14755542e-003 -7.59706181e-003 -1.87393297e-002
      -8.18655454e-003 3.92726017e-003 3.12477379e-004 1.19202014e-003
      -3.48578882e-003 -3.04514403e-003 -2.81919492e-003
      -5.38086286e-004 -7.69169361e-004 2.18999828e-003 -6.25031861e-003
      -5.90573298e-003 -7.74085475e-003 -4.15683817e-003 1.67217688e-003
      -6.43234234e-004 -3.47376888e-004 -3.93740088e-003
      -4.19729529e-003 -4.17642994e-003 -1.21624703e-002
      -1.57192000e-003 4.61923610e-003 8.47258046e-003 3.26792826e-003
      6.60532853e-004 -7.96460838e-004 4.97257919e-004 -6.07195718e-004
      -2.42461506e-002 -1.97070353e-002 1.59242644e-003 6.21505827e-003
      2.99713016e-003 8.66629370e-003 1.97316073e-002 1.13668973e-002
      -6.41127117e-003 -6.62485324e-003 9.35867196e-004 3.78134870e-003
      5.44620538e-003 1.40965823e-003 1.02479581e-003 -5.20411704e-004
      -8.62973183e-003 -8.39715172e-003 2.48632883e-003 5.39926020e-003
      5.15053095e-003 6.91740401e-003 4.16708225e-003 6.26260135e-003
      1.00612044e-002 -9.74435732e-003 1.04833581e-002 -5.77907776e-003
      -9.37321130e-003 1.29832362e-003 -8.22536356e-004 -3.22749210e-003
      4.45492798e-003 1.05594052e-002 6.74951181e-004 4.70978254e-003
      1.84146892e-002 1.13731902e-002 2.12365459e-003 -1.40967909e-002
      -9.71983559e-003 -5.13081031e-004 -5.61686698e-003
      -1.43873775e-002 -1.39765376e-002 4.38080449e-003 4.01381031e-003
      4.86589363e-003 5.57132205e-003 3.05275922e-003 8.52459203e-003
      1.51657267e-003 -1.07107880e-002 -2.08524708e-003 6.38706610e-003
      4.59268130e-003 5.43046556e-003 5.45368390e-003 4.84011136e-003
      -8.39723158e-004 -1.07160127e-002 -1.54382261e-002
      -9.74225625e-003 1.21327704e-002 1.35666886e-002 -2.44707521e-003
      -1.90908220e-002 -1.10797007e-002 1.27120747e-003 -5.36501827e-003
      -1.60009079e-002 -2.14342191e-003 5.78476023e-003 1.07926130e-002
      6.89931866e-003 -1.18343411e-002 -5.98007534e-003 1.30363670e-003
      1.88652088e-003 1.29273965e-003 -1.71972369e-003 7.21395295e-003
      5.74182672e-003 4.23755357e-003 3.27477674e-003 3.50636779e-003
      -8.94885138e-003 -1.33680208e-002 -1.74708851e-002 4.34429804e-003
      6.31731655e-003 8.04128032e-003 5.18771308e-003 1.36246416e-003
      -2.59146467e-003 -8.71349964e-003 -1.06325578e-002 1.65989378e-003
      3.18284449e-003 3.41521157e-003 7.13960128e-003 9.53281950e-003
      2.03264761e-003 -9.11480747e-003 -8.02770723e-004 2.90787942e-003
      3.98463197e-003 2.14152643e-003 2.22177710e-003 1.87058595e-003
      6.02316903e-003 -5.91903320e-003 -1.35889882e-002 -3.98578495e-003
      2.37641321e-003 1.25659956e-003 4.83588735e-003 4.31263447e-003
      7.89040420e-003 5.33154188e-003 -6.85237348e-003 -5.14970440e-003
      -4.40094038e-004 7.13351939e-004 4.20186110e-003 2.47016456e-003
      2.35239696e-003 7.70365121e-004 -4.77280701e-003 -4.07462474e-003
      -3.32844793e-003 2.75833067e-003 3.16632073e-003 2.96338648e-003
      1.87965983e-004 5.97845297e-004 8.97064339e-004 2.76038004e-003
      7.79100833e-003 -1.54789025e-003 -4.33411449e-003 1.38675978e-005
      4.09141096e-004 -1.81213138e-004 4.26493789e-004 4.57858463e-004
      1.48354005e-003 4.67746379e-003 -2.87868758e-003 -2.61141080e-003
      7.56843947e-004 -7.23023413e-006 6.34311640e-004 3.26599868e-004
      1.20448519e-003 3.21034668e-003 3.70284379e-003 1.42975443e-003
      -4.22680005e-003 2.70266854e-003 1.03285525e-003 -5.73304933e-005
      8.61053049e-005 1.28419226e-004 1.12923724e-003 3.35232262e-003
      1.53056323e-003 -4.00916731e-004 -1.65231433e-003 9.41706938e-004
      9.59524652e-004 1.79964444e-003 2.44280207e-003 2.89452099e-003
      -2.73143814e-004 -8.27386882e-003 -7.69108860e-003 2.59358599e-003
      1.57177460e-003 6.31151535e-003 6.53786073e-003 1.44447396e-002
      2.87827407e-003 -6.11185795e-003 -1.27984062e-002 -7.71335699e-003
      2.60170363e-003 5.72446221e-003 1.09008735e-003 2.02987320e-003
      2.40625045e-003 2.23300490e-003 4.38730838e-003 -2.39565852e-003
      -6.11852808e-003 -2.68499157e-003 1.88530155e-003 4.48803557e-003
      8.57558474e-003 1.30434278e-002 9.20697022e-003 4.36642859e-003
      -1.09432684e-002 -1.09076621e-002 -7.06075050e-004 3.93531285e-003
      7.10303104e-003 2.73449300e-003 3.32708540e-003 -3.63893108e-003
      -6.77891308e-003 -7.08020478e-003 -3.45262606e-003 1.69785786e-003
      6.39796816e-003 -7.92731764e-004 -3.93377058e-003 -9.14425775e-003
      -8.97263084e-003 -4.23978316e-003 -7.83275533e-003
      -4.24809102e-003 -4.67257225e-004 3.96454195e-003 6.58723759e-003
      1.02163935e-002 1.00409100e-002 7.28994235e-003 1.11764297e-003
      -8.78759846e-003 -1.04827285e-002 -2.25594942e-003 6.03990769e-003
      1.39941573e-002 4.56845993e-003 2.43350654e-003 1.53168361e-003
      -1.78481263e-004 -8.62380862e-003 -1.34338010e-002
      -1.30908564e-002 -1.66744820e-003 -9.39988438e-003
      -7.63117941e-003 -7.78402609e-004 -1.76527712e-004 2.68177432e-003
      4.23119491e-004 3.90782079e-004 -8.16753542e-004 -2.45294138e-003
      -7.54729891e-003 2.28731218e-003 8.30730237e-003 6.19191583e-003
      7.08413543e-003 6.85494021e-003 6.83047855e-003 1.09382309e-002
      -7.58453365e-003 3.48291569e-003 1.33319321e-004 8.81371961e-005
      3.81110061e-004 2.71236640e-003 -8.97036749e-004 -6.96312310e-003
      -1.92893054e-002 -1.08084204e-002 -8.74735042e-003 1.16883224e-004
      2.60810158e-003 3.58802942e-003 5.21117309e-003 4.87096747e-003
      5.41443797e-003 9.49876208e-004 -9.10988357e-003 -1.16830347e-002
      2.54738494e-003 3.02271475e-003 4.80891019e-003 3.85624636e-003
      2.69993138e-003 9.14680585e-003 9.66214854e-003 -6.27700426e-003
      -4.87471174e-004 1.03627419e-004 -2.61710491e-003 4.21294617e-003
      4.34778584e-003 -8.40206107e-004 1.63205911e-003 -3.19134770e-003
      -1.19985752e-002 -9.79086570e-003 -6.72260905e-003
      -2.77783311e-005 5.21076377e-003 4.32634819e-003 2.00478313e-003
      8.76114890e-003 8.88803042e-003 -1.26195475e-002 -1.45167345e-002
      -1.46681787e-002 -1.06582027e-002 5.02986554e-003 7.06172967e-003
      1.18834223e-003 4.08954360e-003 7.01557007e-003 -6.97687315e-003
      7.23097753e-003 1.02854823e-003 -2.26018415e-003 -1.43757940e-003
      -1.25513936e-003 -8.34648777e-003 -6.02789735e-003
      -9.97998845e-003 -4.33961715e-004 7.21786916e-003 4.00627404e-003
      4.19814792e-003 7.07379135e-004 -1.92805484e-003 -5.10136783e-003
      -5.76445926e-003 -3.66895809e-003 5.25512220e-003 -2.74116267e-003
      -1.88695937e-002 -1.30514754e-002 -7.90026132e-003
      -5.57077699e-004 -1.87310507e-003 4.99062194e-003 4.46361955e-003
      4.87695727e-003 4.36034147e-003 -5.58128464e-004 4.45608253e-004
      -2.40278430e-003 -2.56190193e-003 -7.08846201e-004 3.86013719e-003
      4.46842704e-003 4.64720419e-003 2.10414617e-003 1.18384871e-003
      5.73053537e-003 -2.47952878e-003 -2.89188419e-003 -3.57763958e-004
      9.54590505e-004 5.72395220e-004 2.27463804e-003 3.17742029e-004
      1.80124596e-004 2.16846354e-003 -4.46571576e-005 -5.32787992e-003
      1.21459330e-003 1.38793408e-003 7.54820881e-004 4.59475734e-004
      5.91236458e-004 -1.80649949e-004 -2.63532595e-004 -4.04240424e-003
      -1.85206183e-004 2.57874769e-003 3.58468411e-003 1.50352670e-003
      1.19048497e-003 -1.65783346e-003 -3.87857924e-003 6.35979930e-004
      6.68133318e-004 7.84428266e-005 -9.32900584e-004 7.43974175e-004
      1.53242057e-004 -5.02000505e-004 -2.23055220e-004 -6.73390983e-004
      -6.08779257e-004 1.05980830e-003 1.31570350e-003 1.17752783e-003
      -4.15011821e-003 2.00154376e-003 1.80707558e-003 6.61628728e-005
      3.43394437e-004 -2.02867504e-005 1.12609321e-003 1.72063208e-003
      5.73527068e-003 -6.09029667e-004 -2.09502876e-003 7.93926127e-004
      6.81478239e-004 1.93641303e-004 -8.84960406e-004 -8.32927239e-004
      -1.97734358e-003 -2.99639488e-003 1.43732119e-003 2.75048963e-003
      4.26713051e-003 1.09582885e-004 9.59460274e-004 2.47976550e-005
      -2.77311134e-004 5.23572126e-005 6.00707252e-004 -2.22868966e-005
      5.65903436e-004 1.38430635e-003 4.25883714e-004 6.22825930e-004
      4.13634960e-004 7.17548362e-004 1.24235626e-003 9.86658633e-005
      -1.32952933e-003 -8.79996805e-004 6.81900478e-004 1.73598062e-003
      2.15727882e-003 3.87066510e-003 5.65823400e-003 5.61092934e-003
      2.60690833e-003 -9.61214211e-003 -5.51506411e-004 2.84967548e-003
      4.94193111e-004 4.97217756e-004 -2.12548024e-004 -1.65931735e-004
      1.41452241e-003 -1.81933271e-003 4.80372255e-004 -3.82880238e-003
      -4.31445282e-004 9.07002075e-004 2.15083885e-004 3.15300218e-004
      1.01413368e-003 4.27227141e-003 5.76721039e-003 -3.36866337e-003
      -2.07270030e-003 4.00972087e-003 2.99013522e-003 4.03032359e-003
      6.22808281e-003 6.03424571e-003 5.99825615e-003 -1.25849387e-003
      -9.43518244e-003 -1.15835210e-002 2.88654305e-003 1.30442437e-002
      6.58477237e-003 6.24109944e-003 6.44488307e-003 5.15441364e-003
      -2.00900808e-003 -1.27346758e-002 -1.54666081e-002
      -1.12316199e-002 2.44934025e-004 7.11901754e-004 2.04674224e-003
      1.52782875e-003 3.14751058e-003 6.23337692e-003 -4.67150565e-003
      -2.75904732e-003 4.55082720e-003 6.53541600e-003 1.97354401e-003
      3.15564196e-003 2.08262936e-003 2.73590279e-003 4.98183025e-003
      5.11689764e-003 -1.75918918e-003 -2.72798771e-003 6.85145054e-003
      4.31237742e-003 2.68417969e-003 3.01273703e-003 3.95398587e-003
      2.18558242e-003 -2.12325878e-003 -1.69377811e-002 -1.35285314e-002
      -1.04139950e-002 1.30264123e-003 1.76371413e-003 4.44579404e-003
      3.92928394e-003 2.53410451e-003 5.48373116e-003 4.11703862e-004
      -1.27639370e-002 1.31007684e-002 2.69460282e-003 1.76539191e-003
      1.28284027e-003 1.88591960e-003 2.46674544e-003 4.29910561e-003
      6.00596948e-004 -1.50273764e-003 1.31041044e-003 9.38917510e-003
      4.17771190e-003 3.88764590e-003 1.42190279e-003 1.26015628e-003
      2.46709655e-003 1.64085894e-003 -3.37864226e-003 -1.31587619e-002
      1.68883416e-003 2.16135196e-003 4.85744793e-003 3.81305395e-003
      1.06432626e-003 5.18535543e-003 5.12528652e-003 -1.46871116e-002
      -1.87892038e-002 -9.97367688e-003 -3.58311483e-003 8.31875205e-003
      8.46331567e-003 3.23540368e-003 8.59150942e-003 8.02949164e-003
      -5.27687464e-003 -4.93200962e-003 1.84630025e-002 7.36237364e-003
      3.71245830e-003 2.23804871e-003 6.68303226e-004 6.05504785e-004
      1.76927552e-003 -1.07066929e-002 -6.39292225e-003 4.10852395e-003
      2.03979928e-002 6.63582049e-003 4.00802260e-003 1.24824897e-003
      1.81161601e-003 2.89451750e-003 -6.29601534e-003 -1.34773208e-002
      -2.16295402e-002 -1.08204316e-002 2.10192357e-003 5.31146023e-003
      3.65351932e-003 6.89968234e-003 5.60384663e-003 2.46767327e-003
      3.22928885e-004 -1.09465439e-002 1.98195878e-004 7.08825828e-004
      4.14772797e-003 3.64228594e-003 4.55051754e-003 2.36253394e-003
      2.01330706e-003 -1.47937229e-002 6.60634250e-004 1.02381185e-002
      7.93108810e-003 5.02820313e-003 1.42776570e-003 2.11335556e-003
      1.55250309e-003 -7.76806439e-004 -1.73199375e-003 -3.42113245e-003
      3.39300302e-003 4.31781914e-003 5.22474200e-003 1.62795011e-003
      7.75767840e-004 6.45841705e-004 6.35508390e-004 -4.58011375e-004
      -5.37967309e-003 -1.50612432e-005 4.56767017e-003 1.68892927e-003
      1.67823734e-003 1.15309877e-003 3.83365666e-004 6.79487654e-004
      -1.28079706e-003 -4.40582260e-003 3.86449363e-004 -4.76734852e-003
      2.48602359e-003 -1.19889817e-004 6.94826653e-004 1.49370035e-005
      -3.47387468e-005 5.14555839e-004 -4.17483225e-003 1.27174065e-003
      1.45224540e-003 2.61315890e-003 7.56892900e-004 1.02944341e-005
      2.03159332e-004 5.14530460e-004 1.69567391e-003 -8.98479111e-003
      -1.02887291e-003 1.14534225e-003 2.45921477e-003 5.75381622e-004
      2.81070417e-004 7.78227986e-004 2.37489864e-003 5.19568333e-003
      2.51443777e-003 1.14804332e-003 -1.07172388e-003 -1.06274253e-002
      -1.09882755e-002 -7.27296458e-004 2.44464190e-003 5.67351235e-003
      1.33983418e-003 6.48355868e-004 6.30741764e-004 1.70214102e-004
      -3.76695883e-003 -1.80390989e-003 -7.90591992e-004
      -4.24210913e-003 4.06414783e-003 1.12130316e-002 3.93545022e-003
      3.71498498e-003 1.51511258e-003 -8.82517733e-003 -9.06648673e-003
      -1.89615425e-003 4.88158828e-003 1.02906376e-002 7.38928095e-003
      2.59042345e-003 5.86911151e-003 6.85438374e-003 -4.12772897e-005
      -1.83768093e-003 -2.15560687e-003 -3.08457809e-003 8.45470093e-003
      -7.06477294e-005 -1.31953042e-004 1.30008237e-004 -5.97897197e-005
      5.20487549e-004 1.67192915e-003 1.23069470e-003 -3.44015448e-003
      2.11959844e-003 1.18133314e-004 7.79116890e-005 1.29645690e-004
      -2.31323458e-004 6.03844353e-004 2.55878665e-003 -4.97330679e-003
      2.93533900e-004 4.90440987e-003 1.69353769e-003 8.83158296e-004
      1.44371390e-003 1.67531276e-003 -9.76538649e-005 2.53829570e-003
      -5.86023275e-003 3.48747568e-003 7.62269832e-003 8.53382284e-004
      9.62703547e-004 5.36239299e-004 1.09385175e-004 7.18197669e-004
      1.21972710e-003 -9.84263327e-003 1.26425154e-003 3.26696201e-003
      -7.57829577e-004 -8.62336856e-006 -5.17524359e-006
      -5.98211016e-004 -2.10158014e-005 1.25588849e-003 -7.17635220e-003
      1.96452573e-004 5.50216855e-003 6.47438737e-003 1.00348356e-004
      6.21547282e-004 -7.40262622e-004 -2.29045054e-006 -1.97511239e-004
      -9.21100727e-004 -2.01702677e-003 2.73445412e-003 1.74141052e-004
      5.04021009e-004 1.09270528e-004 -2.89820804e-004 -1.55772013e-003
      -8.50370561e-004 -1.06628258e-002 2.08853307e-004 9.36173776e-004
      1.43619161e-003 -5.53553458e-004 3.46054185e-006 -5.60900895e-004
      -1.12236058e-003 -9.73904738e-004 -6.43247133e-003
      -4.11876058e-003 7.70144281e-004 1.26091568e-002 7.27697799e-004
      5.54021972e-004 -1.34270711e-004 -1.91011113e-005 -5.42572292e-004
      -4.57097602e-004 -5.25523396e-003 -1.15492183e-003
      -5.15541869e-005 9.05982312e-003 1.37468323e-003 1.09286222e-003
      1.52391280e-004 1.19023716e-004 3.50085669e-004 -1.94809004e-003
      -7.18090590e-003 3.31282453e-003 -1.03618411e-004 -1.79634604e-004
      -1.12521183e-003 -5.57165535e-004 -6.30071154e-004
      -2.80880998e-003 -4.73868335e-003 -1.06068468e-003 1.99146220e-003
      5.84110850e-003 -6.05867826e-004 -7.53757253e-004 1.77222362e-004
      2.71827506e-004 4.99694534e-006 -1.56746723e-003 -3.22202337e-003
      -1.69109949e-003 1.86265279e-002 2.79700710e-003 5.44522132e-004
      7.38215691e-004 5.82940585e-004 3.26645473e-004 -4.11856105e-004
      -1.20502887e-002 -5.52272703e-003 5.96716302e-003 1.05783185e-002
      1.24891798e-004 1.25441537e-003 3.98263859e-004 4.90929466e-004
      -9.43479186e-004 -9.12028924e-003 4.48959181e-004 1.24946376e-002
      -1.31457322e-003 -4.43834200e-004 6.34013268e-004 2.26902761e-004
      6.80268451e-004 -2.72934604e-003 -1.20675387e-002 -2.86797504e-003
      4.07346385e-003 3.08924401e-003 -1.82365882e-003 8.59003412e-005
      4.88888400e-005 9.35403106e-004 -2.17019161e-003 -1.01124514e-002
      -9.57570225e-003 -5.06509095e-004 8.71518627e-003 1.14858279e-003
      1.12828996e-003 -2.14898682e-004 1.75105932e-004 -6.30495371e-004
      -2.96049402e-003 -7.94650230e-004 -3.41087440e-003 5.37986285e-004
      1.11988315e-003 2.06625275e-003 -9.19275626e-005 -3.44046653e-004
      -2.22725575e-004 8.10040074e-005 -4.33716783e-003 9.35197808e-004
      2.46973196e-003 -9.05507768e-004 -1.34287489e-004 2.04876545e-004
      1.36816569e-004 4.52790468e-004 -3.90184321e-003 3.80027061e-003
      -1.27735874e-003 -8.89858638e-004 -5.56552899e-004 7.11071829e-004
      1.28548359e-003 2.85342947e-004 3.25013441e-003 1.56459445e-003
      2.38617440e-003 -4.63590818e-003 -3.30716558e-003 -1.22507114e-003
      3.20497341e-003 5.80682885e-004 1.91546860e-004 1.07414764e-003
      1.70714734e-003 3.13126273e-003 -5.78593742e-003 -7.50314211e-003
      -1.98127888e-003 2.77155684e-003 -2.76246079e-004 9.79405246e-004
      2.58596591e-003 5.86879998e-003 6.14213478e-003 -1.50206278e-003
      -5.90260001e-003 -9.90741653e-004 2.24119378e-003 1.82573800e-003
      2.17335019e-003 6.41375827e-003 5.99572109e-003 7.56429974e-003
      6.88562344e-004 -5.43795247e-003 -7.23811390e-004 1.73109188e-003
      -6.10128569e-004 1.37855671e-003 7.04964716e-003 1.05594005e-002</_>
    <_>
      5.44228312e-003 -4.05414915e-003 -7.79890642e-003 5.59699314e-004
      1.54270872e-003 1.53643219e-003 1.70183298e-003 1.94535544e-003
      4.78184875e-003 4.92318487e-003 -4.20014421e-003 -3.46120400e-003
      2.31388165e-003 4.31434019e-003 1.79269991e-003 1.84360170e-003
      1.56217697e-003 5.16457018e-003 3.43172206e-003 6.14089519e-003
      -2.53572618e-003 -3.44704767e-003 3.78325023e-003 1.88228942e-003
      2.07726588e-003 2.28206022e-003 2.91369599e-003 4.80226241e-003
      1.83573880e-004 -1.59351213e-003 -1.33399316e-003 2.23216671e-003
      5.89398202e-004 5.69806783e-004 9.84873390e-004 1.62056147e-003
      7.99924892e-004 -1.21768087e-003 5.37815504e-004 2.56207143e-003
      2.31522461e-003 5.27811761e-004 5.02638693e-004 2.90795317e-004
      1.81213371e-003 9.45945969e-004 -4.68609767e-004 3.72322416e-003
      2.21756496e-003 -4.43288125e-004 -2.45011208e-004 -1.82125135e-004
      1.13830618e-004 4.69714752e-004 3.52661009e-005 -2.72189587e-004
      3.43425869e-004 -1.88647758e-003 4.11293586e-004 -8.03231014e-005
      -2.36846652e-004 4.43774079e-005 -1.75108580e-004 2.09604390e-003
      -8.82283435e-004 1.49731452e-004 -2.66995165e-003 -1.20266480e-003
      -3.71289643e-004 -4.75585897e-004 -1.23610298e-004
      -4.04422404e-004 1.55924028e-003 1.01936387e-003 3.32824909e-003
      4.96228167e-004 -4.94010164e-004 -3.36546829e-004 -1.00817480e-004
      2.74213689e-005 -5.97033941e-004 2.00768642e-004 9.31759365e-004
      -3.61460989e-005 -2.08062658e-004 2.16279150e-004 -4.04093298e-004
      -1.20796831e-004 -2.64385977e-004 1.09901873e-003 2.86576059e-003
      3.42141691e-004 -3.44816968e-003 -2.19819765e-003 -1.47752371e-003
      -3.33490549e-004 -3.41267063e-004 -3.55158845e-004
      -1.20107376e-003 -6.84258703e-004 3.29984445e-003 -2.06303410e-003
      -5.98731160e-004 -4.52093198e-004 -3.85751424e-004
      -1.60018331e-004 -1.06053741e-003 1.77946393e-004 2.56283954e-003
      -2.15803948e-003 -9.55052732e-004 -3.26939509e-004 5.17052395e-005
      -1.20494842e-004 -4.58728377e-004 -1.25423982e-003 3.96048231e-003
      -3.31095325e-005 -1.64494105e-003 -1.08914555e-003
      -6.64435211e-004 -2.68910488e-004 -2.68059579e-004
      -4.93378902e-004 3.26296613e-005 6.02229324e-004 2.22929916e-003
      -2.42910231e-003 -1.32175651e-003 -6.27369038e-004
      -3.86865606e-004 -1.03233120e-004 -3.53650423e-004
      -2.50696531e-003 3.27223586e-003 1.11735892e-003 -3.77474842e-003
      -9.49886977e-004 -4.43562021e-004 -5.59484761e-004
      -4.64044075e-004 -1.27916702e-003 -7.65002769e-005
      -1.57412418e-004 -2.40627350e-003 -1.41334499e-003
      -1.70870568e-003 -7.97405199e-004 -1.20346039e-003
      -9.09443130e-004 -8.09803314e-004 1.36369385e-003 2.53692619e-003
      -1.28746545e-003 -1.07317395e-003 -1.31163979e-003
      -2.97872873e-004 -1.12447445e-003 -1.20568369e-003 2.82599451e-003
      1.12762314e-003 2.42208922e-003 -6.12147851e-003 -3.47310165e-003
      -5.55330596e-004 -3.09069263e-004 -6.12431497e-004
      -1.21370365e-003 -1.76773767e-003 4.64192685e-003 2.71595735e-003
      -9.83324274e-003 -2.69340398e-003 -3.87037784e-004
      -2.11622857e-004 -4.05090570e-004 -1.28756475e-003 1.66558824e-003
      2.78946478e-004 2.64344591e-004 -1.59455370e-003 -4.08866588e-004
      -3.21861124e-004 -1.22102545e-004 -6.64216001e-004
      -5.30701247e-004 6.03142288e-003 1.70169235e-003 -7.88208039e-004
      -1.72764692e-003 6.21613581e-004 -1.29133725e-004 -2.95015663e-004
      -1.28574867e-003 -1.84033078e-003 5.13556297e-004 8.14142637e-004
      5.79539919e-004 -3.13318148e-003 -5.35192084e-004 -4.36038943e-004
      -2.05268414e-004 -4.60504030e-004 -1.08898291e-003 1.77455926e-003
      1.74164834e-005 -2.37795059e-003 -2.39486760e-003 -5.61137975e-004
      -2.32425140e-004 -2.47257005e-004 -6.90275629e-004
      -3.17600509e-003 -2.04867218e-004 4.71335516e-004 -2.07774644e-003
      9.26979992e-004 1.10223447e-003 -1.06971202e-004 -4.94314765e-004
      -2.59268703e-003 -3.97668127e-003 1.37765671e-003 1.67868857e-003
      1.37184118e-003 4.07328131e-003 2.40671751e-003 1.53488654e-003
      2.79396354e-005 -7.18921237e-003 -8.89524538e-003 -5.51581196e-003
      1.31216994e-003 4.28667013e-003 -1.19955267e-003 1.89828992e-004
      3.80769139e-004 -2.98870058e-004 -9.21657484e-004 -4.41537099e-003
      3.13215610e-003 5.38037159e-003 -1.46820792e-003 7.10638706e-004
      2.88092834e-003 3.22261383e-003 -4.37720118e-005 -1.98124838e-003
      -4.81501920e-003 4.69853962e-003 7.44402129e-003 7.89954443e-004
      7.96793960e-004 1.10751670e-002 1.19019242e-003 -8.63767322e-003
      1.56035798e-003 4.91203507e-004 5.59662411e-004 6.08754111e-004
      2.30352729e-004 7.44067307e-004 4.65639727e-003 4.36384522e-004
      -8.25766195e-003 4.92726977e-004 1.53926958e-004 1.11011315e-004
      2.47983495e-004 7.26070866e-005 4.53145709e-004 8.71481281e-003
      3.50177940e-003 -1.95416645e-003 -1.79928693e-003 -2.27875877e-004
      2.84780195e-004 -1.83859393e-005 -7.34279092e-005 -9.75738440e-005
      6.05856883e-004 4.36384522e-004 -4.17134538e-003 -1.48870912e-003
      -2.83586560e-004 1.54852198e-004 1.38128627e-004 1.19944831e-004
      -1.96594643e-004 3.52199120e-003 3.03988648e-003 -3.92974773e-003
      -9.22701438e-005 4.73380969e-005 -2.41628422e-005 3.54394033e-005
      -1.94956738e-004 2.35106287e-004 3.29133379e-003 3.24451574e-003
      -4.23309300e-003 -1.31290872e-003 -8.75994156e-005
      -1.20175449e-004 -3.46501882e-004 -7.03918457e-004
      -5.32461097e-004 2.31790659e-003 3.57110356e-003 -4.62561473e-003
      -2.70830165e-003 -8.17714084e-004 -1.15833529e-004
      -7.62801501e-005 -1.32612186e-004 -2.32606102e-003
      -1.27383508e-003 2.92553869e-003 -8.77874345e-003 -5.99560561e-003
      -3.22111649e-003 -3.23695131e-004 -4.42051794e-004
      -1.46683212e-003 1.83323538e-003 1.75082590e-003 -1.73516932e-003
      -2.27658567e-003 -1.06015697e-003 2.56974658e-004 4.59307019e-004
      -2.71940389e-005 -6.59038837e-004 1.68815791e-003 2.11545010e-003
      -2.06786185e-003 -2.34981091e-003 -1.72063243e-003 4.45257574e-005
      9.91998939e-004 -1.33026054e-003 -7.30476342e-004 -1.01585884e-003
      -3.48515599e-003 1.13962428e-003 -4.73638671e-003 -3.94764356e-003
      1.30989240e-004 2.71636713e-003 9.96094081e-004 2.56452546e-003
      3.10895662e-003 -9.66854393e-003 -7.15727452e-003 -1.15360888e-002
      -2.11580991e-004 8.01197253e-003 1.22233182e-002 5.16523141e-003
      1.07659446e-002 5.44407638e-003 -1.37557730e-003 -1.01326685e-003
      -1.85650273e-003 -1.82400155e-003 -5.98852115e-004
      -4.60984797e-004 -2.72879447e-003 4.03296016e-003 5.15233434e-004
      -1.41732423e-002 -7.64863333e-003 -6.44790009e-004
      -4.05902480e-004 -4.54291090e-004 -1.19572610e-003 5.43049595e-004
      8.03572591e-003 1.50724845e-002 -1.80165116e-002 -2.12917533e-002
      -1.09826894e-002 -2.55442085e-003 1.47382158e-003 5.81466500e-003
      2.62528099e-003 2.25144289e-002 1.78587399e-002 -2.58307252e-002
      -2.64241248e-002 -5.91353886e-003 -1.31388323e-003
      -1.57424354e-003 -1.51893834e-003 2.98259634e-004 2.51833573e-002
      -7.55098183e-003 -1.26672946e-002 -5.33396937e-003
      -1.35248265e-004 2.62109330e-004 -3.52876639e-004 -7.30134547e-004
      8.56197719e-003 1.18352594e-002 -1.44912880e-002 -8.52756016e-003
      -3.10733309e-003 -3.45840526e-004 -1.40003848e-003
      -4.79100412e-003 6.97018579e-003 1.15441037e-002 3.68841342e-003
      1.04233827e-002 -2.04854738e-002 -1.78727768e-002 -2.25898228e-003
      -6.75587158e-004 -1.82577875e-003 -1.62352761e-003
      -5.09112833e-005 1.86543614e-002 2.90645612e-003 -1.60288308e-002
      -9.43517033e-003 -2.60283565e-003 -1.43168475e-002
      -1.36339907e-002 -3.98805877e-003 4.71844384e-003 1.03151714e-002
      -6.44768681e-003 -9.73502465e-004 -6.00321277e-004
      -2.56144849e-004 -3.34311044e-003 -6.92287646e-003 7.88950361e-003
      5.85228857e-003 -5.71966963e-003 -6.59114216e-004 -1.30715285e-004
      2.92133445e-005 4.11983674e-005 -4.52103734e-004 5.42789698e-004
      4.79268096e-003 3.92112881e-003 -2.54360703e-003 -1.26925262e-003
      -2.50225328e-003 -2.91659031e-003 -2.30098143e-003
      -1.72897968e-002 -1.47617254e-002 2.94434209e-003 1.27084844e-003
      1.83615426e-003 -4.58247960e-005 -1.29927794e-004 -5.07512770e-004
      -1.05016131e-003 -9.07995086e-003 2.69583892e-003 5.76496311e-003
      -1.62844453e-003 -1.99602568e-003 -3.44332919e-004 1.68743591e-005
      9.41140679e-005 -5.33415878e-005 1.84365184e-004 -1.65806455e-003
      1.03059376e-003 1.06875924e-003 -1.95916486e-003 -9.80853569e-004
      6.75315096e-004 9.34091106e-004 -2.99615349e-004 -2.94218393e-004
      -3.42346425e-003 2.41457601e-003 2.52787559e-003 -1.10920565e-003
      -2.70087883e-004 -5.01915405e-004 -2.66709016e-004 2.03071231e-005
      5.55186823e-004 2.94628972e-003 1.10866653e-003 -5.46894781e-003
      -1.64555397e-003 -6.91150315e-004 -3.63289117e-004 1.83416327e-004
      2.02389070e-004 6.13721902e-004 4.46945196e-004 3.73913324e-004
      -1.19546203e-005 -8.88271607e-004 9.36782046e-004 3.66370426e-003
      9.12223477e-003 -5.80319378e-004 -6.89183129e-003 -6.49260008e-004
      4.46656981e-004 -3.64697247e-004 4.89768281e-004 -6.34021635e-005
      2.12730753e-004 7.15228822e-003 -7.97058514e-004 -4.31161420e-003
      -9.03467590e-004 -6.30188297e-005 3.49035945e-005 1.01889455e-004
      1.20483455e-003 1.14276446e-003 6.16942579e-003 2.20748084e-003
      -3.86455609e-003 -4.94042085e-003 -6.27734466e-004
      -2.59958528e-004 7.28276442e-004 2.30271384e-004 3.55437282e-004
      6.62345299e-003 2.06459733e-003 -5.92410984e-003 -4.53358516e-003
      -9.01445339e-004 5.00365568e-005 1.83690980e-004 -9.11459647e-005
      3.24234163e-004 7.78693100e-003 -1.15633721e-003 -3.23054497e-003
      -2.24679429e-003 -2.08867685e-004 1.27673426e-004 3.34675744e-004
      -1.24296593e-003 -2.42220983e-003 6.21497864e-003 2.06855082e-004
      -1.85410935e-003 -9.23557580e-003 -3.03361216e-003 2.50977231e-003
      3.98324151e-003 4.36264410e-004 6.96084287e-004 3.52215907e-003
      2.59598950e-003 -6.04078127e-003 -4.59753070e-003 -1.49522885e-003
      -3.43104883e-004 6.99499273e-004 4.79350938e-003 1.32131937e-003
      4.24832106e-003 5.06879436e-003 1.73833570e-003 -9.13219340e-003
      -8.72941967e-003 2.20171665e-003 1.62233729e-002 9.43378487e-004
      -5.57791302e-003 4.20553936e-003 -9.15695331e-004 -4.76661650e-003
      -5.88454120e-003 -1.79435464e-003 7.13114918e-004 7.61695672e-003
      6.26026979e-003 -1.47988684e-002 -1.14413388e-002 -7.70933274e-003
      -3.15312762e-003 1.21760985e-003 5.62894903e-003 3.32682650e-003
      1.81225780e-002 1.03144702e-002 1.03087339e-003 1.46587775e-003
      2.36415816e-003 -3.16164875e-003 -1.09203365e-002 -1.13862045e-002
      -7.03483727e-003 1.62789244e-002 8.42108764e-003 -1.22429971e-002
      -6.88343309e-003 -2.87822075e-003 -4.37050220e-003
      -5.62596414e-003 -7.95938540e-003 -1.10731246e-002 7.56477239e-003
      9.12631210e-003 -1.89764071e-002 -1.86334662e-002 -4.33454104e-003
      -2.09891866e-003 -1.74377335e-003 1.07211806e-003 1.41982292e-003
      2.26430111e-002 1.80236511e-002 -2.20699906e-002 -2.27912460e-002
      -4.32379078e-003 -8.98663478e-004 -1.50665909e-003
      -1.12703349e-003 -2.64563219e-004 2.35517099e-002 7.28275580e-003
      -2.15514097e-002 -1.51384166e-002 -2.62745772e-003
      -1.50774478e-003 -2.42537120e-003 -1.72664714e-003
      -1.92799408e-003 1.79422945e-002 1.49332052e-002 -2.34787911e-002
      -2.37763878e-002 -3.39816883e-003 -1.78544468e-003
      -1.92006060e-003 -1.85229769e-003 -9.37804070e-005 2.17338912e-002
      1.55562088e-002 -2.04502307e-002 -1.99091230e-002 -3.81315523e-003
      -4.61946568e-003 -4.21743887e-003 -3.02001135e-003
      -1.45420921e-003 1.94866192e-002 1.29801361e-002 -7.39064626e-003
      -7.20368652e-003 -3.45586496e-003 -1.58961229e-002
      -1.51567236e-002 -4.74291807e-003 8.48109135e-004 1.78666171e-002
      1.84215419e-002 -1.73860583e-002 -1.77205615e-002 -3.79514461e-003
      -1.04218125e-002 -8.71473365e-003 -5.71537437e-003
      -8.91503121e-004 1.87379476e-002 1.68705713e-002 -2.36543757e-003
      -3.06888320e-003 -7.27938721e-003 -1.44320643e-002
      -1.57645885e-002 -7.03506079e-003 -3.05560557e-003 1.60542298e-002
      7.64203211e-003 -4.90701350e-004 -9.55750642e-004 -1.92771375e-003
      -1.25836441e-002 -1.18293362e-002 2.77789519e-003 4.24751779e-003
      1.63604841e-002 5.54396247e-004 4.47828097e-005 -7.36828020e-004
      -1.19408604e-003 -6.75122486e-003 2.61245598e-003 1.09111397e-002
      -3.26348585e-004 7.66128884e-004 1.09052602e-002 1.27851788e-003
      1.00202777e-003 -4.05701250e-003 -5.51811466e-003 -8.87025520e-003
      3.68975860e-004 -2.01447663e-004 1.34222945e-002 5.21416368e-004
      5.34436665e-004 -9.35406133e-004 -7.14734197e-004 2.90788390e-004
      4.63322178e-003 2.70702899e-003 4.14051581e-004 6.06999442e-004
      -6.75503106e-005 -3.33080010e-004 -3.17183236e-004
      -2.28069384e-005 -2.42234073e-005 6.76708121e-004 3.12276278e-003
      -2.51689553e-003 -5.23516966e-004 -1.59671748e-004
      -3.18300561e-004 -2.07079342e-004 5.12296974e-004 2.10667495e-003
      -1.44325150e-003 5.42249996e-004 -6.20706007e-004 -5.77524770e-004
      -7.28006053e-005 6.63234187e-006 -2.46077223e-004 -1.24979729e-003
      1.38159224e-003 7.75468536e-004 -2.50479366e-006 -4.76645597e-004
      -1.68856204e-004 -1.03352133e-004 -3.42102663e-004
      -4.60540250e-005 1.29362830e-004 4.36271162e-004 -1.45630445e-003
      9.93440408e-005 -5.66436502e-004 -9.91847133e-004 6.00538624e-004
      1.72055807e-004 9.32425493e-004 9.18771047e-003 8.40214998e-005
      -8.96562357e-003 -8.83017201e-004 1.45632017e-004 4.93302301e-004
      2.63609865e-004 1.92402164e-004 9.04110377e-004 9.11280420e-003
      6.85913954e-004 -9.63681284e-003 -1.18990347e-003 1.10430534e-004
      1.40974953e-004 1.78331058e-004 1.96332563e-004 2.00364389e-004
      3.12222447e-003 1.84042216e-003 -1.61091506e-003 -5.31764328e-003
      -2.57700362e-004 6.73960312e-005 9.67564556e-005 1.00745907e-004
      3.45511808e-006 2.11580424e-003 3.51660955e-003 -2.09150743e-003
      -4.88584209e-003 -3.09921918e-004 -4.16843744e-004 4.32426255e-004
      4.17008094e-004 5.29299665e-004 4.66531055e-004 -6.02274062e-003
      -9.25211702e-003 -2.96529615e-003 -8.17386725e-004 3.79651377e-004
      5.03578130e-003 1.06015196e-002 8.37692525e-003 3.67915840e-003
      -4.53456212e-003 -1.28288278e-002 -1.39017301e-002
      -7.96405785e-003 8.69041402e-003 2.32144579e-004 -2.36432534e-004
      2.30099133e-004 4.35714750e-003 2.07284652e-003 -1.07498318e-002
      -5.96135017e-003 -1.42614800e-003 -3.63491214e-004 2.04699556e-003
      9.37097427e-003 8.09061714e-003 8.60225037e-003 7.29773100e-003
      -3.38448002e-003 -5.04743820e-003 -5.46603650e-003 1.66151003e-004
      8.31978675e-003 8.25362094e-003 2.85837566e-003 9.79017466e-004
      -1.45220209e-003 -6.79759402e-003 -9.23821144e-003
      -1.23271570e-002 3.77631281e-003 2.89494265e-003 -2.97970022e-003
      -2.15983903e-003 -9.75993229e-004 -1.15698623e-003
      -3.55585734e-003 -6.32799184e-003 -1.31033910e-002 2.48115626e-003
      5.60115837e-003 5.46745863e-003 3.50953848e-003 3.53544694e-003
      3.18995514e-003 -7.97326968e-004 -1.19278103e-003 -3.54960188e-003
      -1.44413119e-004 1.56589458e-003 -1.07840472e-003 -8.02280195e-003
      -3.91261419e-003 -1.83672726e-003 -2.42936565e-003
      -7.90972204e-004 -2.44855718e-003 7.91357178e-003 3.71084688e-003
      -1.57770962e-002 -5.44670690e-003 -1.08272571e-003
      -3.71697795e-004 -1.15217548e-003 -2.06482364e-003
      -2.40509864e-003 1.34525131e-002 2.98479176e-003 -1.95160452e-002
      -1.11796390e-002 -1.12571951e-003 -1.34488440e-003
      -1.36940938e-003 -1.56115007e-003 2.04148353e-003 1.07904226e-002
      1.25401898e-003 -9.48567875e-003 -4.54093190e-003 -1.21616351e-003
      -7.84851960e-004 -9.11343843e-004 -9.42686922e-004
      -1.43655203e-003 6.11519953e-003 -2.51623034e-003 -6.75769802e-003
      -1.93988800e-003 -4.13363246e-004 -3.91423062e-004
      -6.24171575e-004 -2.56793661e-004 7.90638756e-003 1.86142570e-004
      7.16960710e-003 -9.68741160e-003 -6.36056438e-003 -1.73408387e-003
      -5.78850647e-003 -5.81952091e-003 -3.11414408e-003 5.82388369e-003
      7.35710189e-003 3.25895776e-003 -3.80297215e-003 -3.42550385e-003
      -5.13358088e-003 -1.04141999e-002 -7.70533737e-003
      -2.51943781e-003 1.22569967e-004 4.39839670e-003 -1.04645090e-002
      -3.83699429e-003 -8.47998890e-004 -2.83920981e-005 2.25643980e-005
      2.04510405e-004 4.00934927e-003 9.21574887e-003 7.34478468e-004
      -8.10901355e-003 -2.90347566e-003 -1.51079812e-003 1.68366911e-004
      4.20864299e-003 7.34081259e-003 5.02548227e-003 4.62774391e-004
      -5.71131147e-003 3.51859722e-003 -2.43655173e-003 -2.14693532e-003
      -5.67471795e-003 -8.07730947e-003 -4.79224278e-003 6.48670888e-004
      -2.94714561e-003 5.38008334e-003 3.14871257e-004 -6.58179983e-004
      -5.37858519e-004 -7.09578046e-004 3.23213451e-003 2.04585912e-003
      -1.69703632e-003 -5.60097629e-004 1.88304737e-004 -5.42905973e-003
      -2.77869310e-003 -1.64972176e-003 8.81919404e-004 7.76589103e-003
      7.94564746e-003 2.15720921e-003 -4.95112687e-003 -9.85980686e-003
      -3.78942175e-004 -5.49831020e-004 8.98051308e-004 7.78510841e-003
      3.76059837e-003 -6.38670661e-003 -1.00852372e-002 -3.79403192e-003
      -5.28790813e-004 -1.26572908e-004 -1.68246173e-004
      -2.36522203e-004 -1.22241187e-003 3.87487537e-003 2.84763146e-003
      -8.64316826e-004 -2.85325572e-004 3.65597680e-006 -1.86532430e-004
      -1.29400622e-004 8.33099257e-005 -1.02368987e-003 -8.41919042e-004
      -1.03426122e-004 -1.53508212e-003 -5.39509056e-004
      -7.40995281e-004 -3.06349655e-004 -3.75830103e-004
      -9.64360603e-004 1.87673734e-003 2.58704112e-003 -2.28625233e-003
      -1.09011820e-003 -5.68567310e-004 -5.46895208e-005
      -3.31670017e-004 -2.03118718e-004 -1.51473109e-003
      -5.25251846e-004 -9.39569261e-004 -1.52164241e-004
      -1.91176558e-004 -1.80511182e-004 1.00237878e-004 -7.71997657e-005
      3.83342631e-005 2.77699401e-005 3.74492229e-004 7.69125530e-003
      -6.20988663e-004 -5.66448877e-003 -8.14457075e-004
      -1.03042483e-004 -8.00180569e-005 9.52438641e-005 1.16378709e-004
      -3.93246009e-005 7.55365100e-003 -9.88753513e-004 -5.63695980e-003
      -1.37900526e-003 -2.61280918e-004 -2.19557609e-004
      -2.21554743e-004 7.19905147e-005 4.08218009e-004 4.62589832e-003
      5.27041324e-004 -8.81333486e-004 -1.41855283e-003 2.17422814e-004
      -3.51012917e-004 -1.02905404e-004 1.62258468e-004 7.55884757e-005
      4.68656374e-003 9.08518035e-004 -1.04992883e-003 -3.56162852e-003
      -3.29972281e-005 5.09083065e-006 8.57203049e-005 1.85447119e-004
      2.36809836e-003 5.25216572e-003 -4.77380585e-003 -9.23545007e-003
      -1.39664428e-003 -9.85274455e-005 1.72872824e-004 -1.06311438e-003
      1.39397464e-003 5.13236132e-003 4.09068353e-003 4.83591435e-003
      1.41918496e-003 5.11573395e-004 4.25426755e-004 -1.97820700e-004
      -1.08405635e-004 2.17317938e-005 7.12860376e-004 3.56956408e-003
      1.96973677e-003 -2.91790068e-003 -4.38348204e-003 1.26405826e-006
      2.35245869e-004 -4.17210947e-004 -1.85091817e-003 -2.47117155e-003
      -2.96035782e-004 1.04659186e-004 4.23728896e-004 5.32755535e-003
      2.39025429e-003 2.02061143e-003 -3.09395208e-003 -3.59152607e-003
      -1.69318507e-003 2.41337623e-003 2.28184299e-003 4.39865841e-003
      3.90047673e-003 3.33119766e-003 3.06780753e-003 -7.36556342e-003
      -8.58188607e-003 -5.26051223e-003 -4.08077054e-003
      -2.78124772e-003 1.59812055e-003 5.39993588e-003 1.18519859e-002
      1.65419013e-003 -1.30610273e-003 -3.43131321e-003 -5.13872365e-003
      -6.03403896e-003 -5.18898480e-003 5.50724333e-003 9.13264323e-003
      6.80831727e-003 2.37945630e-003 -5.13594411e-003 -4.56121098e-003
      -5.34430426e-003 -7.45165907e-003 -7.85376970e-003
      -3.67522845e-003 5.00976294e-003 5.01696626e-003 2.61115783e-004
      -7.00089848e-003 -3.40846530e-003 -2.35704938e-003
      -1.38583942e-003 -9.35436634e-004 -3.27620626e-004
      -1.57704475e-004 7.68459542e-003 -4.28345986e-004 -3.36939399e-003
      -3.33523989e-004 -6.13406475e-004 -2.36403765e-004
      -3.52069183e-004 2.61035166e-004 4.73560346e-003 1.44685223e-003
      2.70428741e-003 -3.39738466e-003 -1.61724992e-003 -2.72239884e-003
      -2.16247747e-003 -2.86140316e-003 -2.29721167e-003
      -2.69404333e-003 1.36264216e-003 4.60973330e-004 -1.33327534e-003
      -5.29646000e-004 -9.04401066e-004 -3.16436723e-004
      -5.82797395e-004 -2.42579641e-004 -3.67195741e-003 4.43599536e-004
      -4.36048629e-003 -1.58854807e-003 1.29797368e-003 8.74641235e-004
      2.25042808e-003 3.97787866e-004 3.80777195e-003 7.97452312e-003
      -3.82512429e-004 -3.10575822e-003 -2.01024069e-003 1.09203567e-003
      4.04198281e-003 1.11335171e-002 2.89443019e-003 2.33748346e-003
      -4.03001998e-003 -9.19999927e-003 -8.96889076e-004 2.76216818e-003
      2.37038056e-003 -2.09494119e-005 1.06746098e-003 -1.62244914e-003
      6.90606830e-005 -1.58130529e-003 -1.93998113e-003 -2.90099834e-003
      8.41023226e-004 7.33881490e-004 3.58267687e-003 4.34471201e-003
      -5.17837889e-003 -2.69084121e-003 -3.16459429e-003
      -4.81200963e-003 -8.01275193e-004 -1.35182776e-003 1.78785354e-004
      3.11188633e-003 8.26080982e-003 -2.27113545e-004 -3.67929926e-003
      -8.14337656e-003 -3.48396040e-003 -1.12118498e-004 9.79737088e-005
      1.84452219e-003 6.64453069e-003 3.27956572e-004 -6.27963478e-003
      -6.03976427e-003 -1.53108127e-003 -2.30674304e-005
      -3.21645685e-003 -6.51217578e-003 3.05924239e-003 1.59555534e-003
      3.56217715e-005 -6.11723168e-003 -4.25793650e-003 -1.95571431e-003
      -1.05676067e-003 -9.04902350e-004 -3.07989097e-003 2.87019415e-003
      3.45080486e-003 -4.33758041e-003 -3.33168916e-003 -1.35143718e-003
      -7.63278586e-005 1.14331589e-004 -3.34307493e-004 -4.23855934e-004
      -2.37013190e-003 1.62998482e-003 1.82128965e-003 -1.20130484e-003
      -8.57640989e-004 -2.79968313e-004 -2.54958104e-005
      -2.78925145e-004 -1.66323371e-004 -1.05906185e-003
      -1.61977543e-003 3.55080003e-003 -3.87992884e-004 -1.91393730e-004
      2.81664925e-005 1.96726833e-004 -7.14341935e-004 -1.59829063e-003
      -4.43276978e-004 -1.07663614e-003 1.20929349e-003 -3.82268860e-004
      -1.47576036e-004 -5.49827346e-005 -9.11891111e-005
      -4.59755567e-004 4.52365819e-003 -4.82904070e-005 -1.61977543e-003
      5.10562956e-003 -1.76855217e-004 -1.87694823e-004 -7.72450003e-005
      -2.07333112e-004 2.09826430e-005 -1.63720586e-004 1.54582478e-004
      4.82497882e-004 2.20736852e-004 3.66176921e-003 7.96852692e-004
      -1.48045155e-003 5.47848642e-004 -1.08356966e-004 1.65756443e-004
      3.00695800e-004 4.05000377e-004 2.25626561e-003 2.53645121e-003
      -3.43776075e-004 -4.83681681e-003 -2.59061315e-004 6.23707485e-004
      3.48047470e-004 1.41326420e-003 1.41232146e-003 -2.86970317e-004
      1.02365017e-003 2.29431293e-003 5.49759367e-004 9.62160761e-004
      -1.93016182e-004 4.56775742e-004 9.51475406e-004 1.00815669e-003
      1.77460629e-003 -2.06179946e-004 7.46160076e-005 -1.60032290e-003
      1.00012228e-003 -1.01350925e-004 -8.18059052e-005 2.16013563e-004
      3.17458907e-004 2.59735214e-004 -4.92771005e-006 5.71684563e-004
      -5.85708360e-004 -2.56728032e-004 5.01117785e-004 2.22284914e-004
      4.25092701e-004 1.20363671e-004 -4.11109580e-003 -5.81505895e-003
      -1.32538623e-003 3.25741712e-003 1.59698713e-003 2.86051538e-004
      4.04390768e-004 4.13013477e-004 3.87592037e-004 1.07207522e-003
      -7.94676889e-004 1.55734504e-003 1.46026851e-003 1.06008013e-003
      6.72308612e-004 2.70490069e-004 -2.78445186e-005 -3.12976590e-005
      -2.15622771e-004 -2.23210780e-003 -6.54292176e-004 3.98313307e-004
      4.77689877e-003 2.46490515e-003 2.86370690e-004 -2.69519311e-004
      -8.34271719e-004 -3.28343362e-003 -5.95345069e-003
      -4.45141364e-003 3.20784934e-003 4.36197827e-003 7.25057861e-003
      -2.33555911e-004 -9.20442457e-004 -8.12458224e-004
      -1.97145576e-003 -5.69477351e-003 -4.71368572e-003 2.20632623e-003
      1.43792154e-003 1.32579578e-003 2.92719749e-004 -1.38022006e-004
      -1.80260176e-004 -2.50064768e-004 -1.12536096e-003
      -9.02352668e-003 9.81628429e-004 3.64997773e-003 2.64959456e-003
      1.91399362e-004 3.65308042e-005 3.06351343e-004 -9.49933674e-005
      -9.54161282e-004 -3.30965570e-003 -4.24259249e-003 9.81628429e-004
      5.98900905e-003 -6.64069303e-005 -2.48684490e-004 -2.86958588e-004
      -4.85516823e-004 -1.30572950e-003 -1.39713043e-003
      -3.02059902e-003 2.71574623e-004 1.07088930e-003 1.65679003e-003
      -1.11174391e-004 -1.12933085e-004 2.21484937e-004 -5.61616616e-005
      -9.07385984e-005 -2.83950358e-003 2.71574623e-004 2.88565014e-003
      3.63011262e-004 2.37587883e-004 3.26229987e-004 1.16864911e-004
      -1.64184486e-004 -2.20134520e-004 -6.80576079e-003 9.18284859e-005
      1.74659910e-003 2.76634027e-003 5.57247666e-004 2.52765283e-004
      3.00966960e-004 2.32764869e-004 3.48416332e-004 -4.18426190e-003
      -2.48735235e-003 -5.94781712e-004 8.80926661e-003 1.67546107e-003
      -1.03695449e-004 1.60817814e-004 -3.81958729e-004 3.94710469e-006
      -8.01812625e-004 -1.28703576e-003 -7.45572243e-003 1.05080695e-003
      3.68755008e-003 1.09363103e-003 2.15764405e-004 -5.80014952e-004
      -9.89398104e-005 -2.08550351e-004 -3.97950970e-003
      -5.94781712e-004 8.96376744e-003 9.51835886e-004 2.45416770e-004
      2.87191215e-004 2.59548309e-004 4.18403215e-004 -7.88735109e-004
      -7.68985320e-003 -2.45933770e-003 1.46321137e-003 7.89081212e-003
      4.02209786e-004 -6.67812419e-005 2.87459807e-005 1.68947678e-004
      -3.42752355e-005 -5.33353258e-003 -6.01586001e-003
      -8.99181981e-003 2.04172335e-004 -1.88120629e-003 -1.11098425e-003
      -4.37555107e-004 -4.55714544e-005 5.70541815e-005 -9.18745936e-004
      -1.35917263e-003 -9.60367359e-003 2.99630314e-003 2.39073392e-003
      -8.09863792e-004 4.67172758e-005 9.79662873e-005 4.15298782e-005
      9.71855479e-005 -7.84229301e-003 2.99630314e-003 8.31212196e-003
      3.33015487e-004 -2.20285452e-004 -3.03202076e-004 -9.52757455e-006
      -3.83422266e-005 -1.14699930e-003 -4.32276912e-003 3.05475108e-003
      3.54611618e-003 2.67202209e-004 -1.24972357e-004 -1.39223164e-004
      -2.39279296e-004 -2.54154060e-004 -4.11406072e-005
      -9.65209503e-004 -5.94488299e-003 9.22929088e-004 2.86315335e-004
      5.39516623e-004 -1.17554308e-004 4.06353975e-005 -5.86505712e-006
      -7.43325218e-005 -8.43950489e-004 4.23296029e-003 9.22929088e-004
      -8.09204823e-004 2.69926316e-003 -4.44232486e-004 -2.87797484e-005
      -3.68134133e-005 -1.69468010e-004 -2.16515618e-003
      -1.26641721e-003 9.22929088e-004 -1.35761034e-003 -2.37758737e-004
      -8.42800437e-005 -1.18296761e-004 -1.70400657e-004
      -1.55609101e-004 -8.40598717e-004 5.19935682e-004 9.22929088e-004
      -2.26011197e-003 2.13320693e-003 1.39592201e-004 1.09357650e-004
      7.41786964e-004 1.41271180e-003 -8.56165570e-005 8.81063344e-004
      1.10539095e-003 6.16911508e-004 -1.67217047e-003 -5.33519825e-003
      4.27513896e-003 -1.84836425e-003 -1.21936656e-003 -1.94658281e-003
      -7.42042845e-004 5.31738508e-004 3.83594219e-004 6.26365887e-004
      -2.34965142e-003 7.16941489e-004 -2.16685142e-003 -2.06178334e-003
      4.46351245e-004 6.70848938e-004 1.10162946e-003 5.56052139e-004
      -3.31036653e-003 -3.65524925e-003 3.00241401e-003 -2.72275461e-003
      1.12267750e-004 -1.78628135e-003 -1.79131364e-003 1.22006470e-003
      2.83688918e-004 1.11427857e-003 -9.36948403e-004 4.77902871e-003
      3.73251853e-003 -3.84830264e-003 -3.74563591e-004 -1.81831711e-004
      6.55167169e-005 2.22157410e-004 5.84994676e-004 -5.57933585e-004
      1.73197419e-004 -1.05079601e-003 -6.01366395e-004 -9.58776800e-005
      4.36012851e-005 -1.75666995e-004 -8.12187791e-005 -2.40345456e-004
      -8.39723041e-004 -7.17856269e-003 -1.22980203e-003 4.17613937e-003
      -1.36522340e-005 2.68294651e-004 1.31461507e-004 6.49352616e-004
      2.06300523e-003 9.02829415e-005 4.69908677e-003 3.04075377e-003
      -1.51765137e-003 -5.09633101e-004 9.76570998e-004 -1.14601298e-005
      1.13970411e-004 5.63945156e-004 -2.45266681e-004 7.77174253e-004
      -4.17509174e-004 4.59434045e-003 1.07129599e-004 2.22947510e-005
      -2.28345147e-004 -4.05016821e-004 -4.58178460e-004
      -8.06249969e-004 -7.33298529e-003 -5.31903133e-005 8.16927850e-003
      2.17728410e-003 -7.72331259e-005 -1.89801813e-005 -3.39051709e-004
      -4.68023325e-004 -8.80147272e-004 -3.19567602e-003
      -3.53959342e-003 1.27108442e-003 -8.44662369e-004 2.35011466e-004
      -3.46080706e-005 -2.75417027e-004 1.34088186e-004 -4.19982651e-004
      -1.87200145e-003 2.12454121e-004 4.53637959e-003 2.58745556e-003
      2.51940055e-005 4.81133884e-006 -2.57007690e-004 -2.15175154e-004
      -3.59988946e-004 -2.85453163e-003 -4.13064659e-003
      -5.23853123e-005 6.10275334e-003 2.33450584e-004 9.14205793e-006
      -1.86054109e-004 -2.64505215e-004 -4.16558090e-004
      -5.33445622e-004 -6.17021322e-003 -1.79212264e-004 2.44998792e-003
      3.86296446e-003 -3.75902309e-005 -1.80704112e-004 -2.94841593e-004
      -2.51261401e-004 9.07967114e-005 -4.01996728e-003 -7.10496167e-003
      6.96174009e-003 6.91570516e-004 -1.64845347e-004 -6.58161531e-004
      -6.89271546e-004 -4.15470015e-004 -7.36240239e-004
      -5.04814228e-003 -2.17990528e-004 1.30855583e-003 8.53550620e-003
      -4.07738189e-005 -6.96434174e-004 -8.60058237e-004
      -6.67227607e-004 -1.78395960e-004 -1.61677029e-003
      -2.54948786e-003 -2.12314946e-004 8.52320623e-003 3.34895012e-004
      -2.23065246e-004 -1.08637818e-004 -1.11108711e-004 1.35736100e-005
      -1.25840900e-003 -1.03407241e-002 -4.36245417e-003 2.37335498e-003
      5.13203070e-003 -8.10835045e-004 -2.01727904e-004 -1.62124910e-004
      -8.62396264e-005 -9.35590244e-004 -5.55768143e-003 4.92378640e-005
      1.25392275e-002 2.13524862e-003 -5.59137377e-004 -5.00039605e-004
      -8.27842159e-004 -1.69638006e-004 -1.41438586e-003
      -1.02920076e-002 -7.68909988e-004 2.79632444e-003 1.21126510e-002
      -1.78992248e-003 -4.16130933e-004 -6.53033843e-004
      -2.64411821e-004 -2.04108609e-003 -6.84587006e-003
      -9.12573840e-003 4.06734936e-004 6.71390817e-003 -7.38299452e-004
      -1.74253000e-004 -2.52298109e-004 -9.94606307e-005
      -6.71631191e-004 -2.12635309e-003 -7.02192914e-003 4.06734936e-004
      3.19401012e-003 -2.32763728e-003 -8.22449045e-004 -3.87159962e-004
      -3.69196903e-004 -6.28509209e-004 -1.22522574e-003
      -9.64765530e-003 2.21601035e-003 1.01868315e-002 -1.55646889e-003
      -7.71967170e-004 -1.70126514e-004 -4.13594884e-004
      -1.31096109e-003 -5.50132571e-003 -7.04230508e-003 2.14482704e-003
      6.84066815e-003 -1.69426901e-003 -1.30934699e-003 1.73630280e-004
      -1.50007650e-003 -1.18868402e-003 -3.25271906e-003
      -4.62789228e-003 3.23138759e-003 2.32540234e-003 -3.73759470e-003
      -7.56607566e-004 2.29477781e-004 2.33585713e-004 6.37616904e-005
      -2.10821905e-004 -1.48456742e-003 4.74350527e-004 6.23229193e-004
      -4.58740350e-003 -2.35012834e-004 7.98159279e-004 6.75194548e-004
      9.53526178e-004 1.83431094e-003 -4.26091766e-003 2.87105259e-003
      5.31006372e-003 -1.56093098e-003 -2.29490353e-004 4.94408305e-004
      -8.54179147e-004 -2.82788737e-004 2.29324418e-004 9.71515721e-004
      -2.38345144e-003 -1.98072055e-003 -1.20601282e-004
      -2.37821764e-003 -1.35817809e-003 -1.27942127e-004 3.84847313e-004
      1.35877181e-003</_></support_vectors>
  <decision_functions>
    <_>
      <sv_count>1</sv_count>
      <rho>-1.0128477530588769e+000</rho>
      <alpha>
        1.</alpha>
      <index>
        0</index></_>
    <_>
      <sv_count>1</sv_count>
      <rho>-1.0696366411031040e+000</rho>
      <alpha>
        1.</alpha>
      <index>
        1</index></_>
    <_>
      <sv_count>1</sv_count>
      <rho>7.8965864619867077e-001</rho>
      <alpha>
        1.</alpha>
      <index>
        2</index></_></decision_functions></my_svm>
</opencv_storage>
