<?xml version="1.0"?>
<opencv_storage>
<my_svm type_id="opencv-ml-svm">
  <svm_type>C_SVC</svm_type>
  <kernel><type>LINEAR</type></kernel>
  <C>1.0000000000000000e-002</C>
  <term_criteria><epsilon>1.1920928955078125e-007</epsilon>
    <iterations>1000</iterations></term_criteria>
  <var_all>3</var_all>
  <var_count>3</var_count>
  <class_count>3</class_count>
  <class_labels type_id="opencv-matrix">
    <rows>1</rows>
    <cols>3</cols>
    <dt>i</dt>
    <data>
      -1 1 2</data></class_labels>
  <sv_total>3</sv_total>
  <support_vectors>
    <_>
      1.74997896e-002 6.02770410e-002 -5.16903698e-002</_>
    <_>
      -5.81290461e-002 8.28392655e-002 -1.18998187e-002</_>
    <_>
      -1.67052317e-002 -3.71940434e-003 1.60411168e-002</_></support_vectors>
  <decision_functions>
    <_>
      <sv_count>1</sv_count>
      <rho>-1.1056231147171525e+000</rho>
      <alpha>
        1.</alpha>
      <index>
        0</index></_>
    <_>
      <sv_count>1</sv_count>
      <rho>9.9927436654562773e-002</rho>
      <alpha>
        1.</alpha>
      <index>
        1</index></_>
    <_>
      <sv_count>1</sv_count>
      <rho>8.8597224798813559e-002</rho>
      <alpha>
        1.</alpha>
      <index>
        2</index></_></decision_functions></my_svm>
</opencv_storage>
