<?xml version="1.0"?>
<opencv_storage>
<my_svm type_id="opencv-ml-svm">
  <svm_type>C_SVC</svm_type>
  <kernel><type>LINEAR</type></kernel>
  <C>1.0000000000000000e-002</C>
  <term_criteria><epsilon>1.1920928955078125e-007</epsilon>
    <iterations>1000</iterations></term_criteria>
  <var_all>324</var_all>
  <var_count>324</var_count>
  <class_count>2</class_count>
  <class_labels type_id="opencv-matrix">
    <rows>1</rows>
    <cols>2</cols>
    <dt>i</dt>
    <data>
      -1 1</data></class_labels>
  <sv_total>1</sv_total>
  <support_vectors>
    <_>
      1.74100008e-002 -1.53683782e-001 -1.76943198e-001 -1.22584831e-002
      8.55035484e-002 6.79260939e-002 4.61633690e-002 5.28001003e-002
      7.70495087e-002 -1.01053640e-001 -2.73291051e-001 -2.11740360e-001
      2.39669029e-002 1.24301441e-001 8.70306343e-002 8.19187611e-002
      7.25980327e-002 5.43045066e-002 5.58840260e-002 -7.85245001e-002
      -1.84746251e-001 -1.16289645e-001 5.71171045e-002 9.67436284e-002
      8.48432779e-002 6.86813295e-002 7.80981705e-002 -2.43081041e-002
      -1.80856392e-001 -1.60556689e-001 -8.52534026e-002 8.17790627e-003
      2.88609993e-002 4.04629745e-002 3.63390185e-002 5.73013313e-002
      -1.81461230e-001 -1.99423000e-001 -6.14309981e-002 8.87820944e-002
      1.29361346e-001 8.49110708e-002 8.74771625e-002 7.09434301e-002
      -4.99792956e-002 -1.43373936e-001 -1.21926190e-002 8.07553604e-002
      1.11653447e-001 1.26271978e-001 8.57044756e-002 2.60194857e-002
      -7.92847052e-002 -1.57369241e-001 -9.87161174e-002
      -1.35476947e-001 -1.02993973e-001 5.42077282e-003 1.28814364e-002
      3.10407765e-003 8.06951709e-003 -9.22818761e-003 -4.33929414e-002
      -9.40549225e-002 -5.12456186e-002 -5.44064268e-002 7.19719660e-003
      4.52136807e-003 -2.36889813e-003 -3.86029594e-002 -7.58554041e-002
      -1.06690407e-001 -5.11663221e-003 6.30532131e-002 8.84487778e-002
      9.28266272e-002 1.09732479e-001 5.56868911e-002 -1.25021011e-001
      -2.20449314e-001 -1.33108616e-001 9.61496159e-002 7.16148913e-002
      8.19733888e-002 1.01193242e-001 1.51171669e-001 6.72473712e-003
      -2.15169385e-001 -2.26282269e-001 -7.49273691e-003 7.56476028e-003
      3.03230435e-003 -3.96894254e-002 -6.28961669e-003 -3.66148329e-003
      -2.15993542e-002 -1.34165019e-001 -1.22925907e-001
      -4.15552668e-002 1.04210474e-001 7.19887987e-002 4.71151136e-002
      4.86279614e-002 2.63184719e-002 -1.26351431e-001 -2.34616250e-001
      -1.36488169e-001 5.33259772e-002 7.51537234e-002 2.77882200e-002
      -9.80683789e-002 -1.20660990e-001 -3.48540246e-002 5.87603413e-002
      6.96803182e-002 6.35330454e-002 7.63016790e-002 2.96517368e-002
      -2.11521052e-002 -1.02141298e-001 -9.85339954e-002
      -8.42738003e-002 -5.91787696e-002 -5.43483533e-002
      -3.28987725e-002 1.19217960e-002 8.18757564e-002 5.51687926e-002
      5.15916273e-002 -1.11326016e-003 -3.88414301e-002 -8.64050165e-002
      -3.28215025e-003 5.20289391e-002 9.04958099e-002 3.14967893e-002
      -3.11645400e-002 -6.74161464e-002 -7.24451616e-002
      -6.50998354e-002 -7.79316127e-002 -3.97760421e-002 2.74682697e-002
      3.83718126e-002 -3.78882326e-002 -3.84483114e-002 -2.81783007e-002
      4.37676441e-003 -1.08340126e-003 -4.17900868e-002 -6.41582832e-002
      -7.67178684e-002 -5.64979576e-002 -7.40431100e-002
      -5.91477454e-002 -6.96014017e-002 -1.46336490e-002 3.43091786e-002
      1.05193267e-002 -5.25708236e-002 -9.79688242e-002 -1.10222496e-001
      -4.58055958e-002 -3.60265672e-002 -4.66338322e-002
      -3.82812158e-003 3.99198756e-002 1.53167564e-002 -1.37360962e-002
      -3.01072635e-002 -6.19543046e-002 -5.96968755e-002 8.98696715e-004
      1.11605981e-002 2.73374021e-002 6.58937618e-002 1.41944913e-002
      -7.26046190e-002 -8.73278156e-002 -1.02314703e-001 8.35649576e-003
      -4.44599651e-002 -1.04112089e-001 -4.01033834e-002
      -2.60546431e-002 -2.40931797e-004 -5.64668439e-002
      -2.82170139e-002 -9.81135876e-004 9.35982391e-002 4.27069180e-002
      -3.68882492e-002 -6.39532283e-002 -8.53370726e-002
      -1.43875077e-001 -1.31427646e-001 3.27807143e-002 9.45544243e-002
      3.82569060e-002 5.04342793e-003 -6.15737438e-002 -4.05787043e-002
      -3.98277007e-002 -5.26147187e-002 -8.72775242e-002
      -4.82131653e-002 -1.20469164e-002 1.31779820e-001 5.71890324e-002
      -1.25399426e-001 -1.50791466e-001 -7.56293237e-002
      -7.21618608e-002 -1.49966432e-002 4.73550297e-002 1.10549755e-001
      6.41505420e-002 4.99953926e-002 7.89228603e-002 8.46071914e-002
      4.92747081e-003 -1.26886472e-001 -1.51333660e-001 -4.34545726e-002
      5.39430156e-002 4.90412451e-002 -9.44741594e-004 -2.17005610e-002
      1.99681474e-003 -2.14966144e-002 -6.84600100e-002 -1.20351136e-001
      -5.73352873e-002 1.86436847e-002 4.32073325e-002 6.01720512e-002
      7.24417567e-002 8.39736015e-002 6.82340115e-002 -4.91655394e-002
      -2.54389465e-001 -1.84602484e-001 -4.85830791e-002 6.16864786e-002
      1.03220612e-001 9.94993821e-002 1.13509409e-001 1.10420153e-001
      6.85196090e-003 -1.81408465e-001 -1.82550341e-001 -6.44016340e-002
      -5.62074855e-002 -1.06981630e-002 -2.17747539e-002 4.91994433e-003
      2.52774153e-002 1.88355055e-002 -3.14523615e-002 -5.36793061e-002
      -1.02457806e-001 -1.18839554e-001 -5.28876446e-002
      -4.59540151e-002 8.29449017e-003 2.76536085e-002 -2.36215862e-003
      -3.56805213e-002 -4.54180986e-002 -1.36329740e-001
      -5.13075516e-002 5.21604456e-002 7.79764131e-002 9.03678387e-002
      1.29637972e-001 6.61182553e-002 -5.45660183e-002 -1.30813807e-001
      -1.38043731e-001 -1.64663613e-001 -8.98632929e-002
      -3.15097421e-002 7.90504143e-002 1.37697041e-001 8.11236352e-002
      6.65681288e-002 5.46637806e-004 -1.31280050e-001 7.05847889e-003
      -5.37459366e-002 -1.11226641e-001 -2.58854404e-002
      -1.18578188e-002 -3.07489317e-002 -3.68458554e-002
      -1.95515715e-002 -8.64439458e-003 7.71103650e-002 -6.44584075e-002
      -1.98290229e-001 -1.64948240e-001 -4.98847142e-002 2.58125784e-003
      1.97908822e-002 3.18836495e-002 6.61071315e-002 -7.99225569e-002
      -1.71080410e-001 -1.50094375e-001 4.51208428e-002 1.42522842e-001
      8.20722654e-002 5.79243191e-002 3.29199880e-002 5.80075616e-003
      -1.07658207e-002 -2.24693120e-001 -2.06441969e-001
      -5.15713617e-002 1.36046231e-001 1.17524751e-001 8.60188529e-002
      6.22541048e-002 5.80164455e-002</_></support_vectors>
  <decision_functions>
    <_>
      <sv_count>1</sv_count>
      <rho>-1.6243069757984945e+000</rho>
      <alpha>
        1.</alpha>
      <index>
        0</index></_></decision_functions></my_svm>
</opencv_storage>
