<?xml version="1.0"?>
<opencv_storage>
<my_svm type_id="opencv-ml-svm">
  <svm_type>C_SVC</svm_type>
  <kernel><type>LINEAR</type></kernel>
  <C>1.0000000000000001e-001</C>
  <term_criteria><epsilon>1.1920928955078125e-007</epsilon>
    <iterations>1000</iterations></term_criteria>
  <var_all>324</var_all>
  <var_count>324</var_count>
  <class_count>3</class_count>
  <class_labels type_id="opencv-matrix">
    <rows>1</rows>
    <cols>3</cols>
    <dt>i</dt>
    <data>
      0 1 2</data></class_labels>
  <sv_total>3</sv_total>
  <support_vectors>
    <_>
      3.37937381e-004 -1.62538458e-002 3.56460437e-002 -6.87937485e-004
      -8.70745443e-003 3.61480605e-004 0. -5.48691241e-005
      1.59434578e-003 7.96648189e-002 3.79948318e-002 3.73009685e-003
      -8.73551071e-002 -2.92164669e-003 -6.09669834e-004
      -3.75244790e-003 -1.10272197e-002 1.24494340e-002 -1.92310065e-002
      -1.34096071e-001 2.48987507e-002 1.01767085e-001 5.39668091e-002
      -2.13098694e-002 -8.92019365e-003 -1.70629509e-002
      -2.19875970e-003 -1.46210380e-002 -6.47801608e-002 1.82803965e-003
      -2.22177263e-002 -2.24913452e-002 -3.13891331e-003
      -1.36964750e-002 -3.24603245e-002 -6.15339121e-003 8.85691121e-002
      5.79764396e-002 -3.50536928e-002 -6.63329735e-002 -5.47165982e-003
      -1.96253918e-002 -3.46648842e-002 -3.00964341e-002 6.67634383e-002
      1.13981359e-001 5.68918698e-002 4.65685595e-003 -1.15952305e-002
      -2.42684670e-002 -8.17858353e-002 -1.66257352e-001 8.54590442e-003
      1.58656389e-001 1.24284523e-002 -6.94191176e-003 -5.15283830e-002
      -7.45585337e-002 -4.20434326e-002 -2.58094501e-002
      -1.30942781e-002 4.55543771e-003 1.32443011e-002 1.69737078e-002
      7.36430706e-003 -1.79041214e-002 -3.20815891e-002 -4.85777594e-002
      -3.00331302e-002 -6.16193265e-002 -6.13632984e-003 2.18741093e-002
      5.20186462e-002 1.21439146e-002 1.34224724e-003 -1.27076288e-003
      -6.20390801e-003 -4.74875607e-002 -1.04483187e-001 4.06941883e-002
      1.14635870e-001 2.71763559e-002 -1.91841958e-004 1.30659013e-004
      -3.19846120e-004 -7.49954535e-003 -7.49317638e-004 1.16378861e-002
      6.17808551e-002 6.24698251e-002 1.23549835e-003 -5.86269377e-003
      -1.18531659e-002 -2.34504626e-003 -6.94198534e-003
      -1.87568087e-002 -6.73095286e-002 -2.98361592e-002 3.31038493e-003
      2.53811702e-002 -1.72959045e-002 -4.41410542e-002 -3.15962546e-002
      -1.79683845e-002 4.22768146e-002 1.71511434e-002 -7.79947452e-003
      2.34571509e-002 -2.76173633e-002 -1.23445667e-001 -5.26099540e-002
      1.49272248e-001 1.72145635e-001 -3.27690654e-002 -3.24861817e-002
      -2.98570618e-002 -1.04075763e-002 -2.64764074e-002
      -9.59263444e-002 -4.47986051e-002 1.18018771e-002 -2.50851531e-002
      -5.51193533e-003 -3.05111278e-002 -2.84955837e-002
      -1.51691074e-002 -4.27965820e-002 -9.41212177e-002
      -6.50199354e-002 8.16441700e-002 1.85681060e-001 8.25155973e-002
      -4.43123095e-002 -8.16175193e-002 -5.07369041e-002
      -2.85760686e-002 -6.14083707e-002 -5.81350885e-002
      -6.66032434e-002 -8.82577244e-003 -2.14980985e-003 4.90466319e-003
      1.20325703e-002 -1.34121617e-002 1.58986989e-002 -9.97265708e-003
      -1.12097496e-002 -4.18953560e-002 -4.63233441e-002
      -1.57760805e-003 7.01275095e-003 2.48287469e-002 7.86977913e-003
      2.31055403e-003 -1.44593911e-002 -7.75167777e-004 2.04122835e-003
      -2.49452330e-002 5.78847639e-002 1.74285267e-002 -2.02709250e-002
      -5.40877841e-002 3.70733589e-002 2.33425871e-002 1.33959297e-002
      -1.09914534e-001 -1.01499423e-001 -2.70240940e-002 6.11264668e-002
      8.59928578e-002 3.25644948e-002 5.15037961e-002 5.87184057e-002
      9.32357684e-002 -4.80706245e-002 -4.60471138e-002 -8.37823004e-002
      1.49556715e-002 3.37476330e-003 -9.35427612e-004 -9.50095896e-003
      -3.24913636e-002 -2.20214948e-002 6.27040165e-003 2.18614861e-002
      2.76114196e-002 -7.77605325e-002 -6.82349280e-002 -4.32584472e-002
      1.11250731e-003 -7.50980675e-002 -9.56559554e-002 -4.56997789e-002
      7.31160417e-002 1.28083542e-001 -2.36232150e-002 -5.52705638e-002
      -1.69114247e-002 -4.10548449e-002 -3.77308317e-002 2.70103663e-003
      -9.16692987e-003 1.57942716e-002 -3.38104293e-002 -6.63933307e-002
      -6.66408911e-002 -2.93994118e-002 -4.33132760e-002
      -1.19289897e-001 -8.89911354e-002 9.72935483e-002 1.56845555e-001
      1.02736883e-001 -4.74375449e-002 -5.00105470e-002 -1.99613795e-002
      -2.97797192e-003 -1.84186269e-002 -1.38084684e-002 1.13208862e-002
      5.89631274e-002 9.86163318e-002 9.75105353e-003 -4.27181795e-002
      -2.28897166e-002 -1.84860150e-003 -1.12193068e-002
      -1.90069173e-002 -9.74985212e-002 -1.98918805e-001
      -3.99519503e-002 4.41642515e-002 3.91748063e-002 1.84269436e-003
      7.27791619e-003 -6.55816263e-003 -2.70103524e-003 -5.24613075e-003
      -2.35903692e-002 3.24025936e-002 1.26667112e-001 6.22520298e-002
      8.30726326e-003 2.02704570e-003 -9.98847000e-003 -5.29519003e-003
      -4.49853055e-002 -1.22954085e-001 -6.40380979e-002 1.40687138e-001
      6.68659583e-002 2.37435512e-002 3.03085204e-002 2.72243377e-002
      8.74146074e-003 -8.15972388e-002 -1.83224097e-001 -1.43795740e-002
      5.40678576e-002 7.07519650e-002 2.61656269e-002 7.17369393e-002
      9.67260823e-002 7.18370751e-002 -8.03628638e-002 -1.56875625e-001
      -7.78837875e-002 2.13328283e-002 1.89526305e-002 2.89020371e-002
      5.87687045e-002 4.21276595e-003 -1.69692002e-002 -6.02393672e-002
      -1.08994171e-001 7.62070669e-003 1.00550555e-001 9.20362994e-002
      7.05177188e-002 1.27596840e-001 1.35519534e-001 4.65432554e-002
      -1.33209392e-001 -7.14309737e-002 -7.90846255e-003 3.07580736e-002
      6.94948211e-002 1.12676129e-001 -1.34273395e-002 -3.74079566e-003
      -6.75382838e-003 -9.94459391e-002 -1.56187460e-001
      -4.78849038e-002 -1.20957680e-002 -2.31096987e-002
      -7.85441953e-004 -6.28422201e-002 -7.04488978e-002 7.85527192e-003
      3.00065167e-002 4.17419970e-002 8.43391661e-003 -1.23728197e-002
      -1.39387930e-002 3.65478382e-003 5.06011620e-002 1.51815102e-001
      4.38231938e-002 -1.55388013e-001 -1.42923549e-001 -1.97712015e-002
      3.57677438e-003 9.21432395e-003 1.97399706e-002 9.23464000e-002
      1.42486036e-001 8.80057737e-002 -4.06826176e-002 -9.48336732e-004
      -4.49490175e-003 -2.50849943e-003 1.44004764e-003 4.92841043e-002</_>
    <_>
      -4.92884312e-003 -1.96860153e-002 1.41679402e-002 3.53643037e-002
      -6.59379002e-004 -2.13379669e-003 0. 0. 3.07315262e-003
      5.88147976e-002 3.73952929e-003 -2.41232570e-002 -1.46143679e-002
      1.26243627e-003 -3.74416285e-003 -1.84578428e-004 -4.71189059e-003
      4.50696051e-003 -1.39170913e-002 -7.96346515e-002 -7.83927366e-003
      1.30473644e-001 6.44687861e-002 -2.43524875e-004 -1.08154840e-003
      6.67613567e-005 -1.20862096e-003 -4.40183934e-003 -2.23307014e-002
      -2.43114028e-002 1.93958706e-003 1.46835353e-002 -1.71785001e-002
      -5.20283310e-003 -8.86866590e-004 -1.47515757e-003 1.22534081e-001
      4.27524187e-002 -6.87420815e-002 -3.39235924e-002 -2.00816225e-002
      -2.22413857e-002 -8.15955549e-003 -1.47213778e-002 3.91867124e-002
      1.55159429e-001 4.28393446e-002 -8.56605098e-002 -6.62633628e-002
      -6.61799386e-002 -8.19903091e-002 -2.15478875e-002 1.86789352e-002
      1.14699833e-001 3.44087780e-002 4.01394553e-002 -7.61744082e-002
      -4.98055443e-002 1.05572282e-003 -2.99279820e-002 -8.55178747e-004
      -1.41543532e-002 -6.17824309e-003 -1.62836872e-002 1.74438208e-002
      -7.29494542e-002 -4.25484143e-002 -1.27329389e-002
      -2.73892097e-003 5.67370094e-002 -2.29864866e-002 -3.70819829e-002
      4.62812409e-002 7.79222185e-003 -1.29262032e-002 -2.74652038e-002
      -2.00547129e-002 -4.19495292e-002 8.64327326e-003 6.09648339e-002
      3.18459086e-002 3.19855730e-003 -8.27854872e-003 -2.56671989e-003
      -3.29158502e-003 1.50316479e-002 3.85186635e-002 1.40278131e-001
      8.02522153e-002 -4.86530289e-002 -1.38508201e-001 -1.88425221e-002
      -5.11182193e-003 -3.72825144e-003 -3.84070845e-005 2.92441808e-002
      5.06675951e-002 1.16843637e-002 -1.31601274e-001 -1.42583594e-001
      -2.15513585e-003 5.18392678e-003 1.46048581e-002 1.76667012e-002
      8.78096297e-002 1.55408472e-001 6.44486398e-002 -1.24345250e-001
      -1.28280297e-002 -5.62233441e-002 -6.06700219e-002 1.01801321e-001
      1.17545798e-001 -1.61100447e-003 -9.81149729e-003 -4.65415465e-003
      -8.76314193e-003 -4.14122678e-002 -6.24170564e-002
      -4.09638844e-002 2.58795898e-002 3.35834697e-002 -6.71319058e-003
      -3.66731472e-002 -1.85058452e-002 -4.93369112e-003
      -6.98259892e-003 -1.55705558e-002 -2.48584282e-002 7.15081766e-003
      8.27644616e-002 9.70756188e-002 -3.45587730e-002 -1.10212334e-001
      -4.07164954e-002 -2.22479198e-002 -2.36605164e-002
      -2.32864954e-002 -7.19192997e-003 3.22733894e-002 -2.68452475e-003
      -5.87328412e-002 -6.23837039e-002 -1.65783241e-002
      -9.64754820e-003 5.35636162e-003 -2.41164654e-003 1.13313813e-002
      3.21294963e-002 -1.70861173e-003 -1.43571235e-002 -1.30527271e-002
      -1.09679028e-002 -7.82638788e-002 5.20923687e-003 2.61615869e-002
      2.93875523e-002 3.05364560e-002 5.70145212e-002 7.48456344e-002
      -8.49791802e-003 -1.22129485e-001 2.58036647e-002 -2.78180186e-003
      -1.19161364e-002 1.04796877e-002 8.21276568e-003 -1.56012010e-002
      -1.96862109e-002 -1.38713066e-002 -3.06352768e-002
      -3.53003852e-002 6.74138814e-002 6.68527856e-002 4.54537682e-002
      3.99909504e-002 8.85414332e-003 7.95119093e-004 -3.48806493e-002
      -7.49664530e-002 -1.07246183e-001 -1.21698703e-003 2.75418274e-002
      2.09268965e-002 2.22893190e-002 6.55981079e-002 6.12840466e-002
      1.04014343e-002 -1.24259599e-001 -9.10132974e-002 9.95747559e-003
      1.80524476e-002 2.98375245e-002 7.00872540e-002 1.26501128e-001
      1.00589730e-001 1.03039555e-002 -1.29928276e-001 -8.97470042e-002
      5.74576147e-002 6.90134540e-002 3.47398110e-002 5.12181111e-002
      3.28688994e-002 9.55323782e-003 -2.33395007e-002 -1.22593455e-001
      -7.86519870e-002 2.99203452e-002 8.10319930e-002 1.27201363e-001
      1.28663376e-001 6.53427392e-002 1.40099516e-002 -7.67620886e-003
      -9.12428796e-002 6.00440009e-003 -1.98576553e-003 -4.81773447e-003
      -9.07072518e-003 3.51897329e-002 8.80493596e-002 1.41988238e-002
      -8.97504538e-002 -2.42019258e-002 3.11432383e-003 -5.02382079e-003
      -9.40574147e-003 -9.34803113e-003 -1.33338002e-002
      -9.29945149e-003 -4.99064811e-002 -2.52908934e-002
      -9.38468555e-004 -4.01120959e-003 -3.02048097e-003
      -3.49605270e-003 -1.45012727e-002 -2.58767582e-003 9.77046043e-003
      1.95064452e-002 -9.78566939e-004 -1.29775601e-002 -1.21543910e-002
      -1.62659846e-002 -1.08913779e-002 -1.23520680e-002
      -1.79397855e-002 -2.87852213e-002 -1.52923735e-002 6.32160064e-003
      2.84116734e-002 9.88453720e-003 -7.29011046e-003 -2.05561928e-002
      -6.78056059e-003 -2.65656933e-002 -1.87095627e-002
      -5.47359288e-002 -1.10224215e-002 -1.38397925e-002
      -3.68227698e-002 1.98738035e-002 -9.18445457e-003 1.19449403e-002
      -1.28224920e-002 -1.79804750e-002 -4.25458066e-002
      -4.48977426e-002 -7.09782615e-002 5.05446270e-002 -1.77136306e-002
      -1.98334306e-002 -9.05903149e-003 -3.95862274e-002
      -1.09757418e-002 -7.78496042e-002 6.18824586e-002 8.57388303e-002
      9.38932151e-002 3.32565680e-002 -1.68048758e-002 -3.56093459e-002
      -4.21683416e-002 -4.29591760e-002 -6.81689233e-002
      -4.36254703e-002 9.70198587e-002 -1.09846443e-001 2.24995315e-002
      9.69030615e-003 1.16006490e-002 3.14790453e-003 -4.57071606e-003
      -1.55898854e-002 -3.15218084e-002 -1.06369264e-001
      -1.25498235e-001 5.76617792e-002 1.05350293e-001 6.18557297e-002
      2.46217698e-002 4.38009575e-003 1.07802975e-003 -7.77638843e-003
      -1.22277148e-001 3.08497902e-003 1.11018427e-001 2.84506241e-003
      -2.29542237e-002 -3.76005992e-002 -1.43210338e-002
      -1.31870210e-002 -3.00619546e-002 -1.11372527e-002
      -3.70759517e-002 1.15611173e-001 8.22046921e-002 1.98824760e-002
      5.05116694e-002 1.26057013e-003 -4.08670516e-004 -8.16818327e-003
      -9.77149140e-003</_>
    <_>
      8.70718714e-003 -2.92799063e-002 9.62741207e-003 2.49279942e-002
      5.16030379e-003 -9.43198043e-004 2.23743002e-004 7.46799633e-004
      5.58605045e-003 1.32517638e-002 -2.19044294e-002 -5.67366369e-003
      3.10850404e-002 4.87709697e-003 -5.39449102e-004 1.38333370e-003
      -6.34450524e-004 1.07686315e-002 3.89390229e-003 -2.24551130e-002
      -7.02877296e-003 2.88968310e-002 -1.51702145e-003 4.89209127e-003
      2.91724852e-003 7.05461949e-004 2.11652112e-003 9.47384909e-003
      2.42592394e-003 -2.46173190e-003 8.54247529e-003 3.67971230e-003
      3.56267602e-003 4.14805068e-003 5.86481998e-004 1.48672741e-002
      2.48480216e-002 5.72966039e-003 -2.13407781e-002 -1.74194798e-002
      -2.14768685e-002 -4.74722870e-003 1.37866372e-002 4.84782364e-003
      3.48746292e-002 1.42907565e-002 8.89089331e-003 -6.78068176e-002
      -6.79812431e-002 -4.91387434e-002 -1.39122866e-002 7.37810805e-002
      7.03463256e-002 1.87234487e-002 1.32265082e-002 3.43811177e-002
      -3.48977037e-002 -5.80826774e-003 1.31174987e-002 -5.33921411e-004
      1.46531947e-002 -2.48379707e-002 3.19990586e-003 -6.68074414e-002
      4.87967255e-003 -5.30971996e-002 -3.04036718e-002 1.24054682e-002
      3.42900641e-002 9.03148130e-002 4.51181158e-002 -2.98094023e-002
      -4.30059200e-003 -1.29112555e-003 -1.08731920e-002
      -3.10285166e-002 -2.13153716e-002 -1.11692976e-002 9.13798884e-002
      5.24052121e-002 -3.66800465e-002 -2.12448258e-002 -4.99677286e-003
      -3.37031530e-003 -5.43696899e-003 7.51860579e-003 3.23935300e-002
      1.04752831e-001 4.71855439e-002 -8.16583708e-002 -1.18424751e-001
      -1.31104803e-002 -9.16735269e-003 -1.36228791e-002
      -3.69540823e-004 3.36427353e-002 1.02897011e-001 5.87631464e-002
      -1.19040474e-001 -1.31858692e-001 -3.50086298e-003 4.91741719e-003
      6.04855781e-003 2.65773274e-002 4.90525067e-002 1.17469713e-001
      4.76128198e-002 -1.27121031e-001 1.55804697e-002 2.20392626e-002
      4.02665930e-003 -2.59601581e-003 -2.11927257e-002 3.13793938e-003
      7.46905198e-003 2.00081756e-003 2.16663396e-003 -1.04148760e-002
      3.45980539e-003 2.10418995e-003 1.24184601e-002 1.20080784e-002
      -4.76311520e-003 -4.66788234e-003 6.13594754e-003 1.36728128e-002
      4.12962511e-002 5.55037148e-002 4.86385683e-003 -2.94190180e-002
      -4.42423187e-002 8.58480483e-003 -2.65089963e-002 -3.60752530e-002
      6.48893882e-003 -3.66769009e-003 2.76628956e-002 1.01791723e-002
      3.28626968e-002 3.66693288e-002 9.73001588e-003 -8.59999284e-002
      -3.71040478e-002 -3.34226415e-002 -2.12219711e-002 1.02775376e-002
      -6.14301884e-004 2.98916958e-002 4.66817766e-002 -2.66399398e-003
      -9.48997028e-003 -1.61148198e-002 -1.93791222e-002
      -8.43629986e-002 -4.62530972e-003 -1.22583681e-003 2.46922392e-002
      6.60604164e-002 4.92690504e-002 3.55295837e-002 3.08119543e-002
      -7.73012117e-002 -3.30220722e-002 -6.91368151e-003 1.27719459e-003
      6.90782219e-002 6.92588016e-002 1.60107464e-002 -6.03587739e-002
      -4.74636741e-002 -8.89923349e-002 -1.12277940e-001
      -2.05471311e-002 1.75879356e-002 1.00229956e-001 9.74199772e-002
      8.38216767e-002 -6.00052066e-003 -6.26879139e-003 -1.00926884e-001
      -8.32604691e-002 -3.80728510e-003 3.91286658e-003 1.06386878e-002
      1.80636533e-002 4.29792143e-002 8.22306350e-002 6.26293793e-002
      -7.09857568e-002 -6.94145560e-002 2.28097178e-002 2.05578357e-002
      2.96939723e-002 4.12523262e-002 4.65317480e-002 8.08555409e-002
      4.20829803e-002 -8.10959935e-002 -8.82885680e-002 1.60898026e-002
      3.68781723e-002 5.50875850e-002 6.21610954e-002 5.70802875e-002
      4.32650484e-002 3.19468416e-002 -7.68239275e-002 -4.57192473e-002
      6.05565049e-002 4.68786061e-002 3.97356376e-002 2.75147110e-002
      -4.68163937e-003 2.32840050e-002 2.91229393e-002 -5.76206073e-002
      1.11205233e-002 6.78551337e-003 -2.33490998e-003 -1.09992921e-002
      5.96419675e-003 3.30539159e-002 -3.19747515e-002 -6.06115088e-002
      1.40309380e-003 1.42492459e-003 -9.69786197e-004 -6.18645223e-003
      3.10760178e-002 1.08987048e-001 6.25956208e-002 -9.50446650e-002
      -6.47108480e-002 -1.99625958e-002 -1.13049624e-002
      -2.65087327e-003 -4.53805478e-006 7.87573121e-003 6.12178966e-002
      2.99413726e-002 -7.68228695e-002 -9.11025181e-002 -3.04730833e-002
      -2.70834118e-002 -2.83851624e-002 -1.25910174e-002 1.08428411e-002
      6.78360015e-002 9.15157720e-002 -6.63828850e-002 -9.43937302e-002
      -5.80606982e-002 -1.63442772e-002 -1.69287845e-002
      -1.89889260e-002 2.89125927e-002 1.04726404e-001 1.73098035e-002
      -6.58909306e-002 -4.47630920e-002 -5.46178780e-002
      -9.55655649e-002 -3.85336094e-002 -1.04855755e-002 7.69084468e-002
      1.09087177e-001 4.51132320e-002 -3.73570919e-002 -2.80029904e-002
      -9.84032154e-002 -2.21681297e-002 -3.23651135e-002
      -1.51580311e-002 2.54355408e-002 5.10219000e-002 4.46563922e-002
      -6.13929667e-002 -4.79598753e-002 -4.27446626e-002
      -4.71040606e-002 -4.94721048e-002 -1.95947904e-002 5.09318002e-002
      4.41283882e-002 4.87545272e-003 -5.30566424e-002 -4.92929369e-002
      -5.47316745e-002 -9.19925496e-002 9.12545342e-003 2.50382815e-002
      8.02188292e-002 1.09554254e-001 3.26660350e-002 -4.00755554e-003
      -2.97789671e-003 -9.90046486e-002 -3.61461155e-002 6.19677454e-002
      3.41240913e-002 5.74139021e-002 2.10940912e-002 -4.18583443e-003
      4.26754728e-003 3.84154450e-003 -9.62266475e-002 -5.97726852e-002
      -3.29174288e-002 -5.74878789e-003 6.78805038e-002 8.05041790e-002
      7.94399437e-003 -8.44845083e-003 -2.49379911e-002 -5.09865358e-002
      -9.53830257e-002 -5.55639947e-003 1.51573662e-002 7.60720894e-002
      7.75261074e-002 1.38993131e-003 6.91420352e-003 -7.51895085e-003
      -5.21787927e-002</_></support_vectors>
  <decision_functions>
    <_>
      <sv_count>1</sv_count>
      <rho>-1.1816981001489091e-001</rho>
      <alpha>
        1.</alpha>
      <index>
        0</index></_>
    <_>
      <sv_count>1</sv_count>
      <rho>-1.6551418797444781e-001</rho>
      <alpha>
        1.</alpha>
      <index>
        1</index></_>
    <_>
      <sv_count>1</sv_count>
      <rho>-4.7125192473508958e-002</rho>
      <alpha>
        1.</alpha>
      <index>
        2</index></_></decision_functions></my_svm>
</opencv_storage>
