<?xml version="1.0"?>
<opencv_storage>
<my_svm type_id="opencv-ml-svm">
  <svm_type>C_SVC</svm_type>
  <kernel><type>LINEAR</type></kernel>
  <C>1.0000000000000001e-001</C>
  <term_criteria><epsilon>1.1920928955078125e-007</epsilon>
    <iterations>1000</iterations></term_criteria>
  <var_all>324</var_all>
  <var_count>324</var_count>
  <class_count>3</class_count>
  <class_labels type_id="opencv-matrix">
    <rows>1</rows>
    <cols>3</cols>
    <dt>i</dt>
    <data>
      0 1 2</data></class_labels>
  <sv_total>3</sv_total>
  <support_vectors>
    <_>
      3.37939127e-004 -1.62538532e-002 3.56460363e-002 -6.87943306e-004
      -8.70745443e-003 3.61481274e-004 0. -5.48685275e-005
      1.59435091e-003 7.96648189e-002 3.79948169e-002 3.73009918e-003
      -8.73551145e-002 -2.92165414e-003 -6.09670591e-004
      -3.75244650e-003 -1.10272150e-002 1.24494396e-002 -1.92309935e-002
      -1.34096056e-001 2.48987358e-002 1.01767056e-001 5.39668016e-002
      -2.13098694e-002 -8.92019179e-003 -1.70629453e-002
      -2.19875667e-003 -1.46210343e-002 -6.47801608e-002 1.82802847e-003
      -2.22177301e-002 -2.24913452e-002 -3.13891494e-003
      -1.36964740e-002 -3.24603319e-002 -6.15339633e-003 8.85691121e-002
      5.79764321e-002 -3.50536816e-002 -6.63329810e-002 -5.47165610e-003
      -1.96253862e-002 -3.46648768e-002 -3.00964266e-002 6.67634383e-002
      1.13981351e-001 5.68918735e-002 4.65685828e-003 -1.15952361e-002
      -2.42684633e-002 -8.17858502e-002 -1.66257352e-001 8.54591746e-003
      1.58656403e-001 1.24284504e-002 -6.94189453e-003 -5.15283830e-002
      -7.45585263e-002 -4.20434214e-002 -2.58094370e-002
      -1.30942799e-002 4.55543026e-003 1.32442890e-002 1.69737116e-002
      7.36430334e-003 -1.79041345e-002 -3.20816152e-002 -4.85777557e-002
      -3.00331283e-002 -6.16193190e-002 -6.13629632e-003 2.18741279e-002
      5.20186387e-002 1.21439146e-002 1.34224677e-003 -1.27076393e-003
      -6.20390940e-003 -4.74875607e-002 -1.04483224e-001 4.06941921e-002
      1.14635862e-001 2.71763559e-002 -1.91838917e-004 1.30658955e-004
      -3.19846324e-004 -7.49954674e-003 -7.49329105e-004 1.16378916e-002
      6.17808625e-002 6.24698289e-002 1.23549718e-003 -5.86269470e-003
      -1.18531631e-002 -2.34505069e-003 -6.94198860e-003
      -1.87567994e-002 -6.73095658e-002 -2.98361536e-002 3.31039680e-003
      2.53811721e-002 -1.72959063e-002 -4.41410504e-002 -3.15962508e-002
      -1.79684144e-002 4.22768034e-002 1.71511509e-002 -7.79947219e-003
      2.34571584e-002 -2.76173521e-002 -1.23445645e-001 -5.26099578e-002
      1.49272233e-001 1.72145620e-001 -3.27690654e-002 -3.24861817e-002
      -2.98570618e-002 -1.04075763e-002 -2.64763981e-002
      -9.59263593e-002 -4.47986126e-002 1.18018836e-002 -2.50851419e-002
      -5.51193347e-003 -3.05111334e-002 -2.84955930e-002
      -1.51691101e-002 -4.27965671e-002 -9.41212103e-002
      -6.50199056e-002 8.16441551e-002 1.85681075e-001 8.25155973e-002
      -4.43123057e-002 -8.16175267e-002 -5.07368967e-002
      -2.85760593e-002 -6.14083745e-002 -5.81350848e-002
      -6.66032434e-002 -8.82576127e-003 -2.14981288e-003 4.90464084e-003
      1.20325526e-002 -1.34121617e-002 1.58986989e-002 -9.97264683e-003
      -1.12097552e-002 -4.18953635e-002 -4.63233292e-002
      -1.57760142e-003 7.01273978e-003 2.48287413e-002 7.86977634e-003
      2.31055543e-003 -1.44593883e-002 -7.75180408e-004 2.04122160e-003
      -2.49452237e-002 5.78847639e-002 1.74285211e-002 -2.02709101e-002
      -5.40877730e-002 3.70733477e-002 2.33425852e-002 1.33959195e-002
      -1.09914541e-001 -1.01499431e-001 -2.70240624e-002 6.11264594e-002
      8.59928504e-002 3.25644910e-002 5.15037999e-002 5.87184243e-002
      9.32357535e-002 -4.80706245e-002 -4.60470952e-002 -8.37823004e-002
      1.49556780e-002 3.37477634e-003 -9.35430697e-004 -9.50095709e-003
      -3.24913599e-002 -2.20214948e-002 6.27039839e-003 2.18614694e-002
      2.76114140e-002 -7.77605250e-002 -6.82349205e-002 -4.32584397e-002
      1.11250184e-003 -7.50980824e-002 -9.56559628e-002 -4.56997864e-002
      7.31160194e-002 1.28083557e-001 -2.36232188e-002 -5.52705675e-002
      -1.69114228e-002 -4.10548411e-002 -3.77308242e-002 2.70102569e-003
      -9.16694384e-003 1.57942325e-002 -3.38104181e-002 -6.63933307e-002
      -6.66408762e-002 -2.93994062e-002 -4.33132872e-002
      -1.19289905e-001 -8.89911503e-002 9.72935259e-002 1.56845540e-001
      1.02736890e-001 -4.74375449e-002 -5.00105470e-002 -1.99613757e-002
      -2.97796447e-003 -1.84186287e-002 -1.38084646e-002 1.13208853e-002
      5.89631423e-002 9.86163467e-002 9.75104049e-003 -4.27181870e-002
      -2.28897072e-002 -1.84859859e-003 -1.12193068e-002
      -1.90069154e-002 -9.74985287e-002 -1.98918790e-001
      -3.99519429e-002 4.41642478e-002 3.91748026e-002 1.84269587e-003
      7.27791712e-003 -6.55815983e-003 -2.70103500e-003 -5.24612982e-003
      -2.35903487e-002 3.24026272e-002 1.26667112e-001 6.22520186e-002
      8.30726046e-003 2.02704524e-003 -9.98847093e-003 -5.29518770e-003
      -4.49853092e-002 -1.22954078e-001 -6.40380904e-002 1.40687138e-001
      6.68659583e-002 2.37435531e-002 3.03085092e-002 2.72243321e-002
      8.74145888e-003 -8.15972388e-002 -1.83224097e-001 -1.43795563e-002
      5.40678501e-002 7.07519576e-002 2.61656251e-002 7.17369467e-002
      9.67260897e-002 7.18370751e-002 -8.03628713e-002 -1.56875625e-001
      -7.78837800e-002 2.13328358e-002 1.89526342e-002 2.89020371e-002
      5.87686822e-002 4.21276409e-003 -1.69691909e-002 -6.02393523e-002
      -1.08994186e-001 7.62072019e-003 1.00550540e-001 9.20362920e-002
      7.05177039e-002 1.27596855e-001 1.35519519e-001 4.65432480e-002
      -1.33209392e-001 -7.14309812e-002 -7.90845137e-003 3.07580773e-002
      6.94948286e-002 1.12676136e-001 -1.34273358e-002 -3.74078518e-003
      -6.75383629e-003 -9.94459316e-002 -1.56187460e-001
      -4.78848927e-002 -1.20957606e-002 -2.31096912e-002
      -7.85439915e-004 -6.28422052e-002 -7.04488978e-002 7.85526354e-003
      3.00065074e-002 4.17420045e-002 8.43392033e-003 -1.23728178e-002
      -1.39387893e-002 3.65478871e-003 5.06011546e-002 1.51815072e-001
      4.38231826e-002 -1.55387998e-001 -1.42923564e-001 -1.97711959e-002
      3.57677648e-003 9.21432395e-003 1.97399687e-002 9.23464075e-002
      1.42486051e-001 8.80057812e-002 -4.06826213e-002 -9.48349247e-004
      -4.49490175e-003 -2.50849733e-003 1.44004764e-003 4.92841043e-002</_>
    <_>
      -4.92887199e-003 -1.96860246e-002 1.41679347e-002 3.53642888e-002
      -6.59386511e-004 -2.13379762e-003 0. 0. 3.07315215e-003
      5.88147640e-002 3.73953301e-003 -2.41232570e-002 -1.46143828e-002
      1.26242032e-003 -3.74417845e-003 -1.84577977e-004 -4.71187942e-003
      4.50695306e-003 -1.39171071e-002 -7.96346217e-002 -7.83928484e-003
      1.30473644e-001 6.44687861e-002 -2.43531525e-004 -1.08155340e-003
      6.67615022e-005 -1.20862504e-003 -4.40188218e-003 -2.23306660e-002
      -2.43114103e-002 1.93955214e-003 1.46835381e-002 -1.71785280e-002
      -5.20282798e-003 -8.86860769e-004 -1.47518620e-003 1.22534059e-001
      4.27524112e-002 -6.87420592e-002 -3.39235663e-002 -2.00815946e-002
      -2.22414099e-002 -8.15954059e-003 -1.47213480e-002 3.91867124e-002
      1.55159444e-001 4.28393111e-002 -8.56605545e-002 -6.62633702e-002
      -6.61799386e-002 -8.19903165e-002 -2.15478484e-002 1.86789278e-002
      1.14699848e-001 3.44086811e-002 4.01394740e-002 -7.61743858e-002
      -4.98055741e-002 1.05573807e-003 -2.99279597e-002 -8.55170947e-004
      -1.41543187e-002 -6.17826544e-003 -1.62836928e-002 1.74438450e-002
      -7.29494691e-002 -4.25484478e-002 -1.27329202e-002
      -2.73889978e-003 5.67370541e-002 -2.29864605e-002 -3.70819829e-002
      4.62812372e-002 7.79221952e-003 -1.29262125e-002 -2.74652150e-002
      -2.00547315e-002 -4.19495106e-002 8.64328351e-003 6.09648190e-002
      3.18459123e-002 3.19855590e-003 -8.27856828e-003 -2.56672106e-003
      -3.29158665e-003 1.50316497e-002 3.85186747e-002 1.40278131e-001
      8.02522004e-002 -4.86530066e-002 -1.38508245e-001 -1.88425109e-002
      -5.11183031e-003 -3.72826098e-003 -3.84091763e-005 2.92441864e-002
      5.06675951e-002 1.16843618e-002 -1.31601259e-001 -1.42583594e-001
      -2.15513678e-003 5.18392678e-003 1.46048600e-002 1.76667161e-002
      8.78096297e-002 1.55408472e-001 6.44486398e-002 -1.24345243e-001
      -1.28280148e-002 -5.62233031e-002 -6.06700480e-002 1.01801351e-001
      1.17545821e-001 -1.61101401e-003 -9.81150661e-003 -4.65415465e-003
      -8.76315869e-003 -4.14122604e-002 -6.24170192e-002
      -4.09639440e-002 2.58795954e-002 3.35834883e-002 -6.71316497e-003
      -3.66731696e-002 -1.85058527e-002 -4.93373908e-003
      -6.98258402e-003 -1.55705586e-002 -2.48584524e-002 7.15083722e-003
      8.27645212e-002 9.70755592e-002 -3.45587991e-002 -1.10212341e-001
      -4.07165065e-002 -2.22479552e-002 -2.36605126e-002
      -2.32865326e-002 -7.19194207e-003 3.22734229e-002 -2.68448004e-003
      -5.87328747e-002 -6.23836629e-002 -1.65783763e-002
      -9.64757707e-003 5.35636721e-003 -2.41166796e-003 1.13313654e-002
      3.21294963e-002 -1.70857436e-003 -1.43571179e-002 -1.30527141e-002
      -1.09679261e-002 -7.82638565e-002 5.20926900e-003 2.61615738e-002
      2.93875430e-002 3.05364598e-002 5.70145398e-002 7.48456568e-002
      -8.49790499e-003 -1.22129522e-001 2.58036386e-002 -2.78179673e-003
      -1.19161438e-002 1.04796709e-002 8.21278244e-003 -1.56011777e-002
      -1.96862482e-002 -1.38712814e-002 -3.06352805e-002
      -3.53003666e-002 6.74138889e-002 6.68527707e-002 4.54537459e-002
      3.99909690e-002 8.85413494e-003 7.95140397e-004 -3.48806642e-002
      -7.49664083e-002 -1.07246175e-001 -1.21698075e-003 2.75418237e-002
      2.09268965e-002 2.22893134e-002 6.55981004e-002 6.12840429e-002
      1.04014305e-002 -1.24259569e-001 -9.10132974e-002 9.95747000e-003
      1.80524494e-002 2.98375227e-002 7.00872615e-002 1.26501128e-001
      1.00589730e-001 1.03039574e-002 -1.29928276e-001 -8.97469893e-002
      5.74576110e-002 6.90134391e-002 3.47397961e-002 5.12180999e-002
      3.28688920e-002 9.55324247e-003 -2.33395118e-002 -1.22593455e-001
      -7.86519796e-002 2.99203359e-002 8.10319930e-002 1.27201363e-001
      1.28663376e-001 6.53427094e-002 1.40099619e-002 -7.67621584e-003
      -9.12428722e-002 6.00440102e-003 -1.98576413e-003 -4.81773587e-003
      -9.07072611e-003 3.51897441e-002 8.80493224e-002 1.41988117e-002
      -8.97504464e-002 -2.42019314e-002 3.11430381e-003 -5.02381986e-003
      -9.40573495e-003 -9.34803579e-003 -1.33337611e-002
      -9.29948408e-003 -4.99065071e-002 -2.52908561e-002
      -9.38502257e-004 -4.01121192e-003 -3.02047632e-003
      -3.49604734e-003 -1.45012578e-002 -2.58766231e-003 9.77040920e-003
      1.95064452e-002 -9.78517579e-004 -1.29775610e-002 -1.21543948e-002
      -1.62659660e-002 -1.08913723e-002 -1.23520661e-002
      -1.79397706e-002 -2.87853200e-002 -1.52923847e-002 6.32161694e-003
      2.84116399e-002 9.88450274e-003 -7.29008717e-003 -2.05561686e-002
      -6.78056991e-003 -2.65656747e-002 -1.87095609e-002
      -5.47359586e-002 -1.10224169e-002 -1.38398018e-002
      -3.68227772e-002 1.98738072e-002 -9.18445084e-003 1.19449254e-002
      -1.28224958e-002 -1.79804768e-002 -4.25457954e-002
      -4.48977686e-002 -7.09782243e-002 5.05445935e-002 -1.77136008e-002
      -1.98334195e-002 -9.05903615e-003 -3.95862199e-002
      -1.09757734e-002 -7.78495967e-002 6.18824363e-002 8.57388154e-002
      9.38931853e-002 3.32565494e-002 -1.68048702e-002 -3.56092826e-002
      -4.21683379e-002 -4.29592170e-002 -6.81689158e-002
      -4.36254777e-002 9.70198810e-002 -1.09846421e-001 2.24994998e-002
      9.69029125e-003 1.16006406e-002 3.14790360e-003 -4.57071699e-003
      -1.55898761e-002 -3.15218158e-002 -1.06369235e-001
      -1.25498220e-001 5.76617606e-002 1.05350301e-001 6.18557148e-002
      2.46217698e-002 4.38009622e-003 1.07803266e-003 -7.77639542e-003
      -1.22277133e-001 3.08501697e-003 1.11018419e-001 2.84507056e-003
      -2.29541827e-002 -3.76006365e-002 -1.43210348e-002
      -1.31870108e-002 -3.00619658e-002 -1.11372601e-002
      -3.70759480e-002 1.15611158e-001 8.22047368e-002 1.98824443e-002
      5.05116880e-002 1.26057246e-003 -4.08668682e-004 -8.16819165e-003
      -9.77149233e-003</_>
    <_>
      8.70718528e-003 -2.92799193e-002 9.62741859e-003 2.49279905e-002
      5.16030518e-003 -9.43199499e-004 2.23742769e-004 7.46798469e-004
      5.58604393e-003 1.32517582e-002 -2.19044369e-002 -5.67366462e-003
      3.10850162e-002 4.87709884e-003 -5.39449742e-004 1.38333300e-003
      -6.34450989e-004 1.07686296e-002 3.89389321e-003 -2.24551409e-002
      -7.02878786e-003 2.88968347e-002 -1.51702401e-003 4.89209220e-003
      2.91724759e-003 7.05462357e-004 2.11651763e-003 9.47383512e-003
      2.42593535e-003 -2.46173562e-003 8.54245480e-003 3.67971091e-003
      3.56267369e-003 4.14805068e-003 5.86479728e-004 1.48672648e-002
      2.48480123e-002 5.72966086e-003 -2.13407855e-002 -1.74194872e-002
      -2.14768611e-002 -4.74722451e-003 1.37866279e-002 4.84782411e-003
      3.48746218e-002 1.42907575e-002 8.89089052e-003 -6.78068250e-002
      -6.79812431e-002 -4.91387323e-002 -1.39122652e-002 7.37810731e-002
      7.03463331e-002 1.87234562e-002 1.32265035e-002 3.43811288e-002
      -3.48977074e-002 -5.80828451e-003 1.31174931e-002 -5.33918443e-004
      1.46531826e-002 -2.48379670e-002 3.19988560e-003 -6.68074340e-002
      4.87967208e-003 -5.30971885e-002 -3.04036792e-002 1.24054756e-002
      3.42900977e-002 9.03148055e-002 4.51181158e-002 -2.98094321e-002
      -4.30059293e-003 -1.29112729e-003 -1.08731911e-002
      -3.10285110e-002 -2.13153586e-002 -1.11692818e-002 9.13798809e-002
      5.24052158e-002 -3.66800353e-002 -2.12448295e-002 -4.99677379e-003
      -3.37031414e-003 -5.43696852e-003 7.51861278e-003 3.23935449e-002
      1.04752816e-001 4.71855476e-002 -8.16583857e-002 -1.18424751e-001
      -1.31104831e-002 -9.16735083e-003 -1.36228763e-002
      -3.69535061e-004 3.36427316e-002 1.02897003e-001 5.87631576e-002
      -1.19040467e-001 -1.31858692e-001 -3.50086251e-003 4.91741765e-003
      6.04856433e-003 2.65773386e-002 4.90525067e-002 1.17469698e-001
      4.76128161e-002 -1.27121046e-001 1.55804697e-002 2.20392495e-002
      4.02665976e-003 -2.59600510e-003 -2.11927369e-002 3.13794124e-003
      7.46904919e-003 2.00081640e-003 2.16663489e-003 -1.04148667e-002
      3.45982844e-003 2.10419740e-003 1.24184368e-002 1.20080747e-002
      -4.76311520e-003 -4.66788793e-003 6.13595126e-003 1.36728091e-002
      4.12962399e-002 5.55036739e-002 4.86386754e-003 -2.94189993e-002
      -4.42423262e-002 8.58480018e-003 -2.65089925e-002 -3.60752642e-002
      6.48894208e-003 -3.66767263e-003 2.76628919e-002 1.01791825e-002
      3.28626744e-002 3.66693214e-002 9.73002613e-003 -8.59999433e-002
      -3.71040441e-002 -3.34226377e-002 -2.12219600e-002 1.02775544e-002
      -6.14300254e-004 2.98916679e-002 4.66817655e-002 -2.66399211e-003
      -9.48997494e-003 -1.61148198e-002 -1.93791222e-002
      -8.43629763e-002 -4.62531578e-003 -1.22582889e-003 2.46922318e-002
      6.60604015e-002 4.92690392e-002 3.55295874e-002 3.08119506e-002
      -7.73012191e-002 -3.30220535e-002 -6.91367593e-003 1.27718691e-003
      6.90781847e-002 6.92587867e-002 1.60107557e-002 -6.03587851e-002
      -4.74636778e-002 -8.89923275e-002 -1.12277940e-001
      -2.05471348e-002 1.75879467e-002 1.00229979e-001 9.74199623e-002
      8.38216692e-002 -6.00052718e-003 -6.26880815e-003 -1.00926891e-001
      -8.32604617e-002 -3.80728790e-003 3.91286844e-003 1.06386878e-002
      1.80636458e-002 4.29791994e-002 8.22306201e-002 6.26293868e-002
      -7.09857345e-002 -6.94145858e-002 2.28097402e-002 2.05578413e-002
      2.96939872e-002 4.12523411e-002 4.65317406e-002 8.08555484e-002
      4.20829691e-002 -8.10959935e-002 -8.82885754e-002 1.60897970e-002
      3.68781686e-002 5.50875999e-002 6.21610992e-002 5.70802465e-002
      4.32650261e-002 3.19468491e-002 -7.68239126e-002 -4.57192659e-002
      6.05565384e-002 4.68786135e-002 3.97356488e-002 2.75147147e-002
      -4.68164543e-003 2.32839864e-002 2.91229561e-002 -5.76206036e-002
      1.11205177e-002 6.78550545e-003 -2.33491091e-003 -1.09992903e-002
      5.96419210e-003 3.30539122e-002 -3.19747403e-002 -6.06115088e-002
      1.40310312e-003 1.42492610e-003 -9.69790679e-004 -6.18645875e-003
      3.10760140e-002 1.08987041e-001 6.25956133e-002 -9.50446725e-002
      -6.47108555e-002 -1.99626051e-002 -1.13049662e-002
      -2.65087513e-003 -4.53683697e-006 7.87573680e-003 6.12178817e-002
      2.99413670e-002 -7.68228471e-002 -9.11025107e-002 -3.04730758e-002
      -2.70834211e-002 -2.83851735e-002 -1.25910249e-002 1.08428467e-002
      6.78360090e-002 9.15157720e-002 -6.63828850e-002 -9.43937451e-002
      -5.80607206e-002 -1.63442679e-002 -1.69287808e-002
      -1.89889222e-002 2.89125834e-002 1.04726397e-001 1.73097961e-002
      -6.58909306e-002 -4.47630882e-002 -5.46178669e-002
      -9.55655649e-002 -3.85336094e-002 -1.04855774e-002 7.69084543e-002
      1.09087177e-001 4.51132022e-002 -3.73570994e-002 -2.80029960e-002
      -9.84032080e-002 -2.21681204e-002 -3.23651209e-002
      -1.51580311e-002 2.54355278e-002 5.10219112e-002 4.46563773e-002
      -6.13929480e-002 -4.79598865e-002 -4.27446589e-002
      -4.71040532e-002 -4.94721048e-002 -1.95947867e-002 5.09318113e-002
      4.41283919e-002 4.87541873e-003 -5.30566536e-002 -4.92929406e-002
      -5.47316708e-002 -9.19925570e-002 9.12544411e-003 2.50382759e-002
      8.02188292e-002 1.09554254e-001 3.26660089e-002 -4.00756812e-003
      -2.97789183e-003 -9.90046412e-002 -3.61461379e-002 6.19677454e-002
      3.41241024e-002 5.74139133e-002 2.10940856e-002 -4.18583350e-003
      4.26753284e-003 3.84155009e-003 -9.62266326e-002 -5.97726628e-002
      -3.29174176e-002 -5.74878510e-003 6.78805038e-002 8.05041641e-002
      7.94397481e-003 -8.44844617e-003 -2.49379743e-002 -5.09865247e-002
      -9.53830183e-002 -5.55641484e-003 1.51573811e-002 7.60720819e-002
      7.75260925e-002 1.38992677e-003 6.91421609e-003 -7.51894107e-003
      -5.21787889e-002</_></support_vectors>
  <decision_functions>
    <_>
      <sv_count>1</sv_count>
      <rho>-1.1816982534267115e-001</rho>
      <alpha>
        1.</alpha>
      <index>
        0</index></_>
    <_>
      <sv_count>1</sv_count>
      <rho>-1.6551423653245675e-001</rho>
      <alpha>
        1.</alpha>
      <index>
        1</index></_>
    <_>
      <sv_count>1</sv_count>
      <rho>-4.7125283452700839e-002</rho>
      <alpha>
        1.</alpha>
      <index>
        2</index></_></decision_functions></my_svm>
</opencv_storage>
