<?xml version="1.0"?>
<opencv_storage>
<my_svm type_id="opencv-ml-svm">
  <svm_type>C_SVC</svm_type>
  <kernel><type>LINEAR</type></kernel>
  <C>1.0000000000000001e-001</C>
  <term_criteria><epsilon>1.1920928955078125e-007</epsilon>
    <iterations>1000</iterations></term_criteria>
  <var_all>324</var_all>
  <var_count>324</var_count>
  <class_count>3</class_count>
  <class_labels type_id="opencv-matrix">
    <rows>1</rows>
    <cols>3</cols>
    <dt>i</dt>
    <data>
      0 1 2</data></class_labels>
  <sv_total>3</sv_total>
  <support_vectors>
    <_>
      -3.66984954e-004 -1.64220128e-002 4.14069593e-002 9.29261616e-004
      -1.08939903e-002 6.83433609e-005 0. -9.28339869e-005
      -2.45595817e-003 7.83397555e-002 4.14817408e-002 5.32875629e-003
      -8.86171982e-002 -3.89052974e-003 -5.43939299e-004
      -3.62524157e-003 -1.09921424e-002 6.62939902e-003 -1.87368486e-002
      -1.37168482e-001 2.67514829e-002 1.00597076e-001 4.93561514e-002
      -2.07548365e-002 -8.74130707e-003 -1.66603848e-002
      -2.78377347e-003 -1.29583469e-002 -6.64563105e-002 2.70433282e-003
      -2.41761599e-002 -2.16947105e-002 -2.98039149e-003
      -1.33113917e-002 -3.23858969e-002 -7.25760823e-003 8.95305201e-002
      5.90834767e-002 -3.44358571e-002 -6.76304027e-002 -5.75542171e-003
      -1.92993023e-002 -3.33700590e-002 -2.95943283e-002 6.43773600e-002
      1.15549706e-001 5.77601418e-002 4.78298590e-003 -1.24824420e-002
      -2.23984290e-002 -7.98668936e-002 -1.66380256e-001 1.07811959e-002
      1.54086068e-001 1.47041641e-002 -8.15247837e-003 -5.28637357e-002
      -7.80366808e-002 -4.17228751e-002 -2.67861169e-002
      -1.17269633e-002 3.55357281e-003 1.22445142e-002 1.74315218e-002
      7.43004400e-003 -1.69955399e-002 -3.11211497e-002 -4.82444093e-002
      -3.15661244e-002 -6.18489720e-002 -5.95036941e-003 2.03327984e-002
      5.12309819e-002 1.21247685e-002 1.26831816e-003 -1.29521440e-003
      -6.43583806e-003 -4.79271635e-002 -1.05920367e-001 4.29082550e-002
      1.14625938e-001 2.59632841e-002 -2.90190871e-003 1.18819400e-004
      -3.43812280e-004 -8.01605918e-003 -1.92176522e-005 1.01088816e-002
      6.39346838e-002 6.21737018e-002 1.32677495e-003 -5.63305896e-003
      -1.14610707e-002 -2.63444218e-003 -6.33237138e-003
      -2.16559134e-002 -6.86787441e-002 -2.88947560e-002 4.02975781e-003
      2.51999795e-002 -1.69196185e-002 -4.34354581e-002 -3.13831046e-002
      -1.33781340e-002 4.27486226e-002 1.61451492e-002 -8.10983777e-003
      2.37084124e-002 -2.75196042e-002 -1.25779137e-001 -5.10296561e-002
      1.51110217e-001 1.70983657e-001 -3.21860835e-002 -3.38249691e-002
      -2.80263461e-002 -9.83002689e-003 -2.93177068e-002
      -9.72238109e-002 -4.43143770e-002 1.48571376e-002 -2.42193229e-002
      -5.20881778e-003 -2.96182036e-002 -2.63307672e-002
      -1.51096843e-002 -4.64747436e-002 -9.56973583e-002
      -6.53433502e-002 8.22952315e-002 1.86346665e-001 8.23224261e-002
      -4.52273786e-002 -7.50177652e-002 -5.21652997e-002
      -3.68154719e-002 -6.63078725e-002 -6.09122589e-002
      -6.60098866e-002 -6.77341549e-003 -3.99152376e-003 7.17286952e-003
      1.62663814e-002 -1.47126028e-002 1.46349426e-002 -1.34800542e-002
      -9.75992531e-003 -4.14461419e-002 -4.59628850e-002
      -1.62848190e-003 8.22677556e-003 2.56708656e-002 7.95031805e-003
      2.65471847e-003 -1.61447637e-002 -6.26283756e-004 -1.40030563e-004
      -2.35499609e-002 5.69751114e-002 1.95945147e-002 -2.07009614e-002
      -5.32211438e-002 3.31444480e-002 2.05607302e-002 1.40985791e-002
      -1.09720096e-001 -1.02629788e-001 -2.56479736e-002 6.07645251e-002
      8.68379921e-002 3.22574899e-002 5.26443459e-002 5.69131970e-002
      9.36485827e-002 -5.00702374e-002 -4.51155417e-002 -8.24850500e-002
      1.24302553e-002 2.35393271e-003 -5.17163659e-004 -9.54149105e-003
      -3.14551294e-002 -2.13905908e-002 5.03892405e-003 2.27403492e-002
      2.81888191e-002 -7.62705207e-002 -7.10406303e-002 -4.29179855e-002
      1.08961575e-003 -7.25891218e-002 -9.67100561e-002 -4.45436537e-002
      7.81844333e-002 1.27208829e-001 -2.43152641e-002 -5.88639155e-002
      -1.70126036e-002 -3.91600169e-002 -3.77329178e-002 4.80097113e-003
      -8.36498663e-003 1.92811936e-002 -3.37029546e-002 -6.34552166e-002
      -7.16990232e-002 -3.15912478e-002 -3.98027599e-002
      -1.21935584e-001 -9.18106288e-002 1.00958452e-001 1.61175266e-001
      1.01978756e-001 -4.58434783e-002 -5.69657572e-002 -2.45808568e-002
      -5.21376822e-003 -1.92940757e-002 -1.38206501e-002 1.04511399e-002
      5.74762635e-002 9.69653502e-002 1.18169310e-002 -3.92767116e-002
      -2.41475143e-002 -3.94718535e-003 -1.47969881e-002
      -2.49649417e-002 -1.00767724e-001 -1.94316491e-001
      -4.01074067e-002 4.52850312e-002 4.05775383e-002 1.41339225e-003
      7.31540844e-003 -6.39952999e-003 -2.50163721e-003 -5.13731642e-003
      -2.30647922e-002 2.80000214e-002 1.26252770e-001 5.93789779e-002
      8.44177324e-003 2.10703537e-003 -9.67051834e-003 -7.84731377e-003
      -4.64863554e-002 -1.20516509e-001 -6.31826371e-002 1.37747571e-001
      6.39023483e-002 2.49704886e-002 2.97339652e-002 2.67105680e-002
      6.16192585e-003 -8.38433281e-002 -1.82246521e-001 -1.29578188e-002
      5.36557510e-002 7.03316629e-002 2.61502638e-002 7.24576488e-002
      9.62935090e-002 7.14831352e-002 -8.19417760e-002 -1.56010643e-001
      -7.97116756e-002 2.05610786e-002 1.86406020e-002 2.90192217e-002
      5.87426983e-002 3.97969130e-003 -1.94787066e-002 -6.06423467e-002
      -1.08137146e-001 4.79396340e-003 1.01787806e-001 9.17976052e-002
      7.12777600e-002 1.28204718e-001 1.35017022e-001 4.47428934e-002
      -1.38169974e-001 -7.07554445e-002 -7.98763521e-003 3.13487612e-002
      6.95964247e-002 1.13619991e-001 -1.17911426e-002 -5.68416761e-003
      -5.59274666e-003 -1.01381086e-001 -1.50205195e-001
      -5.09835295e-002 -1.10647017e-002 -2.56875884e-002
      -2.23293016e-003 -5.90209961e-002 -7.58008584e-002 8.26036092e-003
      3.06614581e-002 4.40380983e-002 8.90766084e-003 -9.87257529e-003
      -1.83312669e-002 6.15104509e-004 5.08533008e-002 1.49697080e-001
      4.29940633e-002 -1.58074141e-001 -1.42491266e-001 -2.05541551e-002
      3.51903262e-003 9.14235227e-003 1.97254494e-002 9.27587226e-002
      1.39613837e-001 8.39628577e-002 -4.04366218e-002 3.18196719e-003
      -4.35765088e-003 -2.66035716e-003 1.41818449e-003 4.89661209e-002</_>
    <_>
      -4.16292343e-003 4.77132872e-002 1.34497404e-001 3.72399874e-002
      -2.02172417e-002 -7.77974119e-003 -2.02096580e-003 0.
      1.54568188e-004 8.10547620e-002 1.33755624e-001 1.18603408e-001
      -1.34692520e-001 -1.44251838e-001 -2.04853155e-002
      -5.19460533e-004 5.62648711e-006 7.78180361e-003 -7.93967694e-002
      -8.64737406e-002 4.35850136e-002 9.67132524e-002 6.78779483e-002
      -4.82414523e-003 -4.97532450e-002 -3.76305953e-002
      -5.87762892e-003 1.13767283e-002 5.97435236e-002 5.46843447e-002
      -5.15917018e-002 -1.64850697e-001 -1.07838504e-001
      -8.67981687e-002 -6.96273968e-002 -1.59167591e-002 1.44884154e-001
      1.54401228e-001 8.72202516e-002 -9.41808894e-002 -1.43096760e-001
      -3.00830286e-002 -1.24432389e-002 -7.63502484e-003 4.07954752e-002
      1.61587089e-001 9.32649672e-002 1.69303585e-002 -6.73049614e-002
      -1.39713377e-001 -1.08882852e-001 3.69708911e-002 9.55789164e-002
      1.33867383e-001 9.56671610e-002 1.25230908e-001 1.06634691e-001
      -9.88024324e-002 -1.93392605e-001 -9.33301300e-002
      -1.61520410e-002 -7.04730488e-003 4.60372912e-003 7.40865618e-002
      2.01679114e-002 1.27660558e-002 -1.33196458e-001 -1.77460745e-001
      -4.06913199e-002 1.09761432e-001 5.29450253e-002 6.06275648e-002
      5.46893142e-002 1.77726359e-003 -3.27222236e-003 -3.48006859e-002
      -1.08292170e-001 -1.12956822e-001 8.39829519e-002 9.07363221e-002
      7.48620853e-002 1.42160608e-002 -4.69646882e-003 -3.06535774e-004
      -1.79627631e-002 -3.24316025e-002 -1.22837638e-002 1.35556445e-001
      7.64113665e-002 2.86438167e-002 -2.46874671e-002 -9.34481248e-002
      -4.76261564e-002 -8.18160698e-002 -1.11940667e-001
      -4.23123874e-002 1.72440130e-002 -3.06561682e-002 -1.13175507e-003
      -1.15478998e-002 -7.03556612e-002 -4.67591919e-002 8.32036894e-005
      6.66986182e-002 2.79967636e-002 5.04818074e-002 -5.32722138e-002
      -4.02942076e-002 -5.62060736e-002 -6.00437820e-002
      -3.94747891e-002 1.39954105e-001 1.57231525e-001 1.15643516e-002
      -7.77652115e-002 -6.44908473e-002 -9.29789059e-003
      -8.62200279e-003 -1.23656364e-002 2.43309103e-002 4.80471700e-002
      -8.55291542e-003 -5.96917607e-002 -1.35791987e-001
      -8.97012204e-002 -4.20106016e-002 -1.25639504e-002
      -2.00976338e-002 -4.96224687e-002 5.41878790e-002 1.17369220e-001
      3.35879810e-002 -8.67930502e-002 -9.44238305e-002 -8.02761409e-003
      -3.41493785e-002 -4.13922966e-002 -2.70887092e-002 2.13681795e-002
      8.21558833e-002 2.25441344e-003 -5.30836657e-002 -4.97778393e-002
      -5.43797873e-002 4.15035784e-002 2.60104146e-002 4.63052392e-002
      -3.72201949e-002 -6.95071295e-002 -4.80637550e-002
      -2.59806328e-002 -1.08309211e-002 -1.62442010e-002 3.95102315e-002
      -4.24199440e-002 -1.78104211e-002 -6.47427440e-002
      -7.75834844e-002 1.96334701e-002 6.38696030e-002 4.40876605e-003
      2.15531047e-003 -2.27703643e-003 -2.92014573e-002 -4.35139760e-002
      -3.16669494e-002 3.34768482e-002 -5.49706584e-003 3.94608825e-002
      6.93888515e-002 -1.68633834e-002 3.61231379e-002 -9.80368908e-003
      3.83993867e-003 -2.65601669e-002 3.88853252e-002 -6.12165406e-003
      6.49264967e-003 3.40456963e-002 2.05546105e-003 -1.61323529e-002
      -9.99430418e-002 -6.77569583e-002 -1.03277350e-002
      -3.81713384e-003 4.27458622e-002 1.75103289e-003 -4.08150069e-002
      -1.35580562e-002 -1.15699964e-002 -7.71840289e-002
      -6.70372695e-002 2.48442162e-002 1.29321203e-001 1.24488689e-001
      -1.51426615e-002 -6.80405498e-002 -2.09222082e-002
      -1.18652917e-002 -7.23698437e-002 -5.52460365e-002
      -5.10873832e-003 4.66499813e-002 7.89033994e-003 -3.00339758e-002
      -2.21714042e-002 -7.39297690e-003 1.64167471e-002 -7.47234076e-002
      -6.74612448e-002 2.46444847e-002 1.16940595e-001 1.44887445e-002
      -5.05706593e-002 -3.05006281e-002 2.02435739e-002 8.25998187e-003
      -2.20454205e-003 -4.49662795e-003 1.34635940e-002 5.89759573e-002
      4.20686603e-002 -7.15796128e-002 -3.39904726e-002 6.72990165e-004
      -1.43843899e-002 -7.55104655e-003 -5.41172922e-003
      -6.56891614e-003 1.49996309e-002 -2.05274206e-002 -7.64870197e-002
      1.99371837e-002 -1.98125057e-002 1.62761714e-002 -5.91307366e-003
      -4.17544879e-003 1.94605440e-003 2.76097823e-002 -2.44931169e-002
      -2.39622723e-002 5.17050587e-002 1.98220387e-002 -2.80222856e-003
      2.46336265e-003 -4.54381341e-003 -4.89237020e-003 -1.47131542e-002
      -1.43749183e-002 -5.71919419e-002 6.01252988e-002 5.55193163e-002
      -1.28754964e-002 -8.70323833e-003 -3.54108959e-002
      -3.28577906e-002 1.96127198e-003 -2.40941923e-002 -4.38120849e-002
      6.78728744e-002 -1.33460313e-002 3.30035239e-002 -7.51142623e-003
      -1.08563796e-001 -9.22740400e-002 3.08508426e-003 -6.69653481e-003
      -5.40814968e-003 2.08198596e-002 -1.34609186e-003 3.01109813e-002
      -4.60876040e-002 -4.68276516e-002 -1.88914519e-002 6.91440841e-003
      1.62551347e-002 -8.73632133e-002 6.93915486e-002 7.79640749e-002
      9.04643610e-002 -2.08415557e-002 -8.66172537e-002 -1.02235109e-001
      -2.48454455e-002 -5.61915850e-003 -1.24719376e-002 5.80241205e-003
      1.22967742e-001 9.06457473e-003 -2.50504892e-002 -9.34886038e-002
      -7.28266388e-002 -4.39297594e-003 3.13891028e-003 -5.22565097e-003
      -2.25460343e-003 1.21528085e-003 9.05297231e-003 -4.52059368e-003
      -9.69207566e-003 -8.60470161e-003 -7.95738865e-003
      -2.61753681e-003 -3.92670324e-003 -1.50214357e-004 1.24536278e-002
      5.57411984e-002 3.72280516e-002 -4.76397239e-002 -9.45825577e-002
      -3.75532471e-002 -1.58487610e-003 -1.99395046e-003
      -7.21395598e-004 2.31609195e-002 5.28979786e-002 5.36886603e-002
      3.07967048e-002 -4.34465632e-002 -1.43811703e-002 2.34070001e-003
      1.03678554e-003 2.39782021e-004 2.01881845e-002</_>
    <_>
      -9.40621947e-004 6.27095997e-002 8.42249319e-002 -6.77346298e-003
      -1.42372670e-002 -6.42409455e-003 -1.16692926e-003 2.40603433e-004
      9.89520457e-003 2.10289992e-002 8.91145095e-002 1.03746533e-001
      -4.37868424e-002 -1.17813326e-001 -1.21549182e-002 2.09811353e-003
      7.36247469e-003 1.30214170e-002 -5.59363067e-002 5.43677919e-002
      6.61023147e-003 -1.80569608e-002 1.29124513e-002 1.73317268e-002
      -1.77644193e-002 -9.05156601e-003 4.94744672e-005 4.63241199e-003
      1.23425804e-001 5.69483861e-002 -6.11842833e-002 -1.23203866e-001
      -9.33395773e-002 -2.80339792e-002 -9.27537214e-003 3.39869224e-003
      4.55486141e-002 4.96574454e-002 6.95711300e-002 2.66939751e-003
      -1.08746625e-001 -6.73169456e-003 1.10189477e-002 1.04274955e-002
      1.71417575e-002 3.07977851e-002 8.16794857e-003 4.18646913e-003
      -2.07286533e-002 -1.01538807e-001 -1.13876676e-002 1.41349673e-001
      5.73780350e-002 1.84149724e-002 5.80455549e-002 9.42775756e-002
      9.51499343e-002 -3.19351628e-002 -1.19412497e-001 -5.63405789e-002
      4.52483632e-003 9.28004924e-003 1.65705588e-002 2.60496717e-002
      1.77182560e-003 -3.79943219e-003 -8.37358907e-002 -1.10410973e-001
      -1.58148690e-003 1.31938934e-001 7.77613819e-002 6.38716966e-002
      -7.01700861e-004 -7.28969369e-003 -4.62423638e-003
      -2.47112345e-002 -9.29872170e-002 -3.27979587e-002 1.55033231e-001
      2.57819574e-002 -1.91069283e-002 -1.07039725e-002 4.75809583e-003
      -2.15568324e-003 -1.61735509e-002 -1.78452004e-002 8.13073851e-003
      9.32430327e-002 -2.24391799e-002 -3.19058783e-002 -2.47179400e-002
      -5.53924665e-002 -2.60374937e-002 -6.13224693e-002
      -9.56281871e-002 -3.03988308e-002 7.32888058e-002 7.25982105e-003
      5.04363887e-003 -4.23944443e-002 -2.70184018e-002 1.13442214e-002
      3.41446437e-002 6.81830421e-002 1.79583393e-002 2.27090362e-002
      -5.17720543e-002 -5.96847758e-002 -3.29347402e-002 4.45062779e-002
      1.57779846e-002 -3.23383999e-003 7.38724554e-003 3.23619545e-002
      -1.15991933e-002 -3.85665298e-002 -7.97824760e-004 7.01903272e-003
      8.22263062e-002 6.63701892e-002 5.53916907e-003 -1.10607110e-002
      -6.49636835e-002 -6.53727949e-002 -4.74303178e-002
      -4.14439524e-003 1.72024295e-002 3.97777744e-002 1.54552038e-003
      -1.91210601e-002 -3.64652686e-002 -4.10470553e-002
      -6.43531680e-002 -4.95916344e-002 3.19550186e-002 -6.47881255e-003
      2.39432976e-002 6.03057556e-002 1.06354915e-001 9.69546139e-002
      -2.04042960e-002 -1.08395912e-001 -8.24512467e-002
      -2.28173751e-002 2.18820665e-002 4.03316915e-002 3.50094363e-002
      -7.83167686e-003 -3.55476514e-002 -5.16819060e-002
      -1.27164926e-002 -9.83018056e-003 -9.47077177e-004 1.66406259e-002
      -2.20489968e-002 -2.54706815e-002 -7.08640292e-002
      -5.70948534e-002 1.80613454e-002 6.78197667e-002 4.12340090e-002
      3.32737267e-002 -4.38997783e-002 -4.51210029e-002 -2.39798315e-002
      8.47942457e-002 1.09616607e-001 -5.92637807e-003 -4.92585637e-002
      -2.64999643e-002 -3.75067927e-002 -3.04727070e-002
      -1.27463102e-001 -1.03204817e-001 8.14535934e-003 9.14847702e-002
      1.04932211e-001 3.87767367e-002 1.53852385e-002 -1.85867287e-002
      -4.63451678e-003 -4.91771251e-002 -3.47396024e-002
      -3.07252482e-002 -4.30451706e-002 1.60862375e-002 8.09163973e-002
      3.42620686e-002 1.39909470e-002 -2.10620463e-002 4.00143239e-004
      4.05723006e-002 4.40335870e-002 5.74067309e-002 2.25369148e-002
      1.31346732e-002 -1.69089846e-002 -1.71129815e-002 1.40826181e-002
      -7.90602639e-002 -1.00427866e-001 -2.70179193e-003 4.85246852e-002
      4.31152694e-002 3.18649970e-002 4.01612781e-002 9.20019578e-003
      3.06650996e-003 2.28464436e-002 -2.51834150e-002 -3.66341174e-002
      -7.65101565e-003 -6.74357340e-002 -2.23144311e-002 3.49940769e-002
      1.56091163e-002 1.29256677e-002 1.32445954e-002 7.65886391e-003
      -4.51686559e-004 1.66977309e-002 -6.53322460e-003 -9.30996612e-002
      -3.98298949e-002 2.06608083e-002 -1.03677139e-002 9.48934257e-003
      3.28145884e-002 9.83699411e-002 1.84240490e-001 4.64339890e-002
      -1.50621369e-001 -4.90198135e-002 -1.69795956e-002 4.49749734e-003
      -6.80327430e-005 5.97652979e-005 1.09927086e-002 3.37513871e-002
      1.54044433e-002 -9.13502723e-002 -4.55701984e-002 7.34878052e-003
      -1.65564120e-002 1.33156758e-002 6.15446130e-003 4.51202355e-002
      1.03427231e-001 8.74326006e-002 -1.24461465e-001 -5.56806177e-002
      -8.16716719e-003 -4.63555828e-002 -2.92137042e-002
      -1.98680721e-002 4.98423167e-002 1.70681641e-001 1.17400838e-002
      -8.29571784e-002 -2.07027383e-002 -4.56016921e-002
      -4.65024523e-002 -1.23442777e-001 -1.38855994e-001 1.18131507e-002
      1.74012482e-001 8.61175135e-002 -2.96785543e-003 -2.44284584e-003
      -5.06843068e-002 -5.92046902e-002 -1.92380231e-002
      -1.71434544e-002 2.73319706e-002 1.13446333e-001 6.31460771e-002
      -1.22946754e-001 -4.66746278e-002 -4.52011004e-002
      -7.13454783e-002 -1.07473604e-001 -7.69360736e-002 2.07118597e-002
      8.03120658e-002 4.03969698e-002 -1.19760530e-002 -5.43073704e-003
      -5.45002930e-002 6.60739699e-003 -6.61701187e-002 -1.08904898e-001
      5.59058227e-002 1.35114878e-001 5.26774190e-002 4.24299017e-003
      2.33300198e-002 -1.05294690e-003 1.97663959e-002 2.33989395e-003
      -4.90253940e-002 9.31221526e-003 1.70317572e-002 -9.53254942e-003
      -2.22719065e-003 2.40307692e-002 7.99314026e-003 -1.87801346e-002
      -1.04118258e-001 -6.80582672e-002 4.91878651e-002 1.07929699e-001
      2.12889817e-002 7.90181162e-004 -1.12853661e-004 -1.14787817e-002
      -4.31731232e-002 -6.20641410e-002 -3.01919337e-002 7.05352286e-003
      4.45717946e-002 5.12633193e-003 3.16287088e-003 0.
      -1.88120343e-002</_></support_vectors>
  <decision_functions>
    <_>
      <sv_count>1</sv_count>
      <rho>-1.1694794282915051e-001</rho>
      <alpha>
        1.</alpha>
      <index>
        0</index></_>
    <_>
      <sv_count>1</sv_count>
      <rho>-1.3657966967026666e-001</rho>
      <alpha>
        1.</alpha>
      <index>
        1</index></_>
    <_>
      <sv_count>1</sv_count>
      <rho>5.4147968730023616e-002</rho>
      <alpha>
        1.</alpha>
      <index>
        2</index></_></decision_functions></my_svm>
</opencv_storage>
