<?xml version="1.0"?>
<opencv_storage>
<my_svm type_id="opencv-ml-svm">
  <svm_type>C_SVC</svm_type>
  <kernel><type>LINEAR</type></kernel>
  <C>1.0000000000000000e-002</C>
  <term_criteria><epsilon>1.1920928955078125e-007</epsilon>
    <iterations>1000</iterations></term_criteria>
  <var_all>1764</var_all>
  <var_count>1764</var_count>
  <class_count>3</class_count>
  <class_labels type_id="opencv-matrix">
    <rows>1</rows>
    <cols>3</cols>
    <dt>i</dt>
    <data>
      0 1 2</data></class_labels>
  <sv_total>3</sv_total>
  <support_vectors>
    <_>
      2.41498207e-003 7.04534445e-003 2.96965684e-003 2.99204141e-003
      1.27541739e-003 1.96220586e-003 3.75867402e-003 -7.75093562e-004
      -7.55998027e-003 1.98768379e-004 7.76850618e-003 2.87972973e-003
      4.24628565e-003 -1.62538537e-003 -3.15692928e-003 2.01325398e-004
      3.08551639e-003 -1.88505580e-003 1.89905777e-003 1.23054190e-002
      7.10580638e-003 8.24616197e-003 1.95222546e-003 1.86562457e-003
      -1.56974234e-003 -5.26421180e-004 -7.25647202e-003
      -3.41907679e-003 9.92152188e-003 6.47743698e-003 8.29844177e-003
      3.32803512e-003 9.29371236e-005 3.88271105e-003 3.36877047e-003
      -4.86899633e-003 -3.65395594e-004 5.12218988e-003 6.10706164e-003
      1.96813396e-003 -5.90718584e-003 -2.93282163e-003 -1.55588367e-003
      2.57312320e-003 2.04291567e-003 3.23661859e-003 4.78380267e-003
      9.12872422e-003 -6.52196235e-004 -4.48729889e-003 -6.54255447e-004
      -2.55798642e-003 1.62321341e-003 4.26879013e-003 5.00291295e-004
      8.07137694e-003 7.54029397e-003 2.55996431e-003 -3.58437793e-003
      -2.53918837e-003 2.04054217e-004 3.33007867e-003 2.94876844e-003
      -1.62530676e-004 8.59034806e-003 1.07645392e-002 -2.68246583e-003
      -8.64164624e-003 -2.04300112e-003 9.62448481e-004 2.74943700e-003
      5.59773017e-003 -2.01069470e-003 1.57609256e-003 3.53611028e-003
      -2.01312010e-003 -5.32554556e-003 -7.66418991e-004 1.11240940e-003
      1.46724714e-003 1.59882067e-003 -1.16643275e-003 5.63206756e-003
      5.29951882e-003 7.61409639e-004 -9.81427729e-004 -1.21381844e-003
      1.75228762e-003 2.88213184e-003 3.11711716e-004 -2.29622982e-003
      7.29195913e-003 7.16548553e-003 9.36656143e-004 -6.42391387e-003
      -1.40859443e-003 2.30535935e-003 -1.06629438e-003 -9.83968843e-004
      4.85626137e-004 4.10947658e-004 5.13488473e-003 2.69808457e-003
      1.13805220e-003 3.12637538e-003 4.41195862e-003 1.61847216e-003
      -3.34232696e-003 -6.78884971e-004 4.04659007e-003 1.91501365e-003
      1.50800345e-003 -6.68354973e-004 3.21186264e-004 -1.19494682e-003
      -2.37300573e-003 -5.19092521e-003 8.94155935e-004 7.60671496e-003
      4.10637073e-003 1.98242231e-003 -1.47436827e-003 2.81317421e-004
      -3.04459222e-003 -2.76746484e-003 -2.61086249e-003
      -3.49203707e-004 -3.25852004e-003 -1.86011440e-003 2.08461634e-003
      1.95763097e-003 2.01751688e-003 -5.41944639e-004 -2.90471409e-003
      -5.11311786e-003 3.56842834e-003 1.88416860e-004 -3.02591664e-003
      3.30695370e-003 -3.62765713e-005 4.85433324e-004 -1.86930306e-003
      -3.84030887e-003 -2.99237715e-003 -4.79853858e-004 3.21658608e-003
      3.12107895e-003 9.00855754e-004 -2.58597109e-004 -2.38513585e-005
      -1.20526087e-003 -1.34794216e-003 -2.33969622e-005
      -1.34047121e-003 -6.33859262e-003 5.46917610e-004 6.89346518e-004
      3.86537256e-004 3.27842252e-004 3.67306347e-005 1.24765525e-003
      2.40589073e-003 2.53291248e-004 -3.88265355e-003 1.69971201e-003
      2.66095297e-003 -3.71783644e-005 4.62442811e-004 -1.40893811e-004
      -1.65313904e-004 -1.90289269e-004 -2.01881584e-003
      -3.88265355e-003 3.71413096e-003 3.54028470e-003 1.79397827e-003
      8.88464740e-004 2.90341966e-004 9.86129860e-004 1.83508650e-003
      1.08227199e-004 -5.66895306e-003 1.32501265e-003 1.07091968e-003
      8.00024311e-004 7.30708067e-004 2.42295893e-004 9.68603941e-004
      2.97699752e-003 2.75798328e-003 -3.39114899e-003 2.91286095e-004
      1.39014365e-003 1.17595633e-003 1.01836491e-003 6.96946052e-004
      1.31208869e-003 1.43897487e-003 8.59304200e-005 -3.42843845e-003
      4.67012450e-003 2.56487355e-003 1.98609568e-003 1.00096420e-003
      1.84240474e-004 7.68304744e-004 1.77423249e-003 2.24099262e-003
      -3.90748261e-003 -3.63684871e-004 -2.44274666e-003
      -1.10760494e-003 4.65775433e-004 -4.00902973e-005 7.50228122e-004
      7.96310836e-004 2.89213582e-004 -2.87927012e-003 -9.34658106e-004
      6.15372148e-004 2.08011013e-003 1.80705159e-003 1.94044888e-003
      -1.73409135e-005 -1.82470318e-003 2.05109175e-003 -3.90811544e-003
      2.85258493e-003 1.46644388e-003 -5.74606704e-003 -1.96984084e-003
      1.43776485e-003 -1.08563877e-003 -2.60179187e-003 1.98827195e-003
      -6.41535269e-004 -4.10630088e-003 -7.78248673e-003
      -5.52977528e-003 1.29847985e-003 -2.88035953e-004 -3.04076762e-004
      -2.28914106e-003 4.01305826e-003 2.65834224e-003 1.77588634e-004
      -4.39218059e-003 -4.21668543e-003 -3.15442332e-003 5.67159965e-004
      -3.14395031e-004 -1.33222109e-003 -7.47237296e-004 9.02020931e-003
      4.31196205e-003 4.99557564e-003 -1.39259559e-003 -6.26956695e-004
      -1.87823456e-003 -1.57824287e-003 -6.62213750e-003
      -2.28634686e-003 7.60406582e-003 3.83230764e-003 3.16265645e-003
      -3.25230393e-003 -1.91476929e-003 3.54422652e-003 1.95662421e-003
      -8.88555218e-003 3.18734837e-003 1.41852703e-002 8.96218512e-003
      8.60045722e-004 -1.55976368e-003 -2.06785975e-003 2.80650565e-003
      1.72691839e-003 -6.58775098e-004 8.11775494e-003 8.50262307e-003
      7.11799692e-003 -1.54768641e-003 -6.46926695e-003 -5.56943100e-003
      4.40871716e-003 6.85461285e-003 -2.03138776e-003 -2.10824888e-003
      5.88381384e-003 2.87149474e-003 -3.29637289e-004 -3.86857777e-003
      -1.95458857e-003 1.36132410e-003 -3.76347802e-004 -6.57243561e-003
      -3.13618616e-003 1.15428902e-002 6.08269777e-003 -2.27356399e-003
      -8.52350332e-003 -1.32232485e-003 1.43236434e-003 -7.32241315e-004
      -4.05214075e-003 3.63969617e-003 3.15122283e-003 5.95342880e-003
      -2.55469419e-003 -3.24157998e-003 -1.92574738e-003 1.42345577e-003
      1.64550974e-003 -2.59688497e-003 3.16621200e-003 -1.23552047e-003
      6.45832717e-003 -2.10048375e-003 -2.44095223e-003 6.83616963e-005
      1.00843736e-003 2.86210852e-004 -4.16356430e-004 -2.43093492e-003
      4.29056212e-003 4.19738423e-003 1.73214547e-004 -2.17178720e-003
      -2.59271997e-006 4.71936859e-004 -2.97245424e-005 -1.97985279e-003
      -1.49587262e-003 -6.97791809e-003 4.42963932e-003 1.71226775e-003
      1.44755677e-003 1.60521036e-003 8.26485106e-004 4.84586810e-004
      -7.92553474e-004 2.83133215e-003 -3.98467295e-003 3.99046019e-003
      1.01323717e-003 -3.73990333e-004 1.69478430e-004 2.41161077e-004
      8.91500211e-004 1.51236379e-003 -3.68923211e-004 -3.98467295e-003
      7.79729662e-003 2.90381513e-003 1.04534929e-003 6.22082327e-004
      1.93329266e-004 9.21959232e-004 1.67132868e-003 2.49606231e-003
      -4.48519876e-003 -1.43961035e-004 1.43987371e-003 1.33567327e-003
      7.64044700e-004 2.97959545e-004 1.01722319e-004 3.78172757e-004
      7.08848843e-003 -2.23542145e-003 -1.18601671e-003 2.42290692e-003
      1.04459550e-003 4.32624278e-004 9.96004819e-005 3.65210115e-004
      1.13038602e-003 1.70663523e-003 -2.31059291e-003 3.60057317e-003
      1.55962165e-003 1.03826309e-003 4.04003455e-004 3.28335969e-004
      -1.41292534e-004 4.94109117e-004 6.19295705e-003 -2.66932673e-003
      -2.87508848e-003 1.02008251e-003 1.36028125e-003 5.94538287e-004
      8.54095793e-004 -2.52099754e-003 -4.26276540e-003 6.37963274e-003
      -9.20219696e-004 2.85159727e-003 2.52014655e-003 8.12839833e-004
      5.47081698e-004 2.73981161e-004 6.91812660e-004 1.74448499e-003
      2.20346893e-003 -1.37835590e-003 5.61098615e-003 2.98835221e-003
      2.21622572e-003 8.53698119e-004 3.15916230e-004 5.90224809e-004
      1.55768404e-003 1.57483993e-003 -2.83706537e-003 -4.83064796e-004
      1.53292005e-003 2.37106648e-003 8.81165615e-004 7.49958330e-004
      -2.93108448e-003 -5.03750844e-003 -1.07381018e-002
      -9.02957376e-003 -5.31736203e-003 1.29092578e-003 2.75679352e-003
      1.51042035e-003 1.77793449e-003 2.65884306e-003 1.49237865e-003
      7.26528885e-003 2.31453031e-003 7.33429519e-003 2.15763063e-003
      2.52690236e-003 1.16550841e-003 2.93144520e-004 1.03244954e-003
      1.88730774e-003 4.12396528e-003 3.94391548e-003 -2.72246543e-003
      -5.50746080e-003 9.13129188e-004 2.55256006e-003 9.01815423e-004
      2.25589261e-003 2.40812101e-003 -9.25128348e-003 -9.40158963e-003
      -9.99548100e-003 1.22856320e-004 3.58467596e-003 3.73744057e-003
      3.63794947e-003 6.10756082e-003 6.28811074e-003 -1.03668068e-002
      -1.64298918e-002 -1.49454186e-002 -3.46074253e-003 7.92948995e-003
      3.64621961e-003 3.12329852e-003 3.57696298e-003 4.44953889e-003
      2.12937943e-003 6.75802759e-004 -4.51143133e-003 -1.20353242e-002
      -6.57803053e-003 6.84120867e-004 -4.02356600e-005 1.36975734e-003
      7.29515858e-004 4.49767010e-003 3.96512030e-003 3.90654081e-004
      -2.41716788e-003 2.07233545e-003 7.34326546e-004 8.44420050e-004
      1.54768617e-003 1.37050473e-003 -5.02330018e-003 -1.38106495e-002
      -8.81311204e-003 -8.21066927e-003 -2.67629582e-003
      -1.19081140e-003 8.54165177e-004 1.60989532e-006 -3.29481234e-004
      1.57868105e-003 3.61472048e-005 -9.13524418e-004 1.09731324e-003
      3.45361256e-003 -2.29668035e-003 1.34339405e-003 1.47034030e-003
      1.02360372e-003 1.31685939e-003 5.38667152e-003 4.15793620e-003
      -4.80886083e-004 -1.84296886e-003 -6.79691497e-004 9.41849139e-004
      3.90742236e-004 -1.64969562e-004 6.38650823e-003 -5.95183810e-003
      2.95813382e-003 -3.77607212e-004 -2.32923799e-003 -7.33108027e-004
      7.16559240e-004 1.51042955e-003 1.00644631e-003 3.66841769e-003
      -7.01170648e-003 -7.78946778e-005 2.32335133e-003 1.13525253e-003
      7.82777381e-004 2.89980555e-003 1.18476490e-003 8.23088165e-004
      7.43453391e-003 -5.06965350e-003 -1.12816202e-003 2.04268866e-003
      -1.06527307e-003 5.11642080e-004 2.08108197e-003 2.47368566e-003
      2.85503711e-003 5.86218247e-003 -5.34084393e-003 2.83916271e-003
      -1.31779379e-004 -5.75836748e-004 -1.83045722e-005 3.28956114e-004
      9.01506981e-004 1.42832182e-003 3.03182448e-003 -3.39632598e-003
      6.38936972e-003 4.30811138e-004 3.68096604e-004 6.23040833e-004
      5.06849959e-004 5.94822981e-004 2.53576972e-003 8.07147659e-003
      -3.77106923e-003 -1.59028172e-003 1.03802362e-003 -2.40375768e-004
      1.05084997e-004 5.70501608e-004 2.26900307e-003 3.11988988e-003
      3.43700033e-003 -5.19157993e-003 -4.81203664e-004 1.69431290e-003
      2.08197301e-003 1.84857380e-003 1.13370898e-003 2.17910646e-003
      3.08211823e-003 4.17540502e-003 -4.32810094e-003 3.23035382e-003
      1.50792417e-003 5.37490880e-004 5.62718720e-004 2.86986498e-004
      7.23374891e-004 2.32122955e-003 5.76436706e-003 -4.32810094e-003
      1.94851530e-003 -4.23285164e-005 6.75671501e-004 -1.62743541e-004
      5.30254852e-004 8.26984935e-004 3.39541957e-003 1.60446030e-003
      -6.83767349e-003 1.93977496e-003 3.50680156e-003 1.64614734e-003
      1.91328721e-003 6.39968959e-004 2.35020695e-003 2.67217495e-003
      5.20320330e-003 -9.80457850e-003 5.29331621e-004 -1.65577815e-003
      -8.95771838e-004 -1.83878990e-003 1.62787142e-003 1.31357892e-003
      4.76416340e-003 5.24662388e-003 1.72499137e-003 -1.51798117e-003
      -5.61024947e-003 3.57494049e-004 2.85794056e-004 1.16489222e-003
      7.44959805e-004 3.61429714e-003 3.09203612e-003 -4.03494079e-004
      -8.34059250e-003 -5.60075417e-003 1.73737016e-003 1.95189170e-003
      2.49940297e-003 -3.46225454e-003 -3.99632473e-003 6.53554080e-003
      -6.47375407e-003 -5.02279028e-003 -1.20574161e-002
      -3.85505334e-003 -1.31186261e-003 1.17936509e-003 1.21810846e-003
      7.33443815e-003 3.03577562e-003 -1.01777548e-002 -1.09935487e-002
      -9.87745635e-003 -2.32330314e-003 2.58228928e-003 7.76553876e-004
      -1.54772354e-003 8.81805900e-004 -4.32044221e-003 -4.71438048e-003
      -1.59143237e-003 1.27939018e-003 4.31883382e-003 1.70168374e-003
      1.67676015e-003 -2.77543417e-003 -4.80706198e-003 -6.15321845e-003
      -1.36044594e-002 -5.59933065e-003 -1.23692473e-004 1.35941897e-003
      -2.72424472e-003 5.71716635e-004 2.79487600e-003 3.25884577e-003
      6.05666428e-004 -1.12017244e-002 -4.95938910e-003 1.38813339e-003
      5.70666138e-003 3.61796841e-003 1.37877010e-003 -4.52346081e-004
      3.64990230e-003 -1.74828444e-003 -1.12922126e-002 -1.76711287e-003
      1.97096786e-004 -7.93434447e-004 -6.20368961e-003 -7.12856464e-003
      -3.83589906e-003 3.94225912e-003 -5.81322284e-003 -1.81897134e-002
      -8.53131711e-003 -1.30014797e-003 1.67365710e-003 -7.16650975e-004
      1.61023898e-004 2.87928735e-003 4.97358246e-003 -5.26444241e-003
      -1.71109438e-002 -8.63820594e-003 -7.70364306e-004 1.33354659e-003
      -5.94604295e-004 1.53772370e-003 1.80137705e-003 4.04194230e-003
      -8.14761093e-004 -8.38102959e-003 -8.80059146e-004 4.67373437e-004
      4.18655312e-004 -4.99784481e-003 -6.39427220e-003 -4.66316240e-003
      1.83010346e-003 1.72025175e-003 -6.26801094e-003 -2.57470389e-003
      1.51942496e-003 2.11292948e-003 1.73878288e-004 2.26032967e-003
      5.68654435e-003 4.69038170e-003 -3.82318022e-003 -9.25908983e-003
      -5.21247042e-003 -2.16188724e-003 -5.38908644e-003
      -4.53995401e-003 8.84649809e-004 9.59149795e-004 2.68885889e-003
      1.21176126e-003 2.32180737e-005 3.54407093e-004 3.64015228e-003
      -1.43729663e-003 -4.16396232e-003 1.55254756e-003 1.80904730e-003
      1.78747799e-003 -4.92402911e-003 -6.43783668e-003 -4.87094279e-003
      -6.80023339e-004 -4.73891990e-003 -2.20541889e-003 3.38878739e-003
      5.56154223e-003 8.79633613e-003 3.39252595e-003 -3.90571040e-005
      4.65611927e-004 5.82200382e-003 -2.28132843e-003 -3.64979776e-003
      4.16638795e-003 3.67958751e-003 4.30107862e-003 2.75167567e-003
      -1.01802163e-002 2.02184310e-003 3.12045310e-003 3.31303501e-003
      1.53601181e-003 3.62128671e-003 5.88676667e-005 1.65135041e-003
      5.22854505e-003 -5.60227642e-003 -4.82268340e-004 -2.58376793e-004
      -1.16334588e-003 4.83436132e-004 1.36184774e-003 2.16824817e-003
      3.96172842e-003 3.11257504e-003 7.09991204e-004 2.16586073e-003
      1.69403956e-003 3.14910687e-003 6.35300763e-004 6.73541508e-004
      -6.38305675e-003 1.14457612e-003 3.70599609e-003 2.12252373e-003
      2.25885585e-003 -6.64373802e-004 1.57354528e-003 3.67444445e-004
      -2.90038553e-003 -4.10924386e-003 -1.76299785e-004 5.50998049e-003
      -4.14581643e-003 -2.34154658e-003 -6.12330448e-004
      -2.37850705e-003 -7.05617480e-004 -1.56593346e-003 1.00407167e-003
      2.80578109e-003 4.26098844e-003 -8.60035233e-003 -2.37528328e-003
      1.33970496e-003 1.33217825e-003 9.95133421e-004 -6.30359806e-004
      8.94200115e-004 2.29825755e-003 2.67007994e-003 9.24866938e-004
      2.05641333e-003 -2.60785135e-004 -1.28928397e-003 2.46409763e-004
      1.50979939e-003 -2.65510473e-003 -7.00977631e-004 1.68387359e-003
      1.88386679e-004 9.24463617e-004 1.35323079e-003 3.04202491e-004
      1.24447758e-003 3.80795071e-004 -2.47636251e-003 -8.69897136e-004
      2.69952160e-003 -4.95693041e-003 1.44439575e-003 1.69784680e-003
      -1.68285181e-003 1.64559996e-003 8.33015598e-004 1.71461247e-003
      2.32884474e-003 6.31354167e-004 -5.96934371e-003 -4.02324338e-004
      1.15104648e-003 -3.79186333e-003 -4.50485898e-003 1.09715365e-004
      -1.19305530e-003 -3.44780274e-004 1.84866739e-003 1.07439805e-003
      1.13348523e-003 4.64218057e-004 -1.21580297e-003 9.28490481e-004
      -3.83484410e-004 -1.55924819e-003 -3.01439431e-003
      -7.97110959e-004 -2.75870343e-003 -4.08093649e-004 2.36783177e-003
      2.25711218e-003 2.42976053e-003 -1.76224404e-003 -7.50311092e-003
      -6.11836137e-003 -3.42302548e-004 -9.49734449e-003
      -5.44490898e-003 -2.44934834e-003 -8.04872485e-004
      -2.45792908e-003 -2.51839659e-003 -3.81423743e-003
      -1.78611104e-003 -3.01210396e-003 -1.08994870e-002
      -6.52361987e-003 -5.42278693e-004 5.14444709e-003 4.75806603e-003
      1.20618194e-003 -4.78332397e-003 -5.15399128e-003 -6.01650169e-003
      -7.60026556e-003 -5.69919869e-003 1.16968167e-003 6.25543855e-003
      7.74460239e-003 1.76169456e-003 -5.14300400e-003 -3.23654828e-003
      -6.81798579e-003 -1.13345403e-002 -6.25238987e-003 3.46165895e-003
      1.68452580e-002 1.45495366e-002 9.80375148e-003 -4.95742679e-005
      -5.76582737e-003 -2.04790384e-003 -7.53889326e-003
      -1.57102430e-003 4.19459725e-003 9.13233589e-003 5.31346630e-003
      8.53085890e-004 -4.91920812e-003 -7.36878859e-003 -3.59028415e-003
      -3.28010623e-003 1.89596042e-003 2.64611072e-003 3.81905655e-003
      -9.89018823e-004 -6.79853885e-003 -8.51275865e-003
      -1.41573930e-003 -3.90395033e-003 -5.43794362e-003
      -2.65281531e-003 6.40216703e-003 1.54428966e-002 1.27128409e-002
      5.96795976e-003 -3.26000131e-003 -1.12528577e-002 -2.93551479e-003
      -6.95165619e-003 -5.77521091e-003 4.49404633e-003 1.18993232e-002
      7.85882212e-003 -1.97544019e-003 -6.78778347e-003 -7.44036818e-003
      -3.02394014e-003 -2.38741934e-003 -1.30014808e-003
      -1.37840118e-003 2.41667585e-004 -2.58311536e-003 -1.75120146e-003
      -7.68915052e-004 1.82568468e-003 -6.95461931e-004 -9.71640833e-003
      -1.00323278e-002 -1.41164078e-003 2.63268535e-004 3.51826719e-004
      3.37491906e-003 6.60214201e-003 7.13864015e-003 -2.13477830e-003
      -7.04988791e-003 -8.49773269e-003 -5.89853013e-003 3.58958472e-003
      1.26277294e-003 1.14715844e-003 -3.09380936e-004 2.87108892e-003
      4.50220844e-003 -1.36401113e-002 -1.22240344e-002 -1.46772927e-002
      -2.67246063e-003 4.64680418e-003 5.42748254e-003 6.87609287e-003
      1.20430095e-002 1.15084508e-003 -6.98189298e-003 -7.09922286e-003
      1.59173436e-003 -2.98130256e-003 4.37429349e-004 2.28659483e-003
      3.21895978e-003 6.44673780e-003 2.92804162e-003 9.70658439e-004
      1.25970133e-003 2.51005031e-003 -5.31891035e-003 2.83671520e-003
      3.75295780e-003 2.41738348e-003 2.72653624e-003 5.35844732e-003
      -1.14226649e-002 -1.24620590e-002 -7.07257632e-003
      -6.94955187e-003 4.42257756e-003 2.93089380e-003 2.42197816e-003
      7.13616097e-003 3.17784492e-003 1.83605659e-003 2.66751787e-003
      2.38361419e-003 -5.09552285e-003 3.81594291e-003 2.22539762e-003
      1.59869052e-003 1.98437436e-003 3.08832037e-003 1.53297116e-003
      7.28334941e-004 5.64665708e-004 7.10080960e-004 1.76117779e-003
      8.92280543e-004 -7.02813314e-003 4.09484794e-003 8.52814352e-004
      1.54510362e-003 6.88148430e-004 5.20828355e-004 2.31944071e-003
      2.73474189e-003 1.91673334e-003 -4.77693882e-003 -2.94163194e-003
      2.50009424e-003 3.94111592e-003 7.62757671e-004 -4.97926027e-004
      -3.26934760e-003 6.57364086e-004 7.96540757e-004 2.37014936e-003
      5.01936534e-003 1.40969962e-004 3.31110042e-003 -7.28675222e-004
      -1.61184836e-003 5.86441602e-005 1.77995337e-003 3.14785470e-003
      -4.24319599e-003 1.57232129e-003 8.56555242e-004 1.08371500e-003
      7.15017086e-004 4.91137500e-004 1.04273809e-003 1.21686771e-003
      6.64487854e-003 -5.08778170e-003 5.12966944e-004 8.07654462e-004
      7.03958096e-004 2.95076694e-004 9.94262751e-004 9.91247012e-004
      2.16560252e-003 6.87098363e-003 -4.91679320e-003 2.76129664e-004
      4.64684890e-005 1.40975253e-003 1.08886184e-003 -3.67631874e-004
      5.98982151e-004 1.65345788e-003 4.19253623e-003 -6.18866598e-003
      1.02958339e-003 2.10380950e-003 5.25277166e-004 4.25715552e-004
      2.67973752e-004 -2.34444567e-004 3.75894364e-003 9.32205282e-003
      -4.68136137e-003 1.17151439e-003 1.25186401e-003 5.60414046e-004
      3.19608662e-004 9.69949062e-004 1.27565104e-003 1.51542237e-003
      4.51600784e-003 -5.15053561e-003 -1.46333966e-003 1.69546471e-003
      9.81958467e-004 7.54261913e-004 9.86650237e-004 4.56374558e-003
      3.13485949e-003 2.98837619e-003 -7.33580859e-003 -2.94025335e-003
      1.77232118e-003 4.12351859e-004 3.29852104e-004 6.05735171e-004
      5.01002709e-004 3.04733124e-003 8.72243661e-003 -3.79459746e-003
      -7.34648143e-004 2.50870921e-003 1.04635558e-003 9.75952775e-004
      1.10682880e-003 2.45268340e-003 2.45137559e-003 8.37602653e-003
      -3.46422032e-003 2.87588889e-004 -2.26138043e-003 -1.15483708e-003
      -1.28797675e-003 3.10007803e-004 6.99684164e-003 7.00547732e-003
      1.71692402e-003 -1.00834342e-002 -2.89032678e-003 -2.93567288e-003
      -7.91896600e-003 -7.23857386e-003 2.90226191e-003 1.37037365e-002
      1.41241169e-002 5.15257241e-003 -4.50806879e-003 3.66666616e-004
      1.83643727e-003 8.12731159e-004 -2.04750304e-005 1.53867900e-003
      4.82617132e-003 3.30659258e-003 5.90698607e-003 -5.50266728e-003
      -4.53952048e-003 3.41809471e-004 -5.48628019e-003 -9.95958783e-003
      1.74721691e-003 1.16532641e-002 1.02747856e-002 6.76827179e-003
      -5.87903615e-003 -8.99326056e-003 6.71396032e-004 -9.39378049e-003
      -1.49532398e-002 3.85870202e-003 1.30829960e-002 1.24745797e-002
      6.21143077e-003 2.52273772e-003 2.84063444e-003 -6.42278325e-003
      -1.58856642e-002 -1.53441690e-002 3.60790547e-003 1.19268466e-002
      9.50713828e-003 3.87994736e-003 2.12397333e-003 9.14390082e-004
      6.55441266e-003 -6.47490751e-003 -1.55475792e-002 2.31881873e-004
      9.27063636e-003 8.68522841e-003 2.98848189e-003 -1.42689713e-003
      2.58430699e-003 5.99476416e-003 -8.70610494e-003 -1.14116520e-002
      2.50773621e-004 6.06099376e-003 4.12562396e-003 -4.10206337e-003
      -6.60272921e-003 6.04577409e-003 -7.12312525e-003 -1.15418844e-002
      -9.18631069e-003 4.66317579e-004 1.08703570e-002 5.25761815e-003
      2.16528703e-003 2.06867908e-003 -1.79949112e-003 -4.47426137e-004
      -8.75256397e-003 -7.43472390e-003 -1.20136375e-002
      -2.00568014e-004 3.61171924e-003 4.51288698e-003 5.69344405e-003
      5.41927852e-003 7.54000561e-004 -5.86851314e-003 -1.32842292e-003
      2.64096516e-003 7.50090834e-003 1.47184695e-003 -3.27407150e-003
      -7.22237164e-003 2.07280228e-003 1.42015587e-003 -6.70720619e-005
      5.09014400e-003 -4.08743217e-004 -8.16909829e-004 -2.53380556e-003
      2.33071903e-003 -1.87961198e-003 2.56398786e-003 2.37004622e-003
      -1.66351616e-003 -4.90090053e-004 -6.09270809e-003
      -1.12282308e-002 4.89627756e-003 2.73380894e-003 1.65063667e-003
      5.15274936e-003 2.49828375e-003 2.47543911e-003 3.15705850e-003
      3.99955595e-003 -5.50880097e-003 4.98533808e-003 1.39562378e-003
      6.08096481e-004 1.47031760e-003 2.24920851e-003 2.21548462e-003
      3.49442288e-003 7.34084970e-005 -1.15665393e-002 -7.49060069e-004
      2.37182318e-003 -3.44551663e-004 2.74919905e-003 2.35541724e-003
      2.56214524e-003 3.32871126e-003 5.60932839e-003 -3.80026340e-003
      1.87264278e-003 1.14663865e-003 6.01581356e-004 1.35052996e-003
      4.17220313e-003 9.80495568e-003 5.06330281e-003 4.23702295e-004
      -6.97345845e-003 -3.70246638e-003 4.93591011e-004 1.37766695e-003
      6.82210142e-004 2.71432567e-003 7.29127834e-003 1.62626186e-003
      -3.40442010e-003 -3.76283517e-003 -1.93730497e-003 3.07856733e-003
      -1.65703392e-003 3.56112537e-003 -1.49204559e-003 6.47945469e-003
      6.55119680e-003 2.54262285e-003 -3.21330549e-003 -8.56955827e-004
      1.25419104e-003 3.53638432e-003 -3.06511717e-003 -2.44292570e-003
      2.61194049e-003 5.62195806e-003 1.00064604e-003 3.75359698e-004
      -6.95969153e-004 4.59191436e-003 3.24744894e-003 -6.85083633e-003
      2.23830386e-004 2.46557407e-003 2.26070150e-003 -1.33418222e-003
      -2.47122953e-003 2.52451922e-004 5.88703807e-003 -3.07849911e-003
      1.24468387e-003 1.61600858e-003 5.30087505e-004 1.97282876e-003
      -5.27202385e-004 -8.36147578e-004 3.69107304e-003 6.56201132e-003
      -3.57716996e-003 5.20440426e-006 -8.13839375e-004 1.29152962e-003
      2.06022430e-003 -1.05595868e-003 -1.86699710e-003 -1.19882904e-003
      4.52807313e-003 3.55818681e-003 -4.44978103e-003 -1.35000004e-003
      3.31097911e-003 3.53660644e-003 1.70322577e-003 -2.68231868e-003
      -1.28713285e-003 1.73870753e-003 -5.94076293e-004 -2.94002006e-003
      9.73839080e-004 5.20873582e-004 5.69306838e-004 4.34618123e-004
      9.65051993e-004 3.44284181e-003 5.70338033e-003 -5.77589730e-003
      2.35507358e-003 1.22202071e-003 7.79005117e-004 8.35425570e-004
      8.27768643e-004 1.27305405e-003 2.73800665e-003 4.50648647e-003
      -4.39842511e-003 4.92228800e-003 -1.24727457e-003 3.01944837e-003
      2.92124692e-003 2.34868424e-003 2.48538679e-003 1.31694158e-003
      -2.06174608e-003 -5.60414651e-003 -1.13930029e-003
      -7.22810160e-004 1.24727259e-003 3.56458221e-003 2.21631699e-003
      3.44953965e-003 4.36569611e-003 -2.00014608e-003 -6.72502210e-003
      1.68676861e-003 1.56625919e-003 5.73158322e-004 2.67494790e-004
      6.74458279e-004 1.58662349e-003 1.82247942e-003 6.52788626e-003
      -3.57324537e-003 2.50474527e-003 1.35969382e-003 -7.83045325e-005
      -1.11007190e-003 5.40251844e-004 2.79386085e-003 3.33797582e-003
      8.90483893e-003 -3.21895955e-003 -1.42169197e-003 7.17749645e-004
      2.46746404e-005 7.72550819e-004 8.23919778e-004 1.04226021e-003
      2.54107779e-003 -1.16867840e-003 -5.61803905e-003 3.39446589e-003
      1.59807131e-003 4.56090725e-004 3.18095292e-004 4.18703246e-004
      1.30290253e-004 9.30499576e-004 8.47731833e-004 -3.21895955e-003
      9.28154506e-004 3.56099429e-003 5.16212196e-004 -3.26685398e-003
      5.27678967e-005 9.96390707e-004 1.50167267e-003 4.22700169e-003
      -2.03370885e-003 4.50385152e-004 6.10478316e-003 2.47922400e-003
      -1.00336538e-003 9.45125008e-004 1.25884486e-003 3.07639217e-004
      -5.38625848e-003 -5.57408156e-003 8.74584832e-004 1.55264302e-003
      9.25461572e-005 5.56699350e-004 2.49788543e-004 -1.39603493e-004
      5.84816327e-004 2.56846519e-003 -1.48907828e-003 -5.36411826e-004
      1.82193250e-003 6.80297264e-004 8.06238095e-004 6.44340704e-004
      6.02597720e-004 2.19765090e-004 6.25464134e-004 -1.48907828e-003
      -7.95496861e-004 5.40294126e-003 3.81107186e-003 3.25759593e-003
      1.89371768e-003 2.61205854e-003 5.58851112e-004 -7.39179133e-003
      -1.06346207e-002 1.79612520e-003 3.29703907e-003 2.43667793e-003
      2.34424579e-003 -1.67766237e-004 -2.32021627e-003 1.46078819e-003
      -4.23740130e-003 -1.50241237e-002 2.73182872e-004 1.69438357e-003
      1.78482465e-003 1.01660914e-003 9.18729231e-004 1.30008534e-003
      2.04379275e-003 -2.16861791e-003 3.09982500e-003 5.16517600e-003
      8.52767495e-004 6.74991054e-004 6.24666864e-005 8.33330792e-004
      1.99085427e-003 4.02244320e-003 -1.05251139e-002 3.09982500e-003
      5.83731150e-003 2.28557340e-003 8.93218850e-004 1.32982607e-003
      -3.66202323e-004 -7.91106839e-003 -5.47328964e-004 3.33522825e-004
      -5.00174426e-003 -1.91143990e-004 3.41754733e-003 9.41694540e-004
      2.06039497e-003 6.98242383e-003 -5.96893253e-004 7.07184881e-005
      8.24574265e-004 4.99817426e-004 1.18081726e-003 -1.74913745e-004
      -2.28062994e-003 -2.19213916e-003 3.24865628e-004 -1.98986541e-004
      1.59613299e-003 -8.35715886e-003 -8.09013564e-003 -1.88767817e-003
      2.85924732e-004 -1.84444757e-003 -1.30205543e-003 3.50410095e-003
      -2.51051621e-003 5.27956290e-003 1.10982539e-004 -3.06759332e-003
      -7.93496671e-004 -4.94149653e-003 2.88315886e-003 4.37967805e-003
      5.65030030e-004 -3.44188465e-003 1.87146105e-003 1.51337648e-003
      4.84968768e-003 -2.39465432e-003 -4.89781005e-003 1.58662931e-003
      3.46206129e-003 1.76623755e-003 1.88800949e-003 3.61631135e-003
      2.27935426e-003 2.92189280e-003 -8.83687939e-003 1.26809312e-003
      4.28131642e-003 2.67946045e-003 -1.08301663e-003 -2.34365347e-003
      3.29054520e-003 2.16394197e-003 5.49758505e-003 1.92110648e-003
      -2.02775165e-003 2.64427159e-003 8.96835409e-004 -1.99320889e-003
      -4.42235637e-003 4.10593115e-003 1.26298121e-003 6.05056528e-003
      5.54482976e-004 -1.19492423e-003 1.54380733e-003 -2.11771854e-004
      -3.90039582e-004 -2.52755755e-003 1.15883199e-003 2.06513214e-003
      3.66960606e-003 -5.78686548e-003 3.98837496e-003 6.19056262e-003
      4.96674515e-003 4.05591214e-003 -3.40952049e-003 -1.08628906e-003
      -1.72755367e-003 -2.21031485e-003 -6.25357451e-003 2.26305728e-003
      1.01355696e-003 1.35468016e-003 2.64789793e-004 -5.35232900e-003
      2.72165658e-003 2.27118400e-003 6.12135790e-003 1.01728900e-003
      -2.56020436e-003 -1.02767802e-003 7.56782072e-004 2.73501617e-003
      1.23295095e-003 4.10985341e-003 2.54865736e-003 2.10408028e-003
      -1.92078284e-003 2.06657615e-003 5.08157490e-003 4.63757245e-003
      3.58412974e-003 2.99903215e-003 2.63228896e-003 -3.39436601e-003
      -6.33744011e-003 -3.43907229e-003 -2.12195073e-003 2.19522463e-003
      3.73014831e-003 4.09846334e-003 5.76913590e-003 4.53225709e-003
      -1.18222123e-003 -1.30130141e-003 -4.98782564e-003
      -3.00008035e-003 9.33689225e-005 4.99082271e-005 1.80667406e-003
      4.39773174e-003 4.00752248e-003 2.10218178e-003 1.10677141e-003
      -2.06176448e-003 -3.18339933e-003 2.35444866e-003 2.01033638e-003
      5.63000748e-003 7.36226002e-003 3.44979484e-003 2.37619272e-003
      3.56775103e-003 1.25814776e-003 -2.69224308e-003 2.15201493e-004
      1.91882974e-003 2.82762665e-003 2.25225114e-003 3.08417412e-003
      -1.32080808e-003 -2.63455394e-003 1.41393242e-003 -1.93702336e-003
      -9.82267302e-005 1.08821504e-003 2.31440109e-003 1.59294205e-003
      3.81158921e-003 -3.66738163e-006 5.43900678e-005 3.61790927e-003
      -5.87778399e-003 2.61316658e-003 3.17497947e-003 5.10558672e-003
      2.74495687e-003 1.76012085e-003 -6.21041341e-004 1.99156650e-003
      -7.32952147e-004 -5.56579186e-003 5.08032623e-004 2.63916748e-003
      3.31445737e-003 4.73130867e-003 4.90482850e-003 1.81003576e-004
      -5.54945873e-005 -3.65670305e-003 3.61431565e-004 -1.71389067e-004
      2.15312539e-004 7.96518056e-004 6.76217023e-004 1.05659792e-003
      -9.61552490e-004 -1.43651897e-003 4.48344788e-003 7.38937466e-004
      -6.99970697e-005 2.28021134e-004 7.44086108e-004 9.96429357e-004
      9.02003318e-004 2.15712725e-003 -1.56418758e-003 2.08367733e-003
      -2.41021253e-003 -5.57482883e-004 -7.75062144e-005 4.83733835e-004
      1.58786122e-003 1.43743772e-003 -6.46338507e-004 -7.46034086e-004
      9.97078605e-004 -1.85220269e-003 -4.20864997e-003 -4.06764040e-004
      4.23884630e-004 2.04303046e-003 2.33613094e-003 2.06459663e-003
      -1.08062732e-003 -9.34887968e-004 -3.60292732e-004
      -2.92441064e-006 2.21417620e-004 4.78777278e-004 8.64265021e-004
      1.88228406e-003 5.66035742e-003 -2.45943503e-003 5.24112489e-004
      1.57283837e-004 -6.55499971e-005 3.18425678e-004 8.85589398e-004
      1.42279884e-003 2.38843053e-003 6.84401777e-004 -2.45943503e-003
      4.40343656e-003 -2.27448298e-003 -1.42703019e-003 2.25794516e-004
      4.21881967e-004 1.97031535e-003 2.88893306e-003 1.81312091e-003
      -3.57408193e-003 -3.44725419e-003 -1.36469796e-004 2.54583632e-004
      7.87773752e-004 1.33068429e-003 2.40166788e-003 2.73928046e-003
      -8.02435854e-004 -2.64861318e-003 1.91195682e-003 6.26445806e-004
      1.31457811e-004 4.42559307e-004 1.84511160e-003 4.33998369e-003
      1.66831759e-003 -2.69882334e-003 -5.12607116e-003 2.17551622e-003
      -1.58773130e-003 4.12192749e-004 1.08090136e-003 2.17455463e-003
      -3.80490860e-003 4.21504257e-003 9.08710703e-004 -4.14619874e-003
      -8.06711148e-004 2.59420788e-003 2.28414382e-003 2.60458258e-003
      2.65224953e-003 3.22388508e-003 1.24150945e-003 -2.07632850e-003
      -4.61269263e-003 1.81848917e-003 2.83922791e-003 4.17543715e-003
      3.27536557e-003 5.75384125e-003 3.22512048e-003 3.02554853e-003
      4.57515765e-004 -8.17900430e-003 2.74633378e-004</_>
    <_>
      -9.97423381e-003 6.02442352e-003 3.06497654e-003 1.64309423e-003
      -3.95508576e-003 2.88018840e-003 3.37709184e-003 -8.30669608e-003
      -1.72125120e-002 -2.50812038e-003 2.81433132e-003 -2.61206157e-003
      -4.49014624e-004 -6.20643841e-003 -1.51878560e-003 3.55388783e-003
      3.29765538e-003 -7.71018851e-004 -4.15720791e-003 1.11637339e-002
      4.09667147e-003 2.28305627e-003 -4.56503360e-003 1.48729433e-003
      -7.14640180e-003 -2.70690490e-003 -1.11696552e-002 7.05159327e-004
      1.23052448e-002 -5.29701756e-005 1.02055911e-003 -3.93088860e-003
      -1.82514385e-004 -2.52724928e-003 4.30634525e-003 -2.56348099e-003
      -5.01964940e-003 -2.15089484e-003 6.92390697e-003 -1.01785082e-003
      -2.55091791e-003 -5.77094313e-003 -1.78159855e-003
      -2.88838171e-003 -2.39263376e-004 4.78879130e-003 6.56336080e-004
      1.17714945e-002 -1.34003849e-003 7.49315892e-004 -1.07865436e-002
      -8.37165304e-003 -7.93870931e-005 -5.72183076e-003 8.06397700e-004
      1.34229455e-002 7.88565353e-003 3.01410281e-003 -1.05003954e-003
      -6.54780725e-003 -5.66721894e-003 -3.85989551e-003
      -8.15710577e-004 4.42126766e-003 6.05785334e-003 5.93676092e-003
      -4.35606157e-003 -4.44880774e-004 -1.09871821e-002
      -1.12154335e-002 -2.95768259e-003 2.77318945e-003 -1.00348762e-003
      -4.91032237e-003 3.64197697e-003 3.15658818e-003 3.20379273e-004
      -5.82780782e-003 -3.16035724e-003 3.87714966e-003 -1.31412374e-003
      -4.32456098e-003 4.63192770e-003 2.27366178e-003 3.22172977e-003
      -3.15948785e-003 -1.25438264e-002 -4.13547270e-003 4.97293891e-003
      -2.62487493e-003 3.95765714e-003 2.40822905e-003 6.33197604e-003
      7.17503950e-004 1.70635374e-003 -3.72564746e-003 -5.04234340e-003
      -1.72126654e-003 2.18665646e-003 -3.82274715e-003 -3.29721021e-003
      -2.16324162e-003 4.94730705e-003 3.98847880e-003 -5.70621481e-003
      -1.92998361e-003 1.55852875e-003 -1.01379994e-002 -6.35558390e-004
      1.32779526e-002 4.31427080e-003 -3.63049621e-004 -4.00585169e-003
      -5.50446101e-003 -2.39497353e-003 2.03501130e-003 -2.72943429e-003
      2.76536145e-003 1.11885155e-002 7.77948007e-004 -7.79567519e-003
      -1.30469324e-002 -5.82137844e-003 -3.99780832e-003 2.02424848e-003
      1.53103401e-003 9.72741470e-003 -7.27894600e-004 -1.12481117e-002
      -2.08304985e-003 -2.73186393e-004 -3.94128636e-003
      -2.11638911e-003 -2.10723912e-004 -6.81769149e-003 1.19980574e-002
      -1.81204570e-003 -2.10698713e-002 -3.18441098e-003
      -6.32439507e-003 -4.97243321e-003 -1.99183193e-003
      -1.50471961e-003 -3.30752041e-003 6.52018050e-003 7.54070003e-003
      6.77529722e-003 4.89724043e-005 -4.56202962e-003 -1.03047432e-003
      -1.03898323e-003 2.43279850e-003 5.54102333e-003 4.38855449e-003
      -9.78220999e-003 -8.18957854e-003 1.40867056e-003 -9.17862810e-004
      2.38032942e-003 1.58552302e-003 4.91620274e-003 6.84849452e-003
      1.00651067e-002 -7.87778758e-003 -1.56490449e-002 2.80109909e-003
      -3.34900292e-003 -1.61545744e-004 3.46261731e-005 3.08248238e-003
      5.12564043e-003 2.30166072e-004 -7.93286227e-003 -1.70004796e-002
      1.47904118e-003 1.12419692e-003 1.69777370e-003 1.19400844e-004
      4.49350057e-003 6.35640137e-003 8.83231126e-003 -2.25637062e-003
      -5.45715680e-003 7.51428131e-004 1.80632086e-003 1.77097716e-003
      1.53131818e-003 4.53632837e-003 8.21653847e-003 1.02663822e-002
      -3.47298337e-003 -1.11133764e-002 -5.30503574e-004 3.17446375e-003
      1.65974186e-003 2.13070097e-003 5.14063518e-003 9.38142464e-003
      3.36227054e-003 -2.76430161e-003 -8.86077527e-003 2.52598384e-003
      1.61791057e-003 1.10186799e-003 -8.56261235e-004 -3.42979073e-003
      -4.24490543e-004 6.10702345e-003 -5.06674805e-005 -9.08396021e-003
      1.88901206e-003 1.93983910e-003 1.78231078e-003 -6.44093473e-003
      -1.96560007e-002 -1.43022630e-002 5.12153096e-003 -8.54256842e-003
      -3.30392248e-003 3.60328704e-003 2.01414339e-003 2.84223678e-003
      4.10737051e-003 3.98345431e-003 3.15153413e-003 1.63926010e-003
      -8.70415196e-003 7.84158823e-004 6.76329248e-003 -1.15461089e-002
      -5.20780869e-003 4.04423336e-003 3.15512181e-003 -1.74047309e-003
      6.20707124e-003 -6.38328819e-003 -6.01699296e-003 4.02369210e-003
      5.40169701e-003 6.73698634e-003 -4.57363389e-003 -1.87962092e-002
      -1.01788612e-002 9.09762271e-003 -4.49426845e-003 8.15285079e-004
      4.79962910e-003 -1.21200532e-002 1.04396266e-003 4.25933069e-003
      -3.68506089e-003 3.74958036e-003 -3.24910204e-003 1.29208174e-002
      2.09352863e-003 1.10343890e-003 -2.55268323e-003 -2.74717249e-003
      -7.49886455e-003 -3.44834942e-003 -9.90621932e-003
      -5.37051866e-003 1.28993345e-002 -9.72902402e-004 2.40226020e-003
      -9.79362172e-004 -4.27768426e-003 -4.24070936e-003 2.59949104e-003
      -1.25617860e-002 3.12395231e-003 2.86454894e-002 1.00606102e-002
      1.01298362e-003 -1.36623112e-003 -5.84753696e-003 -5.50624961e-003
      -6.18404942e-003 -1.34577500e-002 -5.27192978e-003 5.89274755e-003
      2.90745241e-003 4.23703901e-003 3.48377787e-003 -1.55271916e-003
      -2.69725709e-003 1.27946842e-003 -1.63335111e-002 1.20625214e-003
      1.39192250e-002 6.13414263e-003 2.89493450e-003 1.13123679e-003
      -1.72570895e-003 -1.33011292e-003 -7.42680451e-004
      -6.10866630e-003 9.76348016e-003 9.83348768e-003 6.27816515e-003
      -2.03521713e-003 -3.86938715e-004 -1.88613147e-003
      -1.01076311e-003 -2.73146958e-004 2.27138237e-003 3.15347291e-003
      2.94025056e-003 2.93522072e-003 4.85224277e-003 2.02600859e-004
      1.12076302e-003 4.05563187e-005 -2.70167773e-004 -8.99279863e-003
      1.27477283e-002 -9.77480318e-003 -1.84420329e-002 -3.74610093e-003
      2.69527221e-003 2.43358687e-003 1.93676085e-003 1.54826988e-003
      -3.11708567e-003 7.95070268e-003 8.16466380e-003 6.60177693e-003
      2.40704161e-003 2.99926614e-003 1.58933166e-004 -2.89313670e-004
      1.68149185e-003 4.39562602e-003 5.91384666e-003 -4.84624784e-003
      -1.58708717e-003 5.48168551e-003 5.09699015e-003 -2.83469097e-004
      -3.56945238e-004 2.10154988e-003 -6.58495876e-004 1.22467652e-002
      -9.03861597e-003 -1.18408911e-002 2.63683614e-003 4.92740702e-003
      1.78782060e-003 1.83984160e-003 3.59404855e-003 2.75609992e-003
      -2.60481320e-004 -9.71697457e-003 -9.30836424e-003 4.09913063e-003
      5.64856315e-003 1.78383710e-003 1.19592331e-003 3.57239693e-003
      2.91567342e-003 1.47121651e-002 -2.72372016e-003 -8.73202644e-003
      2.45422591e-003 3.09056090e-003 1.12187518e-004 4.41169919e-004
      1.32742000e-003 5.12869738e-004 2.03349702e-002 -7.00091198e-003
      -1.29818078e-002 2.66836910e-003 2.58111674e-003 8.49828066e-004
      8.23477050e-004 1.46867731e-003 3.35525163e-003 5.64648956e-003
      -8.56269524e-003 -7.77460122e-003 5.18791424e-003 5.54831233e-003
      3.37637286e-003 1.44338072e-003 1.62263075e-003 2.70648208e-003
      9.71020292e-003 -1.04007544e-002 -8.06864258e-003 6.65666629e-003
      8.43440834e-003 5.88919735e-003 3.10579827e-003 3.53978993e-003
      9.32847336e-003 1.32979034e-002 -9.30828974e-003 -1.40186967e-002
      4.93922504e-003 2.29537277e-003 1.71734102e-003 1.18741230e-003
      3.20611871e-003 5.90471458e-003 -2.78450083e-004 -1.09332502e-002
      -8.52316525e-003 7.69127579e-003 3.44073027e-003 2.01067049e-003
      -2.13568821e-003 -1.84456969e-003 2.51785945e-003 1.22154141e-002
      -1.70041528e-002 -5.63559961e-003 7.52006052e-003 9.53155477e-003
      4.24411939e-003 3.42374481e-003 3.01849050e-003 1.31067354e-002
      9.74667910e-003 -1.76190864e-002 -2.14208942e-003 6.31224923e-003
      6.21356419e-004 3.67113343e-003 -4.50179027e-003 -1.45499622e-002
      -5.70727687e-004 2.36849170e-002 9.16063599e-003 1.40452255e-002
      4.96085687e-003 -1.60901889e-003 -7.01823097e-004 -6.85421610e-003
      -1.71779376e-002 -3.73058324e-003 1.75739434e-002 2.83834897e-002
      6.96630822e-003 7.61847105e-003 6.41823141e-003 3.50653310e-003
      -2.24963930e-002 -5.27970605e-002 -3.24160196e-002 2.16345713e-002
      1.40251098e-002 8.58980790e-003 7.37584382e-003 5.85020101e-003
      3.88870551e-003 -1.06622661e-002 -3.73842008e-002 -1.04439883e-002
      1.31180827e-002 1.93823129e-002 1.21293589e-002 1.54456869e-002
      1.91386137e-002 -4.71605672e-005 -4.44451794e-002 -5.91733940e-002
      -3.95489931e-002 9.51523613e-003 9.08992440e-003 3.75099643e-003
      7.37224566e-003 1.89632829e-002 3.37558426e-003 -2.17777807e-002
      -4.96130921e-002 -2.39381157e-002 1.23380404e-002 1.09270262e-002
      4.17161779e-003 1.30600464e-002 1.12442877e-002 5.49083995e-003
      -6.40119053e-003 -1.34634767e-002 3.21149331e-004 -3.56875127e-003
      8.17053579e-003 5.67670632e-003 1.24758398e-002 2.53159497e-002
      -4.39415779e-003 -4.16352451e-002 -6.77956194e-002
      -3.61190699e-002 -2.84835254e-003 9.25886794e-004 3.66296316e-003
      1.61542464e-002 1.34103531e-002 -5.79522364e-003 -1.48324985e-002
      -2.35482249e-002 -1.17883636e-002 7.54461717e-003 1.31525630e-002
      5.71738323e-003 2.61460361e-003 1.71010953e-003 1.53001724e-003
      3.48854274e-003 7.54077511e-004 -8.29086406e-004 9.53998137e-003
      -4.75863740e-003 2.61733541e-004 2.15935637e-003 2.15444830e-003
      3.52092576e-003 3.66395130e-003 1.13112666e-003 -6.91845897e-004
      7.51177268e-003 -1.85067859e-002 -1.32723041e-002 9.43816826e-003
      8.03910475e-003 6.40654424e-003 1.12247048e-002 5.81555022e-003
      3.64293950e-003 -5.09789772e-003 -1.50028486e-002 -1.11553660e-002
      4.18169610e-003 7.43459817e-003 7.44876591e-003 1.02587091e-002
      7.07986020e-003 6.67472370e-003 1.44044440e-002 -2.80703860e-003
      -2.51561799e-003 3.31668044e-003 1.21744326e-003 2.59324303e-003
      2.82545970e-003 2.06734543e-003 3.12582590e-003 1.92773752e-002
      -6.67392649e-003 -8.22165329e-003 1.56268373e-003 3.32343695e-003
      2.39123683e-003 1.79349922e-003 2.37555034e-003 6.74601877e-003
      5.67250606e-003 -1.12679768e-002 -6.83722552e-003 2.52847630e-003
      2.86749983e-003 3.80742992e-003 5.35883801e-003 7.53459334e-003
      1.08129913e-002 7.46955490e-003 -1.29616866e-002 -1.14833787e-002
      6.25223946e-003 6.59629563e-003 6.08248636e-003 4.19100141e-003
      6.85534533e-003 9.97607410e-003 1.29063651e-002 -8.31954088e-003
      -6.67424174e-003 4.97864885e-003 5.35227405e-003 2.24779290e-003
      1.24019163e-003 2.16646027e-003 6.38624188e-003 6.29918184e-003
      -1.03756376e-002 -5.40209981e-003 7.97324441e-003 6.44000247e-003
      1.99747598e-003 1.80310581e-003 3.24135157e-003 1.11344140e-002
      3.16582178e-003 -1.74650680e-002 -2.66644778e-003 1.13843838e-002
      8.80596787e-003 6.27434021e-003 3.55882756e-003 5.23277139e-003
      5.73722506e-003 4.17413609e-003 -2.10499726e-002 1.08945847e-003
      1.76949240e-002 1.56410597e-002 3.54128471e-003 3.52600799e-003
      -1.08288979e-004 3.59041966e-003 -4.06705774e-004 -1.43219959e-002
      -5.21759130e-003 5.38120186e-003 7.77138071e-003 5.14891651e-003
      3.77366156e-003 4.58239252e-003 1.39042186e-002 1.12515187e-003
      -2.18815934e-002 -1.55650601e-002 3.02371732e-003 1.77657958e-002
      9.53688659e-003 6.47376431e-003 6.44864142e-003 1.95544828e-002
      1.03209615e-002 -4.05467488e-002 -1.68832857e-002 8.35383777e-003
      1.44228116e-002 3.97223700e-003 4.63848049e-003 2.11928738e-003
      2.62617823e-002 9.81775764e-003 -5.35709448e-002 -5.53816557e-002
      -9.36392043e-003 1.41091729e-002 9.49641410e-003 1.10421320e-002
      1.04247835e-002 3.46109495e-002 8.49040225e-003 -1.49305658e-002
      -8.82578176e-003 3.66212078e-003 1.49618117e-002 5.43508679e-003
      3.40867392e-003 2.37057195e-003 1.70383323e-002 7.60411890e-003
      -1.05278874e-002 -3.72623163e-003 4.04460495e-003 3.45530221e-003
      -3.10540735e-003 -1.02658207e-002 -2.35429164e-002 6.87797787e-004
      5.75221097e-003 -4.33492586e-002 -3.78172882e-002 -1.17243258e-002
      7.25037325e-003 4.44120867e-003 4.79671499e-003 -1.64829998e-003
      2.02374477e-002 -1.52565874e-002 -4.44628783e-002 -2.04509851e-002
      -4.06614458e-003 3.94999888e-003 -7.39255280e-004 -6.89033931e-003
      -1.99895501e-002 5.86917251e-003 9.24518239e-003 -2.34060199e-003
      4.53567691e-003 9.13472194e-003 1.35817351e-002 2.69877352e-003
      -1.67254675e-002 -4.00282368e-002 -2.98568211e-003 1.45933582e-002
      2.99082161e-003 7.27081252e-003 1.29621755e-002 1.24759618e-002
      -5.13486937e-003 -4.03417014e-002 -5.37917428e-002
      -1.56937838e-002 1.46673108e-003 -3.80360894e-002 -3.79732391e-003
      1.24243330e-002 1.72275305e-002 2.35096784e-003 -1.31645370e-002
      -2.34514028e-002 3.19582783e-002 2.37132255e-002 -6.58215256e-003
      -3.48237372e-004 4.86390106e-003 -5.01704111e-004 -1.77216493e-002
      -4.05395105e-002 -3.39620151e-002 3.06398887e-002 1.59974629e-003
      -7.31851032e-004 3.95768695e-003 1.29306596e-002 1.74861513e-002
      -6.19074097e-003 -2.95799915e-002 -5.94934300e-002
      -1.80901550e-002 -1.27388432e-003 8.08078039e-004 6.21520914e-003
      1.50575303e-002 4.79283184e-003 -8.50048382e-003 -8.64827260e-003
      -1.64596606e-002 -5.89077547e-003 1.29540041e-002 -5.37054613e-003
      1.21479121e-003 8.69108457e-003 9.33062006e-003 -1.33394133e-002
      -3.32470946e-002 -3.92280072e-002 2.06052493e-002 3.64608713e-003
      1.01411541e-003 7.44936895e-003 1.43176764e-002 1.87524909e-003
      -6.76597143e-003 -8.48071650e-003 -8.86350125e-003 7.65878521e-003
      3.17284814e-003 -2.63644904e-002 -1.40969399e-002 7.25497631e-003
      9.03776847e-003 8.66257306e-003 1.23372804e-002 1.00204144e-002
      6.85881963e-003 -7.11981626e-003 -1.62469279e-002 -1.23403233e-003
      4.25980752e-003 8.40535294e-003 9.89458151e-003 1.58866793e-002
      1.43069178e-002 9.87204164e-003 3.41098802e-003 -1.37737850e-002
      -1.01502761e-002 2.03384925e-003 2.70157214e-003 5.03183901e-003
      1.15585230e-004 -2.06348440e-003 6.86137425e-003 -9.05734487e-004
      -1.74770914e-002 -7.24770455e-003 -9.89940250e-004 3.11011588e-003
      3.21164052e-003 6.99534826e-003 -1.84091518e-003 2.34307232e-003
      -6.38539856e-003 -1.69503670e-002 -9.44896950e-004 2.66750436e-003
      3.18312040e-003 5.91037236e-003 1.09932460e-002 1.43171633e-002
      8.45021941e-003 -2.05038558e-003 -1.73422340e-002 -1.04449065e-002
      8.12913931e-004 2.32976000e-003 5.84496511e-003 8.82093236e-003
      2.28118356e-002 7.88860861e-003 -9.94819682e-004 -1.75548010e-002
      -4.04646853e-003 -5.87193470e-004 -5.84581467e-005 3.48447915e-003
      9.94104333e-003 -1.14978982e-004 -7.99144211e-004 -4.24688123e-003
      -1.59004331e-002 -9.60956141e-003 -8.19187704e-003
      -1.20685175e-002 -6.43833121e-003 9.36390087e-003 3.60231451e-003
      6.79610809e-003 -2.13688798e-003 -1.12835094e-002 -6.71508629e-003
      1.88997993e-003 8.56775849e-004 3.82951461e-003 7.41960295e-003
      1.65689755e-002 5.60822664e-003 -4.37579677e-003 -1.83088500e-002
      -9.64823179e-003 1.35072181e-002 1.60435289e-002 -4.32556728e-004
      3.90497991e-003 -2.58281222e-003 -4.41202242e-003 -1.20844040e-002
      -1.71134192e-002 -1.29162921e-002 -1.05798924e-002
      -1.41750649e-002 -1.12815145e-002 5.60698519e-003 1.23636555e-002
      5.63829532e-003 -1.79628488e-002 -2.69372556e-002 -2.26922445e-002
      -6.20430242e-003 7.31032062e-003 -2.88462592e-003 -4.19595512e-003
      -4.61608777e-003 -3.75283440e-003 1.53514082e-002 -3.86817604e-002
      -2.70757638e-002 7.57925771e-003 1.27316751e-002 -1.43869431e-004
      -4.09240695e-003 -1.86571036e-004 2.39068791e-002 1.18033960e-002
      -4.62826863e-002 -4.22346853e-002 -1.35459215e-003 1.11977980e-002
      9.64482222e-003 5.71291614e-003 5.07611269e-003 3.07607707e-002
      1.04097836e-002 -2.46672630e-002 -2.74554454e-002 -3.85716255e-003
      1.11427326e-002 4.40388126e-003 -2.41234358e-002 -2.11760867e-002
      2.07583439e-002 9.60901089e-004 -3.34489830e-002 -2.00697333e-002
      1.72024372e-003 3.18605714e-002 2.27890126e-002 -1.25587694e-002
      -2.50775870e-002 6.92726206e-003 -4.50987648e-003 -3.89079973e-002
      -1.53178899e-002 2.56739237e-004 1.33586889e-002 1.21484948e-002
      9.29229707e-003 2.72602076e-003 8.66983924e-003 -1.19959535e-002
      -3.22011039e-002 -7.36058038e-003 7.23077543e-003 1.44098392e-002
      8.92497413e-003 8.15455522e-003 1.59167068e-003 1.05667543e-002
      -3.27579528e-002 -2.54048128e-002 -1.67200051e-003 1.10686645e-002
      3.24709453e-002 3.08026932e-002 1.10480711e-002 -1.59143154e-002
      -2.35562027e-002 -1.88562125e-002 -8.74854065e-003 7.29509536e-003
      2.09329072e-002 2.36368403e-002 9.01957043e-003 -3.43910395e-003
      -1.22263925e-002 -2.57298052e-002 -2.48258701e-003
      -3.33035178e-002 -7.59297283e-003 2.71435780e-003 -9.38288169e-004
      -1.01757674e-002 -6.52598822e-003 -5.42641059e-003 2.18909793e-002
      1.87741071e-002 -3.99401324e-004 -1.14710559e-003 -4.88386303e-003
      -1.52437156e-002 -2.70114727e-002 -3.67632546e-002
      -2.38933917e-002 2.83386279e-002 1.31068565e-002 4.88765677e-003
      1.00982115e-002 1.26775764e-002 5.22185955e-003 -2.41510104e-002
      -3.15468237e-002 -2.35885605e-002 3.57852038e-003 3.71256955e-002
      5.54446131e-003 4.29048948e-003 -3.78191564e-003 -1.64642446e-002
      -3.31523232e-002 -3.81239057e-002 -3.16872410e-002 2.87990570e-002
      1.27955545e-002 2.91820010e-003 4.91146743e-003 6.71918830e-003
      5.93330758e-003 -9.75361094e-003 -3.09801251e-002 -2.93607600e-002
      1.76886804e-002 6.54667243e-003 4.27987520e-003 6.10831939e-003
      4.95910365e-003 -6.95730560e-003 -3.89451580e-003 -5.97106665e-003
      -9.06382874e-003 3.27990879e-003 1.61702037e-002 -6.03872398e-003
      1.90596760e-003 2.44835997e-003 3.77969746e-003 -1.55238556e-002
      -3.85072418e-002 -3.76447998e-002 1.46054756e-002 2.53152545e-003
      -3.29112005e-003 3.86732421e-003 -1.81789894e-003 -6.32956531e-003
      -1.09403292e-002 -1.46938246e-002 -1.39225638e-002
      -1.42107008e-003 -2.56892381e-004 1.43597380e-003 6.57454890e-004
      2.33184616e-003 2.95996550e-003 4.31548711e-003 -4.50800639e-003
      -1.21540269e-002 3.20992782e-004 -5.19983412e-004 -1.95747692e-004
      -8.34834180e-004 2.38838722e-003 4.62666107e-003 2.31761555e-003
      2.27894494e-003 -3.41712474e-003 -4.62746248e-003 -2.58906465e-003
      6.22278405e-003 1.16473378e-003 3.98721918e-003 7.14233285e-003
      -3.23981767e-005 -3.79703799e-003 -2.22825631e-003 1.48698542e-004
      -3.85565159e-004 3.59307206e-003 -1.32415546e-004 4.43328777e-003
      8.54854286e-003 3.36907804e-003 -9.17120837e-004 -9.99234803e-003
      -1.22635614e-003 2.78586498e-003 2.01246919e-004 -7.89098383e-004
      4.23765334e-004 6.94832532e-004 9.92376241e-004 4.88375360e-003
      -5.08642383e-003 -5.65691502e-004 1.09070493e-003 -1.86434609e-003
      -2.48297979e-003 -1.49498158e-003 -4.28767456e-003
      -5.75176848e-004 4.44115186e-003 -3.71381221e-003 -3.05259693e-003
      3.19138728e-003 3.91007634e-003 1.67384942e-003 1.87773502e-003
      2.00949912e-003 3.15583451e-003 1.54570711e-003 -9.53661744e-003
      -2.00895825e-003 4.60974313e-003 3.56492470e-004 -2.84880050e-004
      1.07735978e-003 1.88523566e-003 9.87975765e-003 6.34675520e-003
      -2.03235960e-003 -6.41775504e-003 -4.56578005e-003
      -5.51096629e-003 -3.96385277e-003 -1.41769624e-003
      -3.84798320e-003 -2.82965135e-003 6.44164253e-003 -5.12351608e-003
      -3.11404606e-003 -9.72577929e-003 -8.68486706e-003
      -7.64175411e-003 -1.69490778e-003 5.77472197e-003 3.24127002e-004
      3.34129611e-004 -9.33317933e-003 -5.78570133e-003 3.14086024e-003
      -1.83821830e-005 5.55268023e-004 3.23650567e-003 3.14255152e-003
      7.84974080e-003 6.79998100e-003 -2.56501813e-003 -3.39997117e-003
      4.76670498e-003 8.37591826e-004 1.74722786e-003 3.81135661e-003
      5.81121398e-003 5.34712663e-003 6.35941792e-003 -2.46690470e-003
      -1.11670699e-003 4.45013138e-004 -3.26053891e-003 -6.26278762e-003
      -4.70405037e-004 1.28865959e-002 8.27552099e-003 -1.69556346e-002
      -2.45600212e-002 3.55193811e-003 -9.87340789e-003 -6.94546709e-003
      -3.17616342e-003 5.69585524e-003 3.40632834e-002 2.76792739e-002
      -1.86348986e-002 -5.14629446e-002 -1.52874589e-002 4.52885311e-003
      1.14954298e-003 1.10781915e-003 3.78480181e-003 1.20659592e-002
      6.58462802e-003 5.41231129e-003 -5.46015473e-003 1.23355736e-003
      -3.41443997e-003 3.54355364e-003 1.86736102e-003 1.11200837e-002
      3.57784629e-002 2.51171067e-002 1.55058298e-002 -8.14655889e-003
      -1.05045354e-002 -3.77812535e-002 -1.04499608e-002
      -1.94508524e-003 1.11152045e-002 3.23267914e-002 2.36957408e-002
      -2.49456521e-003 -3.41182016e-002 -3.66027243e-002
      -2.88900267e-002 1.42617512e-003 5.51315723e-003 1.89890284e-002
      2.57148016e-002 -3.80059588e-003 -2.41426863e-002 -2.67959982e-002
      -3.74222994e-002 -4.45207721e-003 6.16487022e-003 7.87149556e-003
      1.42897898e-002 3.09949219e-002 2.02985238e-002 1.40041085e-002
      -5.95736271e-003 -1.45749133e-002 7.45676970e-003 1.82907674e-002
      1.54394759e-002 1.59512721e-002 1.03980470e-002 -8.89475923e-003
      -1.88949332e-002 -1.31189246e-002 -1.07964408e-002 2.36573350e-002
      2.33058576e-002 2.52939183e-002 2.98823584e-002 3.32135186e-002
      -6.53087534e-003 -4.04299200e-002 -3.76004986e-002 2.87023978e-003
      3.02244965e-002 1.37128793e-002 1.23786917e-002 5.68422722e-003
      1.19081996e-002 -1.46487318e-002 -4.54325937e-002 -4.65028211e-002
      1.78412795e-002 2.44479515e-002 2.98731383e-002 2.76353005e-002
      2.52890810e-002 2.64800843e-002 -4.43793042e-003 -3.61288190e-002
      -4.36366871e-002 -1.58418342e-002 1.36817358e-002 1.99856181e-002
      2.09543705e-002 1.51903704e-002 3.03234607e-002 -1.00416096e-003
      -5.15290983e-002 -5.21755107e-002 -3.14727426e-002
      -4.32332541e-004 -5.24014328e-003 7.69864942e-004 -8.29297467e-004
      1.76878609e-002 -3.90206743e-003 -2.95127258e-002 -3.66995186e-002
      1.11510919e-003 -2.80016265e-003 -1.68653496e-003 3.35471588e-003
      5.27458452e-003 7.55436951e-003 -4.50617075e-003 -1.07566044e-002
      -1.30127836e-002 -2.51087127e-003 -2.88932072e-003 3.47579760e-003
      5.40798111e-003 1.27272736e-002 2.55975854e-002 -3.60576669e-003
      -4.73964214e-002 -6.78987801e-002 -2.74181515e-002
      -1.23592978e-003 5.64441085e-003 6.33009896e-003 8.88675917e-003
      1.04537681e-002 -1.60702190e-003 -1.87372975e-002 -2.73304824e-002
      -9.90980770e-003 2.02076253e-003 1.20041966e-002 4.65593347e-003
      7.06263538e-003 1.17493458e-002 -1.79873011e-003 -1.24465367e-002
      -9.14130919e-003 -3.34331719e-003 1.70733535e-003 4.41996986e-003
      -5.43963118e-003 2.11653300e-004 9.24164709e-003 2.71306513e-003
      -1.20463956e-003 -9.98550095e-003 -1.69141300e-003
      -7.07095198e-004 6.04235065e-005 -5.54766878e-003 3.69270425e-003
      7.70846754e-003 1.05693971e-003 -4.22319584e-003 5.08644443e-004
      -5.79248974e-003 4.64797905e-003 1.05146843e-003 -8.06676981e-004
      3.84342764e-003 7.14674685e-003 -3.15613113e-003 -6.76235463e-003
      -3.04896617e-003 -9.39241704e-003 7.38502946e-004 2.59468239e-003
      -1.13029801e-003 1.64958648e-004 1.81855122e-003 -8.24900053e-004
      1.50923978e-003 -4.00482258e-003 -2.35156924e-003 4.96577704e-003
      -1.02901633e-003 3.87727795e-003 2.26323213e-003 4.87659499e-003
      5.19719301e-003 5.64044050e-004 -6.94785500e-004 -1.08715659e-003
      5.14206197e-003 1.97748328e-003 -1.05894706e-003 -6.55486947e-004
      6.72551279e-004 -6.79535093e-003 -5.74625190e-003 -2.39680381e-003
      -4.72260686e-003 -3.84076237e-004 2.27431324e-003 5.30331023e-003
      6.55306445e-004 9.26067180e-004 -3.77683458e-003 -4.55155689e-003
      -9.60372016e-003 -3.49255977e-004 4.55459347e-004 -9.91612789e-004
      1.59675244e-003 4.04063985e-003 6.44169701e-003 5.99336997e-003
      -5.50398370e-004 -1.01200882e-002 -3.16500373e-004 1.21210399e-003
      1.71696360e-004 2.12893565e-003 3.96148255e-003 6.63577253e-003
      8.31120741e-003 5.04045328e-003 -5.28455572e-003 -1.09384151e-003
      -3.99750052e-003 1.49196514e-003 4.62818984e-003 2.84500048e-003
      6.82910718e-003 2.51180562e-003 -1.34311372e-003 -8.67074449e-003
      7.14025082e-005 -3.83990817e-003 2.16006953e-003 5.40206209e-003
      3.27356416e-003 6.00596098e-003 1.02845104e-002 5.26760705e-003
      -6.07223809e-003 -1.50720135e-003 2.19231052e-003 1.01554825e-003
      1.07309618e-003 2.16040853e-003 5.64038241e-003 6.89870352e-003
      8.47008824e-003 -7.97889102e-003 -3.31232720e-003 6.76783675e-004
      1.93780195e-003 1.14222988e-003 4.31540376e-003 1.14828721e-002
      1.24757094e-002 1.67349949e-002 -7.08340248e-003 -5.79406787e-003
      1.90168328e-003 1.06864935e-003 1.75104267e-003 1.22389011e-003
      2.05025123e-003 9.06100497e-003 2.07899534e-003 -6.87739253e-003
      -3.65986419e-003 4.29132301e-003 1.34764879e-003 1.32060295e-003
      2.03045388e-003 2.82057747e-003 9.61761177e-003 3.91686568e-003
      -5.93482284e-003 -1.76741404e-003 4.74657118e-003 3.82997328e-003
      2.97108735e-003 3.74979735e-003 6.62865303e-003 6.37635263e-003
      2.07105689e-002 -7.01510906e-003 -3.81393795e-004 1.13725457e-002
      7.62591884e-003 5.35423169e-003 1.62307359e-003 -6.70917984e-003
      -5.34570217e-003 1.47983013e-003 -9.18668415e-003 -3.90216173e-003
      3.91761726e-003 6.75012066e-004 1.09268073e-003 1.21394254e-003
      1.88030326e-003 4.30669915e-003 6.01844117e-003 -5.83437877e-003
      -5.56363678e-003 5.69182029e-003 7.23017962e-004 2.87164934e-004
      8.59141146e-005 -2.56685168e-003 -1.28483900e-003 5.61735127e-003
      -6.86907908e-003 -6.31684996e-003 1.57655403e-002 1.37332613e-002
      1.11934766e-002 7.08507048e-003 4.15166514e-003 -2.41530663e-003
      -1.14690345e-002 -2.80497652e-002 -4.55416646e-003 1.12497639e-002
      1.23208193e-002 1.27070528e-002 1.03281401e-002 2.05271654e-002
      7.80124031e-003 -4.40054536e-002 -5.61274588e-002 -2.23319456e-002
      8.10428895e-003 4.08034958e-003 2.06116191e-003 2.26406706e-003
      2.47554318e-003 3.89437075e-003 1.56204123e-002 5.80188772e-003
      2.04801783e-002 8.19685124e-003 8.24132562e-003 8.36810190e-003
      8.70792661e-003 1.60606820e-002 9.39157978e-003 -1.86038297e-002
      6.41666120e-003 9.02453810e-003 1.25731423e-003 5.07282093e-003
      7.54265487e-003 1.53982965e-002 2.61166245e-002 -3.79751273e-003
      -3.94684859e-002 -6.68303594e-002 -2.40501035e-002 1.84443733e-003
      2.86873896e-003 6.82092039e-003 1.76657233e-002 2.79659987e-003
      -3.21034598e-003 -1.48712471e-002 -2.28205379e-002
      -7.54562719e-003 -7.84908189e-004 4.40163631e-003 1.00820372e-002
      1.69063900e-002 1.37128048e-002 -5.52094448e-003 -3.12087797e-002
      -3.00765559e-002 -1.33133382e-002 2.72132776e-004 1.87507027e-003
      1.11809568e-002 2.04212330e-002 -1.70841184e-003 7.42584962e-005
      -8.66846647e-003 -1.36189284e-002 -1.04542170e-003
      -3.73473368e-003 -7.46370200e-003 -2.07492802e-003 9.87938023e-004
      -4.72561340e-004 -2.59451219e-003 3.64227756e-003 1.40815107e-002
      6.83197659e-003 -1.17145421e-003 2.21650186e-003 7.11209141e-003
      9.19123646e-003 1.47218106e-003 -2.38460768e-003 -6.89781911e-004
      5.43813268e-003 -2.91587994e-003 2.16091721e-004 -2.54028733e-003
      -7.05638202e-004 -4.35450627e-003 -5.60069084e-003
      -1.17903082e-002 -3.77834798e-003 1.12187276e-002 7.43011246e-003
      -3.63247888e-003 -1.70787959e-003 -5.01319766e-004
      -3.16824485e-003 -6.95470395e-003 -9.87603050e-003
      -2.82177236e-003 8.70243367e-003 2.40339898e-003 2.08110828e-003
      1.19378732e-003 1.51913275e-003 2.67964415e-003 -3.97260580e-003
      -4.61487705e-003 -4.30471916e-003 -5.22476737e-004
      -4.72051650e-003 2.63132574e-003 1.04673039e-002 8.50501936e-003
      1.26446271e-003 4.83400072e-004 2.26049079e-003 -2.55543529e-003
      -3.66382371e-003 -1.95472618e-003 -8.14345572e-003
      -9.98640247e-003 -4.28037532e-003 4.48611027e-005 -4.99025499e-003
      -4.10480099e-003 1.18322927e-003 1.05787590e-002 -2.01313687e-003
      -5.19281952e-003 -1.23323305e-002 -2.67900317e-003 2.69643636e-003
      -8.85661400e-004 4.69105830e-003 7.28672557e-003 1.10045811e-002
      -6.32909825e-004 -5.04371058e-003 7.41030928e-003 7.43801473e-003
      -1.75167236e-003 -2.77225918e-004 1.68756724e-005 -3.01990961e-003
      -1.06017711e-002 -3.43329855e-003 -2.41884473e-003 1.14574134e-002
      9.01355501e-003 1.25812448e-005 1.29280181e-003 -2.46550958e-003
      -1.39507628e-003 -2.71923956e-003 -1.29022310e-003
      -6.86140731e-003 -6.41887961e-003 -2.19208398e-003
      -5.11451112e-003 -1.88351830e-003 1.44700648e-003 2.88692280e-003
      1.52187352e-003 -1.22891669e-003 -3.17727984e-003 2.01224699e-003
      2.04908825e-003 2.52261438e-004 4.62867413e-003 -6.16989983e-003
      -4.06124815e-003 -2.36462243e-003 6.19283691e-003 6.35722245e-004
      3.41099058e-003 2.64831469e-003 -2.32355855e-003 -2.07791454e-003
      6.79901626e-004 -3.49809881e-003 -1.38090545e-004 -3.13883554e-003
      -2.12476077e-003 -1.49065920e-003 -1.13821728e-003
      -1.34918478e-003 5.21111593e-004 9.87109449e-003 5.92728425e-003
      -5.59247390e-004 6.82614185e-003 4.57285810e-003 7.77269961e-005
      -1.00085069e-003 -2.44708802e-003 -6.39451854e-003
      -7.29378173e-003 -9.39322636e-003 -1.72036514e-003 6.26489287e-003
      1.98019273e-003 -9.46767721e-003 -1.19791338e-002 -1.12065440e-002
      -1.01593314e-002 5.77121718e-005 -4.20312746e-004 7.08801672e-004
      9.26414598e-003 -6.23877975e-004 -1.31094153e-003 -5.94614248e-004
      6.86763960e-004 1.82919099e-003 4.21322323e-003 5.54439472e-003
      -3.94591549e-003 3.34013440e-003 2.00503692e-003 -2.15711043e-004
      1.01913034e-003 1.53380760e-003 2.85070995e-003 2.37382064e-003
      9.90948267e-003 -5.20934071e-003 -7.32046925e-003 -1.00039272e-003
      -6.13238988e-003 -6.91380491e-003 -5.36907045e-003
      -4.64958139e-003 -2.67642143e-004 2.37845187e-003 2.72156345e-003
      7.23090954e-003 -7.61439512e-003 -6.50135428e-003 -2.42671900e-004
      -2.07223557e-003 -1.63586531e-003 -3.84863175e-004 4.48002666e-003
      -3.99410864e-003 -5.15196705e-003 3.61110782e-003 1.06512906e-003
      7.32739049e-004 1.43027224e-003 2.59224954e-003 3.66297853e-003
      6.55625062e-003 -7.01571256e-003 -1.06830907e-003 4.90010157e-003
      3.17295990e-003 2.82278005e-003 3.03188432e-003 3.61561147e-003
      4.04419610e-003 -9.40802228e-003 -6.50588144e-003 2.36975332e-003
      2.24177304e-004 -6.85502251e-004 1.54493807e-003 1.28112675e-003
      3.84847424e-003 5.70482155e-003 -1.17833253e-004 -8.16089567e-003
      2.72349498e-005 3.75997438e-003 2.03965232e-003 2.09391513e-003
      3.63078387e-003 7.28732534e-003 9.06401407e-003 -6.14860607e-003
      -9.21390858e-003 3.53167369e-003 9.54176765e-004 5.89489704e-003
      6.48261607e-003 6.19020034e-003 4.00395971e-003 7.64468976e-004
      -9.92036890e-003 -9.66043584e-003 -9.33098345e-005
      -1.58672570e-003 5.37915295e-003 6.56925933e-003 1.01537385e-003
      -1.71815716e-002 2.38174666e-003 6.44503220e-004 -8.93419702e-003
      1.86671165e-003 2.14577629e-003 6.23385375e-003 4.58039250e-003
      4.67207469e-003 7.83201121e-003 7.92022236e-003 -1.26018794e-003
      -1.13262525e-002 -7.04806938e-004 -3.11817136e-003 6.57752389e-003
      2.73696356e-003 -3.05632362e-003 -5.14465570e-003 7.05062225e-003
      6.49472745e-003 -1.70787107e-002 -2.09192163e-003</_>
    <_>
      -4.47205827e-003 -4.57921252e-003 -1.48764800e-003 6.40057377e-004
      2.73630419e-003 2.90769595e-003 -8.18732951e-004 -2.83191260e-003
      -1.01980940e-003 -2.36413372e-003 -7.39860861e-003
      -2.91915820e-003 -9.04183311e-004 4.52835020e-003 5.85718406e-003
      7.34327070e-004 -2.21385807e-003 8.67424591e-004 -4.09056013e-003
      -8.97199847e-003 -5.68533083e-003 -2.38375645e-003 2.77326768e-003
      3.80275352e-003 2.38176342e-003 7.43772544e-004 9.13082506e-004
      -1.95876579e-003 -9.86477174e-003 -5.42447949e-003
      -4.73439461e-003 -1.64528633e-003 3.17548285e-003 -2.95105809e-003
      -9.44675194e-005 6.56405289e-004 -2.87869549e-003 -6.22315006e-003
      -1.91146915e-003 2.86035502e-004 7.89268035e-003 3.49117746e-003
      2.20161211e-003 -6.30806491e-004 -9.02001688e-004 -1.42446894e-003
      -6.02065632e-003 -4.42875177e-003 9.79950069e-004 7.19186245e-003
      -9.15358076e-004 1.89191417e-003 2.27551587e-004 -6.18648902e-003
      -4.12266655e-003 -7.27108354e-003 -1.62548176e-003 1.06911454e-003
      5.78854373e-003 4.37439093e-003 3.93716502e-004 4.55514033e-004
      -2.33978126e-003 -2.74312682e-003 -1.06499055e-002
      -6.63111219e-003 2.44525773e-003 1.05681224e-002 2.88329349e-004
      -3.35774850e-003 -1.65225868e-003 -4.56234207e-003 8.30966048e-004
      -4.39942814e-003 -7.28371437e-004 2.98604113e-003 5.51390368e-003
      -1.63086093e-004 1.68383325e-004 1.78490311e-003 1.03633653e-003
      -1.42104551e-003 -4.17156611e-003 -3.87318037e-003 1.34245423e-003
      -6.46805624e-004 -3.80091881e-003 -3.82086821e-003 4.39820840e-004
      2.24787253e-003 4.37313924e-003 -8.27559829e-003 -6.71860436e-003
      -2.68159376e-004 8.07269383e-003 1.66516495e-003 -1.89468963e-003
      1.24624791e-003 3.22829606e-003 2.65152752e-003 -1.07866377e-004
      -7.05811894e-003 -1.37153815e-003 1.06392405e-003 -2.39932560e-003
      -3.37885902e-003 -1.77659048e-003 3.42574622e-003 -1.63471769e-003
      -1.12715049e-003 -3.06992047e-003 -7.71816063e-004 8.21420748e-004
      -1.20633538e-003 -7.94638123e-004 3.20959394e-003 3.14529706e-003
      -7.17896677e-004 -5.23536513e-003 -7.73613527e-003
      -4.97978786e-003 -1.05415017e-003 -3.89334979e-004 1.15315220e-003
      3.68060358e-003 3.26665468e-003 4.58139693e-003 5.40236570e-003
      -1.72188843e-003 -2.81821704e-003 -1.02872599e-003
      -1.85433717e-003 -6.60903985e-004 1.37734110e-003 6.42096857e-004
      3.89993121e-003 1.41570682e-003 -2.52692821e-003 -5.28926402e-003
      -1.47342496e-003 -2.15990609e-003 8.17154287e-005 1.59765303e-003
      -2.10079248e-003 1.85190036e-003 2.68941629e-004 -2.50109518e-003
      -2.60616490e-003 -1.31739443e-003 7.22380355e-006 7.75448221e-004
      2.33402639e-003 2.53489939e-003 1.71523553e-003 4.17111954e-003
      -5.39430883e-004 -4.47917584e-004 -8.32430436e-004 9.39681995e-005
      -3.77669698e-004 1.03119225e-003 1.67164137e-003 3.91859701e-003
      2.03195214e-003 -6.00313721e-003 -2.88509484e-003 -9.56720382e-004
      -7.05296930e-004 -2.13838284e-004 7.21088902e-004 1.69867359e-004
      2.21401919e-003 2.03195214e-003 -7.96246342e-003 -3.00825736e-003
      -1.33495545e-003 -6.24302193e-004 -1.01510284e-003
      -3.13333207e-004 -5.05667762e-004 2.60511227e-003 5.79389324e-003
      -2.44306889e-003 1.08627355e-004 1.14078059e-004 -1.07402608e-004
      -1.25324063e-004 4.40839794e-004 9.48607107e-004 1.93832011e-003
      2.73935613e-003 -3.06008221e-003 -1.03235478e-003 9.13571348e-005
      -3.91068228e-004 -1.52682114e-004 -2.14307147e-004 2.07111108e-004
      2.81313411e-003 2.73935613e-003 -8.20613932e-003 -1.58930896e-003
      -1.32246967e-003 -8.29173950e-004 -7.66486512e-004
      -2.14515883e-003 -1.36365066e-003 1.05377425e-004 2.93064374e-003
      -4.23344970e-003 1.81427738e-003 2.23933617e-004 -1.78172020e-003
      -2.25271913e-003 -7.54014682e-003 -4.60478151e-003 3.30384611e-003
      1.37431745e-003 1.43796369e-003 7.03845988e-004 -1.95175200e-003
      -1.45505089e-003 -5.31369355e-004 1.31008017e-003 2.09898641e-003
      -8.01758142e-004 2.17379536e-003 -8.37404921e-004 5.74242498e-004
      2.27573473e-004 -1.36618759e-003 -6.16045785e-004 2.77959229e-003
      1.06037871e-004 1.27861067e-003 8.28367367e-004 3.11624468e-003
      8.40683933e-003 5.73862623e-003 -2.15892820e-003 -1.18179782e-003
      -5.67343924e-003 -3.85531457e-004 -1.29121903e-003
      -1.99238956e-003 9.41755134e-004 4.55055851e-003 1.26262859e-003
      2.53682048e-003 1.32751651e-003 -3.28000082e-004 9.43528779e-004
      -9.29920207e-005 -5.13966288e-003 -5.29708574e-003
      -1.88820774e-003 5.84893767e-003 3.65016237e-003 2.01548450e-003
      2.45690090e-003 3.19121848e-003 -2.16077687e-003 -7.11076194e-003
      -4.00493667e-003 -6.59153215e-004 5.04400348e-003 3.19463224e-003
      -2.48273276e-003 1.06321543e-003 4.08626767e-003 -4.46532294e-003
      -4.39744303e-003 -6.08614925e-003 -3.62850376e-004 3.78233730e-003
      1.50979334e-003 -3.04653449e-003 -1.90631812e-003 -3.17837065e-003
      -8.59272573e-003 -3.51894903e-003 -4.74156346e-003 3.98462452e-003
      7.65872933e-003 5.54036349e-003 -2.82277795e-003 -4.91729798e-003
      -2.63183797e-003 -9.93956579e-004 -4.33979742e-003
      -2.07088291e-004 2.39419751e-003 5.37793664e-003 2.74402346e-003
      -4.56079637e-004 1.32608193e-003 2.63068732e-003 3.27056670e-003
      -7.94069283e-003 -2.28704535e-003 3.68183781e-003 9.26199369e-003
      1.89126516e-003 -5.73047029e-004 2.91662611e-004 2.87069380e-003
      -3.09857633e-003 2.65161623e-003 -2.35386286e-003 4.33357991e-003
      2.69517512e-003 2.75899749e-003 -1.05557416e-003 -1.43634458e-003
      -1.52871897e-003 1.07176823e-003 -4.13854199e-004 -9.30781942e-003
      1.52455817e-003 2.08945479e-003 1.15915365e-003 3.63774248e-004
      2.28158344e-004 -1.96140935e-003 4.68945783e-003 -5.51370438e-004
      -2.43199384e-003 3.82966275e-004 2.66226172e-003 9.29372400e-005
      -6.90690416e-004 -2.91030621e-004 2.18682224e-003 3.94064793e-003
      6.30277535e-003 -3.84115987e-003 -7.83619820e-004 -9.07803536e-004
      -1.26500148e-003 -9.87838255e-004 -6.58859324e-004
      -1.41325683e-004 1.30834721e-003 2.26775277e-003 -7.22224824e-003
      -1.04517827e-003 5.76302118e-004 -4.01353245e-005 2.29598882e-005
      -9.74388386e-005 -1.31816161e-003 -2.26593314e-004 1.33926817e-003
      -9.56645049e-003 -1.69333571e-003 -6.81400939e-004
      -5.45835530e-004 -9.49969690e-005 -2.07495803e-004
      -2.10736692e-003 2.36867485e-003 3.99304787e-003 -1.08646310e-003
      -1.20463921e-003 -1.08463888e-003 -6.86346379e-004
      -1.44082151e-004 -3.66921013e-004 -9.03714041e-004
      -8.60684668e-004 -1.08354725e-004 -1.47269879e-004
      -2.27069645e-003 -8.99487874e-004 -4.74004482e-004
      -3.66657623e-005 -6.66679349e-004 -1.40567136e-003 3.39948252e-004
      -1.08354725e-004 -3.29595478e-003 -1.52769440e-004
      -3.40339233e-004 -1.16296018e-004 7.02799516e-005 1.82301781e-004
      -7.55195739e-004 -2.79981270e-003 -1.08354725e-004 2.91450345e-003
      1.29902473e-004 -2.99401465e-004 5.68347696e-006 -2.74230377e-004
      2.81982054e-003 5.81305381e-003 -1.15708751e-003 -6.84676692e-004
      -3.78599833e-003 -1.17388403e-003 -3.96224321e-004
      -2.33555547e-004 -2.82077672e-005 -4.34700560e-005
      -8.51881225e-004 -1.21390366e-003 -6.84676692e-004
      -4.85836947e-003 -9.47415770e-004 -1.23002776e-003
      -3.22081934e-004 -1.55502651e-003 -2.30086595e-003
      -2.23433040e-003 2.69283378e-003 -6.84676692e-004 4.56372218e-004
      -9.13620519e-004 -2.01328727e-003 -8.44742346e-004
      -5.03965071e-004 3.18351109e-003 7.79826427e-003 1.43916858e-002
      4.51307464e-003 4.96511487e-003 -1.50252040e-003 -5.62420581e-003
      -2.14011595e-003 -4.62750578e-003 -7.92395603e-003
      -3.10468837e-003 2.53169192e-003 2.85452278e-003 -2.23638187e-003
      -1.11034547e-003 -2.17158860e-003 -1.75997475e-003
      -2.74630007e-003 -7.89021049e-003 -4.11030510e-003 3.15519515e-003
      8.26286059e-003 2.85468809e-003 7.25838356e-003 2.03935732e-003
      -4.57702577e-003 -7.19905226e-003 -1.83669999e-002
      -1.18101574e-002 1.59132015e-002 1.49077354e-002 1.23465471e-002
      -1.96891211e-004 -4.85060550e-003 -3.65594006e-003
      -7.95666315e-003 -1.74436308e-002 -1.12066278e-002 1.33729111e-002
      2.12708525e-002 1.63993649e-002 6.22138102e-003 -2.82586436e-004
      -8.19154736e-003 -1.62051674e-002 -2.29832288e-002
      -1.86262093e-002 5.14096246e-005 3.09870765e-003 5.63909765e-003
      1.39984284e-002 1.26120420e-002 -2.69829668e-003 -6.18491229e-003
      -1.49020301e-002 -7.69150211e-003 -1.71782740e-003
      -1.21154811e-003 1.07445871e-003 6.08191546e-003 2.95850588e-003
      -1.53448503e-003 -3.35068791e-003 -5.26553672e-003
      -2.61812331e-003 3.72460135e-003 1.54147241e-002 9.80656035e-003
      1.02891419e-002 1.11397617e-002 -3.31115816e-003 -1.28206629e-002
      -2.06416566e-002 -1.03031946e-002 -3.09760054e-003
      -6.49220252e-004 1.22878805e-003 2.08459492e-003 2.67147506e-003
      5.28010365e-004 -6.36736723e-003 -8.11501872e-003 -5.64648490e-003
      1.06145849e-003 1.80655377e-004 -2.15958781e-003 1.09031436e-003
      2.26088194e-003 8.47071817e-004 -3.77925579e-004 6.56671837e-005
      5.75092155e-004 -1.88989844e-003 6.66197110e-003 -1.87512161e-003
      4.91691811e-004 2.30383477e-003 7.96490523e-004 -2.75838567e-004
      -8.54492653e-004 -7.70951563e-004 -3.65375716e-004 2.96375481e-003
      -1.20384782e-003 -1.17498515e-004 1.28539605e-003 5.51885460e-004
      -5.44826093e-004 5.11016478e-005 4.74434841e-004 -7.87738059e-003
      4.27527644e-004 -9.75844567e-004 -1.19254191e-003 3.02762212e-003
      3.44390370e-004 -5.76139719e-004 -3.99529643e-004 -1.27766049e-003
      -2.14399814e-004 6.37078425e-003 -3.29317688e-003 3.26737063e-004
      1.86088480e-004 8.27921322e-005 -2.33913102e-004 -5.12266357e-004
      -2.62721733e-004 2.08634976e-003 1.25662039e-003 -5.04876953e-003
      -5.55389270e-004 -6.93209076e-005 8.10930433e-005 -1.63272067e-004
      -3.68933506e-005 -7.51067244e-004 -5.34178782e-003 1.25662039e-003
      -2.73764512e-004 -2.09622754e-004 9.80034354e-004 4.85113909e-004
      1.01779506e-006 -2.42056762e-004 -1.19423179e-003 -1.08904799e-003
      1.25662039e-003 -3.15241492e-003 -3.25896865e-004 -2.38943583e-004
      3.81800812e-004 1.00474492e-004 -1.33248002e-004 -1.19887583e-003
      1.12260028e-003 2.05568923e-003 -2.97753653e-003 -6.63332467e-004
      -6.53172756e-005 -6.14937599e-005 -6.09417984e-005
      -8.50249853e-005 -7.71838299e-004 -2.20213737e-003 2.05568923e-003
      -2.21938128e-003 1.64430391e-003 6.29923132e-004 4.65112913e-004
      1.45449492e-004 1.15815483e-005 -8.01568734e-004 3.74586030e-004
      2.05568923e-003 -3.19137215e-003 -7.02412508e-004 9.57776865e-006
      3.24516091e-004 6.41043996e-004 -1.97263471e-005 -2.12890940e-004
      -6.36227708e-003 2.91244988e-003 -8.10120837e-005 7.70753250e-003
      4.06593597e-003 2.14758283e-003 8.89557414e-004 -8.89291463e-004
      -3.74163943e-003 -4.71029244e-003 -4.81397519e-003 1.40141358e-003
      7.73315970e-003 1.99614721e-003 5.84649621e-004 2.63404829e-004
      3.94762523e-004 -2.96436279e-004 1.08717482e-004 -4.46542632e-003
      4.88258572e-003 7.95464683e-003 1.82324240e-003 -8.42786030e-005
      -6.84586295e-004 5.08716796e-003 9.75865964e-003 -6.34484505e-003
      -7.56442873e-003 5.80451218e-004 1.74933393e-002 8.78253207e-003
      1.22788257e-003 2.16517854e-003 3.14382269e-005 -1.29493303e-003
      -1.82930590e-003 -8.86292290e-003 -7.73666846e-003 1.15523525e-002
      7.59241963e-003 5.66994946e-004 4.00878955e-003 5.81971323e-003
      7.30647705e-003 9.05959681e-003 1.96773384e-004 -1.25132676e-003
      -1.20409671e-003 -2.80217151e-003 -2.23415531e-003
      -1.23575865e-003 3.38007393e-003 1.11566214e-002 1.18245380e-002
      8.49181786e-003 3.45372711e-003 -1.27125857e-003 -3.40554398e-003
      -7.14641763e-004 -3.02372570e-003 -8.54432397e-003
      -1.96986439e-004 1.44195603e-003 -3.12693510e-003 -8.54110066e-003
      -2.32231477e-003 -2.86032120e-003 -2.44205561e-003 5.27402270e-004
      -1.56874652e-003 3.24595510e-003 -1.11057714e-003 -3.78811336e-003
      -6.61458634e-003 -1.80410070e-003 1.90027771e-004 2.25250633e-003
      5.01603074e-003 -2.38066679e-003 2.69616372e-003 1.09947491e-002
      1.64129604e-002 9.14166495e-003 1.37891376e-003 -1.61866774e-003
      -2.76913604e-004 -5.77739906e-003 -1.34341083e-002
      -3.55568854e-003 1.25873592e-002 1.66952759e-002 9.48657840e-003
      3.58192902e-003 7.16972980e-004 -4.67188656e-003 -1.49345398e-002
      -2.03979257e-002 -9.05928761e-003 2.58404948e-003 -5.28246444e-003
      -1.57388730e-003 1.29514735e-003 7.56775378e-004 2.92532169e-003
      5.17317967e-004 -1.49601873e-003 1.10309599e-002 7.24174595e-003
      3.30392574e-003 3.32842302e-003 1.37590698e-003 -4.60591586e-003
      -7.17804208e-003 -1.41915055e-002 -1.62324999e-002 7.42382323e-003
      5.28782979e-003 8.51315819e-003 5.71640860e-003 5.59012406e-003
      1.06601594e-002 -7.73160646e-005 -9.61517077e-003 -1.87041331e-002
      -7.04401918e-003 -2.01829663e-003 -8.94028752e-004 5.07051882e-004
      3.82087281e-004 4.35124384e-003 1.61730030e-004 -4.34737140e-003
      -7.48176873e-003 -4.40977328e-003 9.68159456e-003 4.77749389e-003
      6.55158563e-003 6.34695776e-003 7.85386935e-003 -3.42478021e-003
      -1.07483948e-002 -1.53292846e-002 1.36666466e-003 -3.45592247e-003
      -1.76841917e-003 1.11692830e-003 2.41132351e-004 3.85518768e-003
      -6.03326538e-004 -5.79023128e-003 -6.58995565e-003
      -2.88528879e-003 -7.09640968e-004 2.58395937e-003 -3.22090765e-003
      -4.13043192e-004 2.94265810e-005 -9.03895270e-005 -1.03559447e-004
      3.32659762e-003 9.46282409e-004 -6.22205576e-003 2.00221408e-003
      1.42051943e-003 1.87614886e-003 4.23784740e-003 1.79542194e-003
      1.27137254e-003 2.68184324e-003 -6.20938139e-004 -5.00527967e-004
      -7.27140252e-003 -5.31742908e-003 -1.68173260e-003
      -1.95903424e-003 7.08494859e-004 -6.38596481e-004 7.78886862e-003
      4.96511767e-003 -2.97300937e-003 -1.04905022e-002 -5.72928833e-003
      -1.14621245e-003 4.69361345e-004 -1.19306525e-004 2.89400457e-003
      4.83099278e-003 3.65462643e-003 -7.41884904e-003 -8.64093909e-006
      2.40767561e-003 1.44853676e-003 3.70261469e-003 2.93247052e-003
      3.35087348e-003 3.73340258e-003 -1.09720207e-003 -3.54273897e-003
      5.45459380e-003 -6.91514404e-004 -4.33900510e-004 2.52055994e-004
      1.71669654e-003 3.39476811e-003 7.75179407e-003 -4.73399938e-004
      -2.86022131e-003 -9.05972440e-003 -3.65491631e-003
      -1.07224201e-004 2.05443008e-003 1.10088056e-003 1.47636980e-003
      2.97014229e-003 8.47220188e-004 -2.45362683e-003 -7.04344176e-003
      -3.96002596e-003 -3.50278500e-003 -2.58036586e-003
      -1.31993031e-003 5.19189378e-003 4.78323037e-003 3.59305739e-003
      -1.63959537e-003 2.49067461e-003 -3.25696520e-003 -1.44633616e-003
      2.99156469e-004 2.99058738e-004 1.84092671e-003 5.75670600e-003
      5.69081341e-004 -5.80107141e-003 -2.03835615e-003 -2.13795830e-003
      5.59640257e-003 6.15880685e-003 3.89470183e-003 3.00868531e-003
      1.06307736e-003 -2.68826773e-003 -5.14108129e-003 -7.91910943e-003
      -4.57103457e-003 -3.82692576e-003 -3.68290907e-003
      -3.24307708e-003 4.32291394e-003 9.65758692e-003 6.06710464e-003
      -8.15695990e-003 -8.02188180e-003 -5.83318947e-003
      -2.21165060e-003 4.05218510e-004 4.45368059e-004 1.66464807e-003
      5.26763918e-003 1.90292078e-003 1.78442826e-003 -4.46093408e-003
      -1.38881418e-003 9.00919922e-003 6.71717245e-003 1.98926893e-003
      1.48675591e-003 3.05827032e-003 6.81454549e-003 4.40304866e-003
      -6.60880841e-003 -5.78263868e-003 4.54356149e-003 3.26442067e-003
      6.12148317e-004 6.57668221e-004 6.17862586e-003 1.20173069e-002
      4.31054505e-003 -1.94961787e-003 -1.79035380e-003 8.78099352e-004
      1.12666457e-003 -1.70166080e-003 -7.67820515e-003 -4.04576352e-003
      5.97566692e-003 2.97064986e-003 -2.02425988e-003 -4.71673964e-004
      1.37454469e-003 -2.29382407e-004 -3.17121437e-003 -1.19784717e-002
      -8.82211607e-003 4.09854855e-003 -8.04126903e-005 -5.62376156e-003
      -3.80114419e-003 -1.21291599e-003 -1.80052000e-003 5.19485038e-004
      2.67005293e-003 3.72711383e-003 8.00923072e-003 -3.11180425e-004
      -6.65050559e-003 -4.09159670e-003 2.54629226e-003 1.51377963e-003
      2.69094482e-003 8.10266379e-003 5.62887499e-003 7.17150187e-003
      -8.40164069e-003 -5.44954650e-003 1.49118225e-003 3.37946985e-004
      -3.03644268e-003 -1.30812288e-003 -1.60653004e-003
      -3.93368769e-003 1.77369919e-003 -2.72161211e-003 3.68275051e-003
      7.74125243e-003 5.15124993e-003 -1.05372316e-003 -4.78382129e-003
      1.48073316e-003 1.30937493e-003 -9.22330713e-004 8.95802048e-004
      -1.02117816e-002 -1.59099710e-003 2.23253435e-003 -1.30429445e-003
      -1.30716152e-003 -1.04363984e-003 -2.24432582e-003 7.02833384e-003
      6.51008869e-003 7.70440698e-003 1.09716570e-002 1.69850467e-003
      -6.67075021e-003 -7.87337217e-003 -1.34564256e-002
      -1.41420281e-002 5.33915125e-003 4.78466973e-003 6.47605397e-003
      1.24667753e-002 1.00144213e-002 -1.79715024e-003 -1.06631899e-002
      -1.10151228e-002 -8.87562055e-003 -3.44597618e-004 7.11968914e-003
      1.23413149e-002 1.35216564e-002 1.33735966e-002 -4.43144422e-003
      -1.36120170e-002 -1.67339202e-002 -1.80939548e-002
      -1.19100558e-003 2.64694053e-003 7.79432990e-003 1.04971258e-002
      4.18497436e-003 3.26606585e-003 -3.70496721e-003 -1.06640626e-002
      -1.08698215e-002 -8.41409565e-005 -2.64213304e-003
      -9.89182852e-004 3.12696851e-004 1.43439509e-004 3.42740724e-003
      -4.94169211e-003 -5.72100189e-003 -4.87700151e-003
      -2.84343399e-003 -2.10945786e-004 7.22771604e-003 1.21221393e-002
      8.29950161e-003 7.18757650e-003 -7.11869588e-003 -1.26374681e-002
      -1.26756988e-002 -2.47342489e-003 -3.02460347e-003
      -4.46470315e-003 -2.59337458e-003 -2.66870973e-003 3.42740724e-003
      -5.58092818e-003 -6.38920814e-003 -5.08786505e-003
      -3.07148532e-003 -1.33893569e-003 -3.09920800e-003
      -1.17551850e-003 -9.95108509e-004 -1.92589621e-004 8.36776977e-004
      -9.36041470e-004 3.59137729e-003 -2.68293475e-003 -1.17122807e-004
      -2.42731930e-003 -1.52681198e-003 -1.20895531e-003
      -1.11770409e-003 -2.77197850e-003 -1.66992657e-003 3.33649130e-003
      2.05061957e-003 -2.29664077e-003 -2.42406712e-003 -2.34135427e-004
      1.97449140e-003 6.34898013e-003 2.14127591e-003 1.48852891e-003
      -2.76028691e-003 -6.15984062e-003 -4.62755823e-004
      -2.92840041e-003 1.51634694e-003 2.75935908e-003 3.87571612e-003
      1.92087726e-003 -5.89834992e-004 4.39044175e-004 -3.50439735e-003
      -2.62477606e-005 -1.96107803e-003 -1.46938837e-003
      -5.56195679e-004 -4.76262416e-004 -1.35643722e-003
      -3.18319839e-003 3.74432327e-003 -8.04812298e-004 -3.15343350e-004
      -2.43131397e-003 -1.35253626e-003 -1.48781156e-003
      -2.19968217e-003 -1.97354518e-003 -3.34737124e-003 3.74432327e-003
      -6.74923707e-004 2.23078328e-004 -6.68661727e-004 -2.45054136e-004
      6.17970480e-004 6.50727830e-004 -8.86038179e-005 -5.78580657e-004
      3.62959737e-003 -4.27678833e-003 -9.42330516e-005 -4.74365952e-004
      -1.40608419e-004 2.03206349e-004 5.58016472e-004 -1.43704226e-003
      -2.63999263e-003 3.74432327e-003 -4.49123466e-003 -2.23517790e-003
      -3.00447759e-003 -1.50102412e-003 -1.31635857e-003
      -2.54495954e-003 -2.37923907e-003 -1.26920827e-003 3.37483874e-003
      9.22739739e-004 -5.38541563e-003 -4.16521449e-003 -2.31191330e-003
      -1.12910522e-003 -1.91958121e-003 -2.00834987e-003
      -4.77571535e-004 5.05413674e-003 -2.46609736e-004 -6.65455824e-004
      -6.30552415e-004 -5.86565257e-005 2.29284909e-004 -7.64599681e-005
      -1.74866046e-003 -4.58407449e-003 2.48627737e-003 -6.86705971e-005
      -1.85858912e-003 -9.64347681e-004 -2.93816120e-004 2.77353483e-005
      -3.62633000e-004 -1.24364672e-003 -4.94826771e-003 2.48627737e-003
      2.61880079e-004 4.12617752e-004 -6.40366052e-004 -1.16561179e-003
      -7.01262179e-005 -2.78458203e-004 -2.11380585e-003
      -3.68093816e-003 1.35804724e-003 4.99914808e-004 -2.81515764e-003
      3.07318615e-003 5.07139321e-003 1.61538040e-003 1.87648431e-004
      -1.65092840e-003 -7.91324209e-003 -1.24302767e-002
      -8.55994504e-003 -1.20771769e-003 -4.73049411e-004 8.34966340e-005
      -2.78058549e-004 -3.04233952e-004 -2.46472395e-004
      -3.76495020e-003 2.62216106e-003 4.33384255e-003 -2.39205360e-003
      5.50546683e-003 9.17690340e-003 2.18252605e-003 2.57025706e-004
      8.89874995e-004 2.47272942e-003 2.62216106e-003 5.17453253e-003
      -1.46870632e-002 3.28086154e-003 1.34636583e-002 2.71699019e-003
      -1.88662659e-003 -2.93045398e-003 -4.86546475e-003
      -1.40750473e-002 -1.43502131e-002 -3.09467455e-003 1.44062974e-002
      1.55571010e-002 3.98297841e-003 -3.48391547e-003 -1.03354240e-002
      -1.07220579e-002 -9.32692830e-003 -1.24692740e-002
      -8.86179786e-003 7.69592961e-003 1.77364275e-002 5.58581855e-003
      7.80921371e-004 -9.21493629e-004 4.19853069e-003 -6.84323255e-004
      -7.20407534e-003 -3.97032732e-003 1.42193204e-002 1.70373041e-002
      5.16051427e-003 -2.88586365e-003 -7.65766995e-003 -1.93831860e-003
      3.55102960e-003 -8.45888257e-003 1.48135731e-002 1.95279885e-002
      1.89422835e-002 7.90915266e-003 -1.47781335e-003 -8.36305413e-003
      -1.50607945e-002 -1.35423262e-002 7.66871031e-004 1.02673825e-002
      1.19907968e-002 1.30923726e-002 1.47899287e-002 2.63359398e-003
      -7.72267906e-003 -1.82068013e-002 -2.16063280e-002
      -4.80597955e-004 7.19211623e-003 1.58096701e-002 1.26907462e-002
      3.70195042e-003 -1.33588305e-003 -4.26616333e-003 -8.60057678e-003
      -8.29415675e-003 -6.02176925e-003 3.26079503e-003 6.94920914e-003
      4.60489001e-003 5.58122853e-003 9.34871007e-003 -6.78201613e-005
      -1.94696132e-002 -1.71659850e-002 -1.28559312e-002
      -5.46799565e-004 -1.17585307e-003 1.49774028e-003 6.76885247e-003
      1.68352872e-002 -3.62285785e-003 -1.07686371e-002 -1.40329069e-002
      -3.87415546e-003 -2.44288240e-003 -3.38826515e-003
      -2.18521501e-003 -2.32685823e-003 8.29480682e-003 -6.26610219e-003
      -5.46975620e-003 -5.66484686e-003 -2.16687098e-003
      -2.68910383e-003 -1.15253369e-003 -5.17419947e-004 3.99078103e-003
      2.06934139e-002 -2.39322032e-003 -1.44518614e-002 -2.34427992e-002
      -1.30570373e-002 -3.01732705e-003 -1.76903943e-003
      -2.18349299e-003 -1.55757787e-003 8.29480682e-003 -7.38252047e-003
      -6.77830400e-003 -9.73669533e-003 -6.64319051e-003
      -1.44459167e-003 -4.81049716e-003 -1.83221430e-003 3.10660363e-003
      1.26447259e-002 4.91321785e-003 -2.10274430e-003 -6.21370552e-003
      -2.72328965e-003 -4.40745056e-003 -6.52140472e-003
      -3.30743985e-003 1.44809939e-003 7.33044930e-003 4.78706509e-003
      -1.10930135e-003 -5.50395716e-003 -7.50918081e-003 2.21702829e-003
      -6.60905847e-003 -8.53879191e-003 -9.92008019e-004 6.29282743e-003
      3.13149113e-003 -4.71683568e-004 -1.47131656e-003 4.54163272e-003
      3.51136201e-003 -1.22946058e-003 -4.32837242e-003 -5.54311671e-004
      1.33605313e-003 -9.92178684e-005 -6.74219523e-003 -1.82035682e-003
      5.03907539e-003 -2.16553322e-004 -1.53575547e-003 -2.27069925e-003
      9.92369489e-004 3.78077687e-003 8.06242024e-005 -2.39001052e-003
      -1.41975249e-003 -4.54095798e-003 1.15813978e-003 -1.23619948e-005
      5.89535339e-004 6.12971198e-004 3.17876413e-003 -3.43838590e-003
      -1.45426474e-003 8.09670775e-004 -3.95184197e-003 4.34858352e-003
      1.73909322e-003 -2.64809991e-004 1.72904856e-003 3.77099402e-003
      -1.66316784e-003 -6.11656252e-003 -3.34498403e-003 3.38512915e-003
      5.39917918e-003 9.09292430e-004 1.74670829e-004 -2.07225024e-003
      3.55164451e-003 9.65725631e-005 -8.64592264e-004 -3.49804806e-003
      1.71846477e-003 7.88199599e-004 -5.02842653e-004 6.60321442e-004
      4.11658664e-004 1.06100307e-003 -1.79201353e-003 -2.13167048e-003
      1.80090335e-003 -2.19250144e-003 2.83717469e-004 -2.47306889e-004
      5.49319549e-004 6.91708701e-004 9.73471848e-004 4.77543472e-005
      4.20622906e-004 1.80090335e-003 -3.57234222e-003 3.28034279e-003
      -3.32580938e-004 -1.26847837e-004 -1.89002836e-003 2.22392540e-004
      2.90280441e-004 2.93281465e-003 2.35648957e-004 7.71289851e-005
      8.21529538e-004 1.97741226e-003 6.81084290e-004 6.12290285e-004
      -6.79126126e-004 -5.09063502e-005 4.79845842e-003 3.91400047e-003
      -4.03388962e-003 -6.03302615e-004 -1.01470076e-004 1.30309447e-004
      5.91528806e-005 5.85778034e-005 6.18496677e-004 -2.78852880e-003
      2.04065954e-003 -4.20093210e-003 -1.20944111e-003 8.50992219e-004
      1.13921054e-003 3.49465699e-004 3.78073193e-004 6.54719770e-004
      -7.16624956e-004 2.04065954e-003 -2.36922206e-004 -3.26000474e-004
      9.54925723e-004 4.83994721e-004 3.01037799e-004 -3.87340988e-004
      2.21943716e-004 2.43109977e-003 4.74230386e-003 -4.74969251e-003
      -1.23416109e-003 -5.36073348e-005 1.93035608e-004 1.39789816e-004
      3.35136807e-004 9.89672029e-004 2.30228412e-003 2.04065954e-003
      -2.11980636e-003 -2.86679761e-003 8.15094914e-004 4.12179343e-003
      1.00663106e-003 6.09060109e-004 -4.78319969e-004 3.78344744e-003
      -5.51029865e-004 -1.48009695e-003 -3.12029151e-003
      -2.95005681e-004 3.23838810e-003 5.62076893e-005 -2.58768117e-003
      -3.19134537e-003 8.29647016e-003 5.71852177e-003 -2.55708653e-003
      -9.73271672e-004 1.71968451e-004 1.13821288e-005 -6.78881333e-005
      4.22336016e-004 -1.71395310e-004 6.43465202e-004 -5.06701297e-004
      -4.66516428e-003 -7.86503544e-004 -5.96970902e-004
      -6.38298166e-004 -6.89308858e-004 -1.30671612e-003
      -1.10242621e-003 6.46889722e-003 -5.06701297e-004 -3.29977646e-003
      -5.90519980e-004 8.04428302e-004 1.42904953e-003 -5.27763987e-005
      -2.22631381e-003 -2.57433951e-003 3.73912579e-003 4.25736979e-003
      -3.03396326e-003 -3.49159469e-004 2.10840511e-003 2.64749746e-003
      2.05889950e-003 8.33600666e-003 -4.77489550e-004 -1.21927513e-002
      -5.26269758e-003 -8.78538284e-003 1.25704173e-004 -7.55646732e-004
      -3.20746040e-004 -4.42598801e-004 -1.14111858e-003
      -7.52330292e-004 8.14813375e-003 1.35829754e-003 6.12775038e-004
      2.63855163e-005 1.44537119e-003 1.94782449e-003 1.04187836e-003
      2.66792718e-003 -2.05386919e-003 2.01883377e-003 1.35829754e-003
      -4.11680480e-003 -2.04327726e-003 1.36003713e-003 1.15567283e-003
      2.92506977e-003 1.73245575e-002 -2.56056082e-003 -1.22242775e-002
      -1.67195518e-002 -8.88530072e-003 -2.96531897e-003
      -7.99275513e-005 -6.50900707e-004 -1.46848254e-003 2.68493639e-003
      -5.64555917e-003 -5.25111612e-003 -7.31279794e-003
      -4.65653185e-003 -1.25033734e-003 3.66025558e-003 3.65943089e-003
      3.15819751e-003 5.34941116e-003 -4.44813259e-003 9.88325803e-004
      3.51036387e-003 -3.22208856e-003 -1.11757044e-003 3.03049153e-003
      3.98597075e-003 4.41214815e-003 2.68221623e-003 -8.92078690e-003
      -1.37893646e-003 -2.84785579e-004 -7.88569683e-004 4.62361658e-003
      -3.99164436e-003 -4.14338056e-003 -3.76538985e-004 4.20099357e-003
      -8.06853641e-004 -8.91765172e-004 -5.07224700e-004 9.24092066e-003
      5.54134604e-003 1.81806728e-003 -8.60186643e-004 1.64505211e-003
      6.36866200e-004 -2.53405212e-003 -7.38058472e-003 -4.20776848e-003
      7.61508755e-003 -2.68349511e-004 -2.32966850e-003 -4.35688009e-004
      6.43332547e-004 3.68103781e-003 -4.76074172e-003 -4.73864330e-003
      -2.47475691e-003 8.03306932e-004 8.63139809e-004 -2.46027455e-004
      -2.36568414e-003 3.44126456e-004 5.10988943e-003 -4.31830157e-003
      -4.75593377e-003 -4.39351657e-003 -2.54099537e-003 3.56186135e-003
      2.79812585e-003 2.97308131e-003 2.95281154e-003 3.06014554e-003
      -8.51025572e-004 -4.86696791e-003 -5.45635214e-003 2.54696282e-003
      1.59803790e-003 9.77659947e-004 -3.46555811e-004 -2.27609137e-003
      2.69954209e-003 2.69205892e-003 7.52744440e-004 -2.24233190e-005
      4.70087910e-003 -4.84837499e-003 -2.35898583e-003 -2.37250770e-003
      2.39375411e-004 6.36373134e-003 4.69881372e-004 -1.07417372e-003
      -3.04008392e-003 -4.09389567e-003 1.36984105e-003 -4.34079068e-003
      -1.29781233e-003 -4.65444231e-004 -1.59727887e-003
      -4.67684760e-004 -3.79599282e-004 2.14866106e-003 2.42066127e-003
      6.84898579e-004 -1.08832715e-003 -1.65617641e-003 -4.11630841e-003
      -3.81594431e-003 -2.38222559e-003 3.25542712e-003 2.58915825e-003
      2.97527574e-003 1.63846719e-003 4.51009860e-003 2.81301490e-003
      -3.02705378e-003 -5.85695030e-003 -6.96421834e-003 2.92091747e-003
      8.90729825e-006 3.17822327e-003 2.83498899e-003 -5.44195762e-003
      -1.55667996e-003 -1.65188545e-003 -4.97714989e-003
      -2.68160552e-003 -4.44583915e-004 1.85304356e-003 6.25246391e-003
      7.38515379e-003 -3.45096714e-003 -1.90888206e-003 -6.47252658e-003
      -9.32591781e-003 -7.39681721e-003 -3.76405055e-003
      -1.08291264e-004 7.20619783e-003 1.17520185e-003 2.64535518e-003
      7.53388682e-004 -2.22487398e-003 -3.11106374e-003 -3.69628961e-003
      8.40910245e-004 2.36044452e-003 -2.16760929e-003 -2.38727382e-003
      2.55089035e-005 -1.22421642e-003 -1.55746972e-003 -2.66627700e-004
      -8.83723442e-006 4.63947887e-003 6.30004390e-004 -1.57744554e-003
      1.01104183e-002 -2.46687955e-003 -3.90379247e-003 -7.37586990e-003
      -7.95324519e-003 -5.42049110e-003 -2.87002628e-003 4.71602325e-005
      6.94687804e-003 6.76753558e-003 -1.63703191e-003 -6.44053845e-003
      -8.82689189e-003 -9.16841626e-003 -3.97893135e-003 1.16962055e-003
      7.15589209e-004 8.39550700e-003 -1.82680867e-003 -3.97614422e-005
      -1.18208322e-004 -3.03482811e-004 1.77098569e-004 2.75198283e-004
      4.43654973e-003 4.56910842e-004 -5.91737265e-003 -7.43840763e-004
      -1.05129242e-004 1.47323124e-004 -1.99531234e-004 -1.43658137e-004
      -2.28933030e-004 5.86047908e-003 2.05465331e-004 -5.36985183e-003
      1.82813732e-003 -1.30269123e-004 -2.04752618e-003 -2.85756635e-003
      -3.23105371e-003 -1.32944586e-003 2.19191238e-003 1.31326646e-003
      1.67671638e-003 -3.90631729e-004 2.72164424e-003 8.77396160e-005
      -6.93965529e-004 -1.73850649e-003 -1.87281845e-003 2.13391008e-003
      3.12630145e-005 -5.61826571e-004 1.24889964e-004 -1.47606537e-004
      -1.08636323e-005 -8.69555006e-005 -1.34017653e-004
      -3.19183629e-004 -1.59033807e-003 8.92823737e-004 -2.25655944e-003
      -1.18120469e-003 1.68298982e-004 1.98534268e-004 -8.50404977e-005
      -1.79807394e-004 -1.01759599e-003 -2.59684911e-003 8.92823737e-004
      -4.38034860e-003 2.12618266e-003 1.13902288e-003 1.60920215e-004
      -1.54601330e-005 -4.43171768e-004 -9.19576269e-004
      -6.86132000e-004 1.25739735e-003 2.91096466e-003 1.94591470e-004
      -9.91733687e-005 -8.74623438e-005 -5.79995067e-005
      -6.83222606e-006 -1.06129017e-004 3.77854402e-003 8.92823737e-004
      -1.21366198e-003 -1.56917702e-003 1.54312851e-003 5.00139315e-004
      -1.06668170e-003 -4.53478284e-003 -2.07192567e-003 1.02306670e-003
      4.24445001e-003 -2.31720926e-003 7.57987436e-004 2.76771956e-003
      1.20020867e-003 -4.83401236e-004 -7.09239044e-004 -6.52905926e-003
      -5.84008521e-004 4.38319938e-003 1.41168223e-003 -2.55910098e-003
      -7.95762695e-004 -1.63521711e-003 -1.90221029e-003
      -1.16943207e-003 5.00171504e-004 6.05867803e-003 2.08481331e-003
      -1.45546102e-003 -2.41948734e-003 -2.28519272e-003
      -4.24202997e-003 -7.62116211e-003 -5.82802901e-003
      -1.57692446e-003 2.82105384e-003 7.01707276e-003 -4.26689163e-004</_></support_vectors>
  <decision_functions>
    <_>
      <sv_count>1</sv_count>
      <rho>-9.7100342703569276e-001</rho>
      <alpha>
        1.</alpha>
      <index>
        0</index></_>
    <_>
      <sv_count>1</sv_count>
      <rho>-2.2077751786601205e-001</rho>
      <alpha>
        1.</alpha>
      <index>
        1</index></_>
    <_>
      <sv_count>1</sv_count>
      <rho>7.8642050831223242e-001</rho>
      <alpha>
        1.</alpha>
      <index>
        2</index></_></decision_functions></my_svm>
</opencv_storage>
