<?xml version="1.0"?>
<opencv_storage>
<my_svm type_id="opencv-ml-svm">
  <svm_type>C_SVC</svm_type>
  <kernel><type>LINEAR</type></kernel>
  <C>1.0000000000000001e-001</C>
  <term_criteria><epsilon>1.1920928955078125e-007</epsilon>
    <iterations>1000</iterations></term_criteria>
  <var_all>1764</var_all>
  <var_count>1764</var_count>
  <class_count>3</class_count>
  <class_labels type_id="opencv-matrix">
    <rows>1</rows>
    <cols>3</cols>
    <dt>i</dt>
    <data>
      0 1 2</data></class_labels>
  <sv_total>3</sv_total>
  <support_vectors>
    <_>
      2.11924873e-002 3.83633822e-002 1.89061370e-002 2.39781626e-002
      2.16890182e-002 1.52599970e-002 2.63196584e-002 5.32510050e-004
      -2.35997643e-002 2.62823850e-002 2.46363822e-002 -3.47786862e-003
      1.65536422e-002 -8.56428128e-003 -1.84357371e-002 1.02393106e-002
      2.09042616e-002 1.39860250e-002 3.03193126e-002 6.28426746e-002
      3.34250405e-002 5.10178469e-002 2.79736780e-002 2.44545992e-002
      -3.96317616e-003 -6.09092601e-003 -2.45187860e-002 3.44388478e-004
      3.67123671e-002 -2.22543832e-002 -2.94388016e-003 2.46325769e-002
      -2.70169182e-003 2.09138542e-002 6.71122363e-003 -2.06874292e-002
      1.68292150e-002 2.50510871e-002 2.90931426e-002 4.20447113e-003
      -3.57708819e-002 -1.39220264e-002 4.83175972e-003 1.74014922e-002
      3.59662659e-002 1.75509136e-002 2.32408065e-002 6.23907559e-002
      -1.07257711e-002 -2.76647266e-002 5.11081773e-004 1.01636746e-003
      2.07555480e-002 3.13342437e-002 3.36101912e-002 4.34079915e-002
      1.07221650e-002 -2.01132568e-003 -9.81639232e-003 -1.71382409e-002
      -2.50454899e-003 3.28599918e-003 3.24837975e-002 -4.76468209e-004
      4.76574712e-002 4.22949456e-002 -2.36353353e-002 -5.49544953e-002
      -1.26446513e-002 6.58767112e-003 3.33351037e-003 3.67666855e-002
      -1.30217830e-002 4.01722407e-003 2.06211433e-002 -1.07948724e-002
      -3.22880447e-002 -1.27229025e-003 1.17289154e-002 1.43907825e-002
      1.23925144e-002 -7.63462018e-003 2.90296860e-002 3.01342979e-002
      -1.38190947e-003 -2.80061667e-003 -4.79937345e-003 1.13574192e-002
      7.45189376e-003 -2.58502271e-003 -2.67380197e-002 2.77443919e-002
      4.33495604e-002 7.97794666e-003 -3.10436916e-002 -9.53714654e-004
      1.11666843e-002 -2.36852001e-002 -1.80752184e-002 -4.50775813e-004
      -3.85459280e-004 3.12891714e-002 1.98604427e-002 1.96211711e-002
      2.04708315e-002 2.62946300e-002 5.86550310e-003 -2.87626442e-002
      4.40286938e-003 2.46407390e-002 1.35225635e-002 8.87858402e-003
      -1.27311014e-002 -4.86100232e-003 -8.44838005e-003
      -1.70291532e-002 -2.26160716e-002 2.76213363e-002 5.48654087e-002
      1.83320325e-002 1.20831339e-003 -3.94662023e-002 -6.85269898e-003
      -2.38904301e-002 -2.47925110e-002 -8.30223411e-003
      -1.26822374e-003 -7.85613526e-003 -3.20311915e-003 1.05206417e-002
      3.66402068e-003 8.30871239e-003 -3.89219448e-003 -1.00564333e-002
      -2.50305086e-002 2.68517733e-002 2.29462702e-003 -1.73448045e-002
      1.29925823e-002 -1.63790658e-002 9.79092671e-004 -1.36022856e-002
      -2.10931245e-002 -1.08882776e-002 3.13126692e-003 2.38944981e-002
      2.18604300e-002 -7.42013426e-003 -1.69024449e-002 -2.20109010e-003
      -8.78984760e-003 -1.24049075e-002 8.30441364e-004 -1.73999649e-002
      -3.24976891e-002 1.87779739e-002 3.97773227e-003 -3.71642062e-003
      -8.89879477e-004 1.18115579e-003 1.26361521e-003 1.35888411e-002
      -6.75423071e-003 -1.96873751e-002 7.23920157e-003 1.18743721e-002
      -4.52159392e-003 2.90023535e-003 -2.08061049e-003 -2.50782492e-003
      2.91046523e-003 -2.23560538e-002 -1.96873751e-002 2.74935607e-002
      2.20858734e-002 1.03274109e-002 4.16360097e-003 3.02126119e-003
      6.17867755e-003 1.41044017e-002 -1.01914089e-002 -2.60927863e-002
      1.87359732e-002 9.28372983e-003 2.15699477e-003 2.11523636e-003
      7.93095503e-004 -2.54984072e-004 1.77709740e-002 -2.94772582e-003
      -1.42595870e-002 1.71328951e-002 9.43639968e-003 7.22074276e-003
      6.50537293e-003 5.57573466e-003 2.94991373e-003 1.13213249e-002
      -8.70318990e-003 -1.36783691e-002 3.34055610e-002 1.74095016e-002
      1.18024936e-002 5.30916872e-003 1.15886598e-003 3.62948142e-003
      1.09913452e-002 -3.66294710e-003 -1.92523189e-002 1.22159934e-002
      -6.96671475e-003 1.81900442e-003 7.04339286e-003 2.07269588e-003
      -3.47092107e-004 -4.25260188e-003 -3.25499079e-003
      -1.69851873e-002 1.11701386e-003 4.52479580e-003 1.10716317e-002
      1.00672338e-002 1.24204820e-002 -1.99685292e-003 -5.82272466e-003
      5.72655676e-003 -1.42770689e-002 1.86733250e-002 7.46833207e-003
      -3.27160507e-002 -8.12736899e-003 1.84583645e-002 -1.48689058e-002
      -5.88164898e-003 -1.27569993e-003 4.94789844e-003 -1.97284184e-002
      -3.38720940e-002 -1.82322860e-002 5.11664664e-003 1.48571446e-003
      -6.51668059e-003 -1.83173548e-002 8.50684475e-003 1.03108836e-002
      -3.80852330e-003 -3.46651301e-002 -2.16123722e-002
      -1.71046648e-002 1.18150441e-002 -5.37807075e-003 -1.47736340e-003
      8.95827543e-003 5.93305267e-002 3.19040380e-002 3.55867259e-002
      7.36355782e-003 1.10422736e-002 6.85767736e-004 -1.01269400e-002
      -3.77373546e-002 3.20442324e-003 4.65349071e-002 1.46247875e-002
      2.34821183e-003 -1.65010672e-002 -3.82846873e-003 1.66632012e-002
      3.17160995e-003 -4.65551950e-002 1.88505966e-002 4.68113162e-002
      5.85235097e-002 1.99915338e-002 1.12691615e-003 -8.24673261e-005
      1.79235097e-002 4.63984162e-003 -8.66649766e-003 3.05009708e-002
      2.09395383e-002 3.06919161e-002 -1.34585621e-002 -3.25001404e-002
      -1.01782922e-002 2.02032011e-002 3.03814691e-002 2.65011867e-003
      4.91215754e-003 3.26191559e-002 1.90142833e-003 -1.34360865e-002
      -2.01853234e-002 -1.03158522e-002 3.37429298e-003 -1.07325716e-002
      -2.88156383e-002 1.00616533e-002 5.27514853e-002 2.68732943e-002
      -2.05095746e-002 -4.52772677e-002 -6.37851702e-003 6.12526294e-003
      -1.80438086e-002 -2.01802868e-002 2.98940893e-002 1.29010705e-002
      2.84392182e-002 -2.09932383e-002 -1.87073387e-002 -3.89170134e-004
      9.11937468e-003 3.93038336e-003 -1.22862300e-002 1.96004286e-002
      -6.34400733e-003 5.98678850e-002 -1.30782779e-002 -1.43665299e-002
      3.73293250e-003 5.85482037e-003 -4.07474674e-003 -5.58441225e-003
      -1.01753436e-002 7.49207614e-003 3.02605964e-002 7.73321779e-004
      -9.83935688e-003 1.80269722e-004 9.48834640e-004 -5.14914747e-003
      -2.48544682e-002 -1.45879779e-002 -2.78298054e-002 3.25643048e-002
      1.19520295e-002 1.19570820e-002 8.73752777e-003 4.69463831e-003
      4.24269354e-003 -1.22136828e-002 3.04321153e-003 -1.77682135e-002
      4.10195440e-002 8.94184411e-003 3.41765146e-004 1.24537491e-003
      6.97641983e-004 3.90124996e-003 2.45937542e-003 -1.34874890e-002
      -1.77682135e-002 5.58824018e-002 1.71738081e-002 7.86090177e-003
      4.27505933e-003 4.48582054e-004 6.17774343e-003 1.27059510e-002
      3.54729453e-003 -1.37695856e-002 4.67291195e-003 8.23737588e-003
      8.83601420e-003 3.65671166e-003 1.56234996e-003 2.24963250e-003
      -2.75956327e-003 2.87220925e-002 -6.44178130e-003 -8.54133349e-003
      1.44448597e-002 5.61360549e-003 2.92867958e-003 1.21043168e-003
      2.95108324e-003 4.09947615e-003 6.79780170e-003 -7.16677587e-003
      2.00071372e-002 6.19229581e-003 6.43616775e-003 3.20892222e-003
      2.41180439e-003 -1.07258536e-004 1.22676790e-003 1.60368737e-002
      -1.06266057e-002 -1.89192984e-002 5.63835539e-003 6.19500782e-003
      4.87794029e-003 2.36288900e-003 -9.68995504e-003 -3.24645005e-002
      2.42812764e-002 -4.47178492e-003 7.39961490e-003 1.96649358e-002
      7.08747935e-003 5.44830179e-003 3.23620718e-003 5.59494505e-003
      1.30895069e-002 7.63764651e-003 -6.62467396e-003 2.78015248e-002
      2.18232833e-002 1.75835639e-002 7.98752252e-003 3.13719152e-003
      5.96088683e-003 1.12679880e-002 -4.70884610e-003 -2.22936589e-002
      -9.09245387e-003 1.26691330e-002 1.56029277e-002 6.80678338e-003
      2.84968643e-003 -9.68462881e-003 -2.45969836e-002 -5.72004132e-002
      -5.80224991e-002 -3.19816209e-002 8.37900862e-003 2.17954144e-002
      1.21635469e-002 1.37309711e-002 2.73639932e-002 6.65114820e-003
      3.63968685e-002 1.20862974e-002 4.76611778e-002 1.34362914e-002
      1.30358180e-002 8.93951207e-003 2.92351819e-004 7.16440193e-003
      9.54657327e-003 2.05566697e-002 2.98777316e-002 -1.93181098e-003
      -3.23474444e-002 1.55528763e-003 1.62668955e-002 2.42746039e-003
      9.41113662e-003 3.82246030e-003 -5.98973818e-002 -5.73952384e-002
      -5.61216697e-002 -1.00007840e-003 1.67539809e-002 2.25559045e-002
      2.16493178e-002 4.37513031e-002 3.07734925e-002 -4.79815081e-002
      -8.85858685e-002 -7.45928138e-002 -3.37643847e-002 2.29840130e-002
      1.24074006e-002 1.45370401e-002 2.49239113e-002 2.85279620e-002
      2.18919478e-003 1.58585887e-002 -1.85773093e-002 -5.82155995e-002
      -2.62110978e-002 2.00759107e-003 -1.46054348e-003 2.10470823e-003
      -1.31899712e-003 1.91621389e-002 1.93480086e-002 -2.35122582e-003
      -1.08407605e-002 2.26748455e-002 -1.02028307e-002 -2.36798034e-004
      3.43302800e-003 9.73948557e-003 -3.51499468e-002 -6.29361570e-002
      -3.42402793e-002 -5.32987081e-002 -1.73338037e-002
      -1.50983678e-002 4.30484768e-003 3.30127869e-003 1.44126895e-003
      3.79089033e-003 -2.58185947e-003 -7.85061996e-003 1.14286039e-002
      2.59642862e-002 -3.95733640e-002 2.21025315e-003 5.04955882e-003
      7.20015820e-003 -1.06265107e-002 7.30178831e-003 3.67041528e-002
      6.77749887e-003 -4.75550583e-003 -4.77877184e-004 6.45987596e-003
      3.06528946e-003 -3.89221287e-003 3.12419701e-002 -3.02089714e-002
      2.69116946e-002 3.91996279e-003 -5.28301252e-003 4.39057738e-004
      4.92182607e-003 7.55447662e-003 6.38965797e-003 -3.00176698e-003
      -3.52171436e-002 1.22587485e-002 2.47509610e-002 1.08770514e-002
      4.07902850e-003 1.85344182e-002 1.01509495e-002 4.19195089e-003
      2.02779043e-002 -2.59237997e-002 1.02849370e-002 1.42461369e-002
      1.38392148e-003 3.30876512e-003 1.56900175e-002 1.86518207e-002
      2.41706632e-002 2.85502654e-002 -2.90753487e-002 2.52471548e-002
      2.04829569e-003 -1.74327206e-003 1.71355624e-003 2.99852341e-003
      4.73392662e-003 8.39171465e-003 -4.01782151e-003 -1.83917992e-002
      4.98463996e-002 5.76208951e-003 3.05847311e-003 4.98636486e-003
      4.31624241e-003 3.79671855e-003 1.31172007e-002 4.39031720e-002
      -2.20060311e-002 -5.69634093e-003 6.80391863e-003 7.13879650e-004
      2.08698492e-003 4.57212050e-003 1.56999007e-002 2.11837459e-002
      1.28854569e-002 -3.31381336e-002 -4.17340640e-003 1.16390595e-002
      1.24157947e-002 1.23904478e-002 7.83816539e-003 1.34228719e-002
      1.68297887e-002 2.98096595e-004 -1.31346891e-002 2.81731039e-002
      1.19817229e-002 4.22751345e-003 3.93969053e-003 2.08639307e-003
      4.64363070e-003 1.47309853e-002 1.40187256e-002 -1.31346891e-002
      1.60452407e-002 -6.07687933e-003 5.59359975e-003 2.01517483e-003
      1.06649124e-003 2.59957183e-003 2.35741362e-002 -7.85722211e-003
      -3.32026072e-002 6.33305265e-003 2.31066830e-002 8.87688436e-003
      1.00106504e-002 2.48867599e-003 1.38302017e-002 1.47413649e-002
      9.05535650e-003 -4.55600396e-002 8.62850342e-003 -1.99076179e-002
      -1.96118420e-003 -7.30375107e-003 5.50158229e-003 -8.70041829e-003
      1.40107032e-002 2.17889473e-002 1.14276716e-002 -1.26907099e-002
      -4.28619422e-002 4.49880259e-003 3.43960105e-003 7.43306009e-003
      2.45254114e-003 1.88491587e-002 -4.73280624e-003 4.64795594e-004
      -3.64125855e-002 -3.29020470e-002 1.08757708e-002 1.06509393e-002
      4.82325733e-004 -1.31415585e-002 -3.46583501e-002 4.01060134e-002
      -1.98971909e-002 -2.20552403e-002 -7.34998435e-002
      -1.95025243e-002 -8.25722609e-003 8.43083858e-003 -9.37936921e-003
      3.38032097e-002 1.82727352e-002 -4.26569059e-002 -4.67880294e-002
      -5.33075742e-002 -1.04994411e-002 2.91595887e-003 -7.99066108e-003
      -1.11051202e-002 -1.93652741e-004 -3.33484076e-002
      -2.53010839e-002 -4.01506259e-004 1.17390556e-002 2.52461638e-002
      9.44640953e-003 -1.18773233e-003 -9.94818565e-003 -1.68834738e-002
      -4.16891575e-002 -8.73892978e-002 -3.16800550e-002 1.02498205e-007
      9.41444375e-003 -1.23939449e-002 3.99925141e-003 1.97038259e-002
      3.10848150e-002 7.51883956e-003 -5.15853912e-002 -1.30496137e-002
      7.91786984e-003 2.64766589e-002 1.38865719e-002 -1.29173510e-002
      -1.85747053e-002 2.42254138e-002 -7.04322895e-003 -5.69006391e-002
      -9.79501940e-003 2.62282719e-003 -8.04071594e-003 -2.76720040e-002
      -4.86736298e-002 -3.35418880e-002 2.78484877e-002 -4.81811091e-002
      -1.14361994e-001 -5.23945950e-002 -1.06559461e-002 5.47312852e-003
      -2.77113332e-003 -1.02591119e-003 1.71000138e-002 3.17651518e-002
      -2.49172989e-002 -9.66657326e-002 -4.84028496e-002
      -1.77523922e-002 -7.26407161e-003 -8.69451836e-003 1.81678648e-003
      7.30556250e-003 2.55090147e-002 1.57878865e-002 -5.82592525e-002
      -1.60942413e-002 -3.43864877e-003 -1.10263086e-003
      -2.24555191e-002 -3.70735414e-002 -3.63338776e-002 2.04370841e-002
      1.94916558e-002 -2.46006064e-002 -2.65914127e-002 -2.95791286e-003
      -4.65277443e-003 -7.22267758e-003 2.65283813e-003 2.68369615e-002
      4.14552912e-002 -2.37395316e-002 -4.86186408e-002 -1.64366495e-002
      -1.66921392e-002 -4.68198098e-002 -3.03804092e-002 1.62403134e-003
      8.14963132e-003 1.47124389e-002 6.78607635e-003 4.62732365e-004
      8.85115284e-003 2.07078252e-002 -8.80265608e-003 -4.01691720e-002
      7.96335656e-003 1.46389510e-002 1.22730192e-002 -6.31809933e-003
      -1.96757820e-002 -1.54533712e-002 -5.19229192e-003
      -3.21142264e-002 -9.97467898e-003 1.07244644e-002 3.32986601e-002
      5.68503104e-002 2.00455282e-002 3.34793678e-003 9.70367435e-003
      1.45842470e-002 -9.89360083e-003 -1.70577131e-002 1.51025886e-002
      2.64082123e-002 3.08126956e-002 1.21015199e-002 -5.17454073e-002
      3.45001672e-003 2.18988527e-002 1.63006317e-002 4.12015157e-004
      1.09867379e-002 -2.99884891e-003 1.11332433e-002 2.10790094e-002
      -3.30264606e-002 -6.39077835e-003 -3.98430927e-003
      -3.14142380e-004 1.21232087e-003 7.75356451e-003 3.16466787e-003
      2.60541961e-002 1.93183124e-002 1.81607679e-002 1.19159035e-002
      1.34917749e-002 1.67681854e-002 -2.38110754e-003 2.48058466e-003
      -3.10136341e-002 -1.41132679e-002 2.47019306e-002 2.82736178e-002
      1.63565744e-002 -1.75168912e-003 1.43072288e-002 4.19888040e-003
      -2.62427777e-002 -1.95111483e-002 -1.42895207e-002 2.96414383e-002
      -3.31190825e-002 -1.17072109e-002 -6.86471770e-003
      -9.67336074e-003 5.88620605e-004 -2.91336351e-003 1.72742316e-003
      8.09442531e-003 3.35727148e-002 -4.12975326e-002 -1.36875659e-002
      5.29234670e-003 2.40608398e-003 7.96340127e-003 -5.58734266e-003
      1.37961330e-002 7.11795408e-003 1.84837282e-002 1.75373331e-002
      1.80522483e-002 -1.88959646e-003 -3.58445896e-003 7.54514569e-003
      -4.67301765e-003 -1.52498484e-002 -2.30815057e-002 1.48194563e-002
      7.06183026e-003 8.27391073e-003 6.61539333e-003 -4.49337298e-003
      9.49145667e-003 -3.71906930e-003 -1.87872685e-002 -1.07731270e-002
      1.42587209e-002 -1.14119854e-002 2.89720600e-003 1.04437796e-002
      -1.70873553e-002 8.80198460e-003 -5.10226004e-003 1.42128756e-002
      9.09036212e-003 -1.54575538e-002 -2.07260158e-002 6.27570553e-003
      1.67667679e-002 -1.38292434e-002 -2.25067511e-002 -7.04691699e-003
      -3.14792767e-002 -2.63670087e-002 1.41853066e-002 6.39645103e-003
      7.17730029e-003 3.07370280e-003 -1.70717351e-002 9.36421193e-003
      -2.07243953e-003 -1.74376406e-002 -3.44759226e-002
      -1.86179224e-002 -1.83360279e-002 -7.20684230e-003 2.33739335e-002
      1.99580770e-002 2.28447933e-002 -4.71170386e-003 -4.36415821e-002
      -4.67533804e-002 -2.37889844e-003 -3.74263898e-002
      -1.60638243e-002 -4.33777692e-003 -7.34390458e-003
      -1.31908758e-002 -1.11318147e-002 -4.21481542e-002
      -2.40906309e-002 -1.81505401e-002 -4.96705286e-002
      -1.75255351e-002 7.07421498e-003 2.72791162e-002 1.96244102e-002
      6.11974578e-003 -2.99003739e-002 -3.15943211e-002 -3.36440466e-002
      -4.71580364e-002 -3.56541947e-002 1.10216262e-002 3.90497074e-002
      4.45179045e-002 1.24745853e-002 -2.91666947e-002 -3.65866199e-002
      -4.86849621e-002 -6.97899312e-002 -3.00244894e-002 2.06954181e-002
      1.04057118e-001 7.94693679e-002 6.08777590e-002 -4.01874818e-003
      -3.52402851e-002 -1.70753039e-002 -2.95613240e-002 9.22297314e-003
      2.68320050e-002 4.98865992e-002 2.06659827e-002 -2.70915590e-003
      -3.32278274e-002 -4.22368571e-002 -1.95756499e-002
      -1.23671368e-002 1.99159943e-002 1.54541032e-002 2.31750682e-002
      -3.38922464e-003 -3.97882387e-002 -5.00254445e-002
      -1.13514215e-002 -4.02222797e-002 -3.70789804e-002
      -1.20965969e-002 3.84167805e-002 9.26128924e-002 6.80525377e-002
      3.62259969e-002 -1.48951607e-002 -6.68778718e-002 -2.37436276e-002
      -4.13907729e-002 -2.76883263e-002 2.61401907e-002 7.00663179e-002
      3.91753577e-002 -8.87573324e-003 -2.87917126e-002 -3.23050432e-002
      -7.78539199e-003 -2.51393002e-002 -1.49441781e-002
      -9.82372556e-003 3.59056052e-003 -1.04857935e-002 -1.25732748e-002
      -1.27641819e-002 2.31517423e-002 1.14598987e-003 -5.29364608e-002
      -4.79006246e-002 -1.26753002e-002 -1.47139253e-002
      -4.86615533e-003 1.82538368e-002 3.91529649e-002 5.10376543e-002
      -2.87674628e-002 -4.67875339e-002 -5.49711883e-002
      -2.57384907e-002 1.77827273e-002 6.11673016e-003 -4.88794222e-003
      8.55076476e-004 3.72068845e-002 1.27899498e-002 -8.44592974e-002
      -6.50448352e-002 -8.15876499e-002 -3.20172533e-002 2.67077256e-002
      2.61210799e-002 3.74773443e-002 6.88085407e-002 2.57542729e-003
      -2.93138009e-002 -2.04661358e-002 -1.73100052e-005
      -2.11585108e-002 1.83632935e-003 1.41782891e-002 1.56815406e-002
      3.82195786e-002 1.66741330e-002 3.98038747e-003 4.84991819e-003
      8.09801102e-004 -2.60294788e-002 1.17832348e-002 1.58197246e-002
      1.34859271e-002 1.80958323e-002 2.72832308e-002 -5.17885424e-002
      -5.22029214e-002 -5.57518192e-002 -3.67562175e-002 2.89022587e-002
      2.65951995e-002 1.31845996e-002 4.06884402e-002 2.02864632e-002
      3.82004236e-003 1.63351707e-002 5.03222737e-003 -2.40090284e-002
      1.16591509e-002 8.55223369e-003 7.35910051e-003 1.34282457e-002
      1.54327080e-002 8.39885511e-003 2.87777279e-003 3.60512966e-003
      6.89422060e-003 1.33273685e-002 1.64961722e-002 -3.55360508e-002
      5.76849887e-003 8.95454735e-003 8.60492140e-003 6.56195031e-003
      4.03345097e-003 1.64878108e-002 1.85012408e-002 1.48254046e-002
      -2.20253672e-002 -1.87079031e-002 1.12242261e-002 2.41455510e-002
      9.66635998e-003 5.30929351e-003 -1.46449991e-002 -2.15599546e-003
      7.57369271e-004 1.06281620e-002 2.91625615e-002 2.86931731e-003
      1.86591502e-002 6.70224754e-003 -3.97409173e-003 -3.79378651e-003
      9.44298878e-003 2.74401195e-002 -2.59308740e-002 -9.34486452e-005
      6.90816389e-003 6.46572700e-003 5.06893452e-003 3.42003652e-003
      7.31146196e-003 8.80791061e-003 4.25994918e-002 -2.51295697e-002
      8.46535200e-004 3.81680671e-003 4.23040334e-003 1.76403089e-003
      6.14517694e-003 5.91216702e-003 1.29948314e-002 4.67981957e-002
      -2.41428148e-002 -8.53764825e-003 3.53071163e-003 7.65995635e-003
      6.58096978e-003 -9.24883992e-004 5.56662213e-003 1.48689682e-002
      3.80577520e-002 -3.82759385e-002 -1.21888584e-002 7.76799675e-003
      1.13090186e-003 2.02360214e-003 4.16200934e-003 3.20738321e-003
      2.35661585e-002 6.23151772e-002 -2.27841642e-002 -7.10727600e-003
      8.26355070e-003 2.76786205e-003 2.34416849e-003 6.39616419e-003
      5.64926444e-003 1.08370446e-002 2.84453668e-002 -2.76733432e-002
      -2.56444141e-002 1.26610193e-002 4.40552877e-003 2.62980256e-003
      6.64549321e-003 3.17433737e-002 2.30058990e-002 2.41275597e-002
      -4.42834012e-002 -3.77524346e-002 7.63732800e-003 1.29952037e-003
      2.17432459e-003 5.57629159e-003 5.20088151e-003 1.64788906e-002
      4.37004045e-002 -1.39485747e-002 -1.20231016e-002 1.64141171e-002
      6.23355666e-003 6.00067386e-003 7.62107922e-003 1.87418088e-002
      1.42279575e-002 5.23584262e-002 -1.20420046e-002 -8.94141849e-003
      -9.60004423e-003 -9.55074839e-003 -1.27889169e-002
      -1.13943510e-003 5.03689982e-002 4.20108400e-002 1.90220401e-002
      -5.35106286e-002 -3.45422588e-002 -3.42554823e-002
      -5.52138537e-002 -5.46857491e-002 1.22892652e-002 8.63934010e-002
      8.37114379e-002 3.96820940e-002 -1.96322165e-002 -8.42016935e-003
      5.08790556e-003 2.90864753e-003 -2.37575197e-003 9.21481289e-003
      3.59949209e-002 2.05715932e-002 4.99578081e-002 -2.28896532e-002
      -3.61490101e-002 -1.33841690e-002 -5.16782776e-002
      -6.08758442e-002 1.32755637e-002 7.15767145e-002 5.18752635e-002
      6.01113513e-002 -3.12898085e-002 -6.24228232e-002 -1.07244765e-002
      -6.26991242e-002 -9.38302204e-002 1.45799825e-002 7.63480216e-002
      7.36833289e-002 3.82418558e-002 1.84886958e-002 2.06967946e-002
      -4.94999029e-002 -9.54510942e-002 -8.67329910e-002 1.48226628e-002
      7.18643889e-002 5.56261726e-002 2.37616934e-002 2.51778308e-002
      1.58895962e-002 3.26415524e-002 -5.62491380e-002 -9.12746489e-002
      -9.35444329e-003 5.63972071e-002 4.96181436e-002 3.50730941e-002
      -1.31378463e-002 1.49098795e-003 2.63678469e-002 -5.01518212e-002
      -5.10297753e-002 -4.35513072e-003 4.64083813e-002 2.79162601e-002
      -8.20473116e-003 -3.38304676e-002 1.72215719e-002 -5.11473976e-002
      -6.03830665e-002 -4.90692146e-002 1.27787944e-002 6.58290833e-002
      3.18113081e-002 -1.62072363e-003 1.02917254e-002 4.64118505e-003
      -8.55189003e-003 -4.44950759e-002 -4.06957045e-002
      -6.87759742e-002 -1.56936478e-002 2.31906846e-002 1.32966805e-002
      2.88794022e-002 3.61784883e-002 -2.56643421e-003 -2.60766521e-002
      1.29403651e-003 2.22467687e-002 5.31755425e-002 1.01453271e-002
      -1.02424501e-002 -3.75988968e-002 8.62542074e-003 -1.79263030e-003
      -7.53362384e-003 2.71942299e-002 -4.41070786e-003 -1.24865528e-002
      -1.66182909e-002 1.35660581e-002 -8.66565853e-003 1.62109379e-002
      1.19567215e-002 -1.26025267e-002 -8.75379611e-003 -4.85784262e-002
      -5.43409772e-002 3.02886516e-002 2.05938108e-002 1.22827692e-002
      3.25841457e-002 1.57295689e-002 1.20778522e-002 1.62456241e-002
      1.33224931e-002 -2.06688363e-002 9.31139942e-003 8.14665854e-003
      3.87550611e-003 1.02403322e-002 1.19075216e-002 8.01560190e-003
      1.53546063e-002 -5.32382284e-004 -5.53202964e-002 -1.41331833e-002
      9.31728352e-003 -2.45629600e-003 1.60749424e-002 1.69902407e-002
      1.44237615e-002 1.64015852e-002 1.19993873e-002 -1.32298842e-002
      -1.89015339e-003 6.22289907e-003 3.19268042e-003 1.01025347e-002
      1.95100941e-002 6.30459338e-002 3.93393449e-002 2.00861376e-002
      -1.70310494e-002 -2.71864347e-002 -1.30845429e-002
      -4.01008502e-003 7.06979912e-003 1.33754369e-002 4.61463034e-002
      2.10192259e-002 -9.87376366e-003 -1.83450989e-002 -1.45538058e-002
      9.06757894e-004 -1.73638724e-002 9.34161188e-004 -1.88882072e-002
      4.39790897e-002 4.74170856e-002 2.43411455e-002 9.63478629e-003
      7.80411588e-004 7.74783129e-003 9.44325584e-004 -3.44885923e-002
      -1.52342441e-002 1.02481712e-002 3.31257358e-002 1.82394311e-002
      1.54972700e-002 -2.76699406e-003 2.34704465e-002 1.94043536e-002
      -5.51717505e-002 5.32536954e-003 1.16368346e-002 1.06689520e-002
      -6.50238805e-003 -1.23952189e-002 8.57234467e-003 3.58200073e-002
      -2.61461902e-002 -1.19725168e-002 9.48423520e-003 -5.48642082e-003
      1.19565902e-002 2.04593246e-003 -2.52086786e-003 1.90728940e-002
      3.73163782e-002 -2.05087960e-002 -7.89888483e-003 3.19253042e-004
      2.67638359e-003 1.06543070e-002 -2.39027012e-003 -1.29737109e-002
      -6.52295537e-003 2.53297258e-002 2.56485883e-002 -1.39692705e-002
      9.45941545e-003 2.04467215e-002 2.93017346e-002 1.42817234e-003
      -3.84377986e-002 -2.60286927e-002 8.75938684e-003 -2.03793328e-002
      -1.77754276e-003 3.85548850e-003 -1.57957169e-004 5.32418769e-003
      5.56470081e-003 8.44344683e-003 1.53768500e-002 2.72574686e-002
      -3.39429229e-002 1.63606182e-002 5.68424957e-003 2.69648642e-003
      5.72477700e-003 6.83258940e-003 9.85111389e-003 1.44403251e-002
      2.71336362e-002 -2.57045142e-002 1.82055570e-002 8.36669700e-004
      1.78648699e-002 1.85730513e-002 8.37907195e-003 7.89883733e-003
      1.09338807e-003 -8.57560150e-003 -4.34097126e-002 -5.07409626e-004
      -2.86717690e-003 1.03444178e-002 1.81576163e-002 1.16621116e-002
      2.04648357e-002 2.42199674e-002 -2.56890454e-003 -2.86822673e-002
      -1.59218049e-004 5.59054362e-003 2.25364650e-003 1.33806583e-003
      4.31897771e-003 9.99531988e-003 1.09928800e-002 3.87372710e-002
      -1.94356032e-002 2.02683266e-003 1.92343548e-003 -6.08471734e-003
      -6.05599768e-003 3.40529950e-003 2.01294739e-002 1.80055369e-002
      5.96264191e-002 -1.73360948e-002 -2.70930752e-002 2.32734554e-003
      3.19659151e-003 5.39275305e-003 4.11694963e-003 3.42482189e-003
      1.50371557e-002 -1.00296969e-003 -2.15184446e-002 1.16127431e-002
      5.16255479e-003 1.42868096e-003 1.39628327e-003 1.32623932e-003
      1.26595609e-004 7.41671072e-003 2.53428537e-002 -1.73360948e-002
      -2.76205433e-003 2.22372785e-002 -1.24533137e-003 -1.42097352e-002
      -2.67754262e-003 1.18906535e-002 8.28633085e-003 3.55070829e-002
      -9.62149166e-003 -1.67394821e-002 3.82367708e-002 1.42959729e-002
      1.13317335e-003 4.80141956e-003 1.33785661e-002 -8.37694854e-004
      -2.28888858e-002 -3.56180705e-002 -1.27081415e-002 9.72055923e-003
      -1.90710719e-003 1.52971945e-003 4.83190001e-004 1.16047368e-003
      2.07735971e-003 2.20122878e-002 -4.49924497e-003 -1.55598242e-002
      1.08202770e-002 2.88928463e-003 4.89648338e-003 3.97310127e-003
      4.44237515e-003 -2.80849123e-003 -1.10527249e-002 -4.49924497e-003
      -9.21702106e-003 3.58611941e-002 2.12116782e-002 2.20947433e-002
      1.51446955e-002 1.78625770e-002 -1.12352206e-003 -3.09563521e-002
      -6.68661296e-002 1.20852236e-003 2.44952179e-002 1.31637286e-002
      1.00163938e-002 -6.02710480e-003 -2.88606435e-002 1.94353703e-003
      -2.40096096e-002 -8.64719898e-002 -2.51608231e-004 7.91180041e-003
      1.09666828e-002 6.80166995e-003 6.04326464e-003 6.63644820e-003
      1.03956694e-002 -1.85992196e-002 2.48201191e-002 2.87108049e-002
      5.48297726e-003 3.33314529e-003 -2.98176613e-003 2.26164283e-003
      3.82664939e-003 2.29263771e-002 -6.65453672e-002 2.48201191e-002
      2.89451145e-002 1.70317367e-002 3.48396343e-003 5.88552561e-003
      -2.98512215e-003 -4.08430621e-002 -1.54258935e-002
      -4.61461022e-003 -3.15856263e-002 -1.83133339e-003 2.20254418e-002
      3.57439904e-003 9.89371538e-003 3.32329273e-002 3.55657423e-003
      -9.52312723e-003 1.85843208e-003 1.11850421e-003 8.86409730e-003
      -7.25793466e-003 -1.69831980e-002 -1.28587317e-002
      -4.80237155e-004 4.30262368e-003 1.48317227e-002 -5.08277118e-002
      -4.83021326e-002 -1.80558860e-002 -1.04647558e-002
      -1.15939742e-002 -3.87520134e-003 3.38646048e-003 -5.17670019e-003
      4.01146077e-002 -4.75046178e-003 -2.30541024e-002 -5.88476984e-003
      -3.22002843e-002 2.28896551e-002 3.79944071e-002 1.79213230e-002
      8.96772929e-003 1.79492272e-002 1.58865806e-002 1.29884230e-002
      -3.09503451e-002 -4.21062633e-002 6.83713285e-003 2.85787992e-002
      2.70854179e-002 3.20107378e-002 2.86123846e-002 2.14841478e-002
      2.28818543e-002 -5.20463623e-002 -1.91813037e-002 2.61524580e-002
      2.64050961e-002 5.30728232e-003 1.35731865e-002 2.36176513e-002
      1.37258302e-002 1.82638243e-002 -1.97112821e-002 -2.82277893e-002
      2.01997738e-002 2.13332921e-002 4.70251357e-003 -9.65203438e-003
      2.11527050e-002 6.76538376e-003 2.43172906e-002 -2.07948200e-002
      -2.89667919e-002 -6.01455220e-004 -3.86397558e-004 7.68520636e-003
      4.71512275e-003 8.48089531e-003 1.39557738e-002 2.54063420e-002
      -3.12969647e-002 1.90483946e-002 3.55581194e-002 3.58981490e-002
      2.29588244e-002 -1.12785464e-002 -1.66263636e-002 -4.57073934e-003
      -1.69472881e-002 -3.51593681e-002 3.93232331e-003 2.63253646e-003
      1.08419638e-002 1.46266269e-002 -1.60191711e-002 1.11474684e-002
      1.60785150e-002 3.39954570e-002 3.59056867e-003 -1.75548457e-002
      -2.34042108e-002 -8.38828553e-003 1.99295282e-002 2.07461696e-002
      3.20440568e-002 3.04704700e-002 1.60638820e-002 -6.79093227e-003
      1.36840465e-002 3.18560489e-002 2.34100055e-002 1.47840772e-002
      2.06210446e-002 1.53655540e-002 -5.59090683e-003 -4.14852835e-002
      -4.51943949e-002 -1.08071743e-002 2.03472916e-002 1.44196190e-002
      2.40841862e-002 3.71327624e-002 2.97948178e-002 4.62901872e-003
      -9.95928980e-003 -3.79490629e-002 -1.97329745e-002
      -5.53819258e-003 -9.67994891e-003 2.36769114e-003 3.51239480e-002
      3.03081665e-002 2.27007419e-002 3.42980772e-003 -1.71610452e-002
      -9.55428649e-003 5.99177601e-003 5.46234474e-003 3.11369915e-002
      5.19146323e-002 3.11625339e-002 1.92025639e-002 1.64941270e-002
      8.60991981e-003 -2.58494597e-002 4.74885479e-003 1.40619455e-002
      1.64226666e-002 8.15693568e-003 1.85389481e-002 -3.29323579e-003
      -1.28672356e-002 1.17722508e-002 -2.98045948e-002 -3.92354187e-003
      4.36935108e-003 8.41489714e-003 4.86728922e-003 2.36076042e-002
      2.81589814e-002 5.32324472e-003 1.42455827e-002 -2.97261961e-002
      3.93327605e-003 1.73596404e-002 3.07163987e-002 1.89896915e-002
      1.53988171e-002 -9.80740995e-004 9.53493547e-003 -7.50045758e-003
      -3.76891308e-002 -1.35802303e-003 7.15451222e-003 1.53681869e-002
      2.18693856e-002 3.13176773e-002 1.16212359e-002 8.34213570e-003
      -3.66392992e-002 -3.18944920e-003 -5.33175422e-003
      -5.58275264e-003 -1.82700064e-003 4.19409247e-003 6.60998607e-003
      1.16660874e-002 3.23998672e-003 1.80269033e-002 1.43595133e-003
      -8.77070706e-003 -3.08208214e-003 -3.47922964e-004 7.43113179e-003
      5.49962232e-003 5.16351033e-003 -4.78176679e-003 1.40004279e-002
      -1.46400277e-002 -1.47443963e-002 -1.70305613e-002
      -6.84830651e-004 8.89856089e-003 1.18396068e-002 8.31660524e-004
      -9.43283364e-003 4.55186376e-003 -1.60337277e-002 -3.30967866e-002
      -1.43280132e-002 -4.09214944e-003 1.25728957e-002 1.46642346e-002
      1.25630610e-002 8.07569921e-003 2.82338471e-004 -7.38331303e-003
      -5.63882804e-003 -4.73279535e-004 1.59609551e-003 5.89237409e-003
      1.07043302e-002 2.67291199e-002 -9.80111212e-003 -4.39040409e-003
      -6.70525432e-003 -4.90621710e-003 1.37559336e-003 4.77180164e-003
      6.80519873e-003 1.30121475e-002 -1.18826152e-004 -9.80111212e-003
      1.40163219e-002 -1.27515821e-002 -2.01313999e-002 -4.69359988e-003
      -3.27002164e-003 7.61070941e-003 1.35824215e-002 2.47438019e-003
      -4.63190768e-003 -1.44873969e-002 -5.99747011e-003
      -3.64703732e-003 1.15393684e-003 9.59297933e-004 7.96103850e-003
      1.41832698e-002 5.47078671e-003 -1.03471801e-002 1.16545437e-002
      -1.02767267e-003 -1.96272344e-003 5.58684254e-003 9.83849913e-003
      2.71456148e-002 1.23474058e-002 -2.48697698e-002 -3.05681061e-002
      1.58163682e-002 -1.33705605e-002 5.12107136e-003 1.22906948e-002
      1.07081514e-002 -7.24981120e-003 2.99577042e-002 -6.31231256e-003
      -4.17117365e-002 -7.80484546e-003 1.55650293e-002 1.46013899e-002
      1.42761031e-002 1.31230429e-002 2.15597041e-002 1.45216263e-003
      -1.04140956e-002 -2.44877525e-002 1.54244890e-002 2.03598160e-002
      2.55642328e-002 1.21728554e-002 4.41783890e-002 1.87370777e-002
      8.37420300e-003 -4.92804975e-005 -5.08435816e-002 -6.39739307e-003</_>
    <_>
      -9.78708849e-004 3.70505452e-002 1.52658746e-002 1.04667218e-002
      -2.99752597e-003 1.35407252e-002 1.20166782e-002 -1.49505157e-002
      -2.95414347e-002 1.14174671e-002 2.79502254e-002 -1.23862112e-002
      -9.28094704e-003 1.06474236e-002 1.37070485e-003 5.94322151e-003
      2.67136446e-003 -4.18987265e-003 -1.01690404e-002 3.48068736e-002
      -3.51567613e-003 1.27460230e-002 1.03860823e-002 1.55310463e-002
      -1.06417211e-002 -1.38947405e-002 -3.27230021e-002
      -3.56241874e-002 1.47483274e-002 -2.07214970e-002 -1.92936324e-002
      3.37912999e-002 1.69106591e-002 9.91396420e-003 2.54185535e-002
      -2.13924330e-002 -1.61626488e-002 -3.90375382e-004 2.09597535e-002
      2.83481233e-004 -3.20727646e-004 -1.07076531e-002 -1.06480508e-003
      6.61537575e-004 -2.22756760e-003 6.14662608e-003 -3.02892458e-003
      7.21232891e-002 1.41940881e-002 -5.14811091e-003 -2.49725636e-002
      -1.80318393e-002 5.55961952e-003 -2.19470151e-002 -2.76887231e-002
      8.03926867e-003 4.13781172e-003 1.22254463e-002 3.63723785e-002
      5.19032404e-003 -9.51914769e-003 1.09986905e-002 -7.17909716e-004
      -1.43109122e-002 -1.33301141e-002 3.96058075e-002 8.71402211e-003
      2.55271215e-002 -2.06016451e-002 -3.09814252e-002 -3.29063833e-003
      1.72402512e-003 -4.68694558e-003 -1.22746974e-002 2.29406059e-002
      1.37929674e-002 -2.84443551e-004 -1.58969108e-002 -4.93114465e-004
      1.61642022e-002 -4.07691672e-003 -2.25659162e-002 -1.69220229e-003
      8.23602639e-003 5.05983597e-003 9.90164466e-003 -2.88493074e-002
      -6.99093565e-003 1.41025456e-002 7.95050338e-003 1.39473166e-004
      -7.05750193e-003 2.74600293e-002 -4.34956193e-004 7.18714553e-004
      -8.52496084e-003 -6.41740719e-003 -3.32273892e-003 2.43347022e-003
      5.72055345e-003 4.75341594e-003 -1.14082769e-002 1.21016204e-002
      3.22719890e-004 -7.42333010e-003 3.34915938e-003 -7.59390357e-004
      -1.32204536e-002 -1.67343151e-002 1.61418729e-002 2.77171755e-004
      -5.85814938e-003 1.41341949e-003 -5.99416997e-003 -6.19693426e-003
      6.22255122e-003 -5.45356655e-003 8.88563413e-003 3.81469168e-002
      -2.21054312e-002 -3.23313549e-002 -2.43694913e-002
      -3.57436412e-003 -8.90914537e-003 5.82451886e-003 1.63043924e-002
      2.67854277e-002 2.29569972e-002 -3.33357677e-002 -1.22349933e-002
      3.96653963e-003 -2.37592636e-003 -7.77371647e-003 -2.19921884e-003
      -1.68627109e-002 4.39508073e-002 1.00323735e-002 -3.52552198e-002
      -2.34470479e-002 -1.09858252e-002 -2.72672577e-003
      -1.09140538e-002 -7.08151516e-003 -1.73670929e-002 5.32981148e-003
      3.77872959e-002 -7.25267280e-004 -1.37686357e-002 -1.43002747e-002
      -2.97910348e-003 -5.90808084e-003 3.94311594e-003 1.65721066e-002
      -2.74897763e-003 -1.44512765e-002 4.75030951e-003 1.53462344e-003
      -6.32039504e-003 1.42340921e-003 -3.24933208e-003 1.39489276e-002
      2.70530935e-002 2.94545423e-002 -1.67164952e-002 -4.14790921e-002
      -1.09794885e-002 -1.15839597e-002 1.75261300e-003 -4.67052776e-003
      6.63859304e-003 1.13076614e-002 5.33722900e-003 -1.68330781e-002
      -4.48347293e-002 3.45619116e-003 1.12537015e-002 1.32186031e-002
      -7.36681046e-003 9.94042214e-003 1.65382139e-002 2.57037841e-002
      -1.76043436e-002 -8.59150197e-003 5.05158259e-003 5.31666307e-003
      3.38480924e-003 2.87697464e-003 1.68581065e-002 4.00356613e-002
      2.82342881e-002 -2.55627744e-002 -2.55428664e-002 -2.28349958e-003
      1.01889092e-002 1.26057991e-003 5.24683576e-003 1.97198354e-002
      3.87221426e-002 5.69480937e-003 -2.72099134e-002 -2.36539897e-002
      2.05735173e-002 1.69916600e-002 1.82292145e-002 -7.58771319e-004
      -8.27169232e-003 2.96433852e-003 5.78250038e-003 -2.67783385e-002
      -2.70466926e-003 2.24968791e-002 1.16634397e-002 1.15778688e-002
      -1.51254814e-002 -2.98977979e-002 -1.65588222e-002 2.03662515e-002
      -3.23665403e-002 -7.77221564e-003 1.78524479e-002 -7.57888053e-003
      -9.64520313e-003 1.11175841e-003 1.16030127e-002 1.86989717e-002
      7.92673416e-003 -1.73538420e-002 1.13615878e-002 2.62224227e-002
      -4.36322466e-002 -3.30747552e-002 1.11018680e-002 1.60482563e-002
      3.42458393e-003 9.17519629e-003 -1.91119481e-002 -7.01886776e-004
      2.25313995e-002 6.41708169e-003 1.61793809e-002 -1.36205228e-002
      -2.28291098e-002 -5.22439461e-003 2.70955544e-002 -2.27428135e-003
      1.79868825e-002 2.37115789e-002 -3.36215496e-002 2.53525935e-003
      1.09839272e-002 7.82130286e-003 2.03890149e-002 -8.43526144e-003
      2.15299185e-002 -1.17876148e-002 4.46224876e-004 8.16180836e-004
      3.50913475e-003 -1.81320943e-002 -2.22727694e-002 -2.60711871e-002
      -3.04184631e-002 1.55192241e-002 -9.84367356e-003 -9.39271599e-003
      4.05668607e-003 -7.59857800e-003 -6.62951090e-004 1.69722904e-002
      -3.54484692e-002 2.00856780e-003 8.47716555e-002 2.59124972e-002
      -2.72243866e-003 7.01627461e-003 3.34929442e-003 -1.94482435e-003
      -2.11661141e-002 -3.78709994e-002 1.00379474e-002 3.73303220e-002
      2.44114213e-002 2.36387807e-003 2.49279663e-002 2.60426314e-003
      -9.20071150e-004 -3.29245138e-003 -3.65697704e-002
      -1.34485085e-002 2.43213829e-002 2.22028838e-003 2.23913742e-003
      7.53134815e-003 -5.60711324e-003 -5.92881988e-004 6.79713767e-003
      -2.17221715e-002 9.18311439e-003 1.68866031e-002 7.90052209e-003
      -1.37807876e-002 -2.61155859e-004 -6.61408110e-003 1.01019081e-003
      2.07377202e-003 -7.77274044e-003 1.86436456e-002 1.84788685e-002
      2.16716854e-003 1.05516575e-002 4.93107713e-004 3.98827763e-003
      -2.05142144e-003 7.63493823e-003 -3.39731649e-002 2.78846435e-002
      -1.04110490e-003 -1.47249149e-002 -2.16215532e-002
      -9.71830823e-003 5.30709513e-003 1.24767807e-003 8.46039411e-003
      -2.63067372e-002 1.13315415e-002 1.75888371e-002 1.16177797e-002
      -3.41447396e-003 -5.02632523e-004 1.48465615e-005 1.42693345e-003
      2.55741994e-003 5.10942051e-003 7.93830492e-004 -7.99332163e-004
      -6.32760581e-003 2.48291064e-003 -3.99870705e-003 -1.71869388e-003
      -1.24490951e-004 2.95204623e-003 -1.07553890e-002 2.87645217e-002
      -1.60341524e-002 -2.30624974e-002 -1.12682139e-003 4.58280044e-003
      3.43428063e-003 4.03897138e-003 6.02048822e-003 -3.60823330e-003
      -1.04112150e-002 -1.53066283e-002 -1.30493818e-002
      -9.76089505e-004 3.96304764e-003 -2.17812732e-004 1.86932541e-003
      6.10548677e-003 -1.67100143e-003 2.87999120e-002 -1.35011575e-003
      -2.57867128e-002 3.04500945e-003 5.40755270e-003 2.51960242e-004
      -9.38237936e-005 1.83252757e-003 -6.31640572e-003 4.27848101e-002
      -1.72822010e-002 -1.65548120e-002 2.16126186e-003 9.18385200e-003
      3.99783906e-003 6.42556057e-004 2.59264791e-003 3.28381010e-003
      8.88402201e-003 -1.96868889e-002 -9.35592595e-003 7.03743007e-003
      9.40401666e-003 5.39363269e-003 2.01088772e-003 1.73520518e-003
      -1.22756569e-003 1.79116323e-003 -2.03054920e-002 1.66037939e-002
      2.26252303e-002 1.68423355e-002 1.11016911e-002 1.34297274e-003
      1.07347989e-003 7.37871649e-003 3.00749410e-002 -2.32635364e-002
      -2.88333651e-002 1.65110938e-002 1.12924566e-002 6.39162166e-003
      2.26122024e-003 7.12951925e-003 1.17123155e-002 -1.13411725e-003
      -3.22827548e-002 -2.09975149e-002 4.57274094e-002 2.76760887e-002
      2.00961325e-002 -3.68523644e-003 -6.16208510e-003 -2.51807296e-003
      1.68212829e-003 -4.86717299e-002 1.22199059e-002 2.59387456e-002
      2.31354460e-002 5.62867103e-003 2.10520066e-003 -9.72674461e-004
      1.10254548e-002 -5.90660516e-003 -4.50493917e-002 4.15993389e-003
      3.26893739e-002 1.22133503e-002 1.53284231e-002 -7.70185795e-003
      -2.57103853e-002 -2.69360170e-002 3.47199552e-002 -1.27947016e-003
      1.57800782e-002 3.42478044e-002 1.54058971e-002 2.44824048e-002
      -6.76295906e-003 -3.75207849e-002 -2.28884518e-002 1.26461321e-002
      5.04315831e-002 2.39460319e-002 3.29441801e-002 5.47905639e-003
      1.74784400e-002 -3.70973237e-002 -9.88884345e-002 -6.97104856e-002
      2.75152978e-002 3.45668718e-002 2.09708344e-002 2.15010215e-002
      -1.83992425e-003 1.41264107e-002 -7.23327557e-003 -6.01614229e-002
      -3.92283536e-002 1.77584365e-002 5.30590415e-002 2.14959383e-002
      2.52465066e-002 1.58016123e-002 -1.17189987e-002 -7.45243058e-002
      -1.17665954e-001 -7.19165653e-002 9.94325336e-003 2.74210516e-002
      1.79881379e-002 2.51709800e-002 2.98979487e-002 1.23508740e-002
      -4.26995531e-002 -8.55028033e-002 -4.89951856e-002 4.16969955e-002
      3.55007797e-002 2.52066460e-002 4.04318459e-002 1.31564271e-002
      1.08182784e-002 -1.05448617e-002 -2.09233463e-002 5.69413009e-004
      -3.60688404e-003 2.55014841e-002 1.40773533e-002 2.37151366e-002
      2.67093033e-002 -9.87801235e-003 -8.56452510e-002 -1.34480804e-001
      -6.24318123e-002 1.10728471e-002 9.43938084e-003 2.11360287e-002
      3.93017642e-002 9.99508984e-003 -9.92907118e-003 -1.93749294e-002
      -3.94983366e-002 -2.13786606e-002 8.13810900e-003 3.55884396e-002
      2.01467928e-002 4.51412005e-003 2.83767260e-003 4.46919771e-003
      1.06245978e-002 2.56125466e-003 -1.20790163e-003 3.36084589e-002
      -1.80154238e-002 -1.03713516e-002 -7.86088523e-004 1.00662522e-002
      9.43433028e-003 7.05249142e-003 1.11523247e-003 8.90440540e-004
      3.54127027e-002 -3.64417285e-002 -4.78438027e-002 1.50436824e-002
      1.46622714e-002 1.16970865e-002 1.97618734e-002 6.73375698e-003
      8.90092645e-003 -1.38230640e-002 -2.89377626e-002 -1.25954589e-002
      1.84908323e-003 1.35167018e-002 9.23914369e-003 1.40816262e-002
      1.05424654e-002 1.72538068e-002 5.36376275e-002 -1.70644745e-002
      -1.60289574e-002 4.07345453e-003 2.77824537e-003 6.49250112e-003
      3.44865071e-003 5.81877492e-003 9.25635919e-003 5.06815948e-002
      -1.45358033e-002 -1.13687003e-002 -3.78919509e-003 2.03492958e-003
      4.38799011e-003 2.28768171e-004 5.10802399e-003 1.50578888e-002
      1.02724852e-002 -1.89146437e-002 -1.68393645e-002 2.73122475e-003
      6.77370653e-003 6.17317017e-003 6.39702240e-003 1.06311506e-002
      2.02591158e-002 3.78647633e-003 -2.07732767e-002 -1.12028979e-002
      1.72123630e-002 1.12529574e-002 1.06004030e-002 3.58298724e-003
      9.11544263e-003 1.85717084e-002 3.69658582e-002 -2.01356020e-002
      -1.05219698e-002 9.74461809e-003 9.32161510e-003 3.94008635e-003
      1.76072447e-003 2.98495172e-003 9.83052794e-003 1.18574100e-002
      -2.26301588e-002 -7.01757567e-003 1.17165223e-002 1.56873409e-002
      4.65133600e-003 7.08020059e-003 4.96675726e-003 1.65055338e-002
      3.60375177e-003 -2.99677365e-002 8.37633852e-003 2.22563054e-002
      1.48769096e-002 1.06662875e-002 4.42573894e-003 7.75102945e-003
      8.46639182e-003 -5.30147087e-003 -3.87466066e-002 2.73521896e-002
      3.54017727e-002 2.58191265e-002 2.56110961e-003 1.22536486e-002
      -2.63345288e-003 -8.34914856e-003 -3.24532413e-003
      -1.92494802e-002 3.47049348e-003 1.09965308e-002 2.74103284e-002
      1.06740175e-002 1.39757767e-002 6.38636947e-003 2.43006852e-002
      -1.10800434e-002 -3.49346884e-002 1.76938139e-002 2.26253681e-002
      3.08907311e-002 1.18854344e-002 1.14521375e-002 2.14267778e-003
      2.19949950e-002 -1.60764102e-002 -6.11730851e-002 -3.27125588e-003
      3.29620093e-002 4.93201092e-002 3.91596928e-003 1.67604480e-002
      2.79509695e-003 1.10708205e-002 -2.09319200e-002 -1.19198941e-001
      -9.83241275e-002 8.99335742e-003 4.62896340e-002 1.32025117e-002
      3.85447480e-002 2.45607458e-002 2.34534517e-002 1.38051733e-002
      -2.81686988e-002 2.39201207e-002 1.70923304e-002 1.90231949e-002
      2.35586660e-003 3.30315321e-003 -1.00138225e-003 2.10091025e-002
      1.17533561e-002 -1.38078602e-002 6.36359770e-003 1.82408094e-003
      2.31687981e-003 -5.51611232e-003 1.99201866e-003 -1.95474979e-002
      4.14147321e-003 -1.35264418e-003 -9.25963745e-002 -7.42580667e-002
      -1.75414216e-002 1.20121688e-002 -2.75093783e-003 2.08641812e-002
      -4.54741763e-003 2.56612711e-002 -4.43562157e-002 -7.91619048e-002
      -3.73442620e-002 -2.43610088e-002 -6.36865897e-003
      -2.77646761e-002 -1.57806147e-002 -3.40383947e-002 1.53105361e-002
      2.05246489e-002 9.65062156e-003 1.93306450e-002 3.83788464e-003
      9.38657206e-004 -4.54274332e-003 -1.78738534e-002 -5.37935495e-002
      2.20277067e-002 4.47082445e-002 2.41647358e-003 2.04836461e-003
      1.29924733e-002 3.93029349e-003 -1.75048467e-002 -7.30421022e-002
      -1.02296330e-001 9.98465531e-003 -9.57395136e-003 -7.51734525e-002
      -1.53295333e-002 1.03954803e-002 1.54302595e-002 -1.14272470e-002
      -2.66189724e-002 -3.60936262e-002 6.22680075e-002 6.04482926e-002
      -2.86479276e-002 -1.61024239e-002 1.77287811e-003 -4.31457534e-003
      -4.09986600e-002 -7.79009312e-002 -5.68754710e-002 6.62942752e-002
      2.15071198e-002 -8.40341020e-003 5.62922703e-003 2.25596353e-002
      1.07704354e-002 -4.01555514e-003 -6.18342869e-002 -1.11378111e-001
      -1.37067521e-002 8.80242884e-003 7.28149712e-003 3.51962633e-002
      4.19665128e-002 -3.64571670e-003 -1.64710041e-002 -1.13783088e-002
      -2.32161153e-002 -8.60580895e-003 5.38546480e-002 -1.23784887e-002
      2.54101655e-003 2.21534111e-002 2.25882530e-002 -2.56320946e-002
      -6.87580407e-002 -8.02577585e-002 5.40561303e-002 2.39781681e-002
      7.62002403e-003 3.12159806e-002 3.98890786e-002 -4.05124715e-003
      -3.04259243e-003 -8.02481547e-003 -9.69642680e-003 2.06049066e-002
      2.57246085e-002 -4.94429171e-002 -4.32791337e-002 1.30857639e-002
      2.12455820e-002 1.79024022e-002 1.75716970e-002 1.88310314e-002
      1.76859144e-002 -7.04849279e-003 -1.97173804e-002 -1.04871476e-002
      3.72514175e-003 1.46295363e-002 1.08749410e-002 1.55214062e-002
      3.28724571e-002 3.29103656e-002 2.00597774e-002 -3.07450462e-002
      -1.39120324e-002 5.76230092e-003 1.24822864e-002 1.80938262e-002
      -1.29769035e-002 -8.16581957e-003 1.77248809e-002 1.54463062e-002
      -4.16769497e-002 -9.59083438e-003 -3.54297971e-003 1.20274760e-002
      6.10388583e-003 8.02396145e-003 -5.68405539e-003 1.04031293e-002
      -2.03284323e-002 -1.64890718e-002 6.97897689e-004 8.10729899e-003
      1.02404319e-002 9.75397229e-003 7.66791170e-003 1.25555145e-002
      2.00133529e-002 -6.92421151e-003 -2.32142676e-002 -6.56736223e-003
      7.09268451e-003 9.20426473e-003 1.20056337e-002 1.32762948e-002
      3.46025415e-002 1.28225219e-002 3.24763265e-003 -4.38501760e-002
      6.68645091e-003 -1.41934361e-005 1.79605256e-003 4.04931000e-003
      9.92933009e-003 2.96275946e-003 6.19533053e-003 -1.10148713e-002
      -3.27043571e-002 -9.35206283e-003 -2.03403365e-002
      -1.92275960e-002 -1.48579115e-002 9.98999737e-003 6.57670246e-003
      2.85250545e-002 -4.83629107e-003 -1.06014833e-002 8.66316631e-003
      1.39364572e-002 3.84730916e-003 1.10384850e-002 1.17931841e-002
      3.72913033e-002 9.62584838e-003 -4.28486466e-002 -2.60178316e-002
      -1.30382786e-002 4.52652387e-002 2.70623248e-002 -7.19020469e-003
      1.32870302e-002 1.41519762e-003 -3.59099433e-002 -2.14597154e-002
      -3.89616340e-002 -1.69092473e-002 -1.26125813e-002
      -2.66839545e-002 -2.14338414e-002 4.17232048e-003 2.51516774e-002
      2.47614533e-002 -5.41284904e-002 -6.91226572e-002 -4.53943536e-002
      1.18183782e-002 2.44364552e-002 9.45024192e-003 -3.80689162e-003
      -2.78367251e-002 -2.80045252e-002 -8.62415298e-004
      -5.01396470e-002 -3.13874558e-002 4.17928696e-002 4.35002446e-002
      -7.13377399e-003 -1.09903971e-002 -6.95548858e-003 8.51391908e-003
      4.56163361e-005 -1.02632456e-001 -8.33865926e-002 1.93235613e-002
      4.79161255e-002 5.55227743e-003 3.83199868e-003 7.15886854e-005
      3.71407159e-002 9.33255814e-003 -2.69658025e-002 -4.55997102e-002
      1.31875742e-002 3.98836248e-002 1.22873820e-002 -3.41230482e-002
      -4.21549529e-002 1.70986727e-002 7.75892613e-003 -4.36645336e-002
      -3.74110304e-002 2.16356199e-002 7.05089122e-002 2.72843931e-002
      -3.33027542e-002 -5.15954047e-002 1.50179183e-002 -1.61355827e-002
      -9.17590186e-002 -4.45756763e-002 1.21925138e-002 3.93328480e-002
      1.97218079e-002 2.05113757e-002 -1.85960811e-003 5.09602576e-003
      -3.35848965e-002 -5.52864559e-002 -1.94378328e-002 2.02013310e-002
      2.04561688e-002 1.53575046e-002 2.14571413e-002 -2.97540543e-003
      1.83863491e-002 -6.03454299e-002 -4.54167649e-002 -1.15568759e-002
      1.92791019e-002 4.73141894e-002 5.13361469e-002 2.00670194e-002
      -4.40453440e-002 -5.77118918e-002 -4.24128212e-002
      -7.96356332e-003 5.79141919e-003 1.59281883e-002 4.26067784e-002
      3.55635397e-002 1.79578643e-002 -1.63577944e-002 -6.63899407e-002
      -3.09070665e-002 -6.24859147e-002 -3.10530700e-002 2.90356623e-003
      -3.42413411e-003 -2.32028738e-002 -4.23035992e-004
      -4.36201040e-003 2.49742828e-002 3.86280939e-002 -1.17358444e-002
      -1.43129723e-002 -6.31765462e-003 -2.78113801e-002
      -5.73227890e-002 -5.36205769e-002 -2.52832565e-002 6.08212501e-002
      4.41495050e-003 1.68394707e-002 1.17510008e-002 6.54503237e-003
      -2.60351854e-003 -4.20866013e-002 -2.98483912e-002
      -1.79498903e-002 -1.18702662e-003 5.70909008e-002 4.24415339e-003
      -2.16116523e-003 -5.95483230e-003 -4.44347933e-002
      -5.71965650e-002 -4.02284786e-002 -3.27322334e-002 6.62775114e-002
      2.89626289e-002 5.78191085e-003 7.51131913e-003 2.15713382e-002
      1.58860523e-004 -2.15170123e-002 -6.27547801e-002 -6.66347519e-002
      2.89202183e-002 1.97756663e-002 1.29466327e-002 1.32271564e-002
      2.75141513e-003 -3.18779908e-002 5.12583461e-003 -4.60890774e-003
      -1.23842666e-002 9.12888069e-003 1.92536842e-002 -9.95978247e-003
      1.16816454e-003 2.18525790e-002 -1.30654138e-003 -2.98001431e-002
      -5.41170910e-002 -6.29440770e-002 2.27095485e-002 6.24709390e-003
      6.12864783e-003 3.18683721e-002 1.59656443e-003 -2.64746323e-002
      2.66876956e-003 -1.02835707e-002 -1.96746793e-002 -6.03377912e-003
      2.14155694e-003 -4.25208034e-003 2.06850702e-003 4.49780468e-003
      1.08711533e-002 2.08435450e-002 -1.97857376e-002 -2.81628836e-002
      -1.22040194e-002 -1.18268561e-003 -6.31119963e-003 5.38109103e-004
      7.39695178e-003 2.10001636e-002 1.03661362e-002 -2.16233148e-003
      -1.10163959e-002 -1.04409130e-002 -1.02300821e-002
      -1.44213473e-003 3.14876460e-003 4.65112459e-003 7.80007057e-003
      5.63862827e-003 9.69523937e-003 2.03200001e-002 3.95128177e-003
      -1.85901579e-002 -2.62651290e-003 -6.52115373e-003 1.00113098e-002
      1.68736819e-002 1.05912024e-002 3.14271892e-003 4.47231950e-003
      3.19148676e-004 7.25935819e-003 5.26372227e-004 4.32272151e-004
      1.00228656e-003 1.70287982e-004 -9.89868306e-004 -3.02544679e-004
      -8.61639995e-003 1.18760299e-002 6.77189929e-003 -3.74641642e-003
      -5.62169496e-003 -6.46764645e-003 -7.40242284e-003
      -8.14576913e-003 -1.61207790e-004 -6.31929561e-003 2.88358098e-003
      4.03121067e-003 7.22965691e-003 -1.59241084e-003 2.16432544e-003
      3.10329837e-003 9.80741717e-003 2.00662203e-003 3.11119459e-003
      -1.60699792e-003 1.57889258e-002 -4.86155186e-004 -3.65729118e-003
      -3.51477601e-003 -3.18110047e-004 1.45583441e-002 6.40936254e-004
      -3.66838928e-003 7.96480756e-003 -3.51735926e-003 -1.70767289e-002
      -7.87508488e-003 -3.54073988e-003 -7.17855571e-003
      -1.05610946e-002 2.45316164e-003 -7.14518595e-003 5.72915608e-003
      -1.65753234e-002 -2.57603303e-002 -1.65564138e-002
      -1.82231003e-003 1.90876387e-002 6.47127070e-003 1.11511564e-002
      -2.33651493e-002 -1.03153875e-002 1.06511321e-002 -5.03695395e-004
      6.39899285e-004 7.12209381e-004 1.89647707e-003 4.58610523e-003
      -2.90698372e-003 -3.14676855e-003 1.17904218e-002 9.27101634e-003
      3.81930549e-005 9.55445867e-004 2.59807426e-003 8.88343900e-003
      4.19469969e-003 3.00252922e-002 -4.17209929e-003 2.70641013e-003
      -4.96676052e-003 -2.05400889e-003 -1.58726852e-002 1.15178467e-003
      3.88513803e-002 1.50266783e-002 -1.00365281e-002 -5.15702404e-002
      -2.49551586e-003 -1.56273525e-002 4.85280156e-003 -5.10108611e-003
      1.05578238e-002 4.43680994e-002 3.76612768e-002 -3.91209275e-002
      -1.01160824e-001 -3.04451101e-002 9.30579565e-003 1.90481974e-003
      8.99752311e-004 5.01735276e-003 3.18857245e-002 9.23765637e-003
      2.60884464e-002 -5.36337262e-003 1.82725787e-002 6.21236488e-003
      1.77653283e-002 8.21274891e-003 1.57515164e-002 5.46622500e-002
      4.31921408e-002 2.91240476e-002 -1.78143419e-002 -9.93212778e-003
      -6.69352785e-002 -3.86354723e-003 -6.09307177e-003 1.36722941e-002
      2.46853977e-002 3.54342535e-002 -6.40142662e-003 -6.54593855e-002
      -7.68974274e-002 -4.94578704e-002 8.81279912e-003 -3.23749799e-003
      6.89871749e-003 2.64231805e-002 6.21755049e-003 -1.91574134e-002
      -3.56338620e-002 -6.02916405e-002 -2.65060854e-003 1.82747804e-002
      1.19308028e-002 2.24409103e-002 2.86943745e-002 4.00070995e-002
      2.68903114e-002 -2.27950569e-002 -3.26596051e-002 3.52811776e-002
      3.88285667e-002 1.98320001e-002 1.77906267e-002 -3.57429683e-003
      -2.08009244e-003 -5.60963759e-003 6.63342560e-003 9.43931472e-003
      3.82413045e-002 4.97968793e-002 3.83613519e-002 2.80028153e-002
      3.23482491e-002 -6.24440843e-003 -4.69101630e-002 -5.56208193e-002
      -8.68218485e-003 4.44145650e-002 2.29784679e-002 1.94969904e-002
      4.33486374e-003 4.86520352e-003 -2.17870362e-002 -6.15168810e-002
      -8.55826139e-002 2.87202839e-002 6.40557259e-002 6.31755069e-002
      5.11646569e-002 2.59033088e-002 2.66113114e-002 -5.20194555e-003
      -4.45497334e-002 -7.46933073e-002 -1.35545908e-002 3.13134901e-002
      4.06975672e-002 3.97237353e-002 1.15393978e-002 5.77542260e-002
      1.43299643e-002 -9.08057466e-002 -1.05969965e-001 -5.63215166e-002
      -5.33976778e-003 -5.45110414e-003 5.68633806e-003 2.68986425e-003
      3.30522060e-002 1.53503809e-002 -4.60651107e-002 -8.53186697e-002
      4.17931564e-003 -1.98467332e-003 1.02275638e-002 2.31981780e-002
      1.61729343e-002 -7.28591438e-003 1.99305266e-002 -1.75906904e-002
      -2.89634727e-002 -6.49570348e-003 -3.43384407e-003 1.46038523e-002
      2.00644620e-002 2.10766159e-002 3.90305817e-002 2.10702438e-002
      -8.70979205e-002 -1.41876191e-001 -5.88406138e-002 7.54079968e-003
      2.89837699e-002 2.67532319e-002 1.79220848e-002 1.06723129e-003
      3.45787965e-003 -3.06201503e-002 -5.69246411e-002 -2.62995120e-002
      -4.58133360e-003 4.73281322e-003 2.30645556e-002 9.76329111e-003
      3.01610772e-002 -9.64764506e-003 -2.13701557e-002 -2.23851553e-003
      -1.75527603e-004 -1.53746419e-002 -6.18962571e-003
      -7.48628238e-003 -4.93247993e-003 2.08404996e-002 8.39631073e-003
      -5.41302469e-003 -1.05857220e-003 8.28818046e-003 -1.49022620e-002
      -2.35139932e-002 -8.48591328e-003 1.65684875e-002 3.35553475e-002
      -1.36502099e-003 -1.53237656e-002 6.15812314e-004 -5.73098334e-003
      3.02590500e-003 -9.71846562e-003 1.94139930e-003 9.31566581e-003
      -6.59130188e-003 -1.90417767e-002 -3.71572673e-002
      -2.02973629e-003 -7.87096191e-003 2.26296159e-003 6.52762502e-003
      7.31395499e-004 -9.93434573e-004 4.39239526e-003 8.33428558e-003
      -8.01450759e-003 -3.97288997e-004 7.53934844e-004 2.27829106e-002
      9.84725542e-004 9.67271160e-003 2.14254879e-003 7.17589073e-003
      5.42169949e-003 -1.96208842e-002 -1.96325150e-003 9.65267140e-003
      2.38943957e-002 1.36725130e-002 3.38087929e-003 -3.98624776e-004
      -2.81760357e-002 -2.02948134e-002 -2.86196116e-002 1.05253700e-003
      -8.18067975e-003 7.79401651e-003 2.34657992e-002 3.96897597e-003
      4.23449231e-003 -1.28884632e-002 -8.71646032e-003 -2.42809318e-002
      -1.31979743e-002 -1.21812578e-002 6.19158056e-003 -2.75221607e-003
      4.54131421e-003 3.58622242e-003 1.11523643e-002 4.43821261e-003
      -1.16804726e-002 -1.28033087e-002 1.03245666e-002 4.02196916e-003
      -1.85459247e-003 4.28523077e-003 3.27602471e-003 7.24876812e-003
      1.06827049e-002 2.52789892e-002 -9.01381671e-003 1.45068986e-003
      -2.08294601e-003 -4.05192189e-003 2.49048648e-003 6.05503609e-003
      1.72850881e-002 7.83091225e-003 2.18113000e-003 -3.71284992e-003
      -9.94539727e-003 -6.85693417e-003 -1.14666647e-003 1.18000861e-002
      9.83243436e-003 2.67724623e-003 2.23069284e-002 1.53555460e-002
      -1.46196835e-004 -9.32410359e-003 6.83610793e-003 2.08214740e-003
      1.88686850e-003 2.73473305e-003 1.01671275e-002 7.50511093e-003
      2.21996754e-002 -1.09833833e-002 -5.16733620e-003 3.81973805e-003
      4.95319627e-003 2.47572456e-003 6.50731428e-003 1.94995496e-002
      1.50958123e-002 1.88276786e-002 -1.04341246e-002 2.07767356e-003
      7.29622971e-003 1.63092487e-003 3.50352493e-003 2.89027207e-003
      7.41407799e-004 1.26094213e-002 2.21999665e-003 -5.66529203e-003
      -7.04810256e-003 9.91915539e-003 4.21320880e-003 2.22780230e-003
      1.14374876e-003 4.04207362e-003 3.04579898e-003 1.11698760e-002
      -8.00281577e-003 1.05201351e-002 1.71469187e-003 2.51746690e-003
      1.24546071e-003 5.33206156e-003 6.99891616e-003 6.97737420e-003
      3.13391536e-002 -1.79117601e-002 2.62574060e-003 2.25321557e-002
      7.41191255e-003 3.51614715e-003 5.77250030e-004 -1.59344934e-002
      -1.37190369e-003 2.66702902e-002 -9.59286932e-003 -8.88003316e-003
      2.08972883e-003 1.01800461e-003 4.44883044e-004 2.01385980e-003
      2.20178207e-003 4.10669192e-004 2.69414927e-003 -1.01473667e-002
      5.97985811e-004 9.18413047e-003 9.01922176e-004 -5.99911087e-004
      2.07644794e-003 -6.45093620e-003 9.47393570e-003 1.77128017e-002
      -1.23376166e-002 -1.69572104e-002 4.17139456e-002 3.52778658e-002
      2.34019402e-002 7.01064570e-003 3.01991682e-003 -2.77592312e-003
      -9.82765108e-003 -4.86220568e-002 -1.00417864e-002 2.59330682e-002
      3.48393284e-002 2.96973418e-002 7.67627778e-003 4.86546010e-002
      3.00671868e-002 -1.06424659e-001 -1.28725514e-001 -4.48448956e-002
      1.70403663e-002 1.59699842e-002 4.37450409e-003 5.29917236e-003
      4.32635890e-003 1.98899414e-002 2.93774474e-002 1.12574017e-002
      3.25566344e-002 1.82244238e-002 3.06536686e-002 1.24541549e-002
      1.76131222e-002 3.40873487e-002 3.45712714e-002 -5.38707711e-002
      1.25587527e-002 1.03980396e-002 1.01081245e-002 2.09932402e-002
      1.76722594e-002 2.04294585e-002 3.46149765e-002 9.48582590e-003
      -8.52968395e-002 -1.46544382e-001 -5.26174493e-002 2.14768462e-002
      1.47307171e-002 1.54217640e-002 3.43117937e-002 -4.09289775e-003
      -5.48303453e-003 -2.08887886e-002 -4.67184000e-002
      -1.40698459e-002 7.92346988e-003 1.97551958e-002 6.78225094e-003
      1.83733571e-002 1.38100348e-002 1.06066829e-002 -5.22228070e-002
      -5.65450676e-002 -2.34613456e-002 1.69661511e-002 1.25010144e-002
      7.14034075e-003 3.79781090e-002 -1.39966235e-002 1.48380194e-002
      -2.64835218e-003 -9.69882123e-003 1.76238324e-002 -1.77010824e-003
      -1.97279491e-002 2.20441027e-003 1.29063930e-002 3.31215066e-004
      -2.60281120e-003 -1.20020313e-002 1.36885252e-002 3.25175412e-002
      -4.50029875e-005 1.13156447e-002 1.89889632e-002 2.02927440e-002
      -1.65356454e-002 -1.58371981e-002 -4.02884521e-002
      -1.08157005e-002 -2.97152461e-003 2.44846959e-002 -7.05405045e-003
      -4.87832027e-003 -1.25908069e-002 -1.33439284e-002
      -1.41529804e-002 -3.19176018e-002 -2.69877841e-003 4.50810082e-002
      1.36226881e-002 1.90228913e-002 3.23218433e-003 -1.41846780e-002
      -5.57196047e-003 -1.40138883e-002 -2.59041339e-002
      -1.76145993e-002 1.51639534e-002 1.03956880e-002 2.18673721e-002
      8.87124240e-003 6.82672206e-003 -3.23861763e-002 -8.30126274e-003
      -1.63479075e-002 -4.27603256e-003 -2.05964111e-002 7.73030380e-003
      4.55889031e-002 1.43647129e-002 7.26501271e-003 -1.65103897e-002
      3.03369910e-002 4.99737775e-003 -1.55718054e-003 -2.36629862e-002
      -1.15101971e-002 1.16388956e-002 6.13299271e-005 4.40700445e-004
      3.93391540e-003 1.51890994e-003 1.54129267e-002 7.50279229e-004
      -2.43780948e-002 -2.39690207e-002 -3.98367979e-002
      -1.66135430e-002 9.71111562e-003 -7.35486625e-003 3.95445153e-002
      4.34374847e-002 2.84330901e-002 -2.57111490e-002 -1.45690574e-003
      2.16160323e-002 7.99145363e-003 3.27720679e-003 -4.89397720e-003
      1.68865528e-002 1.49337074e-003 -1.98487043e-002 -2.50154976e-002
      -5.48632350e-003 3.29919793e-002 2.15154327e-002 6.43888908e-003
      -6.96956879e-003 -7.30196573e-003 6.86020730e-003 7.54100922e-003
      -1.88719295e-002 -2.50612311e-002 -3.02690938e-002
      -8.85419082e-003 -1.10013445e-003 4.20773681e-003 4.08877209e-002
      3.20557244e-002 5.55631472e-003 -6.42858585e-003 -1.07140318e-002
      -1.78696979e-002 -1.75520580e-003 1.89641351e-003 1.02050090e-002
      9.26606357e-003 1.99107733e-003 7.28985819e-004 2.23489497e-002
      -2.56022729e-004 3.77672515e-003 1.85409992e-003 -1.05694849e-002
      -9.14887711e-003 -3.92754842e-003 -9.66802146e-003 2.09038779e-002
      -1.47777637e-002 -8.15549679e-003 8.05533607e-004 -4.49270848e-003
      -1.52883297e-002 4.58046142e-003 7.49213342e-003 3.69983055e-002
      4.24153870e-003 2.37814169e-002 1.82738528e-002 -7.78010255e-003
      -9.49057192e-003 -1.63380634e-002 -3.08983028e-002
      -1.73157640e-002 -2.81579942e-002 -2.67611607e-003 2.43145749e-002
      -1.05079799e-003 -8.71127471e-003 -3.00949272e-002
      -3.39178555e-002 -1.23436768e-002 1.14423642e-003 1.97919086e-003
      2.45015360e-002 1.44168921e-002 -7.95094762e-003 -2.40012328e-003
      -1.57954090e-003 1.43505656e-003 9.13123041e-003 5.13658812e-003
      8.78964365e-003 -6.94465917e-003 1.51768876e-002 9.24537610e-003
      -3.14911222e-003 2.81051779e-003 9.36474279e-003 1.44985458e-002
      1.39527731e-002 1.51504986e-002 -1.00131650e-002 -1.24638537e-002
      -1.57224946e-002 -5.32581843e-003 -1.50127504e-002
      -7.42252870e-003 7.04298122e-003 -2.32116831e-003 2.35059345e-003
      1.33609520e-002 1.20176058e-002 -1.04331095e-002 -2.04408150e-002
      -2.58402922e-003 8.94436054e-003 1.30229909e-002 -7.44968746e-003
      -8.33857618e-003 -9.71328840e-003 6.45260978e-003 8.92988406e-003
      1.52542384e-003 2.23064795e-003 8.33376590e-003 8.95923935e-003
      1.12283034e-002 2.04683887e-003 -1.09974369e-002 -1.31539069e-003
      6.59261271e-003 1.04466807e-002 5.05866203e-003 1.04569606e-002
      7.61615811e-003 1.28095737e-002 -1.56984553e-002 -9.91822779e-003
      6.21698378e-003 5.46272239e-003 -4.57178615e-003 4.16631531e-003
      6.96465792e-003 6.83935406e-003 6.37785206e-003 -9.36959684e-003
      -1.86334159e-002 7.90615194e-003 1.70320109e-003 2.10628915e-003
      3.37105873e-003 8.41655023e-003 8.92353337e-003 2.34325118e-002
      -1.80736359e-004 -1.08863954e-002 9.14437696e-003 5.89148083e-004
      1.65243410e-002 2.75931903e-003 5.54676517e-004 -3.10530863e-003
      1.28093828e-002 -1.38854524e-002 -2.55429558e-002 6.28264039e-004
      1.73250737e-003 1.77172013e-002 -3.33013502e-003 -1.46308951e-002
      -3.69704068e-002 1.28620947e-002 1.10507617e-002 8.72427411e-003
      2.84495465e-002 -2.10457225e-003 6.38766494e-003 3.38672218e-003
      1.14503456e-002 2.09431313e-002 2.42481753e-002 1.03491610e-002
      -1.55552002e-002 -8.31072126e-003 -9.23311152e-003 1.65188452e-004
      -2.30671577e-002 -1.59491412e-002 -2.38789823e-002 1.14732087e-002
      2.61629093e-002 -2.53482498e-002 7.38023082e-003</_>
    <_>
      -1.03526795e-002 -5.22523792e-003 -5.33251092e-004
      -4.86822380e-003 -4.65144729e-003 -1.74264249e-003
      -1.10925911e-002 -1.68178752e-002 -1.58503151e-003
      -1.48498937e-002 -1.18197752e-002 6.42500911e-003 2.03054631e-003
      9.10737924e-003 1.24519123e-002 -1.55812653e-003 -9.54353251e-003
      6.39893254e-003 -1.44600365e-002 -2.38937717e-002 -1.44845005e-002
      -8.21542088e-003 -1.20908236e-002 -6.19109906e-003
      -1.03363506e-002 7.25835236e-003 9.08964779e-003 -1.28632253e-002
      -2.84756776e-002 1.25930775e-002 1.39000881e-002 -2.03418788e-002
      5.23638027e-003 -7.37727061e-003 1.84839796e-002 9.88315139e-003
      -1.79306921e-002 -2.13531181e-002 -2.81085959e-004 3.37062101e-003
      1.61332469e-002 2.83046905e-003 2.38023465e-003 7.85505283e-004
      -6.16053818e-003 -1.38648364e-004 -2.06383802e-002
      -1.81032065e-002 5.38190082e-003 2.07256731e-002 -9.55228787e-003
      -9.96703166e-004 4.95290477e-003 -2.18147580e-002 -3.75948548e-002
      -2.93434206e-002 9.50053800e-003 8.32312275e-003 1.30179767e-002
      1.59586836e-002 9.31947492e-003 2.19205152e-002 -1.33477226e-002
      -1.25510646e-002 -4.03655022e-002 -1.40860090e-002 1.55428313e-002
      4.28781100e-002 -4.55757929e-003 -8.51253420e-003 1.00736534e-002
      -1.36917764e-002 1.00580156e-002 -1.45058315e-002 -2.32414482e-003
      6.18310925e-003 9.40036774e-003 -6.65095635e-003 -4.72516241e-003
      9.85046197e-003 1.05183534e-002 3.88753065e-003 -1.43861892e-002
      -1.68483984e-002 2.89217755e-003 -9.64807346e-003 -2.32747532e-002
      -1.67857055e-002 9.89766791e-003 2.41741911e-002 3.52219157e-002
      -2.28644442e-002 -2.78102197e-002 -6.30302541e-003 1.99801270e-002
      -3.71446437e-003 -9.73457843e-003 1.85251627e-002 2.54307371e-002
      1.89814307e-002 -3.71256145e-003 -2.82239318e-002 -1.43984146e-002
      -3.89203266e-003 -1.56579651e-002 -1.65738240e-002
      -1.50163928e-002 2.05671862e-002 -5.87057648e-003 -2.32886197e-003
      -1.20559232e-002 -2.28196336e-003 1.09434193e-002 -1.51792751e-003
      -5.57859312e-004 1.76072940e-002 1.22864991e-002 -1.41242445e-002
      -2.69817747e-002 -2.66340375e-002 -1.42744910e-002 1.54948523e-002
      6.88574393e-004 7.58413598e-003 2.20681932e-002 2.13431171e-003
      3.04191113e-002 3.67131806e-003 -3.80238425e-003 -7.27390591e-003
      6.14251243e-003 -6.39051897e-003 1.08372602e-004 1.87423546e-003
      4.38208180e-003 7.97583722e-003 -6.32226886e-003 -1.20191071e-002
      -6.24385709e-003 1.35963531e-002 -7.58606242e-003 3.31519451e-003
      7.04031810e-003 -2.03574281e-002 7.55286077e-003 -4.06031031e-003
      -1.11730620e-002 -2.50570010e-003 6.34336984e-003 2.36662594e-003
      5.82356611e-003 1.39689837e-002 8.78673885e-003 1.61281545e-002
      1.16131250e-002 -1.44194281e-002 -2.32074549e-003 1.80275959e-003
      3.99331888e-003 1.30066322e-003 8.81080423e-003 8.63933004e-003
      2.09667534e-002 4.34183748e-003 -2.21640337e-002 -3.93151212e-003
      2.70893797e-003 -1.57739338e-003 1.34529697e-003 5.35549549e-003
      -4.83968586e-004 2.15021726e-002 4.34183748e-003 -4.19979841e-002
      -9.88029689e-003 -4.09653084e-003 -1.64145755e-003
      -2.93205632e-003 -1.03811384e-003 -3.73989344e-004 1.74778216e-002
      1.61353461e-002 -1.80974193e-002 -2.33736797e-003 2.28926539e-003
      1.05304539e-003 1.32582604e-003 6.23405678e-003 2.69238534e-003
      2.41677649e-002 5.40619669e-003 -2.42416784e-002 -4.10126429e-003
      9.01460997e-004 -8.15920474e-004 -1.04820232e-004 3.02472431e-003
      -5.23467141e-004 2.51155868e-002 5.40619669e-003 -4.32658456e-002
      -6.39086915e-003 -5.57756657e-003 -4.37287241e-003
      -1.89430895e-003 -7.22043635e-003 -4.63857921e-003 1.80385597e-002
      6.26615342e-003 -2.74018273e-002 4.50210246e-005 -1.00817783e-002
      -1.29294991e-002 -1.27615221e-002 -2.75228918e-002
      -1.40249031e-002 1.84324645e-002 4.02763160e-003 9.10005416e-004
      4.23894916e-003 -9.00639035e-003 -6.35704538e-003 -5.12143970e-003
      5.57792839e-003 3.03274789e-003 3.80838756e-003 1.49712786e-002
      1.39721623e-003 8.20313115e-003 -5.00803767e-003 -1.78052802e-002
      -1.48197897e-002 2.13532895e-002 -8.44464172e-003 2.46363729e-002
      -6.76829717e-004 6.51828805e-003 2.21935622e-002 3.52521264e-003
      -9.72339511e-003 -1.25319036e-002 -2.24162824e-002
      -3.51637322e-003 1.30664799e-002 -2.93082179e-004 5.80952922e-003
      2.40217149e-002 3.64535861e-003 7.21902261e-003 -3.26412893e-003
      1.99982966e-003 -3.40641849e-003 2.82859337e-003 -2.15615723e-002
      -2.38543153e-002 -1.03098974e-002 1.39751018e-003 -5.04056085e-003
      -2.57392600e-003 1.14373984e-002 2.10857149e-002 -1.12067061e-002
      -2.53746491e-002 -8.54201987e-003 9.06866044e-003 1.36009650e-002
      1.46510953e-003 -8.19034409e-003 1.29093900e-002 1.99979171e-002
      -1.43884625e-002 5.37980255e-003 -1.90516338e-002 -7.22310366e-003
      2.11185339e-004 -1.18021285e-002 -1.58932153e-002 -7.24575296e-003
      -6.15389878e-003 -2.15875655e-002 -4.86005982e-003
      -2.92523822e-004 2.43098475e-002 2.27232724e-002 -2.80576176e-004
      -1.01183886e-002 -1.87303983e-002 -1.54251540e-002
      -7.98035320e-003 -1.25005916e-002 6.22606045e-003 1.19702797e-002
      2.34828927e-002 9.46502853e-003 2.33574235e-003 1.00290691e-002
      8.89903866e-003 1.24914339e-003 -2.58613378e-002 -6.41345000e-003
      1.91283636e-002 4.13817279e-002 6.90212892e-003 3.78354383e-003
      1.31525863e-002 1.27673224e-002 -1.17955739e-002 5.30624820e-004
      -5.71897672e-003 1.56124346e-002 1.32339336e-002 3.95835796e-003
      -5.36478730e-003 -9.06164013e-003 -8.01890902e-003 4.67691664e-003
      -5.87927271e-003 -5.92587925e-002 -1.69418636e-003 1.22469114e-002
      4.61637462e-003 4.18376736e-003 1.73671637e-003 -7.92154111e-003
      2.82768179e-002 5.34400670e-003 -1.22064576e-002 3.44120269e-003
      9.51383077e-003 -2.31562663e-005 -1.75194256e-003 2.99527566e-003
      2.14479994e-002 2.80055832e-002 1.21461703e-002 -1.23627465e-002
      -3.58102797e-003 -5.94386272e-003 -5.40176546e-003
      -5.22599136e-003 -4.97292727e-003 9.86174121e-003 2.49428544e-002
      -1.44856377e-003 -4.89167906e-002 -5.10123838e-003 9.54544987e-004
      1.18171811e-005 8.47031712e-004 6.12222881e-004 1.59660689e-004
      -8.52359633e-004 -5.36211953e-003 -4.68124412e-002
      -5.11037139e-003 -4.48027439e-003 -2.73177447e-003
      -5.36520034e-004 -1.33329188e-003 -7.95560703e-003 2.23594420e-002
      5.89087466e-003 -3.44117125e-003 -3.62855429e-003 -3.43395257e-003
      -2.17991904e-003 -5.26186886e-005 -2.55383481e-003 3.03093600e-003
      7.85163883e-003 -7.44041055e-003 -5.52492100e-004 -6.32531755e-003
      -1.20607240e-003 -1.26238132e-003 7.57226138e-004 -2.61169602e-003
      -2.78151873e-003 4.78609605e-003 -7.44041055e-003 -1.39800822e-002
      1.89153734e-003 -1.27978891e-003 -7.63542368e-004 4.51018306e-004
      3.33689706e-004 -3.95883952e-004 5.65899815e-003 -7.44041055e-003
      9.03494563e-003 1.44324393e-003 5.74771257e-004 5.04837953e-004
      1.38936506e-003 6.74358429e-003 2.30937004e-002 4.34378721e-003
      -4.05740365e-003 -1.11778704e-002 -3.34762712e-003
      -6.39074657e-004 -1.06265279e-003 -4.83352720e-004
      -2.40081674e-004 -2.76978244e-003 -3.71291098e-004
      -4.05740365e-003 -2.02871673e-002 -3.81399854e-003
      -4.69477708e-003 -1.51461584e-003 -6.81063300e-003
      -1.02862297e-002 -8.59474111e-003 1.77369397e-002 -4.05740365e-003
      7.49859726e-003 -3.67629388e-003 -7.98783358e-003 -3.13997292e-003
      -3.85098450e-004 8.15072283e-003 2.08575502e-002 5.07167280e-002
      1.56908520e-002 1.48670040e-002 -7.94916600e-003 -2.63189338e-002
      -8.76063481e-003 -1.96401179e-002 -3.37830931e-002
      -9.88153741e-003 1.99742448e-002 1.13732424e-002 -1.38393007e-002
      -5.33136819e-003 -6.40455494e-003 -7.43719703e-003
      -7.50605064e-003 -3.16571929e-002 -1.54889133e-002 2.37259623e-002
      3.23444381e-002 4.57336055e-003 2.08200365e-002 7.05017417e-004
      -2.20411140e-002 -2.58738548e-002 -7.33940527e-002
      -4.01780419e-002 6.39785603e-002 6.37739971e-002 4.45150509e-002
      -1.40371313e-003 -1.71477441e-002 -1.31654851e-002
      -2.87426300e-002 -7.20516071e-002 -4.04951498e-002 4.47488204e-002
      8.35950673e-002 5.70376739e-002 2.99950168e-002 6.82844874e-003
      -3.29340138e-002 -5.83676547e-002 -9.25955325e-002
      -7.53232762e-002 1.33478483e-002 1.71221346e-002 2.04786360e-002
      4.09317948e-002 3.24349180e-002 -1.08648362e-002 -2.45479252e-002
      -5.53682558e-002 -2.91336644e-002 2.91410764e-003 1.09819102e-003
      9.88020841e-003 2.31392644e-002 9.81466938e-003 4.06398298e-003
      -9.29673482e-003 -1.77086424e-002 -1.40254814e-002 1.60886347e-002
      5.30814677e-002 3.16143073e-002 3.98702621e-002 3.57147045e-002
      -1.45765254e-002 -4.77330573e-002 -8.12441707e-002
      -4.52402271e-002 -6.69087796e-003 3.19326682e-005 8.92191101e-003
      5.48313884e-003 8.57309438e-003 1.89719032e-002 -1.97359361e-002
      -2.88298726e-002 -2.54163761e-002 1.65164862e-002 1.44677190e-002
      -1.13132652e-002 4.37638781e-004 6.53421413e-003 4.26496175e-004
      -1.09392311e-003 1.47946784e-003 4.00471035e-003 5.86332334e-003
      1.82045121e-002 -7.96900224e-003 1.48599513e-003 4.22094483e-003
      -3.82526836e-004 -1.33210374e-003 -2.15178519e-003
      -5.79280953e-004 1.66827850e-002 6.25854917e-003 -1.77694429e-002
      -4.36859066e-003 3.52693698e-003 3.32607026e-003 8.14955449e-004
      1.56838063e-003 9.43134015e-004 -1.54315252e-002 -4.43163002e-003
      -1.85867138e-002 -5.60034160e-003 6.62504975e-003 9.56810662e-004
      -1.79670576e-003 1.01290600e-004 -5.17248083e-003 5.84104145e-003
      2.03539282e-002 -1.36583317e-002 1.47964119e-003 4.15769231e-004
      -4.20492986e-004 -1.40252220e-003 -2.31470237e-003 1.53460447e-003
      2.08393820e-002 1.79077021e-003 -2.66433135e-002 -3.04791238e-003
      2.37760629e-004 6.74301642e-004 -4.20008524e-004 -1.58678449e-004
      3.55979078e-004 -2.07132939e-002 1.79077021e-003 2.30824109e-003
      2.35703468e-004 2.78223469e-003 5.48190437e-004 -2.50781944e-004
      -8.27168697e-005 -2.19838647e-003 -7.90660176e-003 1.79077021e-003
      -8.51842389e-003 -7.15023722e-004 -3.13008524e-004 2.02986249e-003
      6.13133772e-004 4.42321412e-004 -2.11552577e-003 2.35676486e-002
      -9.50513699e-004 -2.12662145e-002 -2.52338871e-003
      -9.36505385e-005 1.51863060e-004 1.95521279e-004 -2.77278828e-004
      -1.44490099e-003 -1.28022255e-003 -9.50513699e-004
      -9.91949812e-003 1.29433908e-002 2.58207414e-003 4.03404469e-004
      2.75929249e-003 1.90255255e-003 -2.95197545e-003 5.97465085e-003
      -9.50513699e-004 -9.80958622e-003 -3.30310129e-003 1.70314475e-003
      3.34128807e-003 4.25789552e-003 7.35070906e-004 -4.24602214e-004
      -1.73492245e-002 1.87473575e-004 -4.38356167e-003 4.26018797e-002
      1.68867894e-002 5.72327152e-003 6.51044352e-003 5.68388728e-003
      -1.01209786e-002 -1.61974467e-002 -1.95735134e-002 8.59062281e-003
      3.31649110e-002 7.19527900e-003 1.16274750e-003 2.27087084e-003
      3.99991171e-003 3.58571298e-003 1.68890636e-002 -2.12887786e-002
      6.93505723e-003 2.85272934e-002 5.54878172e-003 1.05222350e-003
      6.94939354e-003 1.60249379e-002 4.27856892e-002 -2.94840224e-002
      -3.69184576e-002 -1.56006042e-003 6.88318536e-002 3.41033228e-002
      5.19070681e-003 6.19997177e-003 9.52310115e-003 2.88696843e-003
      -4.80310386e-003 -4.84940670e-002 -4.63909805e-002 3.53066735e-002
      2.51195040e-002 9.42742079e-003 2.55061127e-002 2.48528551e-002
      4.06519882e-002 4.26088125e-002 1.58112857e-003 -1.12929959e-002
      -6.60872879e-003 -1.28509197e-002 -9.81391501e-003 8.58068233e-005
      1.08731315e-002 3.20031904e-002 5.29913604e-002 3.79035100e-002
      6.90890662e-003 -8.57563689e-003 -1.51522364e-002 -9.43369791e-003
      -1.33561911e-002 -3.16993557e-002 -8.58143345e-003 6.40977267e-003
      -2.56606564e-002 -4.42444086e-002 -1.20740384e-002
      -1.26978830e-002 -9.31625534e-003 1.33208558e-002 8.08272231e-003
      1.94224790e-002 -2.00872426e-003 -1.57886762e-002 -2.11648308e-002
      -1.21327592e-002 9.49626847e-005 -2.88627087e-003 1.66667067e-002
      -2.59515783e-003 1.02887060e-002 5.00222594e-002 6.49541467e-002
      3.63372006e-002 8.91661271e-003 -3.08871991e-003 -2.99042021e-003
      -1.92481559e-002 -5.22171222e-002 -1.87744666e-002 4.38857302e-002
      5.89077622e-002 3.51268984e-002 2.36560125e-002 8.53095204e-003
      -1.75142307e-002 -4.95358557e-002 -7.72592947e-002
      -3.93231288e-002 1.38136186e-003 -1.05415387e-002 3.09586036e-003
      1.03629371e-002 3.27163446e-003 6.89495960e-003 5.44779286e-005
      -2.83809542e-003 3.68098617e-002 2.65512504e-002 5.17812371e-003
      1.95433386e-002 1.71424784e-002 -1.44104809e-002 -2.59175021e-002
      -4.61770557e-002 -6.09345473e-002 1.94129441e-002 2.15363279e-002
      3.10317390e-002 1.51778264e-002 2.28565261e-002 4.08576243e-002
      -2.57907016e-003 -3.46081369e-002 -7.42132887e-002
      -2.96305306e-002 -6.17544167e-003 -1.94134575e-003 1.26982050e-003
      3.74495354e-003 1.83037557e-002 1.00873811e-002 -1.72424875e-002
      -3.24884020e-002 -1.90153345e-002 2.22123396e-002 1.13607757e-002
      2.01864690e-002 2.33966820e-002 2.31065936e-002 -1.67016182e-002
      -3.87816280e-002 -5.97272627e-002 9.85487364e-003 -1.33218346e-002
      -7.10933562e-003 5.55098802e-003 1.14704752e-002 1.61580238e-002
      -2.33052555e-003 -1.99063607e-002 -2.67994609e-002
      -1.03577469e-002 3.20887147e-003 3.70191573e-003 -1.17442636e-002
      -9.55784053e-004 -8.53695150e-004 1.86249474e-003 1.05283111e-002
      1.93232372e-002 4.90883132e-003 -1.38088670e-002 3.53216566e-003
      -1.34201022e-003 5.42059122e-003 7.30280066e-003 3.58950067e-003
      3.90835619e-003 1.99619792e-002 1.15289283e-003 -1.50019070e-003
      -3.27255391e-002 -1.82996821e-002 -8.29482079e-003
      -8.83915089e-003 3.57319554e-003 -1.14668021e-003 2.85924543e-002
      3.21404040e-002 -1.05881970e-002 -4.81579453e-002 -2.41170470e-002
      -9.71338339e-003 -3.25611024e-003 -3.53014027e-003 8.32522847e-003
      1.50883179e-002 2.53502056e-002 -2.63452921e-002 -1.74913043e-003
      1.23980287e-002 6.97202422e-003 1.11462157e-002 6.42438279e-003
      6.91780774e-003 1.69502012e-002 4.83342167e-003 -1.99848376e-002
      1.02792960e-002 3.42031615e-003 -1.32367632e-003 4.84438566e-003
      7.21264817e-003 1.10335527e-002 2.79565901e-002 2.22366164e-003
      -1.33934710e-002 -4.29347381e-002 -1.42976390e-002
      -1.32495316e-003 4.93064709e-003 1.75866671e-003 8.98112357e-003
      1.36971148e-002 1.52255977e-002 -1.11866184e-002 -3.10327765e-002
      -1.45690506e-002 -1.57442614e-002 -5.50355855e-003
      -6.40784530e-003 1.70906223e-002 2.28014030e-002 1.08522205e-002
      -7.73041230e-003 3.10472702e-003 -8.32757633e-003 -8.16071220e-003
      7.11810729e-003 4.71522892e-003 1.11825643e-002 2.44490132e-002
      4.84769745e-003 -1.11449519e-002 -1.46028101e-002 -1.76183321e-002
      1.65749360e-002 2.02426836e-002 1.09144542e-002 1.30325351e-002
      1.64155979e-002 4.41424956e-004 -2.04014387e-002 -3.35020497e-002
      -1.83083620e-002 -1.75160896e-002 -5.91740524e-003
      -1.28271207e-002 1.10365869e-002 4.19337712e-002 2.52648927e-002
      -2.22296119e-002 -3.30538601e-002 -2.09909957e-002
      -1.62617173e-002 -1.87843665e-003 -7.06284307e-003
      -2.66081095e-003 1.82411838e-002 7.85624702e-003 4.42559365e-003
      -2.84276530e-002 -1.89184584e-002 3.12571712e-002 3.01311594e-002
      4.23407648e-003 -9.21497820e-004 1.93290710e-002 3.69273573e-002
      1.72471050e-002 -3.54754031e-002 -3.82817537e-002 1.19501697e-002
      1.49211511e-002 9.73386038e-003 5.42371487e-003 2.55316366e-002
      5.18324673e-002 1.10319462e-002 -7.80006032e-003 -6.94297161e-003
      1.35975599e-003 5.49728982e-003 -8.05426203e-003 -3.45273465e-002
      -2.10283156e-002 3.02692987e-002 2.12803669e-002 -7.72805791e-003
      -1.00009562e-002 3.77933192e-003 6.11198659e-004 -7.07093021e-003
      -4.74992916e-002 -2.59078387e-002 1.90787334e-002 1.59973197e-003
      -3.25040370e-002 -2.25613471e-002 -7.67500093e-003
      -6.32136222e-003 8.92500393e-003 1.46627789e-002 1.96582265e-002
      3.54235843e-002 -1.71488465e-003 -2.65558772e-002 -1.33262379e-002
      1.49199693e-003 3.46927647e-003 1.12141147e-002 2.36988179e-002
      2.12653149e-002 3.09837479e-002 -2.55854465e-002 -1.67247728e-002
      4.20684926e-003 -1.58624374e-003 -1.22438427e-002 -1.18254556e-003
      -8.51870980e-003 -1.91661809e-002 7.66370352e-003 -6.61972817e-003
      1.94084309e-002 3.63090150e-002 1.62449684e-002 -4.18514898e-003
      -1.46020819e-002 3.81063600e-003 -9.33691021e-003 -9.24241077e-003
      -3.37902317e-003 -2.88918298e-002 -9.07902315e-004 5.08486386e-003
      -9.62792151e-003 -7.98575301e-003 -3.71185993e-003
      -4.30251379e-003 2.04902682e-002 1.76365804e-002 2.69246753e-002
      3.34941559e-002 8.23724736e-003 -1.89784802e-002 -3.04013193e-002
      -4.76849228e-002 -5.65042384e-002 1.75519791e-002 2.41722427e-002
      3.29327919e-002 5.15233949e-002 2.50632782e-002 -8.24581366e-003
      -4.10711206e-002 -3.11122481e-002 -3.46788652e-002
      -1.10229012e-002 3.34100910e-002 4.36938517e-002 4.55329791e-002
      4.89254668e-002 -7.87106249e-003 -5.33327237e-002 -5.75385205e-002
      -6.90601915e-002 -8.66106711e-005 8.14372022e-003 2.77413130e-002
      2.90523767e-002 1.84159037e-002 9.37259477e-003 -1.57371890e-002
      -4.29384299e-002 -4.24233228e-002 1.75883330e-003 -1.01150600e-002
      8.10551108e-004 4.38368553e-003 4.60770680e-003 1.15038892e-002
      -1.59069207e-002 -2.14174613e-002 -1.83944181e-002
      -1.22243455e-002 3.79060069e-003 1.77456364e-002 2.96930578e-002
      4.74338792e-002 2.35076118e-002 -3.35427560e-002 -5.32359108e-002
      -5.08032441e-002 -7.78049510e-003 -1.52247399e-002
      -1.44839240e-002 -1.07240984e-002 -3.47478315e-003 1.15038892e-002
      -1.91291589e-002 -2.36581229e-002 -2.06086095e-002
      -1.38790403e-002 -3.86730675e-003 -1.25493668e-002
      -9.78344819e-004 -4.61158250e-003 -1.85167219e-003 9.11991869e-004
      -1.16146123e-002 6.43249135e-003 -3.88595066e-003 -8.70203774e-004
      -8.73122737e-003 -6.29635155e-003 -6.06811931e-003
      -3.42161278e-003 -1.09139299e-002 -1.36423931e-002 5.57376910e-003
      1.30817061e-002 -2.53158854e-003 -8.92790314e-003 -6.04108151e-004
      1.39966447e-004 2.36506239e-002 1.53884757e-002 1.05716120e-002
      -5.98295499e-003 -2.22533494e-002 -7.19624921e-004
      -9.97800287e-003 -1.91393367e-003 -2.33284300e-004 1.66075826e-002
      8.09684396e-003 -6.69457763e-003 -3.81553452e-003 5.38831460e-004
      -2.34628888e-003 -7.68053159e-003 -5.96710108e-003
      -2.50933273e-003 -2.54331320e-003 -5.79332002e-003
      -1.54281640e-002 1.17696431e-002 1.79208280e-003 -8.23581940e-004
      -1.02477223e-002 -5.37675479e-003 -6.19925698e-003
      -8.10028147e-003 -9.12037492e-003 -1.88979693e-002 1.17696431e-002
      3.39432433e-003 -5.88998024e-004 -1.64861733e-003 -2.76146806e-003
      -1.37231441e-003 -2.16252520e-004 -4.71314555e-003
      -1.43179577e-002 1.16984313e-002 3.67349200e-003 4.17336682e-003
      -1.32325455e-004 -9.40472528e-004 -1.01905956e-003
      -1.11298426e-003 -7.75237055e-003 -2.47365739e-002 1.17696431e-002
      7.41461350e-004 -7.70885544e-003 -1.23803308e-002 -6.01983536e-003
      -5.25206327e-003 -7.83838611e-003 -1.02515928e-002
      -6.13259478e-003 8.39220826e-003 1.10718124e-002 -2.05989182e-002
      -1.49955619e-002 -6.72812713e-003 -4.52445215e-003
      -7.03062909e-003 -9.88573488e-003 -6.13425393e-003 1.25809535e-002
      6.64467318e-003 9.12821619e-004 -1.60494843e-003 -3.16274993e-004
      -2.28091540e-006 -1.50229945e-003 -5.00849402e-003
      -1.29063223e-002 4.09727590e-003 7.43785826e-003 -5.53651620e-003
      -3.27929249e-003 -8.72057164e-004 -7.69988837e-005
      -1.65403949e-003 -2.10681697e-003 -1.20482771e-002 4.09727590e-003
      5.45950281e-003 -2.37608515e-003 -8.99792998e-004 -2.35090993e-004
      1.89232093e-003 -2.41132081e-003 -7.85609428e-003 -1.94165222e-002
      -7.72745395e-003 6.79560145e-003 -7.36020599e-003 1.84967201e-002
      2.93578524e-002 7.77268037e-003 -4.84307588e-004 -4.70910128e-003
      -3.66450064e-002 -5.23372479e-002 -3.05885263e-002 1.45890680e-003
      2.33235347e-004 3.01186880e-003 -7.55098881e-004 -1.23853702e-003
      -1.45037868e-003 -1.59232393e-002 4.98175435e-003 1.83937270e-002
      2.57454882e-003 3.52952555e-002 4.04084772e-002 6.37700316e-003
      2.25291075e-003 1.08499201e-002 -3.82247334e-003 4.98175435e-003
      1.80792194e-002 -4.90345582e-002 1.80540569e-002 5.44162840e-002
      1.26513885e-002 -8.61935969e-003 -1.24544827e-002 -2.17112899e-002
      -5.90234175e-002 -5.79679422e-002 -6.05170615e-003 5.92334494e-002
      5.96717447e-002 1.88639387e-002 -1.42062400e-002 -3.93922403e-002
      -4.12860885e-002 -4.55496721e-002 -5.46133295e-002
      -2.75249425e-002 4.25106101e-002 6.18749931e-002 2.74478272e-002
      2.65138061e-003 5.12147148e-004 1.83605100e-003 -4.42674151e-003
      -2.01024711e-002 -8.79344437e-003 5.44180088e-002 5.17692119e-002
      2.33280696e-002 -1.30883548e-002 -3.04799024e-002 -1.01068635e-002
      1.15714604e-002 -2.27244888e-002 6.04582839e-002 7.42644295e-002
      7.05913827e-002 1.83819067e-002 -6.99516712e-003 -2.76818667e-002
      -4.41657640e-002 -5.33052497e-002 -6.60423934e-003 4.69606556e-002
      4.46154699e-002 4.22938503e-002 5.53817265e-002 1.68249961e-002
      -3.18993889e-002 -6.14306778e-002 -8.45134929e-002
      -1.92584260e-003 3.41785550e-002 6.07505888e-002 4.13453430e-002
      7.18402956e-003 -6.99806400e-003 -2.00572126e-002 -3.85865159e-002
      -3.55709903e-002 -2.09226627e-002 2.19604857e-002 3.80277969e-002
      1.81076545e-002 2.14937031e-002 3.59120183e-002 -1.66074745e-003
      -8.29112381e-002 -6.84504658e-002 -4.62170094e-002 4.23127133e-003
      -1.57789956e-003 9.57984384e-003 3.95263210e-002 5.51346913e-002
      -1.69109181e-002 -4.65642773e-002 -6.04611188e-002
      -1.42758889e-002 -1.11059165e-002 -1.29242968e-002
      -6.48186356e-003 -1.39513006e-003 3.06090936e-002 -1.49097173e-002
      -2.26251148e-002 -2.52567567e-002 -8.99989530e-003
      -6.56366907e-003 -2.19924681e-004 4.18053055e-003 1.58120263e-002
      6.99584484e-002 -3.04329209e-003 -5.73064350e-002 -9.04807374e-002
      -4.96392846e-002 -1.29313096e-002 -6.40489673e-003
      -6.16261130e-003 4.45749983e-003 3.06090936e-002 -1.95577145e-002
      -2.87406165e-002 -4.42257002e-002 -2.81586964e-002 6.95639756e-003
      -1.92651786e-002 -1.16112456e-002 -8.94415099e-003 3.07996161e-002
      3.01663429e-002 4.31572646e-003 -8.40771664e-003 -1.52963737e-004
      -1.39111103e-002 -2.65054666e-002 -2.34704707e-002
      -1.99683364e-002 1.35156242e-002 1.95047893e-002 9.56898183e-003
      -1.12493606e-002 -6.26692083e-003 1.27188731e-002 -2.50582881e-002
      -3.62385549e-002 -1.89018734e-002 -1.30446558e-003 9.50524304e-003
      1.95342908e-003 1.33314058e-002 3.25903893e-002 1.43137025e-002
      2.82876310e-003 -1.46453148e-002 -7.76749803e-003 -1.82106793e-002
      -8.98253731e-003 -2.64003370e-002 1.45648594e-003 2.93804184e-002
      -1.92708371e-003 -2.49051536e-003 -1.00391097e-002
      -2.96601700e-003 -1.02934928e-003 -8.26774817e-003
      -1.55211110e-002 -5.99500490e-004 2.89377780e-003 1.08676599e-002
      8.10380839e-003 9.22889274e-004 6.49260881e-004 2.57780706e-003
      -1.63544938e-002 -2.18288805e-002 3.82834510e-003 1.12338993e-003
      1.12916529e-002 1.13035273e-002 3.27166868e-003 1.23999557e-002
      5.36163046e-004 -8.77345819e-003 -2.12727170e-002 -9.64580663e-003
      5.91583597e-003 1.23793166e-002 5.90294925e-003 -7.67340243e-004
      2.76116468e-003 2.16888152e-002 2.02692989e-002 4.52574342e-003
      5.77062089e-003 4.18912666e-003 7.18092034e-003 1.33213762e-003
      1.42587640e-003 -1.07375032e-004 3.80807498e-004 -4.72141337e-003
      -8.29731300e-003 5.99449594e-003 -7.77629437e-003 3.93749215e-003
      9.55367635e-004 1.36119465e-003 9.73911607e-004 1.05912494e-003
      1.82232715e-003 5.49244881e-003 5.99449594e-003 -9.19781625e-003
      5.41687524e-003 2.56691640e-003 1.00112869e-003 -1.06133055e-003
      -3.77113785e-004 8.04247428e-003 1.09387357e-002 9.36853327e-003
      -1.54873228e-003 -2.98778730e-004 1.20287668e-002 5.64740645e-003
      5.86650893e-003 -6.40488137e-003 2.73773819e-003 1.23694427e-002
      1.13785760e-002 -3.36013455e-003 4.77202208e-004 5.41149580e-004
      7.43970450e-004 1.66985017e-004 1.20504985e-004 2.10420997e-003
      -9.34127811e-003 6.23733550e-003 -1.29862474e-002 1.14181261e-004
      6.15717936e-003 3.82584846e-003 1.04554230e-003 1.79730391e-003
      3.87994270e-003 -7.57510122e-003 6.23733550e-003 7.17194006e-003
      -1.93355570e-003 3.08781047e-003 2.02011573e-003 2.04063766e-003
      1.18689169e-003 2.03011627e-003 7.02863326e-003 1.35769788e-002
      -1.29060410e-002 -1.59040315e-003 7.28256535e-004 1.17734238e-003
      8.93032411e-004 2.76934495e-003 3.06520658e-003 1.18868973e-003
      6.23733550e-003 1.82775676e-003 -1.01547688e-002 5.98774292e-003
      1.00968853e-002 6.54608710e-003 2.25956598e-003 -4.09776549e-004
      7.81349093e-003 -6.56249421e-003 4.90844715e-003 -1.20200356e-002
      1.87973212e-003 5.27304085e-003 2.77940440e-003 -1.03129912e-002
      -1.14992745e-002 2.89937854e-002 1.83795728e-002 -3.55788926e-003
      -2.08120258e-003 2.85477145e-003 1.37666450e-003 9.37702658e-004
      1.24163565e-003 9.59167082e-004 1.64375093e-003 -6.48697419e-003
      -5.90309128e-003 -1.32362300e-003 2.18015732e-004 -1.58956484e-003
      -2.02697888e-003 -4.85612359e-003 -2.26780834e-008 3.84398811e-002
      -6.48697419e-003 -9.78804938e-003 -2.22654999e-004 8.62048101e-003
      5.11460099e-003 -8.58767075e-004 -6.75968779e-003 -1.05448663e-002
      6.55466365e-003 1.50015270e-002 -7.30285328e-003 -2.26376974e-003
      1.06729167e-002 1.22036245e-002 9.53054335e-003 4.04718779e-002
      5.91087621e-004 -5.61924465e-002 -2.49198563e-002 -2.73117945e-002
      2.31912476e-003 -1.85892533e-003 -7.48401857e-004 -1.48378243e-003
      -3.39354947e-003 -6.30068360e-004 3.65507044e-002 3.55865667e-003
      3.05972225e-003 1.69368359e-004 5.75511297e-003 6.84227748e-003
      5.34327142e-003 1.72838792e-002 -6.89743692e-003 -5.54353232e-004
      3.55865667e-003 -1.38695296e-002 -9.51839145e-003 5.52406162e-003
      6.45826291e-003 9.81953833e-003 6.02644607e-002 -4.59677912e-003
      -4.88178693e-002 -5.93306944e-002 -2.98830885e-002
      -1.23969875e-002 9.30239912e-005 -4.22680518e-004 2.47255689e-003
      1.19939269e-002 -1.73259508e-002 -2.23604143e-002 -3.32121067e-002
      -1.86321530e-002 -4.91339294e-003 1.50799258e-002 9.94450413e-003
      6.94991695e-003 1.79174487e-002 -1.70236025e-002 -6.82967808e-003
      6.45317649e-003 -9.00440570e-003 1.91055925e-003 1.38282087e-002
      1.33414278e-002 2.42150854e-002 1.19758090e-002 -3.89184020e-002
      -4.94045345e-003 6.10203715e-003 -2.02391669e-003 1.67870093e-002
      -1.84787288e-002 -2.51374226e-002 -1.28551461e-002
      -2.48110993e-003 -1.18569909e-002 -1.03636095e-002 1.04403943e-002
      5.04712462e-002 3.12011912e-002 7.64003908e-003 -5.70781762e-003
      3.75479786e-003 -1.21286381e-002 -2.42288057e-002 -4.33136784e-002
      -1.98594853e-002 2.34166179e-002 2.42809989e-002 -5.74467843e-003
      -8.27310607e-003 8.47238873e-004 -3.20712756e-003 -2.70176455e-002
      -2.78503802e-002 -1.12002054e-002 1.77442692e-002 1.38230985e-002
      -4.18850174e-003 -1.33920722e-002 -4.45961673e-003 9.84143838e-003
      -1.87417548e-002 -2.59735417e-002 -1.46438740e-002 1.65019336e-003
      1.93345137e-002 1.10350326e-002 1.16246603e-002 1.06501952e-002
      -3.38540412e-003 -5.81313390e-003 -2.04085913e-002
      -2.43011545e-002 -6.46914006e-004 8.39969516e-003 4.87433223e-004
      -5.36449626e-003 -6.58079050e-003 5.71840396e-003 2.98346449e-002
      1.07898228e-002 9.29613225e-003 1.49437534e-002 -1.23603968e-002
      -1.05378907e-002 -1.21740913e-002 -6.43880479e-003 1.78616066e-002
      6.04341691e-003 -4.35361639e-003 -9.40419454e-003 -1.78923905e-002
      1.13569796e-002 -9.22392216e-003 2.78976932e-003 -2.15061870e-003
      -1.17351227e-002 4.68023245e-005 -1.19675347e-003 1.55027155e-002
      5.25235850e-003 -3.09105101e-003 -7.04130623e-004 -1.07924757e-003
      -7.17809331e-003 -2.12171953e-002 -4.50678030e-003 8.98832828e-003
      1.56871323e-002 2.55276132e-002 -1.79692381e-003 2.55722478e-002
      2.02449970e-002 -4.58578253e-003 -2.50514951e-002 -2.85854265e-002
      1.40617951e-003 4.76023415e-003 1.60571355e-002 9.54340585e-003
      -1.67036299e-002 6.63843285e-003 4.15961444e-003 -2.83582378e-002
      -1.08349482e-002 -3.36121907e-003 1.64140593e-002 2.75175925e-002
      2.07152814e-002 -1.23392919e-003 -1.13839819e-003 -1.72408745e-002
      -4.13766466e-002 -3.47831510e-002 -1.78240426e-002 6.33833278e-003
      1.99480765e-002 1.06582316e-002 1.48306973e-002 4.82503371e-003
      -6.00703200e-003 -6.96395338e-003 -1.37844821e-002 3.31667979e-004
      6.68022595e-003 -9.17780027e-003 5.02006989e-003 1.46424829e-003
      -3.78541858e-003 -4.22544498e-003 2.07616761e-003 -5.26897493e-004
      6.62024273e-003 -3.62112210e-003 3.18781403e-003 3.49600837e-002
      1.91270909e-003 -1.29484739e-002 -2.77312212e-002 -3.38022523e-002
      -2.46422850e-002 -1.30154537e-002 8.20446946e-003 2.23549902e-002
      2.50184871e-002 -1.05615677e-002 -2.65749805e-002 -3.59256789e-002
      -3.63419726e-002 -1.77361444e-002 6.35791896e-003 1.04783475e-002
      4.01965454e-002 -3.50153097e-003 1.26401708e-003 4.07416467e-003
      4.00897069e-003 7.32745393e-004 1.57099403e-003 1.22571569e-002
      -9.73311067e-003 -1.65054556e-002 -1.22700911e-003 5.81983523e-003
      3.98165639e-003 3.57636460e-003 -3.91010777e-004 -7.55265006e-004
      2.95245536e-002 -5.35774697e-003 -2.17158776e-002 8.10422096e-003
      5.15494356e-003 -4.76492161e-004 -1.12591898e-002 -1.37346908e-002
      -6.20304886e-003 9.72887408e-003 1.49690686e-002 1.11113777e-002
      5.40102553e-003 1.43599492e-002 7.74312951e-003 -2.65258102e-004
      -7.71023473e-003 -7.82026444e-003 4.71264590e-003 -1.16824396e-002
      -7.15124933e-003 4.30505956e-003 4.52392688e-003 1.52903923e-003
      9.65229468e-004 -6.29729126e-004 -8.53422156e-004 2.05055252e-003
      9.32135619e-004 -6.72600977e-003 6.20096806e-004 3.82918515e-003
      3.77919758e-004 -2.72555801e-004 3.79525474e-004 -2.68477714e-003
      -8.06826260e-003 9.32135619e-004 -1.32171791e-002 1.07967732e-002
      1.43015385e-002 6.43740315e-003 4.72495519e-003 1.07142550e-003
      -2.43790308e-003 3.46743246e-003 -6.49883645e-003 7.81947467e-003
      6.44352939e-003 4.34200512e-003 2.23673042e-003 4.93939547e-003
      3.25653353e-003 1.36002293e-003 1.04440060e-002 4.54373163e-004
      -4.62948205e-003 -4.98459628e-003 7.30077084e-003 -3.24753672e-003
      -6.52327901e-003 -1.55097023e-002 -5.20353345e-003 3.06847086e-003
      1.59421414e-002 -1.34026129e-002 3.56152188e-003 1.25009064e-002
      -4.23032558e-003 -9.05867573e-003 -1.55232586e-002
      -2.55370531e-002 1.03746774e-003 2.97992434e-002 1.02860928e-002
      -8.46816879e-003 -1.24843023e-003 -6.37286017e-003
      -5.67977596e-003 -4.54683742e-003 7.15735601e-003 2.10786611e-002
      8.52457061e-003 -1.27362618e-002 -1.15851779e-002 -5.93808899e-003
      -1.63105093e-002 -3.74643542e-002 -2.14880221e-002 1.27837411e-003
      1.05923032e-002 2.70463545e-002 3.25255678e-003</_></support_vectors>
  <decision_functions>
    <_>
      <sv_count>1</sv_count>
      <rho>-8.5947030426403570e-001</rho>
      <alpha>
        1.</alpha>
      <index>
        0</index></_>
    <_>
      <sv_count>1</sv_count>
      <rho>-9.3303737140782972e-001</rho>
      <alpha>
        1.</alpha>
      <index>
        1</index></_>
    <_>
      <sv_count>1</sv_count>
      <rho>1.3740617575760208e-001</rho>
      <alpha>
        1.</alpha>
      <index>
        2</index></_></decision_functions></my_svm>
</opencv_storage>
