<?xml version="1.0"?>
<opencv_storage>
<my_svm type_id="opencv-ml-svm">
  <svm_type>C_SVC</svm_type>
  <kernel><type>LINEAR</type></kernel>
  <C>1.0000000000000001e-001</C>
  <term_criteria><epsilon>1.1920928955078125e-007</epsilon>
    <iterations>1000</iterations></term_criteria>
  <var_all>270</var_all>
  <var_count>270</var_count>
  <class_count>2</class_count>
  <class_labels type_id="opencv-matrix">
    <rows>1</rows>
    <cols>2</cols>
    <dt>i</dt>
    <data>
      -1 1</data></class_labels>
  <sv_total>1</sv_total>
  <support_vectors>
    <_>
      2.62574125e-002 -2.99136639e-001 -3.48187715e-001 -1.92491323e-001
      1.53147504e-001 2.86535323e-002 3.31402682e-002 -1.06609419e-001
      1.72379725e-002 3.89164127e-002 -2.93536410e-002 1.27212957e-001
      4.90327366e-002 2.70924032e-001 6.37083650e-002 -1.10526241e-001
      -1.15665808e-001 -3.83224078e-002 -1.43976957e-001
      -1.92921516e-002 6.43151700e-002 1.38675615e-001 7.41351992e-002
      -1.57525435e-001 -2.13907942e-001 -2.89065421e-001
      -1.97890401e-001 -1.09017454e-001 -2.98206545e-002 4.80397120e-002
      2.20155522e-001 1.90790385e-001 -6.10839874e-002 -1.19059533e-001
      4.07425314e-002 -1.26128390e-001 -1.71441495e-001 -4.27176595e-001
      -2.65017956e-001 2.10714951e-001 4.63812798e-002 -1.00367814e-001
      -6.68185577e-002 -1.34868965e-001 -1.87732354e-001
      -1.60822600e-001 -1.23598471e-001 -1.46595508e-001
      -4.00326066e-002 1.08037084e-001 1.23705879e-001 -8.67353007e-002
      -1.42047584e-001 -1.86406672e-001 -9.40935835e-002
      -5.48077039e-002 -3.58389825e-001 1.53759215e-002 -5.02793351e-003
      3.57245095e-002 -1.24013536e-001 -1.24056593e-001 -1.72267467e-001
      2.60619689e-002 -2.19101444e-001 -1.62384957e-001 3.53212422e-003
      1.62822753e-001 1.36040390e-001 2.34792560e-001 -7.09006796e-003
      7.00615253e-003 -1.89929277e-001 -3.11260402e-001 -2.14410439e-001
      1.20684952e-001 2.50631869e-001 2.10329667e-001 1.87790051e-001
      -7.10006952e-002 -1.36410370e-001 -1.77778587e-001
      -1.88083813e-001 2.58032471e-001 2.38159642e-001 2.79368401e-001
      2.69243959e-002 -2.80785441e-001 -3.00524265e-001 -2.80629575e-001
      2.20105529e-001 -1.17657976e-002 -2.58028787e-003 -4.08855110e-001
      -3.32635611e-001 -3.11300248e-001 -1.21476851e-001 8.02421346e-002
      2.16303512e-001 5.74390478e-002 1.84798211e-001 8.75461325e-002
      -2.23824173e-001 -2.77935471e-002 -1.60499930e-001
      -1.97628513e-001 -1.61010891e-001 3.33076045e-002 1.56726763e-001
      2.74041325e-001 2.13380158e-001 -3.73204857e-001 -3.13726902e-001
      -2.43166000e-001 2.12854400e-001 5.22110388e-002 4.79039624e-002
      2.37618700e-001 2.41747499e-001 2.93096602e-001 -2.10245192e-001
      -4.00671996e-002 -2.69444823e-001 2.15172097e-001 2.67387867e-001
      1.54700145e-001 2.31882706e-001 1.36277199e-001 9.41003710e-002
      -1.15948081e-001 -2.90640146e-001 -2.95190632e-001 1.34934932e-001
      1.58571005e-001 1.48268580e-001 2.86347836e-001 2.18831033e-001
      -1.09117487e-002 -2.34931186e-001 -1.85192212e-001
      -1.28481656e-001 1.12252034e-001 1.66620135e-001 1.70876682e-001
      9.18997079e-002 1.36472732e-001 8.70457590e-002 -3.03441256e-001
      -3.71976256e-001 -2.77345121e-001 8.46152678e-002 4.77957278e-002
      1.05711140e-001 2.11342260e-001 4.36310619e-002 -2.40378473e-002
      -5.59749715e-002 -1.81218296e-001 -2.05190077e-001 5.11054210e-002
      4.09479067e-003 1.42291039e-001 1.50517702e-001 1.53428642e-002
      -1.73122823e-001 -2.60318637e-001 -2.67650783e-001
      -3.53704035e-001 -1.34402874e-003 -1.58326458e-002 1.83850750e-001
      2.27906927e-001 1.63471222e-001 -3.08306124e-002 -3.21590930e-001
      -1.92036390e-001 -3.87637973e-001 1.06011875e-001 2.69326627e-001
      3.09567302e-001 -2.76162833e-001 -2.24520609e-001 1.15599319e-001
      3.15597624e-001 1.92713693e-001 3.06406412e-002 -3.30500782e-001
      -3.38828892e-001 -4.08743232e-001 -1.94049224e-001
      -1.09381311e-001 -1.54241696e-001 1.83078170e-001 3.59823793e-001
      1.74143925e-001 4.55088615e-002 7.54508898e-002 7.57554471e-002
      6.40593544e-002 -5.86641133e-002 -3.12839717e-001 -5.82287163e-002
      8.40967819e-002 1.53331876e-001 1.28781185e-001 1.00382939e-001
      6.67583942e-002 7.34031796e-002 1.84495375e-001 -6.53121695e-002
      1.41980648e-001 1.56888425e-001 1.82775483e-001 -1.00705680e-002
      -4.16002311e-002 -9.51496810e-002 -2.20000923e-001
      -2.63197608e-002 -2.59998143e-002 -1.42552853e-001 1.41252980e-001
      1.39062241e-001 -5.44601493e-002 -1.69427186e-001 -1.37839615e-001
      -1.68501332e-001 -1.09915249e-001 6.53712638e-003 8.00324902e-002
      2.74419039e-001 -5.06603122e-002 -2.73093432e-001 -2.57615536e-001
      -1.04319327e-001 -8.32088813e-002 -1.00319527e-001
      -3.29527073e-002 4.01588380e-002 4.38447535e-001 -3.45279463e-002
      -1.28210589e-001 -3.15069072e-002 7.62571916e-002 1.87772453e-001
      2.76384652e-001 2.35378057e-001 1.91576079e-001 1.69429854e-001
      -1.82648897e-001 -5.77666350e-002 -3.06866288e-001 1.55913785e-001
      -1.46225601e-001 2.23697983e-002 1.75891966e-001 2.56415844e-001
      3.16439092e-001 -1.69210583e-002 -7.81817585e-002 -1.86517909e-001
      -3.08690548e-001 -1.67425722e-001 -2.68560886e-001
      -3.58929276e-001 -1.08861074e-001 1.83380231e-001 2.03346796e-002
      -2.30661202e-002 -3.94454263e-002 -3.92945409e-002</_></support_vectors>
  <decision_functions>
    <_>
      <sv_count>1</sv_count>
      <rho>-2.5802916244014136e+000</rho>
      <alpha>
        1.</alpha>
      <index>
        0</index></_></decision_functions></my_svm>
</opencv_storage>
