<?xml version="1.0"?>
<opencv_storage>
<my_svm type_id="opencv-ml-svm">
  <svm_type>C_SVC</svm_type>
  <kernel><type>LINEAR</type></kernel>
  <C>1.0000000000000000e-002</C>
  <term_criteria><epsilon>1.1920928955078125e-007</epsilon>
    <iterations>1000</iterations></term_criteria>
  <var_all>108</var_all>
  <var_count>108</var_count>
  <class_count>2</class_count>
  <class_labels type_id="opencv-matrix">
    <rows>1</rows>
    <cols>2</cols>
    <dt>i</dt>
    <data>
      -1 1</data></class_labels>
  <sv_total>1</sv_total>
  <support_vectors>
    <_>
      -1.13626264e-001 -7.73797482e-002 5.42342477e-002 9.32505652e-002
      1.56138584e-001 -1.90059558e-001 -4.57504779e-001 -4.27435249e-001
      -1.49199247e-001 2.70251185e-001 2.96787560e-001 3.28911752e-001
      2.76046753e-001 5.23285754e-003 -1.73230559e-001 -2.65533596e-001
      -1.89648971e-001 1.00512467e-001 -1.06477417e-001 -3.60519737e-001
      -2.63642997e-001 -3.44162546e-002 -1.12208061e-001
      -2.09532961e-001 8.54747370e-002 1.18988998e-001 -1.97592173e-002
      -2.21218139e-001 -1.34601757e-001 -2.20207617e-001
      -7.23027959e-002 1.56401560e-001 -1.11951157e-001 -6.57058973e-003
      -6.89597568e-003 -2.01176286e-001 -7.85679966e-002
      -1.53005734e-001 -7.64664561e-002 2.45535076e-002 1.79929197e-001
      -3.00630629e-001 -1.12362139e-001 9.18336362e-002 -9.22439247e-003
      -4.68023643e-002 -2.97444761e-001 -2.19991997e-001 5.35382181e-002
      7.76910111e-002 -2.61137366e-001 -4.82321046e-002 4.42174375e-002
      -1.47403747e-001 -2.73544401e-001 -4.21227455e-001
      -3.74509960e-001 -3.27878475e-001 -3.40467468e-002 1.30994841e-001
      4.58501615e-002 -2.62981206e-001 -2.00795889e-001 3.01785022e-001
      3.94508317e-002 -1.28469288e-001 -2.10279152e-001 5.74834310e-002
      2.22768709e-001 3.08967263e-001 2.90813088e-001 2.36145034e-001
      7.61879236e-003 2.20526844e-001 3.17606293e-002 -3.71523499e-001
      -1.10108750e-002 -2.54966617e-001 -2.86070593e-002
      -9.06747058e-002 -9.69774872e-002 -1.66499868e-001
      -5.47709987e-002 1.18345972e-002 -1.68313771e-001 1.17943138e-001
      -3.14000785e-001 -9.47554335e-002 -4.91660610e-002
      -2.07176879e-002 7.38659799e-002 3.90968658e-002 -1.50138155e-001
      -1.54181063e-001 6.40219972e-002 -2.39771470e-001 -2.12179899e-001
      2.07833340e-003 1.70465142e-001 8.42378009e-003 1.23453803e-001
      -6.85759634e-002 -6.85235560e-002 1.19370051e-001 -2.85413414e-001
      -2.58521110e-001 -7.03940392e-002 -1.45144761e-001</_></support_vectors>
  <decision_functions>
    <_>
      <sv_count>1</sv_count>
      <rho>-2.0892469078615856e+000</rho>
      <alpha>
        1.</alpha>
      <index>
        0</index></_></decision_functions></my_svm>
</opencv_storage>
