<?xml version="1.0"?>
<opencv_storage>
<my_svm type_id="opencv-ml-svm">
  <svm_type>C_SVC</svm_type>
  <kernel><type>LINEAR</type></kernel>
  <C>1.0000000000000000e-002</C>
  <term_criteria><epsilon>1.1920928955078125e-007</epsilon>
    <iterations>1000</iterations></term_criteria>
  <var_all>270</var_all>
  <var_count>270</var_count>
  <class_count>2</class_count>
  <class_labels type_id="opencv-matrix">
    <rows>1</rows>
    <cols>2</cols>
    <dt>i</dt>
    <data>
      -1 1</data></class_labels>
  <sv_total>1</sv_total>
  <support_vectors>
    <_>
      -6.94825724e-002 -1.24279678e-001 -1.52161941e-001
      -6.67506680e-002 1.27259195e-001 7.59259388e-002 6.78485143e-004
      -1.21724613e-001 -7.99823031e-002 -6.61871090e-005 2.75700465e-002
      7.33077228e-002 8.17452595e-002 1.81475341e-001 4.63225394e-002
      -1.23049073e-001 -1.16632551e-001 -3.92769054e-002
      -5.44078276e-002 1.77716073e-002 4.63213064e-002 8.70482996e-002
      1.12243541e-001 -6.86515570e-002 -1.41683429e-001 -1.66272536e-001
      -7.03109801e-002 -7.35516846e-002 -4.77055609e-002
      -1.31492568e-002 8.47735181e-002 1.01250276e-001 -1.75382085e-002
      -7.37409443e-002 1.22406697e-002 -5.41464202e-002 -1.76897839e-001
      -2.25533202e-001 -1.30039275e-001 7.90697634e-002 6.59713522e-002
      9.89631377e-003 1.32765835e-002 3.05477832e-003 -1.12615384e-001
      -1.20726421e-001 -9.46250632e-002 -5.93699068e-002 2.70477403e-002
      1.44521222e-001 1.00743778e-001 2.29626000e-002 -2.30869036e-002
      -9.91096422e-002 -6.69403374e-002 -5.24457544e-002
      -1.22065216e-001 -1.16338311e-002 4.62471060e-002 1.53035270e-002
      -2.92086527e-002 -2.78639477e-002 -8.65660310e-002
      -2.70610228e-002 -1.18144706e-001 -9.41826180e-002
      -2.86663547e-002 1.18393868e-001 5.99760562e-002 8.26477557e-002
      5.55708893e-002 2.31261645e-002 -1.16615862e-001 -1.79627374e-001
      -1.05127178e-001 6.56107068e-002 1.83436126e-001 1.09821104e-001
      4.49812524e-002 -2.89130788e-002 -6.42600134e-002 -9.70283449e-002
      -1.23312108e-001 6.62193522e-002 9.88623872e-002 1.52352095e-001
      -5.45056863e-003 -1.63520902e-001 -1.42162874e-001
      -1.16633758e-001 1.19615696e-001 1.76915377e-002 -4.74890508e-002
      -1.84572980e-001 -1.75976187e-001 -2.15236977e-001
      -1.84252746e-002 5.96845485e-002 1.31794602e-001 1.17905334e-001
      8.19567218e-002 3.99797522e-002 -1.24668740e-001 -7.14659318e-002
      -1.46160766e-001 -5.29349931e-002 2.30549108e-002 1.36198252e-001
      1.07042015e-001 1.23288475e-001 1.33056551e-001 -2.06455365e-001
      -2.01528221e-001 -1.77226856e-001 8.23872611e-002 1.11170910e-001
      1.08773194e-001 1.70007989e-001 1.72277898e-001 1.85565397e-001
      -1.63746431e-001 -1.07211910e-001 -1.90301836e-001 1.48515269e-001
      1.75319791e-001 1.64250150e-001 1.27952784e-001 7.57658929e-002
      4.01932523e-002 -1.65766522e-001 -1.89026475e-001 -2.13690832e-001
      8.39989632e-002 9.43773985e-002 1.20483518e-001 1.61842018e-001
      1.00870475e-001 3.00351586e-002 -1.35257140e-001 -1.07990921e-001
      -9.96869281e-002 9.05125439e-002 1.15867101e-001 1.57702774e-001
      8.34595114e-002 7.62404799e-002 7.92151392e-002 -1.67423725e-001
      -1.84003130e-001 -1.56369939e-001 5.54150157e-003 7.45903552e-002
      1.23391084e-001 1.29817739e-001 6.21443093e-002 3.71777043e-002
      -9.09990296e-002 -8.35286230e-002 -1.33840784e-001 4.02385481e-002
      9.72781405e-002 1.65797621e-001 1.12547420e-001 3.85021716e-002
      -6.14833757e-002 -1.16635732e-001 -1.27417758e-001
      -1.69880256e-001 2.01554894e-002 5.79468496e-002 1.57824203e-001
      1.94072366e-001 1.36006519e-001 -2.30599064e-002 -1.82122827e-001
      -1.68388322e-001 -2.19266191e-001 1.78036932e-002 1.18400589e-001
      2.14959189e-001 -1.82407692e-001 -1.36964455e-001 6.07680604e-002
      1.85679004e-001 1.62504882e-001 5.35310991e-002 -1.60332426e-001
      -2.40447626e-001 -2.12663382e-001 -1.61440313e-001
      -1.13229163e-001 -1.21999443e-001 7.47141391e-002 2.26700604e-001
      1.89123929e-001 7.94764459e-002 -4.79486492e-003 -2.24877391e-002
      4.17390689e-002 -6.67375475e-002 -2.06376284e-001 -1.16368130e-001
      3.10190544e-002 8.43136460e-002 7.89323673e-002 6.76916689e-002
      2.60997787e-002 4.59938385e-002 1.23824015e-001 -3.10225431e-002
      -3.70108597e-002 7.70961717e-002 5.50100543e-002 3.43402252e-002
      3.58740166e-002 -4.64637997e-003 -1.17760196e-001 2.99971458e-002
      9.15701408e-003 -1.38772018e-002 7.46587366e-002 -1.01383170e-002
      -1.07329585e-001 -1.08220309e-001 -1.40595645e-001
      -1.17060997e-001 -4.63994890e-002 7.11035077e-003 6.92026988e-002
      1.61200196e-001 -8.55852757e-003 -9.83748063e-002 -1.17328331e-001
      -9.28035453e-002 -5.12847826e-002 -8.51263329e-002
      -7.51293302e-002 1.92431752e-002 2.05960974e-001 1.29082631e-002
      -8.35574344e-002 2.54799165e-002 2.82046478e-002 8.80829096e-002
      8.68454948e-002 4.47065495e-002 8.21309462e-002 1.16806537e-001
      -1.07974671e-001 -6.23551235e-002 -6.77847639e-002 8.94657001e-002
      -5.08840829e-002 1.10326242e-002 7.72753060e-002 1.61742464e-001
      1.69654831e-001 -2.53381319e-002 -1.24456339e-001 -9.06048641e-002
      -1.09760143e-001 -6.66572377e-002 -1.51669413e-001
      -1.51471660e-001 -2.28366666e-002 1.23990826e-001 2.37705950e-002
      -3.30969654e-002 -7.72795528e-002 -7.30351284e-002</_></support_vectors>
  <decision_functions>
    <_>
      <sv_count>1</sv_count>
      <rho>-1.4699315873973613e+000</rho>
      <alpha>
        1.</alpha>
      <index>
        0</index></_></decision_functions></my_svm>
</opencv_storage>
