<?xml version="1.0"?>
<opencv_storage>
<my_svm type_id="opencv-ml-svm">
  <svm_type>C_SVC</svm_type>
  <kernel><type>LINEAR</type></kernel>
  <C>1.0000000000000000e-002</C>
  <term_criteria><epsilon>1.1920928955078125e-007</epsilon>
    <iterations>1000</iterations></term_criteria>
  <var_all>180</var_all>
  <var_count>180</var_count>
  <class_count>2</class_count>
  <class_labels type_id="opencv-matrix">
    <rows>1</rows>
    <cols>2</cols>
    <dt>i</dt>
    <data>
      -1 1</data></class_labels>
  <sv_total>1</sv_total>
  <support_vectors>
    <_>
      -1.07637353e-001 -2.24123955e-001 -2.58454114e-001
      -7.51208067e-002 6.40561879e-002 1.47833422e-001 1.12554379e-001
      -1.83425620e-001 -1.84713513e-001 1.60742223e-001 1.90676704e-001
      1.82269379e-001 1.73690975e-001 2.26823598e-001 1.36011586e-001
      -2.81526357e-001 -1.92921400e-001 -1.42532274e-001 1.34007752e-001
      1.59936368e-001 1.50925562e-001 1.24055795e-001 -7.68262520e-002
      -1.97743505e-001 -3.05980593e-001 -2.59777933e-001
      -2.07773447e-002 3.25371511e-002 -8.23243428e-003 1.24210685e-001
      7.03563094e-002 -3.97301055e-002 -1.56095743e-001 -1.72493964e-001
      3.52380536e-002 8.03465694e-002 -2.16692045e-001 -3.31964403e-001
      -1.75626472e-001 4.13685739e-002 -8.49245265e-002 -1.61571220e-001
      1.20586656e-001 1.38519958e-001 -1.86322872e-002 -1.90851465e-001
      -7.66622722e-002 -1.14077464e-001 8.86692703e-002 1.81112617e-001
      5.73845021e-002 4.82073277e-002 1.74339451e-002 -1.05954498e-001
      -7.37781376e-002 -1.06183171e-001 -2.99764201e-002 1.42067932e-002
      1.24164857e-001 -6.45660460e-002 -1.79590628e-001 -1.66953653e-001
      -1.23162195e-001 7.57539496e-002 -4.14585918e-002 -1.05955638e-001
      -1.09645084e-001 1.83902174e-001 -4.92401607e-002 -1.27797881e-002
      1.11964397e-001 1.77341536e-001 -5.53863496e-002 -2.50544310e-001
      -1.04165882e-001 1.01877488e-001 1.20198369e-001 -2.47577745e-002
      8.89848545e-002 5.04250005e-002 8.15682858e-002 -1.02782637e-001
      -9.70616192e-002 7.73385391e-002 1.66450396e-001 1.16486520e-001
      -2.34297261e-001 -2.06621081e-001 -1.35875657e-001
      -1.34416139e-002 -2.28590190e-001 -5.25409356e-002 1.74537301e-001
      1.61879078e-001 1.76768571e-001 -7.77164325e-002 -2.34473124e-001
      -3.90764117e-001 -2.51571387e-001 -2.12167621e-001
      -1.66489750e-001 -2.06861421e-001 -9.95877609e-002 2.12396353e-001
      2.31450155e-001 1.98564649e-001 7.78538361e-002 2.22271886e-002
      1.41327232e-001 -1.32167116e-001 -3.13816637e-001 -3.95758212e-001
      -1.41112447e-001 8.92425627e-002 1.93008065e-001 1.87259823e-001
      2.29214013e-001 3.08579147e-001 3.95961225e-001 -4.39579152e-002
      -2.29605451e-001 4.06463072e-003 3.65509093e-003 1.35258153e-001
      1.40771970e-001 1.90537333e-001 -1.05529524e-001 1.20252758e-001
      1.87959485e-002 -1.52573496e-001 3.67267206e-002 -2.20158800e-001
      -9.61712301e-002 -1.48950011e-001 -1.06098384e-001
      -1.34180471e-001 -1.62442159e-002 6.27709851e-002 -6.33549839e-002
      5.08162454e-002 -1.83995858e-001 -7.45235384e-002 -4.73795421e-002
      -1.22773111e-001 -1.15074582e-001 -8.84383991e-002
      -1.57619804e-001 -1.16053142e-001 1.66526157e-002 -1.58410296e-002
      -1.93011127e-002 5.06636240e-002 7.31440336e-002 2.71701664e-001
      1.54049382e-001 1.09549165e-002 -3.25039625e-002 3.91150750e-002
      -2.62721747e-001 -9.73912477e-002 1.22747105e-002 1.82051525e-001
      5.62930331e-002 9.21485424e-002 1.02630861e-001 6.37707412e-002
      9.26943123e-002 -1.63813815e-001 -1.76457793e-001 -1.14676952e-001
      -1.26021430e-001 7.87741989e-002 -1.23930983e-001 -2.35553756e-001
      -2.62393087e-001 -4.36837465e-004 -1.36216223e-001 3.02617662e-002
      -1.83307212e-002 -5.08226492e-002</_></support_vectors>
  <decision_functions>
    <_>
      <sv_count>1</sv_count>
      <rho>-1.7863152034318777e+000</rho>
      <alpha>
        1.</alpha>
      <index>
        0</index></_></decision_functions></my_svm>
</opencv_storage>
